~o
<STREAMINFO> 1 25
<VECSIZE> 25<NULLD><MFCC_D_N_Z_0><DIAGC>
~s "silst"
<MEAN> 25
 -5.965497e+00 4.282584e+00 -9.034250e+00 4.030557e+00 -6.908977e+00 6.262382e+00 -1.022823e+00 2.317580e+00 -2.213716e+00 6.113649e+00 -2.362812e-01 3.725136e+00 1.277490e-01 -1.323752e-01 2.708415e-02 -3.775857e-02 1.254133e-01 -9.448909e-02 6.450601e-02 -1.836066e-02 -3.743888e-02 -5.457486e-02 -3.810155e-02 3.472930e-02 8.174154e-01
<VARIANCE> 25
 2.378886e+01 8.877503e+00 1.225659e+01 1.113245e+01 1.757688e+01 1.183333e+01 1.876274e+01 1.272283e+01 2.148038e+01 1.344518e+01 1.464059e+01 1.060027e+01 1.643474e+00 5.451880e-01 9.113806e-01 5.792624e-01 7.895666e-01 8.566657e-01 9.610355e-01 9.666243e-01 9.923627e-01 8.442884e-01 9.426944e-01 7.198313e-01 6.240242e+00
<GCONST> 7.779186e+01
~h "b"
<BEGINHMM>
<NUMSTATES> 5
<STATE> 2
<MEAN> 25
 1.864187e+00 3.888163e+00 1.247449e+01 -5.377784e+00 -9.104900e+00 -5.180979e+00 -3.014544e+00 -7.460544e+00 -4.735147e+00 5.032652e+00 -2.146216e+00 1.764146e+00 -9.039735e-01 -4.549173e-01 1.436200e+00 -2.210264e+00 -1.755601e+00 -7.432529e-01 6.218544e-01 -7.020203e-01 -4.707879e-01 1.721004e+00 3.201030e-01 5.729516e-01 1.313400e+00
<VARIANCE> 25
 2.744974e+01 1.326853e+01 6.830822e+01 1.057439e+02 3.690402e+01 2.734632e+01 3.490654e+01 4.615317e+01 3.906722e+01 6.259409e+01 2.637802e+01 3.909816e+01 2.034947e+00 1.731555e+00 8.378956e+00 9.180805e+00 3.166133e+00 3.297738e+00 3.857868e+00 7.068108e+00 4.545689e+00 4.473514e+00 3.593976e+00 3.324420e+00 6.720566e-01
<GCONST> 1.061211e+02
<STATE> 3
<MEAN> 25
 1.505283e+00 5.090006e-01 7.706098e+00 -6.847551e+00 -1.386250e+01 -9.855878e+00 1.894519e-01 -3.438941e+00 -2.414021e+00 4.380843e+00 1.144985e+00 4.378433e-01 6.345119e-01 -6.107306e-01 -2.396327e+00 6.270593e-01 1.587319e+00 -5.794568e-01 -2.042456e-01 1.304153e+00 1.500634e+00 -1.788311e+00 -4.163454e-01 -2.899887e-02 -8.819117e-02
<VARIANCE> 25
 2.507056e+01 1.791018e+01 4.374348e+01 2.552342e+01 4.792976e+01 3.886092e+01 4.738621e+01 3.440951e+01 4.383754e+01 4.267444e+01 2.926958e+01 3.949160e+01 5.967412e-01 1.463319e+00 2.558101e+00 2.449005e+00 4.950252e+00 2.687548e+00 4.065422e+00 4.016816e+00 3.891777e+00 4.421331e+00 2.774394e+00 3.304955e+00 4.970323e-01
<GCONST> 1.000276e+02
<STATE> 4
<MEAN> 25
 6.839800e+00 8.758370e-01 -3.197942e+00 -3.850998e+00 -2.705752e+00 -7.666025e+00 -6.172012e+00 -2.440035e+00 3.175864e+00 -3.936470e+00 -3.306146e+00 -1.193238e-01 1.498081e-01 3.308546e-01 -7.349245e-01 -9.279878e-02 1.223176e+00 7.146385e-01 -7.081290e-01 -7.325280e-01 1.599009e-01 -1.383153e-01 4.858601e-02 -3.691993e-01 -5.644226e-01
<VARIANCE> 25
 2.084237e+01 2.410260e+01 4.369820e+01 3.665073e+01 3.849866e+01 3.292093e+01 4.595890e+01 7.860680e+01 6.363504e+01 6.415401e+01 2.797975e+01 2.657073e+01 6.208363e-01 5.599702e-01 2.164564e+00 1.792955e+00 2.915156e+00 1.996346e+00 2.391163e+00 3.346427e+00 2.609463e+00 2.391011e+00 2.481775e+00 1.716787e+00 1.979454e-01
<GCONST> 9.560862e+01
<TRANSP> 5
 0.000000e+00 1.000000e+00 0.000000e+00 0.000000e+00 0.000000e+00
 0.000000e+00 8.203129e-01 1.796871e-01 0.000000e+00 0.000000e+00
 0.000000e+00 0.000000e+00 7.478781e-01 2.521218e-01 0.000000e+00
 0.000000e+00 0.000000e+00 0.000000e+00 7.097427e-01 2.902573e-01
 0.000000e+00 0.000000e+00 0.000000e+00 0.000000e+00 0.000000e+00
<ENDHMM>
~h "c"
<BEGINHMM>
<NUMSTATES> 5
<STATE> 2
<MEAN> 25
 4.876313e-08 -1.572510e-08 -3.479018e-08 -3.353887e-08 3.894225e-08 5.448882e-08 6.837960e-09 -3.357679e-08 -9.075150e-09 1.238669e-09 6.825321e-10 3.043588e-08 1.480543e-02 -2.130302e-03 7.752344e-03 -2.168820e-03 1.143337e-02 -2.309903e-03 4.269884e-03 -3.775733e-03 -3.292339e-03 -9.014427e-04 -3.430429e-03 -3.983431e-03 3.762102e-02
<VARIANCE> 25
 4.782532e+01 4.486550e+01 4.720150e+01 6.892854e+01 4.782745e+01 4.025578e+01 4.904441e+01 4.112494e+01 4.163441e+01 4.402450e+01 3.629408e+01 2.461185e+01 1.112554e+00 1.522353e+00 1.617351e+00 2.656559e+00 2.172489e+00 2.083682e+00 2.429415e+00 2.410789e+00 2.262104e+00 2.509146e+00 2.111452e+00 1.695109e+00 1.480569e+00
<GCONST> 9.985252e+01
<STATE> 3
<MEAN> 25
 4.876313e-08 -1.572510e-08 -3.479018e-08 -3.353887e-08 3.894225e-08 5.448882e-08 6.837960e-09 -3.357679e-08 -9.075150e-09 1.238669e-09 6.825321e-10 3.043588e-08 1.480543e-02 -2.130302e-03 7.752344e-03 -2.168820e-03 1.143337e-02 -2.309903e-03 4.269884e-03 -3.775733e-03 -3.292339e-03 -9.014427e-04 -3.430429e-03 -3.983431e-03 3.762102e-02
<VARIANCE> 25
 4.782532e+01 4.486550e+01 4.720150e+01 6.892854e+01 4.782745e+01 4.025578e+01 4.904441e+01 4.112494e+01 4.163441e+01 4.402450e+01 3.629408e+01 2.461185e+01 1.112554e+00 1.522353e+00 1.617351e+00 2.656559e+00 2.172489e+00 2.083682e+00 2.429415e+00 2.410789e+00 2.262104e+00 2.509146e+00 2.111452e+00 1.695109e+00 1.480569e+00
<GCONST> 9.985252e+01
<STATE> 4
<MEAN> 25
 4.876313e-08 -1.572510e-08 -3.479018e-08 -3.353887e-08 3.894225e-08 5.448882e-08 6.837960e-09 -3.357679e-08 -9.075150e-09 1.238669e-09 6.825321e-10 3.043588e-08 1.480543e-02 -2.130302e-03 7.752344e-03 -2.168820e-03 1.143337e-02 -2.309903e-03 4.269884e-03 -3.775733e-03 -3.292339e-03 -9.014427e-04 -3.430429e-03 -3.983431e-03 3.762102e-02
<VARIANCE> 25
 4.782532e+01 4.486550e+01 4.720150e+01 6.892854e+01 4.782745e+01 4.025578e+01 4.904441e+01 4.112494e+01 4.163441e+01 4.402450e+01 3.629408e+01 2.461185e+01 1.112554e+00 1.522353e+00 1.617351e+00 2.656559e+00 2.172489e+00 2.083682e+00 2.429415e+00 2.410789e+00 2.262104e+00 2.509146e+00 2.111452e+00 1.695109e+00 1.480569e+00
<GCONST> 9.985252e+01
<TRANSP> 5
 0.000000e+00 1.000000e+00 0.000000e+00 0.000000e+00 0.000000e+00
 0.000000e+00 6.000000e-01 4.000000e-01 0.000000e+00 0.000000e+00
 0.000000e+00 0.000000e+00 6.000000e-01 4.000000e-01 0.000000e+00
 0.000000e+00 0.000000e+00 0.000000e+00 7.000000e-01 3.000000e-01
 0.000000e+00 0.000000e+00 0.000000e+00 0.000000e+00 0.000000e+00
<ENDHMM>
~h "d"
<BEGINHMM>
<NUMSTATES> 5
<STATE> 2
<MEAN> 25
 2.616669e+00 3.870866e+00 2.558048e+00 4.409576e+00 -2.018624e+00 -5.255153e-01 -2.040207e+00 -1.536320e+00 -2.064598e+00 -7.246867e-01 -2.323670e-01 -1.961198e+00 4.852478e-01 -3.900903e-01 1.903038e+00 -1.094689e+00 -1.327624e+00 -7.920508e-01 -5.564824e-01 -9.013541e-01 -1.777070e+00 3.305924e-01 -7.492663e-01 -5.190941e-01 1.955630e+00
<VARIANCE> 25
 2.696045e+01 2.897583e+01 2.555037e+01 3.102508e+01 2.767848e+01 2.595839e+01 3.039705e+01 2.949814e+01 2.620104e+01 3.407905e+01 2.815755e+01 1.819090e+01 3.259104e+00 3.954059e+00 3.810801e+00 3.983883e+00 3.326396e+00 3.477566e+00 3.734801e+00 4.241586e+00 3.714853e+00 6.389760e+00 3.785985e+00 2.595743e+00 3.473614e+00
<GCONST> 1.028768e+02
<STATE> 3
<MEAN> 25
 7.411727e-02 1.806303e+00 1.483860e+01 -8.543393e+00 -1.075011e+01 -1.590515e+00 -6.963597e+00 -6.215255e+00 -8.559644e+00 6.009615e+00 -3.502203e+00 3.984560e-01 -4.818975e-01 -6.532121e-01 9.012601e-01 -2.267502e+00 -1.032023e+00 -7.358752e-01 -2.376359e-02 -2.357367e-01 4.300629e-01 1.024406e+00 -1.108862e-01 6.759710e-01 1.378337e+00
<VARIANCE> 25
 1.204650e+01 2.832734e+01 5.301875e+01 6.033386e+01 4.619910e+01 3.614233e+01 3.894413e+01 4.347768e+01 5.499208e+01 5.917715e+01 3.983334e+01 5.948615e+01 1.145122e+00 3.907078e+00 5.193383e+00 6.064634e+00 4.845819e+00 3.897675e+00 7.951479e+00 3.880670e+00 4.718999e+00 5.638717e+00 4.205307e+00 4.169829e+00 3.002904e+00
<GCONST> 1.091241e+02
<STATE> 4
<MEAN> 25
 5.439275e-01 -5.633741e+00 7.908296e+00 -1.315747e+01 -1.085975e+01 -5.524534e+00 3.804216e+00 9.060878e-01 -2.378024e+00 5.327504e+00 -3.487277e+00 3.752651e-01 2.875499e-01 -1.209753e+00 -1.879452e+00 -2.612087e-01 1.733099e+00 -4.663812e-01 1.783051e+00 1.084473e+00 1.186708e+00 -1.811134e+00 -3.121883e-01 -4.211916e-02 4.158731e-01
<VARIANCE> 25
 2.581456e+01 2.825071e+01 5.052960e+01 4.438363e+01 6.602029e+01 2.587340e+01 7.922156e+01 5.874614e+01 3.978305e+01 8.600880e+01 4.236138e+01 2.769772e+01 5.212541e-01 2.282298e+00 3.123850e+00 2.361156e+00 5.380593e+00 1.804675e+00 6.436637e+00 4.086480e+00 2.986195e+00 6.867537e+00 3.047915e+00 2.226794e+00 8.910055e-01
<GCONST> 1.038837e+02
<TRANSP> 5
 0.000000e+00 1.000000e+00 0.000000e+00 0.000000e+00 0.000000e+00
 0.000000e+00 7.435904e-01 2.564096e-01 0.000000e+00 0.000000e+00
 0.000000e+00 0.000000e+00 7.393040e-01 2.606960e-01 0.000000e+00
 0.000000e+00 0.000000e+00 0.000000e+00 7.128801e-01 2.871199e-01
 0.000000e+00 0.000000e+00 0.000000e+00 0.000000e+00 0.000000e+00
<ENDHMM>
~h "g"
<BEGINHMM>
<NUMSTATES> 5
<STATE> 2
<MEAN> 25
 2.139972e+00 4.670350e+00 5.613177e+00 2.101211e+00 -1.916551e+00 -2.742188e+00 -3.626270e+00 -1.551173e+00 -1.419475e+00 -1.898678e-01 -2.201515e+00 -2.304229e+00 -1.887278e-01 -9.504857e-01 1.292708e-01 -1.303394e-02 9.468882e-01 -8.479785e-01 -9.231772e-02 -2.645871e-01 -5.716556e-01 4.909264e-01 1.983117e-01 -1.078180e-01 1.123375e+00
<VARIANCE> 25
 5.100595e+01 1.375621e+02 6.534698e+01 8.252362e+01 6.778506e+01 6.473484e+01 7.893823e+01 5.180933e+01 4.753785e+01 4.783170e+01 5.886115e+01 4.092424e+01 4.754996e+00 8.886942e+00 6.707731e+00 1.035285e+01 6.834692e+00 6.028650e+00 6.638146e+00 4.779617e+00 5.351301e+00 6.413286e+00 5.100879e+00 4.075861e+00 6.759312e+00
<GCONST> 1.192559e+02
<STATE> 3
<MEAN> 25
 2.465959e+00 -1.803770e+00 -2.030312e+00 5.911182e-01 6.872065e+00 -2.849925e+00 -3.679573e+00 -2.057237e+00 -3.015329e+00 5.658528e+00 8.534080e-02 -8.669253e-01 8.812932e-01 4.319435e-01 -2.174706e-01 -1.457718e+00 2.484873e-01 -1.689980e-01 -2.194844e-01 -1.012591e+00 -3.061326e-01 -3.441745e-01 -6.855292e-01 -1.311601e-01 1.039802e+00
<VARIANCE> 25
 2.437281e+01 2.783655e+01 1.312227e+02 9.834126e+01 7.029159e+01 8.686695e+01 6.548645e+01 3.360895e+01 5.511399e+01 1.299710e+02 4.178401e+01 4.272192e+01 2.763331e+00 3.890004e+00 6.302050e+00 8.400762e+00 5.326024e+00 5.164502e+00 8.669726e+00 4.329277e+00 5.498264e+00 1.044182e+01 3.560904e+00 3.504706e+00 3.906680e+00
<GCONST> 1.159304e+02
<STATE> 4
<MEAN> 25
 3.298245e+00 1.999803e+00 9.492005e+00 3.545479e+00 4.974123e+00 -4.222127e+00 -5.760847e+00 -1.421898e+00 -1.294840e+00 -7.257069e+00 -2.680576e+00 -3.955825e+00 8.350711e-02 2.078998e-01 -2.396655e-01 -2.794840e-01 -2.392523e-02 2.645348e-01 2.579948e-01 8.994963e-02 4.026155e-02 2.388811e-01 -3.073823e-02 1.181552e-01 -8.028693e-02
<VARIANCE> 25
 2.117806e+01 3.727903e+01 7.758559e+01 7.382980e+01 2.815582e+01 3.539471e+01 5.726194e+01 3.546020e+01 2.938969e+01 5.708541e+01 2.187879e+01 1.994663e+01 6.405302e-01 1.546231e+00 2.311996e+00 2.869310e+00 2.101562e+00 2.037948e+00 2.980865e+00 2.238358e+00 1.994981e+00 3.890655e+00 1.669987e+00 1.573745e+00 1.230023e+00
<GCONST> 9.775325e+01
<TRANSP> 5
 0.000000e+00 1.000000e+00 0.000000e+00 0.000000e+00 0.000000e+00
 0.000000e+00 7.029968e-01 2.970032e-01 0.000000e+00 0.000000e+00
 0.000000e+00 0.000000e+00 5.999999e-01 4.000001e-01 0.000000e+00
 0.000000e+00 0.000000e+00 0.000000e+00 8.357122e-01 1.642878e-01
 0.000000e+00 0.000000e+00 0.000000e+00 0.000000e+00 0.000000e+00
<ENDHMM>
~h "h"
<BEGINHMM>
<NUMSTATES> 5
<STATE> 2
<MEAN> 25
 -9.674602e-01 1.438993e+00 1.078926e+00 3.885305e+00 1.470257e-01 2.472841e+00 -6.436634e-02 5.385747e-01 1.270548e+00 9.295510e-01 2.628945e+00 -2.967848e-01 -2.043892e-03 6.051267e-02 -2.330845e-03 1.965823e-02 2.736940e-02 -2.774776e-02 -2.911404e-02 1.092860e-01 1.603060e-01 -2.976564e-02 -1.153056e-01 -7.974025e-02 -1.646310e-02
<VARIANCE> 25
 1.035593e+01 5.283838e+00 6.467663e+00 9.401521e+00 9.410368e+00 1.344226e+01 1.482258e+01 1.556904e+01 1.859209e+01 1.485642e+01 1.084905e+01 1.139706e+01 1.264335e-01 2.880875e-01 4.404855e-01 5.097730e-01 7.695127e-01 1.389857e+00 1.313741e+00 1.430838e+00 1.603679e+00 1.463126e+00 1.061938e+00 1.479043e+00 4.912621e-02
<GCONST> 6.896024e+01
<STATE> 3
<MEAN> 25
 -2.531930e+00 -2.271949e+00 -1.798588e-01 5.831798e+00 6.636099e+00 -1.567851e-01 -5.292781e-02 7.826087e-01 2.155801e+00 -3.242588e+00 2.176978e+00 1.744777e+00 -8.848175e-02 -1.329609e+00 -4.603253e-01 -3.780549e-02 1.334811e+00 -2.294367e-01 3.159265e-01 -5.977762e-01 -6.572489e-01 -1.021677e+00 -1.203721e-01 8.698158e-01 8.440673e-01
<VARIANCE> 25
 1.581612e+01 1.845572e+01 1.824529e+01 7.593197e+00 1.688387e+01 2.193172e+01 1.990751e+01 4.726007e+01 4.189557e+01 3.855014e+01 1.597610e+01 1.935529e+01 4.198121e-01 1.701892e+00 2.773926e+00 1.235716e+00 2.002743e+00 1.975455e+00 1.780561e+00 3.142690e+00 2.556430e+00 2.431841e+00 2.758912e+00 2.686316e+00 2.651462e-01
<GCONST> 8.893257e+01
<STATE> 4
<MEAN> 25
 8.273903e+00 -3.999924e+00 -2.596951e+00 2.201822e+00 -8.692352e-01 -2.154068e+00 -4.767050e+00 -6.873757e+00 -6.618587e+00 -9.004139e+00 -4.751782e+00 3.773360e+00 3.243838e-01 3.297572e-01 -8.170970e-02 -3.500853e-01 -3.420235e-01 -3.411828e-01 -2.412715e-01 -5.239790e-01 -7.419500e-02 7.664171e-02 -5.179564e-02 -6.831850e-02 9.839752e-02
<VARIANCE> 25
 4.028161e+01 5.372973e+01 4.089398e+01 1.888244e+01 4.075508e+01 2.417766e+01 3.436797e+01 4.605638e+01 3.419003e+01 3.899878e+01 2.585177e+01 1.966085e+01 1.512047e+00 9.942981e-01 2.002038e+00 1.660816e+00 1.495800e+00 1.312253e+00 2.564925e+00 2.046373e+00 1.722717e+00 1.585853e+00 2.359684e+00 1.195382e+00 5.151172e-01
<GCONST> 9.328278e+01
<TRANSP> 5
 0.000000e+00 1.000000e+00 0.000000e+00 0.000000e+00 0.000000e+00
 0.000000e+00 9.512268e-01 4.877324e-02 0.000000e+00 0.000000e+00
 0.000000e+00 0.000000e+00 7.896359e-01 2.103640e-01 0.000000e+00
 0.000000e+00 0.000000e+00 0.000000e+00 9.122425e-01 8.775742e-02
 0.000000e+00 0.000000e+00 0.000000e+00 0.000000e+00 0.000000e+00
<ENDHMM>
~h "j"
<BEGINHMM>
<NUMSTATES> 5
<STATE> 2
<MEAN> 25
 4.699005e+00 2.303783e+00 5.828901e+00 -1.993026e+00 -3.559759e+00 -4.541508e+00 -5.598799e+00 -2.007488e-01 -5.331303e+00 1.553871e+00 -5.941072e+00 -3.657660e+00 -2.607350e-01 4.765039e-02 4.944200e-01 1.270880e+00 1.883030e-01 8.059261e-01 3.015846e-01 4.386585e-01 -3.967912e-02 -1.077986e+00 3.194773e-01 6.672068e-02 -2.946312e-01
<VARIANCE> 25
 8.409068e+00 3.408046e+00 2.301257e+01 3.691146e+01 3.296469e+01 6.214055e+01 3.669847e+01 2.015468e+01 3.996774e+01 9.722572e+01 2.133220e+01 1.658338e+01 7.503155e-01 4.398549e-01 2.330351e+00 7.282237e-01 5.830439e+00 4.958986e+00 1.861927e+00 2.617369e+00 3.210873e+00 2.484803e+00 2.000602e+00 1.467075e+00 5.844962e-01
<GCONST> 9.139649e+01
<STATE> 3
<MEAN> 25
 -2.857743e+00 5.845332e+00 4.715703e+00 4.020426e+00 -4.332070e+00 3.264544e+00 -5.323151e+00 -2.324265e+00 -2.515107e+00 -1.187269e+00 -1.511545e+00 -4.016291e+00 -1.306338e+00 4.233258e-01 4.189582e-01 -5.894520e-01 -8.035730e-01 -1.468218e-01 4.858348e-01 -3.331254e-01 -2.519374e-01 1.236235e+00 6.038046e-01 1.935344e-01 4.868476e-02
<VARIANCE> 25
 5.108701e+01 1.162534e+01 8.824088e+01 2.225912e+01 5.718075e+01 5.514269e+01 2.620186e+01 3.075182e+01 2.303055e+01 3.505988e+01 2.805610e+01 2.060777e+01 5.531905e+00 1.531082e+00 1.986881e+00 2.581088e+00 6.723863e+00 7.561499e+00 2.040828e+00 2.681119e+00 4.639434e+00 2.400668e+00 2.834320e+00 2.222324e+00 2.886422e+00
<GCONST> 1.024285e+02
<STATE> 4
<MEAN> 25
 -2.592972e+00 5.606867e+00 6.744770e+00 -3.092670e+00 -5.276698e+00 -8.998840e+00 -6.656137e+00 3.464155e-01 -7.147220e-01 5.985247e+00 3.650443e+00 -2.425663e+00 6.101462e-01 -3.362747e-01 -1.744847e-01 -5.542405e-01 2.871275e-01 -9.900073e-01 -2.298802e-01 1.740013e-01 3.268604e-01 3.125675e-01 -3.452421e-01 2.262944e-01 5.129712e-01
<VARIANCE> 25
 5.130526e+01 7.311352e+01 2.879229e+01 5.992451e+01 8.157872e+01 1.143911e+02 6.113573e+01 3.163028e+01 6.291055e+01 4.073862e+01 3.658931e+01 3.318214e+01 3.746611e+00 5.742686e+00 4.681766e+00 5.807837e+00 9.159882e+00 9.412855e+00 4.851903e+00 5.664450e+00 6.894173e+00 4.755002e+00 4.655844e+00 3.443792e+00 7.624760e+00
<GCONST> 1.157271e+02
<TRANSP> 5
 0.000000e+00 1.000000e+00 0.000000e+00 0.000000e+00 0.000000e+00
 0.000000e+00 8.816115e-01 1.183884e-01 0.000000e+00 0.000000e+00
 0.000000e+00 0.000000e+00 8.558151e-01 1.441849e-01 0.000000e+00
 0.000000e+00 0.000000e+00 0.000000e+00 9.034072e-01 9.659279e-02
 0.000000e+00 0.000000e+00 0.000000e+00 0.000000e+00 0.000000e+00
<ENDHMM>
~h "k"
<BEGINHMM>
<NUMSTATES> 5
<STATE> 2
<MEAN> 25
 4.719952e+00 1.655921e+00 -5.119183e+00 -2.284957e+00 6.847448e-01 2.553092e-01 -4.786791e+00 -1.487002e+00 -1.214772e+00 -1.872688e+00 -2.104265e+00 -2.288272e+00 -9.394394e-01 -2.923232e-02 -3.086149e-01 2.643371e-02 1.545044e-01 3.113896e-03 7.825292e-01 2.691962e-01 -2.311719e-02 7.781852e-01 3.804543e-01 -8.927637e-02 -6.504977e-02
<VARIANCE> 25
 2.879117e+01 3.948972e+01 4.594912e+01 9.589779e+01 3.804457e+01 5.926685e+01 6.840150e+01 3.324561e+01 4.837831e+01 4.883654e+01 4.293359e+01 3.680994e+01 3.496287e+00 4.120048e+00 3.735417e+00 4.936741e+00 3.684449e+00 5.948212e+00 5.636536e+00 3.837834e+00 6.526611e+00 5.176342e+00 2.905855e+00 4.432759e+00 5.667546e+00
<GCONST> 1.115109e+02
<STATE> 3
<MEAN> 25
 -7.799315e-02 -1.326913e+00 -4.807805e+00 -5.914807e-01 2.585808e+00 1.218543e+00 7.020372e-01 -8.591787e-01 1.871673e+00 3.981977e+00 -8.276431e-01 -8.689079e-01 -4.522266e-01 -2.816898e-01 1.479305e-01 5.965986e-01 3.486438e-01 1.209296e-01 2.291826e-01 -1.479278e-01 2.106525e-01 7.750871e-01 3.665102e-01 1.704413e-02 -1.269484e-01
<VARIANCE> 25
 1.000592e+01 2.475854e+01 2.416201e+01 5.583508e+01 3.637569e+01 2.637866e+01 4.221380e+01 2.495415e+01 2.379091e+01 4.320304e+01 2.743289e+01 2.568823e+01 1.780139e+00 1.859823e+00 3.125779e+00 4.191226e+00 2.687638e+00 2.783315e+00 4.418132e+00 2.887083e+00 3.169425e+00 5.315577e+00 2.872435e+00 3.059936e+00 3.895247e+00
<GCONST> 1.006713e+02
<STATE> 4
<MEAN> 25
 -3.180465e+00 3.814397e-01 -4.985847e-01 3.395616e+00 2.782943e+00 3.556841e+00 2.501313e+00 1.987911e+00 2.947298e+00 2.889695e+00 2.487340e+00 5.468041e-01 -6.310422e-02 3.770941e-02 1.134833e-01 9.014289e-02 -4.908426e-02 2.420003e-03 5.813625e-02 5.411036e-02 2.133319e-02 -1.759492e-02 5.848507e-02 6.786963e-02 -4.409199e-02
<VARIANCE> 25
 1.174982e+01 6.181646e+00 1.184598e+01 1.377050e+01 1.685442e+01 1.332467e+01 2.124669e+01 1.646487e+01 1.718132e+01 2.142636e+01 1.739595e+01 1.251326e+01 1.911375e-01 3.671435e-01 6.270887e-01 7.506871e-01 9.565817e-01 1.159723e+00 1.490983e+00 1.413083e+00 1.542094e+00 1.638596e+00 1.433226e+00 1.097847e+00 1.092167e-01
<GCONST> 7.449464e+01
<TRANSP> 5
 0.000000e+00 1.000000e+00 0.000000e+00 0.000000e+00 0.000000e+00
 0.000000e+00 7.073815e-01 2.926185e-01 0.000000e+00 0.000000e+00
 0.000000e+00 0.000000e+00 5.895292e-01 4.104708e-01 0.000000e+00
 0.000000e+00 0.000000e+00 0.000000e+00 9.517375e-01 4.826251e-02
 0.000000e+00 0.000000e+00 0.000000e+00 0.000000e+00 0.000000e+00
<ENDHMM>
~h "l"
<BEGINHMM>
<NUMSTATES> 5
<STATE> 2
<MEAN> 25
 4.175099e+00 -5.529064e+00 -4.504608e+00 -9.001208e+00 1.893499e+00 6.265050e-01 -8.556652e-02 -2.487004e+00 1.524415e+00 7.736233e-01 -1.507184e+00 -1.073237e+00 -6.481037e-04 3.891709e-02 -2.189364e-01 -6.228998e-03 1.651164e-01 1.073829e-01 5.538289e-02 -4.493918e-02 2.102439e-01 4.115698e-02 -1.325078e-02 -3.898338e-02 -1.086055e-01
<VARIANCE> 25
 9.458015e+00 3.847632e+01 4.266761e+01 3.610815e+01 9.813554e+01 6.378039e+01 4.291436e+01 5.770987e+01 3.247591e+01 3.924911e+01 3.427793e+01 1.859248e+01 3.908302e-01 1.128061e+00 8.798312e-01 1.788515e+00 3.898420e+00 2.066326e+00 1.875906e+00 1.959063e+00 1.644276e+00 2.244178e+00 1.509484e+00 1.180968e+00 6.197833e-01
<GCONST> 9.377554e+01
<STATE> 3
<MEAN> 25
 3.724234e+00 -8.199980e-01 -4.192819e+00 -2.632552e+00 3.681538e+00 -4.671590e-01 -1.951506e+00 -4.583993e+00 4.244198e-01 -2.998374e+00 -3.570600e-01 -9.376832e-01 -2.294324e-01 5.782362e-01 7.635976e-01 1.544494e+00 -4.089647e-01 1.677998e-01 -5.162492e-02 6.646919e-01 -7.884552e-02 -3.109284e-02 2.371112e-01 1.199518e-01 -9.353444e-01
<VARIANCE> 25
 9.188840e+00 2.428424e+01 2.221224e+01 4.553716e+01 5.715193e+01 4.392443e+01 3.809428e+01 3.664854e+01 3.671148e+01 2.811849e+01 3.170986e+01 2.205515e+01 4.356046e-01 1.126249e+00 1.101673e+00 2.135269e+00 1.986011e+00 1.825744e+00 2.501774e+00 2.323873e+00 2.179375e+00 1.881832e+00 1.784478e+00 1.736093e+00 5.774103e-01
<GCONST> 9.201770e+01
<STATE> 4
<MEAN> 25
 -9.084362e-01 1.014160e+00 3.657563e-01 4.074925e+00 8.796318e-01 1.606142e+00 7.486636e-01 1.806676e+00 1.859577e+00 1.342048e-01 1.970596e+00 -2.611763e-01 -8.465823e-02 -1.217634e-02 3.439998e-02 4.361592e-02 -9.200952e-03 4.728838e-02 5.905382e-02 1.258633e-01 2.399096e-02 5.117753e-02 2.078720e-02 -3.823943e-02 -2.638697e-02
<VARIANCE> 25
 1.291362e+01 4.899635e+00 9.656238e+00 1.566583e+01 1.491828e+01 1.520002e+01 1.780766e+01 1.581738e+01 1.883962e+01 1.859171e+01 1.537781e+01 1.372751e+01 1.660833e-01 2.895007e-01 5.735320e-01 6.936095e-01 1.013245e+00 1.249320e+00 1.191979e+00 1.533989e+00 1.577489e+00 1.342023e+00 1.160110e+00 1.168517e+00 8.188349e-02
<GCONST> 7.282349e+01
<TRANSP> 5
 0.000000e+00 1.000000e+00 0.000000e+00 0.000000e+00 0.000000e+00
 0.000000e+00 8.474069e-01 1.525932e-01 0.000000e+00 0.000000e+00
 0.000000e+00 0.000000e+00 6.922190e-01 3.077810e-01 0.000000e+00
 0.000000e+00 0.000000e+00 0.000000e+00 9.355410e-01 6.445897e-02
 0.000000e+00 0.000000e+00 0.000000e+00 0.000000e+00 0.000000e+00
<ENDHMM>
~h "m"
<BEGINHMM>
<NUMSTATES> 5
<STATE> 2
<MEAN> 25
 5.062555e+00 -7.244244e-01 -1.800816e+00 1.169414e+00 3.689672e+00 5.432786e-01 -3.537235e+00 -2.446443e+00 -2.510481e+00 -3.639712e+00 -3.471647e+00 -2.179068e+00 7.273974e-02 7.415584e-01 6.357388e-01 8.474146e-01 -1.105172e-01 -6.127405e-01 -5.405170e-01 -5.259743e-01 -2.733559e-01 -6.909481e-02 -3.053445e-01 -2.767105e-01 -3.694988e-01
<VARIANCE> 25
 3.389883e+01 6.300048e+01 3.285697e+01 6.586444e+01 3.836426e+01 5.201303e+01 3.752244e+01 3.999541e+01 3.296665e+01 3.184446e+01 3.026209e+01 2.339002e+01 1.919086e+00 2.489236e+00 2.173162e+00 3.145860e+00 2.180220e+00 3.717827e+00 3.188025e+00 4.205980e+00 2.357399e+00 2.526199e+00 3.178218e+00 2.167556e+00 1.586062e+00
<GCONST> 1.020741e+02
<STATE> 3
<MEAN> 25
 4.800220e+00 1.635528e+00 3.069618e+00 4.018789e+00 2.565657e+00 -5.348743e+00 -5.155340e+00 -4.128683e+00 -2.298068e+00 -4.530885e+00 -3.057513e+00 -5.170932e+00 -1.297475e-01 2.429800e-01 1.283207e-01 3.542623e-01 -1.460401e-01 2.122523e-01 2.130510e-01 2.101580e-01 2.070832e-01 2.111521e-01 5.771241e-02 7.418126e-02 -3.562926e-01
<VARIANCE> 25
 1.566830e+01 2.626718e+01 3.072867e+01 5.187292e+01 3.568071e+01 6.484091e+01 4.154731e+01 3.276850e+01 3.822848e+01 2.680847e+01 5.808415e+01 2.693393e+01 4.898473e-01 8.032002e-01 1.174069e+00 2.193521e+00 1.037652e+00 1.813366e+00 1.919262e+00 1.816851e+00 1.910032e+00 2.054563e+00 2.017454e+00 1.374347e+00 4.880460e-01
<GCONST> 9.215530e+01
<STATE> 4
<MEAN> 25
 -7.866913e-01 1.417862e+00 7.382188e-01 4.419239e+00 1.253306e+00 1.844928e+00 9.042385e-01 2.074460e+00 1.720945e+00 4.264805e-01 1.418639e+00 -3.642466e-01 -5.470360e-02 2.467319e-02 6.167406e-02 -3.713176e-03 -9.112468e-02 -7.732580e-03 2.692301e-02 7.367072e-02 5.413031e-02 8.711687e-02 1.195285e-01 2.950092e-02 -2.749036e-02
<VARIANCE> 25
 1.879184e+01 8.056112e+00 9.317144e+00 1.273014e+01 1.589878e+01 1.423482e+01 2.112261e+01 1.747102e+01 1.934822e+01 1.995873e+01 2.038655e+01 1.495558e+01 1.783399e-01 3.321231e-01 4.544033e-01 7.299336e-01 9.371160e-01 1.088349e+00 1.224229e+00 1.358502e+00 1.567081e+00 1.616859e+00 1.329301e+00 1.111505e+00 9.913917e-02
<GCONST> 7.435899e+01
<TRANSP> 5
 0.000000e+00 1.000000e+00 0.000000e+00 0.000000e+00 0.000000e+00
 0.000000e+00 6.778597e-01 3.221402e-01 0.000000e+00 0.000000e+00
 0.000000e+00 0.000000e+00 7.503147e-01 2.496853e-01 0.000000e+00
 0.000000e+00 0.000000e+00 0.000000e+00 9.258677e-01 7.413225e-02
 0.000000e+00 0.000000e+00 0.000000e+00 0.000000e+00 0.000000e+00
<ENDHMM>
~h "n"
<BEGINHMM>
<NUMSTATES> 5
<STATE> 2
<MEAN> 25
 6.323645e+00 7.198189e-01 -2.935341e-01 9.751433e-01 -1.000727e+00 -7.237396e+00 -4.862103e+00 -3.162639e+00 -5.739295e+00 -7.551025e+00 -1.699443e+00 1.925772e+00 -3.043990e-01 9.995947e-01 3.567735e-01 9.142839e-01 -2.872147e-02 1.326967e-01 -2.724832e-01 -6.106555e-01 8.057974e-02 5.575933e-01 1.692720e-03 7.886587e-02 -9.008716e-01
<VARIANCE> 25
 1.391873e+01 2.690864e+01 1.247491e+01 3.389990e+01 5.400240e+01 5.594455e+01 2.945044e+01 2.622653e+01 3.949677e+01 3.251392e+01 4.407376e+01 3.284221e+01 3.794618e-01 1.394673e+00 1.269886e+00 2.367000e+00 1.392193e+00 2.573594e+00 1.795926e+00 2.790403e+00 2.065165e+00 2.222955e+00 3.014765e+00 1.555867e+00 7.641329e-01
<GCONST> 9.317075e+01
<STATE> 3
<MEAN> 25
 3.234177e+00 3.423470e+00 1.707359e+00 4.890035e+00 1.641470e+00 -2.321738e+00 -3.259557e+00 -3.272620e+00 -3.293075e+00 -4.376321e+00 -2.583529e+00 4.083431e-01 -3.793561e-01 6.809908e-02 -3.952726e-02 3.048234e-01 1.166224e-02 7.642338e-01 3.952338e-01 4.596376e-01 3.703354e-01 3.629517e-01 3.729393e-01 -1.292331e-01 -4.653921e-01
<VARIANCE> 25
 1.559882e+01 1.555908e+01 1.084075e+01 1.815776e+01 3.072985e+01 2.797993e+01 1.827253e+01 2.306391e+01 2.583967e+01 1.967065e+01 2.491837e+01 2.333993e+01 2.853579e-01 4.592544e-01 6.295028e-01 8.681579e-01 1.174261e+00 1.443034e+00 1.433668e+00 1.399358e+00 1.867841e+00 1.658257e+00 1.837907e+00 1.311358e+00 1.712784e-01
<GCONST> 8.095141e+01
<STATE> 4
<MEAN> 25
 -2.868300e+00 1.728507e+00 8.760680e-01 4.004063e+00 2.372012e+00 2.624473e+00 2.493223e+00 2.413309e+00 2.564371e+00 1.952119e+00 2.743629e+00 4.077115e-01 -5.177289e-02 -8.382142e-05 5.653009e-03 8.096276e-04 2.554252e-03 5.773665e-02 6.134861e-02 5.977252e-02 7.046060e-02 9.959710e-02 7.090777e-02 -2.108700e-02 -1.409148e-02
<VARIANCE> 25
 1.468062e+01 6.615607e+00 6.879675e+00 9.285522e+00 1.299377e+01 1.294638e+01 1.893909e+01 1.796921e+01 1.835489e+01 1.988822e+01 1.460343e+01 1.347489e+01 1.412946e-01 2.997545e-01 4.395832e-01 6.397911e-01 8.907229e-01 1.123134e+00 1.155515e+00 1.334200e+00 1.413287e+00 1.415247e+00 1.360051e+00 1.234666e+00 6.439445e-02
<GCONST> 7.128904e+01
<TRANSP> 5
 0.000000e+00 1.000000e+00 0.000000e+00 0.000000e+00 0.000000e+00
 0.000000e+00 7.141854e-01 2.858147e-01 0.000000e+00 0.000000e+00
 0.000000e+00 0.000000e+00 7.844975e-01 2.155025e-01 0.000000e+00
 0.000000e+00 0.000000e+00 0.000000e+00 9.470628e-01 5.293716e-02
 0.000000e+00 0.000000e+00 0.000000e+00 0.000000e+00 0.000000e+00
<ENDHMM>
~h "o"
<BEGINHMM>
<NUMSTATES> 5
<STATE> 2
<MEAN> 25
 4.876313e-08 -1.572510e-08 -3.479018e-08 -3.353887e-08 3.894225e-08 5.448882e-08 6.837960e-09 -3.357679e-08 -9.075150e-09 1.238669e-09 6.825321e-10 3.043588e-08 1.480543e-02 -2.130302e-03 7.752344e-03 -2.168820e-03 1.143337e-02 -2.309903e-03 4.269884e-03 -3.775733e-03 -3.292339e-03 -9.014427e-04 -3.430429e-03 -3.983431e-03 3.762102e-02
<VARIANCE> 25
 4.782532e+01 4.486550e+01 4.720150e+01 6.892854e+01 4.782745e+01 4.025578e+01 4.904441e+01 4.112494e+01 4.163441e+01 4.402450e+01 3.629408e+01 2.461185e+01 1.112554e+00 1.522353e+00 1.617351e+00 2.656559e+00 2.172489e+00 2.083682e+00 2.429415e+00 2.410789e+00 2.262104e+00 2.509146e+00 2.111452e+00 1.695109e+00 1.480569e+00
<GCONST> 9.985252e+01
<STATE> 3
<MEAN> 25
 4.876313e-08 -1.572510e-08 -3.479018e-08 -3.353887e-08 3.894225e-08 5.448882e-08 6.837960e-09 -3.357679e-08 -9.075150e-09 1.238669e-09 6.825321e-10 3.043588e-08 1.480543e-02 -2.130302e-03 7.752344e-03 -2.168820e-03 1.143337e-02 -2.309903e-03 4.269884e-03 -3.775733e-03 -3.292339e-03 -9.014427e-04 -3.430429e-03 -3.983431e-03 3.762102e-02
<VARIANCE> 25
 4.782532e+01 4.486550e+01 4.720150e+01 6.892854e+01 4.782745e+01 4.025578e+01 4.904441e+01 4.112494e+01 4.163441e+01 4.402450e+01 3.629408e+01 2.461185e+01 1.112554e+00 1.522353e+00 1.617351e+00 2.656559e+00 2.172489e+00 2.083682e+00 2.429415e+00 2.410789e+00 2.262104e+00 2.509146e+00 2.111452e+00 1.695109e+00 1.480569e+00
<GCONST> 9.985252e+01
<STATE> 4
<MEAN> 25
 4.876313e-08 -1.572510e-08 -3.479018e-08 -3.353887e-08 3.894225e-08 5.448882e-08 6.837960e-09 -3.357679e-08 -9.075150e-09 1.238669e-09 6.825321e-10 3.043588e-08 1.480543e-02 -2.130302e-03 7.752344e-03 -2.168820e-03 1.143337e-02 -2.309903e-03 4.269884e-03 -3.775733e-03 -3.292339e-03 -9.014427e-04 -3.430429e-03 -3.983431e-03 3.762102e-02
<VARIANCE> 25
 4.782532e+01 4.486550e+01 4.720150e+01 6.892854e+01 4.782745e+01 4.025578e+01 4.904441e+01 4.112494e+01 4.163441e+01 4.402450e+01 3.629408e+01 2.461185e+01 1.112554e+00 1.522353e+00 1.617351e+00 2.656559e+00 2.172489e+00 2.083682e+00 2.429415e+00 2.410789e+00 2.262104e+00 2.509146e+00 2.111452e+00 1.695109e+00 1.480569e+00
<GCONST> 9.985252e+01
<TRANSP> 5
 0.000000e+00 1.000000e+00 0.000000e+00 0.000000e+00 0.000000e+00
 0.000000e+00 6.000000e-01 4.000000e-01 0.000000e+00 0.000000e+00
 0.000000e+00 0.000000e+00 6.000000e-01 4.000000e-01 0.000000e+00
 0.000000e+00 0.000000e+00 0.000000e+00 7.000000e-01 3.000000e-01
 0.000000e+00 0.000000e+00 0.000000e+00 0.000000e+00 0.000000e+00
<ENDHMM>
~h "p"
<BEGINHMM>
<NUMSTATES> 5
<STATE> 2
<MEAN> 25
 -3.416643e+00 2.348067e+00 -4.827609e+00 4.809124e+00 -3.141189e+00 3.986323e+00 -3.385754e+00 2.588841e+00 2.599330e+00 1.789283e+00 2.902688e+00 1.734705e+00 1.724349e+00 -7.306693e-01 5.606478e-01 -1.058477e+00 2.939177e-01 -6.006356e-01 6.688663e-01 -2.467394e-01 -7.723546e-01 1.079830e-01 7.676329e-02 -4.908210e-01 3.004676e+00
<VARIANCE> 25
 7.870912e+01 2.701502e+01 3.680753e+01 2.775795e+01 2.695420e+01 2.178482e+01 3.602378e+01 3.215076e+01 3.714574e+01 2.125690e+01 2.731472e+01 2.250434e+01 9.573322e+00 2.620281e+00 2.748047e+00 3.109737e+00 3.499831e+00 3.267314e+00 2.681301e+00 3.588210e+00 3.798346e+00 2.589462e+00 3.008872e+00 2.352963e+00 1.558733e+01
<GCONST> 1.041190e+02
<STATE> 3
<MEAN> 25
 9.183913e-01 -2.913424e+00 -2.953475e+00 -2.230947e+00 -4.497963e-02 3.259709e-01 2.010587e+00 9.848919e-01 1.450040e+00 2.063138e+00 1.123682e+00 -1.752138e+00 4.156212e-01 -1.566918e+00 5.620045e-02 -1.175344e+00 1.055753e+00 -1.910551e-01 1.329417e+00 -2.859004e-01 6.279628e-02 -4.750228e-01 -2.237111e-01 -5.976880e-02 2.742849e+00
<VARIANCE> 25
 2.589823e+01 6.534573e+01 3.233101e+01 7.215418e+01 4.981664e+01 4.119756e+01 4.576040e+01 5.401933e+01 4.156720e+01 4.033382e+01 3.085167e+01 2.039240e+01 4.588421e+00 5.693484e+00 3.125676e+00 7.786870e+00 4.826426e+00 5.835504e+00 4.747923e+00 6.745749e+00 4.067866e+00 5.301686e+00 3.208073e+00 2.989605e+00 1.085862e+01
<GCONST> 1.114205e+02
<STATE> 4
<MEAN> 25
 -2.614432e+00 9.110340e-01 3.850050e-02 3.043436e+00 2.155307e+00 2.745697e+00 2.944525e+00 2.343574e+00 3.330310e+00 2.179525e+00 3.000059e+00 -5.926153e-02 1.665891e-02 -4.841104e-03 -2.381228e-03 -5.386776e-02 -8.519872e-02 -7.030882e-02 -3.237179e-02 7.960465e-03 8.708809e-03 5.709864e-02 6.796721e-02 -1.309275e-02 1.238139e-01
<VARIANCE> 25
 1.587718e+01 1.053286e+01 8.856608e+00 1.437935e+01 1.420434e+01 1.310959e+01 1.819363e+01 1.742229e+01 1.485771e+01 1.952827e+01 1.430212e+01 1.406068e+01 3.912248e-01 4.639783e-01 7.069111e-01 9.468951e-01 1.215386e+00 1.189081e+00 1.268865e+00 1.433692e+00 1.373668e+00 1.653280e+00 1.337399e+00 1.203551e+00 4.446063e-01
<GCONST> 7.721764e+01
<TRANSP> 5
 0.000000e+00 1.000000e+00 0.000000e+00 0.000000e+00 0.000000e+00
 0.000000e+00 5.166725e-01 4.833275e-01 0.000000e+00 0.000000e+00
 0.000000e+00 0.000000e+00 5.605296e-01 4.394704e-01 0.000000e+00
 0.000000e+00 0.000000e+00 0.000000e+00 9.014955e-01 9.850448e-02
 0.000000e+00 0.000000e+00 0.000000e+00 0.000000e+00 0.000000e+00
<ENDHMM>
~h "r"
<BEGINHMM>
<NUMSTATES> 5
<STATE> 2
<MEAN> 25
 7.121796e+00 -1.058470e+01 -4.270452e-02 -1.647853e+00 -1.031559e+01 -2.660556e+00 3.277117e+00 3.888978e+00 3.428001e-01 -2.100385e+00 -3.649811e+00 -7.522274e-01 -4.408944e-01 -6.260213e-01 1.175529e+00 -3.155862e-01 -7.096531e-01 6.030863e-02 8.788612e-01 5.168910e-01 -1.281300e+00 2.647289e-01 3.745566e-01 3.133025e-01 1.535322e-01
<VARIANCE> 25
 1.433965e+01 3.292557e+01 2.689001e+01 4.973411e+01 6.954881e+01 2.524531e+01 5.757254e+01 3.507114e+01 3.695289e+01 2.669388e+01 3.291196e+01 2.338629e+01 1.133216e+00 2.559172e+00 2.059300e+00 6.163691e+00 5.875619e+00 2.319969e+00 4.729161e+00 4.864005e+00 4.138042e+00 3.009386e+00 3.738430e+00 3.082538e+00 1.393205e+00
<GCONST> 1.025756e+02
<STATE> 3
<MEAN> 25
 3.282141e+00 -7.851494e+00 7.033159e+00 -6.976339e+00 -1.035233e+01 -3.305191e+00 9.185904e+00 8.322262e-01 -8.717442e+00 4.509540e+00 -4.038934e+00 -2.837583e+00 -1.503324e-01 1.326993e+00 1.697174e-01 4.697501e-01 3.857066e-01 8.070803e-02 -4.144619e-02 -1.205655e+00 2.988470e-02 5.023680e-01 4.001632e-03 -5.859220e-02 -7.556301e-01
<VARIANCE> 25
 1.484328e+01 2.722579e+01 4.305853e+01 3.840368e+01 4.200527e+01 2.147087e+01 6.070131e+01 6.024028e+01 4.869538e+01 6.889329e+01 3.933357e+01 1.981534e+01 1.009012e+00 9.831926e-01 1.819181e+00 2.726556e+00 2.041209e+00 1.742117e+00 4.789007e+00 1.994130e+00 4.541420e+00 4.300126e+00 2.443037e+00 1.637501e+00 7.239532e-01
<GCONST> 9.829871e+01
<STATE> 4
<MEAN> 25
 1.174787e+00 -6.017403e-01 2.754533e+00 2.277518e+00 -3.516247e+00 5.148052e-01 3.055610e+00 5.153892e-01 -8.346924e-01 9.671075e-01 -9.039748e-02 -6.056749e-01 -1.750935e-01 4.136297e-01 -1.502267e-01 3.550426e-01 4.684791e-01 2.100566e-01 -2.605483e-01 -1.518035e-01 3.980542e-01 -5.185731e-02 1.212244e-01 2.211176e-01 -4.237908e-01
<VARIANCE> 25
 2.214931e+01 1.495837e+01 1.767410e+01 3.696309e+01 4.703428e+01 2.265678e+01 3.119892e+01 3.841398e+01 2.936553e+01 3.056831e+01 2.772926e+01 1.727238e+01 4.008466e-01 6.602469e-01 1.045531e+00 1.465165e+00 1.449116e+00 1.483460e+00 1.940109e+00 2.239906e+00 1.965394e+00 2.103283e+00 1.879221e+00 1.306462e+00 2.882618e-01
<GCONST> 8.766871e+01
<TRANSP> 5
 0.000000e+00 1.000000e+00 0.000000e+00 0.000000e+00 0.000000e+00
 0.000000e+00 7.877685e-01 2.122316e-01 0.000000e+00 0.000000e+00
 0.000000e+00 0.000000e+00 7.894506e-01 2.105494e-01 0.000000e+00
 0.000000e+00 0.000000e+00 0.000000e+00 8.046427e-01 1.953572e-01
 0.000000e+00 0.000000e+00 0.000000e+00 0.000000e+00 0.000000e+00
<ENDHMM>
~h "s"
<BEGINHMM>
<NUMSTATES> 5
<STATE> 2
<MEAN> 25
 -1.035299e+01 6.706336e+00 -5.297850e+00 6.936489e+00 -1.249689e+00 -1.166338e+00 5.290807e+00 1.847906e+00 -1.547423e+00 1.896012e+00 3.019674e+00 -8.014306e-01 -7.423441e-01 2.529148e-01 -2.388380e-01 1.755724e-01 -1.021607e-01 1.317108e-01 2.907867e-01 1.181709e-01 -5.309988e-02 3.212856e-01 3.610640e-01 6.431584e-02 2.168032e-01
<VARIANCE> 25
 2.880965e+01 4.493978e+01 1.829115e+01 3.870697e+01 2.769453e+01 2.208294e+01 2.638153e+01 2.840868e+01 3.709116e+01 3.092042e+01 2.337684e+01 2.072916e+01 1.938324e+00 2.027932e+00 1.608728e+00 1.492815e+00 1.396514e+00 1.820734e+00 2.096377e+00 2.109024e+00 2.282113e+00 2.249677e+00 1.825307e+00 1.783847e+00 7.805465e-01
<GCONST> 9.317213e+01
<STATE> 3
<MEAN> 25
 -1.109518e+01 -1.280821e+00 3.942114e+00 -3.535273e+00 -2.324094e+00 1.132762e+00 5.294059e+00 -2.962286e+00 -1.724869e-01 3.361185e+00 5.350487e+00 -4.273972e-01 8.395086e-01 -6.379744e-01 6.248966e-01 -1.199279e+00 -4.426678e-01 -6.443691e-01 -8.092918e-01 -2.742781e-01 2.489878e-01 -2.591992e-01 -6.926067e-01 1.200459e-01 4.381738e-01
<VARIANCE> 25
 3.928304e+01 8.383040e+01 1.139515e+02 1.401411e+02 4.173703e+01 7.119109e+01 5.507271e+01 7.806391e+01 6.371774e+01 3.628245e+01 2.372969e+01 3.826949e+01 7.361662e+00 2.579217e+00 4.265851e+00 4.847052e+00 2.424630e+00 3.346153e+00 3.680557e+00 4.306410e+00 3.008676e+00 2.879537e+00 3.337744e+00 1.982603e+00 2.415013e+00
<GCONST> 1.104050e+02
<STATE> 4
<MEAN> 25
 -8.359547e-01 1.060067e+00 -2.994460e+00 -8.135744e-01 -4.291585e+00 -4.893451e+00 8.909953e-01 1.720503e+00 -9.778008e-01 -3.950923e-01 -7.178831e-01 9.220216e-01 3.719332e+00 -1.329879e+00 -2.097748e-01 -2.629692e+00 -1.275367e-01 -1.160359e+00 -1.882640e+00 -6.046445e-01 -8.626261e-01 -1.912631e+00 -2.895810e+00 3.799455e-01 1.516255e+00
<VARIANCE> 25
 4.396033e+01 2.893608e+01 3.107093e+01 4.146051e+01 3.333545e+01 3.415583e+01 4.875948e+01 4.424828e+01 2.734705e+01 4.011912e+01 3.075167e+01 1.845330e+01 1.904692e+00 3.953979e+00 3.863545e+00 7.091353e+00 5.439667e+00 3.558266e+00 6.974895e+00 5.929442e+00 4.332109e+00 6.286833e+00 3.213171e+00 3.232902e+00 2.129390e+00
<GCONST> 1.067280e+02
<TRANSP> 5
 0.000000e+00 1.000000e+00 0.000000e+00 0.000000e+00 0.000000e+00
 0.000000e+00 8.791169e-01 1.208831e-01 0.000000e+00 0.000000e+00
 0.000000e+00 0.000000e+00 6.963226e-01 3.036774e-01 0.000000e+00
 0.000000e+00 0.000000e+00 0.000000e+00 4.694604e-01 5.305396e-01
 0.000000e+00 0.000000e+00 0.000000e+00 0.000000e+00 0.000000e+00
<ENDHMM>
~h "t"
<BEGINHMM>
<NUMSTATES> 5
<STATE> 2
<MEAN> 25
 4.347763e+00 3.895867e+00 -2.670326e+00 3.730934e+00 -5.013945e-01 3.285703e+00 -3.095472e+00 -1.332016e+00 -2.883730e+00 -2.704433e+00 -2.640282e-01 2.084746e-01 -1.095361e+00 -2.880265e-01 -1.125721e-01 -6.525096e-01 -9.913518e-02 -2.306537e-01 5.284832e-01 4.506394e-01 -2.970033e-01 4.710494e-01 4.066619e-01 -3.491404e-01 3.842486e-01
<VARIANCE> 25
 4.001033e+01 3.480848e+01 6.329642e+01 2.242363e+01 2.438225e+01 5.558997e+01 3.909512e+01 3.017440e+01 2.636243e+01 2.896815e+01 3.439851e+01 4.490535e+01 2.446647e+00 3.283896e+00 3.632304e+00 2.951559e+00 2.644109e+00 4.750009e+00 3.796328e+00 3.533323e+00 2.178676e+00 3.460692e+00 3.365835e+00 3.489431e+00 4.572624e+00
<GCONST> 1.042958e+02
<STATE> 3
<MEAN> 25
 -2.157389e+00 -9.443796e-01 3.870966e-01 -1.443092e+00 -2.402430e+00 -3.110535e+00 1.644290e+00 8.248675e-01 -2.663371e+00 2.207090e+00 2.042582e+00 -6.009662e-01 2.409093e-01 -1.227131e+00 -4.055764e-01 -3.753023e+00 -1.707690e-01 -2.326931e+00 1.034552e-01 -4.372574e-01 6.109429e-01 9.946108e-01 -4.679939e-01 -2.249295e-01 3.302333e+00
<VARIANCE> 25
 2.709383e+01 2.215627e+01 5.056111e+01 4.933891e+01 4.597673e+01 6.006702e+01 3.140792e+01 5.377629e+01 3.893863e+01 3.495999e+01 4.046476e+01 3.927066e+01 3.561156e+00 4.988159e+00 8.401080e+00 5.466934e+00 3.868873e+00 7.637717e+00 6.202784e+00 5.904370e+00 5.767639e+00 7.322107e+00 5.421263e+00 3.963337e+00 5.248684e+00
<GCONST> 1.122684e+02
<STATE> 4
<MEAN> 25
 1.584955e+00 -2.202511e+00 -3.128653e+00 -8.885066e+00 -1.072843e+00 -5.472547e+00 -2.466737e-01 -1.485415e+00 1.034949e+00 2.168967e+00 -1.335931e+00 -9.480532e-01 1.428928e+00 -3.503682e-01 -1.110601e+00 -2.528471e+00 6.407847e-01 -3.144973e-01 -6.716914e-01 -1.135015e+00 6.269581e-01 -1.282136e-02 -1.226173e+00 -2.432564e-01 1.320619e+00
<VARIANCE> 25
 2.572813e+01 3.336503e+01 5.817830e+01 4.463560e+01 5.307468e+01 4.518604e+01 4.652411e+01 4.298386e+01 3.912244e+01 4.130588e+01 4.676015e+01 2.119206e+01 2.472171e+00 4.636832e+00 5.713184e+00 9.125755e+00 4.082864e+00 3.971617e+00 4.095782e+00 6.340984e+00 3.311258e+00 4.375352e+00 3.808371e+00 2.922835e+00 4.070533e+00
<GCONST> 1.091565e+02
<TRANSP> 5
 0.000000e+00 1.000000e+00 0.000000e+00 0.000000e+00 0.000000e+00
 0.000000e+00 6.650662e-01 3.349338e-01 0.000000e+00 0.000000e+00
 0.000000e+00 0.000000e+00 4.883451e-01 5.116550e-01 0.000000e+00
 0.000000e+00 0.000000e+00 0.000000e+00 2.648683e-01 7.351317e-01
 0.000000e+00 0.000000e+00 0.000000e+00 0.000000e+00 0.000000e+00
<ENDHMM>
~h "w"
<BEGINHMM>
<NUMSTATES> 5
<STATE> 2
<MEAN> 25
 9.827075e+00 8.071411e+00 1.973619e-01 -7.307963e+00 -2.803574e+00 -6.171655e+00 -5.946082e+00 -3.514022e+00 -8.514015e+00 1.488167e+00 -1.937573e-01 1.681643e+00 1.962644e-01 -6.778680e-03 -5.626824e-01 -7.908725e-01 -1.873027e-01 -1.805943e-01 5.467080e-01 4.396436e-01 2.005997e-01 -1.931045e-01 2.522436e-01 -7.045916e-02 1.688366e-01
<VARIANCE> 25
 3.686140e+00 1.026879e+01 3.683068e+01 1.661191e+01 1.993115e+01 2.789882e+01 3.225686e+01 6.139723e+01 3.933814e+01 6.178624e+01 2.568474e+01 2.554174e+01 2.372248e-01 6.362198e-01 1.161112e+00 2.270736e+00 7.776422e-01 1.511405e+00 1.872700e+00 1.154417e+00 1.824371e+00 3.665841e+00 1.355915e+00 1.178465e+00 4.476296e-01
<GCONST> 8.576736e+01
<STATE> 3
<MEAN> 25
 7.359395e+00 -4.788873e-01 -3.703457e+00 -1.655383e+01 3.925802e+00 -3.913873e+00 1.015561e+00 -1.362363e+00 3.308170e-01 3.573272e+00 2.114808e+00 -3.782042e+00 -7.699391e-01 -2.345638e+00 -1.564969e-01 -2.109241e-01 1.591331e+00 5.324434e-01 1.059966e+00 -5.326076e-01 1.496506e+00 -6.215964e-01 -6.945495e-01 -1.364137e+00 1.517210e+00
<VARIANCE> 25
 1.279333e+01 4.427999e+01 2.542914e+01 2.206185e+01 5.017900e+01 4.500698e+01 4.257685e+01 4.651377e+01 4.922915e+01 1.043382e+02 5.045522e+01 4.566601e+01 2.310037e-01 9.701549e-01 1.143358e+00 3.472670e+00 1.920501e+00 1.771708e+00 2.900683e+00 2.629553e+00 3.720226e+00 5.892785e+00 9.398455e+00 4.410192e+00 6.710097e-01
<GCONST> 9.976874e+01
<STATE> 4
<MEAN> 25
 1.873219e+00 -9.316165e+00 -5.489835e+00 -1.028686e+01 4.484892e+00 -1.403157e+00 7.024421e+00 -8.461728e-01 6.756064e-01 7.634541e-01 3.418347e+00 -1.448612e-02 -2.093163e-01 -2.802684e-01 -5.635921e-02 3.972650e-01 -6.442076e-02 1.574818e-01 7.908288e-02 1.028971e-01 -3.042606e-02 1.594016e-01 3.241865e-02 3.461494e-01 -1.523832e-01
<VARIANCE> 25
 1.076548e+01 2.904829e+01 2.228284e+01 2.403764e+01 4.252912e+01 3.732290e+01 3.587955e+01 3.048221e+01 2.015124e+01 3.567969e+01 4.874699e+01 3.654702e+01 1.774228e-01 4.782450e-01 5.064155e-01 5.004255e-01 8.863688e-01 9.737282e-01 8.523276e-01 1.409690e+00 1.010546e+00 2.075486e+00 1.521958e+00 1.266720e+00 2.389771e-01
<GCONST> 8.256840e+01
<TRANSP> 5
 0.000000e+00 1.000000e+00 0.000000e+00 0.000000e+00 0.000000e+00
 0.000000e+00 8.899106e-01 1.100893e-01 0.000000e+00 0.000000e+00
 0.000000e+00 0.000000e+00 8.223519e-01 1.776481e-01 0.000000e+00
 0.000000e+00 0.000000e+00 0.000000e+00 9.248130e-01 7.518701e-02
 0.000000e+00 0.000000e+00 0.000000e+00 0.000000e+00 0.000000e+00
<ENDHMM>
~h "y"
<BEGINHMM>
<NUMSTATES> 5
<STATE> 2
<MEAN> 25
 1.825538e+00 -2.082387e+00 8.689729e+00 -1.064555e+01 -7.001592e+00 -3.165314e+00 2.190453e+00 -5.077808e+00 -3.071743e+00 6.360539e-01 -2.952991e+00 1.521657e+00 -2.954138e-01 1.208268e+00 1.234724e+00 -6.818558e-01 -8.211613e-01 9.420992e-02 -7.787768e-01 -7.581429e-01 2.331149e-01 1.261778e+00 -9.411313e-03 1.585302e-01 -3.580573e-01
<VARIANCE> 25
 2.102888e+01 5.006163e+01 4.780173e+01 3.302449e+01 6.017921e+01 1.603100e+01 9.257726e+01 4.761265e+01 5.491816e+01 4.981155e+01 3.215063e+01 3.140213e+01 1.738984e-01 1.350804e+00 1.259104e+00 1.143902e+00 3.167345e+00 1.316442e+00 4.427459e+00 2.906250e+00 2.005148e+00 3.611392e+00 1.540409e+00 2.479417e+00 2.882345e-01
<GCONST> 9.533945e+01
<STATE> 3
<MEAN> 25
 -3.480610e-02 -1.718548e+00 9.988080e+00 -1.485037e+01 -9.509340e+00 -4.936744e+00 4.586716e+00 -3.148530e+00 -1.688006e+00 4.905388e+00 -2.339530e+00 -4.206718e-01 3.678361e-01 -2.020931e+00 -2.147503e+00 1.795142e-01 5.870690e-01 5.552299e-02 2.320181e+00 1.500021e+00 1.935578e-02 -1.481432e+00 3.974106e-03 -5.187352e-01 8.584755e-01
<VARIANCE> 25
 1.782293e+01 3.239680e+01 4.884054e+01 3.174952e+01 6.416916e+01 1.596381e+01 8.775090e+01 5.063720e+01 4.381093e+01 5.017033e+01 3.332648e+01 2.996474e+01 4.032471e-01 1.500021e+00 2.533192e+00 2.595355e+00 8.582006e+00 2.122287e+00 4.167353e+00 3.021881e+00 2.543504e+00 6.162633e+00 2.637953e+00 2.625648e+00 3.603176e-01
<GCONST> 1.000670e+02
<STATE> 4
<MEAN> 25
 6.640698e+00 -6.573924e+00 6.356680e-02 -7.695993e+00 -7.354177e+00 -3.164890e+00 3.958486e+00 -1.425543e+00 -6.162042e+00 -3.660651e+00 -5.400502e+00 4.142554e-01 3.402399e-01 -1.017730e+00 -1.365931e+00 6.285220e-01 1.963341e+00 2.895382e-01 -3.262304e-01 -3.460447e-01 3.194329e-01 -9.302346e-01 -3.587162e-01 2.232603e-01 8.199812e-02
<VARIANCE> 25
 2.575121e+01 5.939990e+01 3.677456e+01 4.003991e+01 1.326195e+02 1.299683e+01 6.253657e+01 4.479042e+01 6.692957e+01 4.641918e+01 3.306721e+01 1.939297e+01 2.524290e-01 1.298002e+00 1.247045e+00 1.341494e+00 3.484525e+00 1.230721e+00 2.360154e+00 2.724559e+00 1.196022e+00 2.544100e+00 1.452664e+00 1.831661e+00 1.598849e-01
<GCONST> 9.344296e+01
<TRANSP> 5
 0.000000e+00 1.000000e+00 0.000000e+00 0.000000e+00 0.000000e+00
 0.000000e+00 8.564684e-01 1.435316e-01 0.000000e+00 0.000000e+00
 0.000000e+00 0.000000e+00 7.700588e-01 2.299412e-01 0.000000e+00
 0.000000e+00 0.000000e+00 0.000000e+00 7.337542e-01 2.662458e-01
 0.000000e+00 0.000000e+00 0.000000e+00 0.000000e+00 0.000000e+00
<ENDHMM>
~h "aa"
<BEGINHMM>
<NUMSTATES> 5
<STATE> 2
<MEAN> 25
 2.961865e+00 -6.461158e+00 -2.033613e+00 -4.002472e+00 2.851493e+00 -1.960994e+00 2.002652e+00 -7.190249e-01 -3.401745e-01 -3.256144e+00 -1.928521e+00 -2.587645e-01 5.781382e-01 -1.514807e+00 -7.352776e-01 -1.063628e+00 9.405841e-01 1.905166e-01 3.052930e-01 -3.533019e-01 -4.413970e-01 -7.454529e-01 -4.039164e-01 1.171674e-01 1.358826e+00
<VARIANCE> 25
 2.820923e+01 5.578769e+01 3.829876e+01 5.668039e+01 4.932230e+01 3.740038e+01 7.377388e+01 4.975166e+01 3.830559e+01 4.099828e+01 5.049083e+01 2.780004e+01 2.157015e+00 3.116513e+00 2.897036e+00 3.979362e+00 4.030724e+00 4.058284e+00 4.605704e+00 5.211282e+00 3.178109e+00 3.620696e+00 3.883599e+00 2.430685e+00 2.359921e+00
<GCONST> 1.071946e+02
<STATE> 3
<MEAN> 25
 3.780848e+00 -1.131994e+01 -4.371373e+00 -6.031384e+00 6.113746e+00 -4.878929e-01 4.630767e+00 -9.729304e-01 -1.557394e+00 -4.922593e+00 -3.521939e+00 5.890889e-01 4.414331e-01 6.216195e-01 6.394675e-02 8.723942e-01 -3.845682e-01 1.439335e-01 -7.774464e-01 4.894191e-02 -4.118129e-01 -2.445889e-01 -1.055762e-01 6.886315e-02 -8.928273e-01
<VARIANCE> 25
 1.796230e+01 2.501402e+01 2.698945e+01 4.225263e+01 3.764280e+01 3.537985e+01 5.652898e+01 4.160322e+01 4.198596e+01 3.160179e+01 4.080207e+01 2.970586e+01 5.906746e-01 1.822893e+00 1.379815e+00 1.906492e+00 2.332502e+00 2.161458e+00 2.773158e+00 2.725648e+00 2.417052e+00 2.229194e+00 2.093174e+00 1.916496e+00 1.096871e+00
<GCONST> 9.618899e+01
<STATE> 4
<MEAN> 25
 8.102818e+00 -7.839094e+00 -6.158844e+00 -2.885262e+00 1.352646e+00 -1.812345e+00 -3.728290e+00 -1.061571e+00 -4.733784e+00 -8.838094e+00 -5.118384e+00 1.374542e+00 -1.715068e-01 6.737978e-01 2.750450e-01 2.482490e-01 -4.157050e-01 -2.415621e-01 -6.874246e-02 -6.357993e-02 -5.350062e-02 3.816415e-02 1.797217e-01 -1.367033e-01 -4.901375e-01
<VARIANCE> 25
 2.316552e+01 3.118370e+01 2.763379e+01 3.375026e+01 3.651032e+01 3.073323e+01 5.346761e+01 3.362828e+01 3.041349e+01 3.162815e+01 3.645826e+01 2.840132e+01 3.125840e-01 1.107962e+00 9.091294e-01 1.159776e+00 1.632268e+00 1.554920e+00 1.727170e+00 1.729651e+00 1.521337e+00 1.805814e+00 1.522901e+00 1.392449e+00 3.292882e-01
<GCONST> 8.936628e+01
<TRANSP> 5
 0.000000e+00 1.000000e+00 0.000000e+00 0.000000e+00 0.000000e+00
 0.000000e+00 7.113835e-01 2.886166e-01 0.000000e+00 0.000000e+00
 0.000000e+00 0.000000e+00 7.916250e-01 2.083751e-01 0.000000e+00
 0.000000e+00 0.000000e+00 0.000000e+00 8.017279e-01 1.982721e-01
 0.000000e+00 0.000000e+00 0.000000e+00 0.000000e+00 0.000000e+00
<ENDHMM>
~h "ao"
<BEGINHMM>
<NUMSTATES> 5
<STATE> 2
<MEAN> 25
 5.229239e+00 -2.451744e-02 -6.034794e+00 -1.440557e+01 3.279802e+00 -2.220792e+00 6.413794e-02 -4.220302e+00 -2.908158e+00 8.149615e+00 7.614931e-01 -2.613134e+00 2.499153e-01 -7.956791e-01 -3.654847e-01 -2.124925e+00 -4.602360e-01 9.261964e-02 6.583382e-01 -6.611279e-02 3.842141e-01 -5.025480e-02 2.382943e-01 -5.681785e-01 8.528020e-01
<VARIANCE> 25
 1.375750e+01 1.220196e+01 2.048861e+01 6.724221e+01 3.289499e+01 2.148325e+01 3.833409e+01 2.424068e+01 3.022639e+01 4.549388e+01 2.313221e+01 2.091339e+01 5.553905e-01 7.174057e-01 1.000262e+00 7.287246e+00 3.151050e+00 2.530511e+00 2.636707e+00 1.682369e+00 3.208062e+00 5.353786e+00 1.701989e+00 1.581669e+00 9.376242e-01
<GCONST> 9.350257e+01
<STATE> 3
<MEAN> 25
 5.846229e+00 -1.987862e+00 -7.627141e-01 -1.533363e+01 -5.344156e-01 -3.295774e+00 7.862071e-01 5.590603e-01 -8.387855e-01 -2.359078e+00 -2.666115e+00 -6.501429e+00 3.412200e-01 -4.473060e-01 5.210517e-01 1.159534e+00 -1.009765e+00 -2.071329e-01 -7.123213e-01 1.166605e+00 1.222436e+00 -6.736379e-01 -4.261119e-01 -7.142318e-01 2.841422e-01
<VARIANCE> 25
 1.045041e+01 2.322748e+01 6.600432e+01 2.792970e+01 4.339844e+01 2.748850e+01 5.315941e+01 6.136580e+01 7.158601e+01 8.441953e+01 4.731424e+01 1.727394e+01 4.155329e-01 2.103325e+00 1.411737e+00 5.145941e+00 5.258417e+00 2.288255e+00 2.318196e+00 2.232167e+00 3.429586e+00 6.134993e+00 3.531091e+00 1.647856e+00 3.882045e-01
<GCONST> 9.938639e+01
<STATE> 4
<MEAN> 25
 1.128935e+01 -1.138537e+00 -4.938700e+00 -1.229566e+01 -5.080660e+00 -2.060356e+00 -5.047768e+00 -1.107601e+00 3.011758e+00 2.142138e+00 -1.024398e+00 -4.685584e+00 2.072264e-02 -4.382272e-01 6.971085e-02 9.484478e-01 -6.856956e-01 -2.523058e-01 4.180198e-01 4.397331e-01 1.844302e-01 -2.230929e-01 -2.605279e-01 3.143656e-01 -1.489209e-01
<VARIANCE> 25
 1.535344e+01 2.189182e+01 3.019406e+01 4.563270e+01 5.338894e+01 4.927338e+01 8.279197e+01 9.506559e+01 5.782979e+01 3.422665e+01 2.960116e+01 2.946909e+01 1.759278e-01 5.520120e-01 1.078297e+00 3.306792e+00 1.625537e+00 1.647083e+00 1.688871e+00 2.080472e+00 2.638271e+00 2.570143e+00 2.167814e+00 1.275910e+00 1.920305e-01
<GCONST> 9.266256e+01
<TRANSP> 5
 0.000000e+00 1.000000e+00 0.000000e+00 0.000000e+00 0.000000e+00
 0.000000e+00 8.060215e-01 1.939785e-01 0.000000e+00 0.000000e+00
 0.000000e+00 0.000000e+00 6.766266e-01 3.233734e-01 0.000000e+00
 0.000000e+00 0.000000e+00 0.000000e+00 8.545697e-01 1.454304e-01
 0.000000e+00 0.000000e+00 0.000000e+00 0.000000e+00 0.000000e+00
<ENDHMM>
~h "eh"
<BEGINHMM>
<NUMSTATES> 5
<STATE> 2
<MEAN> 25
 3.725133e+00 -1.491858e+00 -2.225729e+00 -2.068544e+00 -2.864427e+00 -3.054073e+00 8.874818e-02 -1.365751e+00 1.355860e+00 -9.167204e-02 -1.396444e+00 -8.409168e-02 1.362416e+00 -5.038584e-01 -4.122960e-01 -1.252874e+00 -2.027958e-01 -1.794174e+00 -6.427236e-01 3.288797e-02 -3.224523e-02 -3.340165e-01 -1.380654e+00 -1.679436e-01 1.231621e+00
<VARIANCE> 25
 2.957646e+01 2.656943e+01 3.537287e+01 4.099157e+01 3.999678e+01 6.133913e+01 3.969797e+01 3.982031e+01 4.377364e+01 5.178563e+01 4.668332e+01 2.579782e+01 2.993045e+00 3.094917e+00 2.320978e+00 5.143418e+00 4.659379e+00 5.651445e+00 4.534867e+00 5.462149e+00 4.705092e+00 5.384519e+00 5.971090e+00 2.899898e+00 3.915337e+00
<GCONST> 1.085185e+02
<STATE> 3
<MEAN> 25
 5.699333e+00 -6.812442e-01 9.875566e-02 -3.550630e+00 -5.064366e+00 -6.323766e+00 2.282071e+00 1.609417e-01 -2.488833e+00 -9.125140e-01 -4.345865e+00 -2.739878e-01 -4.377763e-01 -1.181978e-01 1.892652e-01 2.737666e-01 7.429453e-01 -2.104845e-02 1.091452e-01 4.667354e-01 -3.816254e-01 -3.562136e-01 2.040626e-01 -5.274855e-02 4.336538e-01
<VARIANCE> 25
 3.348121e+01 5.783420e+01 4.338377e+01 5.664312e+01 7.493829e+01 5.971918e+01 6.285438e+01 4.651293e+01 8.487257e+01 4.626099e+01 5.801103e+01 2.919356e+01 3.063680e+00 6.663935e+00 2.399215e+00 5.980267e+00 4.878889e+00 4.592592e+00 3.557169e+00 6.176224e+00 3.147400e+00 3.048308e+00 4.287617e+00 2.649761e+00 4.345384e+00
<GCONST> 1.114587e+02
<STATE> 4
<MEAN> 25
 4.689585e+00 -2.649108e-01 -4.526414e-01 -1.535647e+00 -3.910945e+00 -8.054338e+00 -7.055440e-01 1.361941e+00 -2.299266e+00 -3.664585e+00 -3.363503e+00 1.031532e-01 -1.343184e+00 9.273942e-01 -2.062493e-01 1.056548e+00 4.344697e-01 6.837844e-01 4.266987e-01 -4.211894e-01 -1.661025e-01 3.476381e-01 6.485743e-01 -6.657795e-01 -3.299866e-01
<VARIANCE> 25
 3.656363e+01 6.466546e+01 1.911413e+01 5.012705e+01 3.385950e+01 5.570890e+01 5.452651e+01 4.467434e+01 5.129009e+01 4.539508e+01 3.888334e+01 3.583372e+01 2.869271e+00 3.369750e+00 1.300370e+00 2.670056e+00 2.383048e+00 4.367949e+00 3.398892e+00 3.193322e+00 2.620492e+00 2.395758e+00 2.124236e+00 2.552721e+00 7.586740e-01
<GCONST> 1.024053e+02
<TRANSP> 5
 0.000000e+00 1.000000e+00 0.000000e+00 0.000000e+00 0.000000e+00
 0.000000e+00 5.911662e-01 4.088338e-01 0.000000e+00 0.000000e+00
 0.000000e+00 0.000000e+00 5.428067e-01 4.571933e-01 0.000000e+00
 0.000000e+00 0.000000e+00 0.000000e+00 6.507836e-01 3.492164e-01
 0.000000e+00 0.000000e+00 0.000000e+00 0.000000e+00 0.000000e+00
<ENDHMM>
~h "hh"
<BEGINHMM>
<NUMSTATES> 5
<STATE> 2
<MEAN> 25
 -9.633951e-01 -9.122812e-01 -3.187805e+00 1.347173e+00 2.328715e+00 -1.242743e-01 -3.852971e-01 -3.236130e+00 3.246571e-02 1.542046e+00 3.358019e+00 2.875640e-01 -1.753062e-01 1.210525e-02 2.605634e-01 3.528406e-01 9.021927e-02 5.987538e-01 3.401797e-01 4.430634e-01 2.232428e-01 8.604369e-02 7.552949e-02 1.401078e-01 -4.011028e-01
<VARIANCE> 25
 3.676160e+00 6.838908e+00 6.294954e+00 2.173342e+01 1.379937e+01 1.941855e+01 1.531660e+01 1.510382e+01 2.637435e+01 2.226260e+01 1.774612e+01 1.899227e+01 3.489694e-01 4.017341e-01 5.665766e-01 9.815040e-01 1.068274e+00 1.208358e+00 1.247297e+00 1.457617e+00 1.563254e+00 2.079861e+00 1.022843e+00 1.305864e+00 1.325485e-01
<GCONST> 7.506950e+01
<STATE> 3
<MEAN> 25
 1.147041e+00 4.598911e-01 2.097457e-01 4.516797e+00 1.449610e+00 2.313674e+00 -2.745453e-02 3.520890e-01 1.239760e-01 -3.155264e-01 2.672795e+00 1.150074e+00 -1.224643e-02 7.034569e-02 1.435484e-01 3.730300e-02 -5.762990e-02 -1.987434e-02 2.643454e-02 9.252869e-02 4.242818e-02 -1.400481e-02 -3.011849e-02 3.110144e-02 -5.088367e-02
<VARIANCE> 25
 2.615998e+00 3.072139e+00 4.980002e+00 9.200088e+00 1.020462e+01 1.150422e+01 1.148884e+01 1.436048e+01 1.278929e+01 1.855386e+01 1.165217e+01 1.231234e+01 1.500854e-01 2.301196e-01 4.078478e-01 6.719046e-01 8.521183e-01 1.039790e+00 1.074737e+00 1.528698e+00 1.621573e+00 1.834776e+00 1.394893e+00 1.178546e+00 4.695048e-02
<GCONST> 6.640643e+01
<STATE> 4
<MEAN> 25
 -5.558403e+00 9.851083e-01 1.910414e+00 1.925564e+00 2.646461e+00 3.080002e+00 3.919823e+00 2.537221e+00 3.819994e+00 3.641009e+00 3.222432e+00 -4.319877e-01 -4.808467e-02 -2.937617e-02 2.523095e-02 1.703394e-02 -7.578429e-03 -1.248615e-03 3.749346e-02 4.833105e-02 5.559322e-02 2.403340e-02 -1.325710e-02 -4.284820e-03 1.523301e-02
<VARIANCE> 25
 3.685195e+00 3.008363e+00 4.392456e+00 7.249857e+00 9.010010e+00 1.375280e+01 1.318963e+01 1.358422e+01 1.623110e+01 1.465574e+01 1.233257e+01 1.326022e+01 1.286245e-01 2.273691e-01 4.575604e-01 6.106501e-01 8.680190e-01 1.033020e+00 1.249030e+00 1.516726e+00 1.930413e+00 1.567115e+00 1.194296e+00 1.258240e+00 3.743969e-02
<GCONST> 6.634217e+01
<TRANSP> 5
 0.000000e+00 1.000000e+00 0.000000e+00 0.000000e+00 0.000000e+00
 0.000000e+00 8.550792e-01 1.449208e-01 0.000000e+00 0.000000e+00
 0.000000e+00 0.000000e+00 9.363397e-01 6.366034e-02 0.000000e+00
 0.000000e+00 0.000000e+00 0.000000e+00 9.602032e-01 3.979671e-02
 0.000000e+00 0.000000e+00 0.000000e+00 0.000000e+00 0.000000e+00
<ENDHMM>
~h "ih"
<BEGINHMM>
<NUMSTATES> 5
<STATE> 2
<MEAN> 25
 9.357016e-01 4.632923e+00 9.695401e+00 -4.552271e+00 -3.280463e+00 -2.991598e+00 -5.118111e+00 -4.050217e+00 -3.620125e-01 -1.272143e+00 -3.543566e+00 -9.557236e-01 -1.911727e-01 1.851036e-01 9.762579e-01 -8.636084e-01 1.003699e-01 -2.231067e-01 -7.585282e-01 -3.405727e-02 4.248039e-02 -2.950593e-01 -4.312424e-01 1.553791e-02 3.031279e-01
<VARIANCE> 25
 2.845619e+01 7.980417e+01 6.606205e+01 1.461571e+02 7.815925e+01 5.152629e+01 5.795569e+01 5.335167e+01 5.239726e+01 4.458371e+01 3.154600e+01 3.766998e+01 2.624350e+00 3.120375e+00 4.650400e+00 9.769357e+00 5.455550e+00 4.347471e+00 4.873657e+00 4.705277e+00 5.190129e+00 4.812237e+00 3.645582e+00 2.937655e+00 2.895004e+00
<GCONST> 1.128939e+02
<STATE> 3
<MEAN> 25
 6.546071e-01 5.598472e+00 1.171995e+01 -8.615705e+00 -3.647320e+00 -4.042381e+00 -8.185283e+00 -6.126145e+00 -1.915895e+00 -8.489058e-01 -4.276664e+00 -4.963434e-01 8.228312e-02 -7.004356e-02 -5.155030e-01 5.274413e-01 3.423493e-01 9.417836e-02 1.330322e-01 2.403349e-01 1.685888e-01 -8.866758e-02 3.986903e-01 9.050341e-02 -4.363329e-01
<VARIANCE> 25
 1.743173e+01 3.605329e+01 4.366591e+01 1.070812e+02 7.498392e+01 3.790362e+01 3.740358e+01 4.741727e+01 4.749054e+01 4.280523e+01 2.656907e+01 3.780218e+01 5.226644e-01 7.605013e-01 1.373723e+00 3.187428e+00 2.089053e+00 1.757495e+00 1.892873e+00 2.260149e+00 1.963601e+00 1.819672e+00 1.820055e+00 1.621953e+00 5.214541e-01
<GCONST> 9.581582e+01
<STATE> 4
<MEAN> 25
 -1.143241e+00 1.719843e+00 1.911712e+00 3.503420e+00 7.252527e-01 1.500751e+00 2.001889e-01 1.038240e+00 1.764951e+00 7.041141e-01 1.810840e+00 2.677250e-01 -1.850858e-02 -6.363723e-02 -2.466883e-01 1.313397e-01 6.719475e-02 1.242033e-01 1.791594e-01 1.166338e-02 9.191077e-03 7.095542e-02 8.443731e-02 -3.321403e-02 -7.570668e-02
<VARIANCE> 25
 1.359566e+01 1.362451e+01 1.743349e+01 2.457573e+01 1.943386e+01 2.109267e+01 2.649436e+01 2.512821e+01 2.223458e+01 2.182915e+01 1.858211e+01 1.517474e+01 1.997554e-01 4.134679e-01 7.467246e-01 1.108075e+00 1.157439e+00 1.299364e+00 1.446101e+00 1.485994e+00 1.416711e+00 1.509297e+00 1.319638e+00 1.320542e+00 1.305477e-01
<GCONST> 7.934142e+01
<TRANSP> 5
 0.000000e+00 1.000000e+00 0.000000e+00 0.000000e+00 0.000000e+00
 0.000000e+00 7.640132e-01 2.359868e-01 0.000000e+00 0.000000e+00
 0.000000e+00 0.000000e+00 8.523588e-01 1.476411e-01 0.000000e+00
 0.000000e+00 0.000000e+00 0.000000e+00 8.962774e-01 1.037227e-01
 0.000000e+00 0.000000e+00 0.000000e+00 0.000000e+00 0.000000e+00
<ENDHMM>
~h "ng"
<BEGINHMM>
<NUMSTATES> 5
<STATE> 2
<MEAN> 25
 4.223389e+00 -2.448057e+00 6.294258e-01 -2.485889e+00 4.156599e+00 -8.189133e+00 1.563506e+00 -2.927580e+00 -7.332432e-01 -1.696576e+00 -6.720287e-01 -5.020237e+00 -1.392568e-01 -1.907734e-01 4.851653e-02 4.967587e-01 4.757065e-01 -2.015080e-01 -6.059371e-01 -2.232533e-01 5.366029e-01 1.796511e-01 5.498356e-01 -4.868304e-02 -5.125599e-02
<VARIANCE> 25
 1.029640e+01 5.078502e+01 3.878478e+01 5.730645e+01 4.413931e+01 4.581235e+01 6.022347e+01 6.424557e+01 4.651536e+01 3.771638e+01 6.017266e+01 4.430746e+01 6.064265e-01 9.117637e-01 1.129470e+00 1.712162e+00 1.935492e+00 1.860409e+00 2.354101e+00 2.581511e+00 1.674357e+00 2.679744e+00 1.870155e+00 1.660978e+00 5.192556e-01
<GCONST> 9.627556e+01
<STATE> 3
<MEAN> 25
 2.894411e+00 -1.438823e+00 5.119190e-01 2.019219e+00 8.520122e+00 -4.912620e+00 -2.228882e+00 -4.200207e+00 2.379710e+00 -1.614779e-01 2.429647e+00 -5.412980e+00 -1.857917e-01 4.898360e-01 1.645691e-01 3.998465e-01 -1.339498e-01 8.418798e-01 -9.329906e-02 3.836698e-01 1.080941e-01 -1.225802e-02 -3.410344e-01 7.302555e-02 -7.391373e-01
<VARIANCE> 25
 8.383348e+00 4.817830e+01 2.823355e+01 2.541019e+01 3.590671e+01 3.423293e+01 3.519633e+01 2.658790e+01 4.773346e+01 3.267111e+01 9.185497e+01 3.096253e+01 4.238554e-01 1.461306e+00 9.813502e-01 1.337792e+00 1.430153e+00 1.837646e+00 2.667208e+00 1.652673e+00 1.835271e+00 1.770367e+00 2.943559e+00 1.203604e+00 7.155617e-01
<GCONST> 9.213586e+01
<STATE> 4
<MEAN> 25
 -5.757672e-01 -5.193811e-02 -1.796947e+00 3.388959e+00 -4.623626e-01 2.423759e+00 1.744526e+00 4.585919e-01 3.862610e-01 2.207364e+00 7.227384e-01 1.421356e+00 -8.147991e-02 -3.563805e-02 -1.168193e-03 -1.547855e-02 -9.885120e-02 4.245331e-02 -1.405815e-02 8.882342e-02 4.858153e-02 7.230898e-02 9.429872e-02 8.541817e-02 -5.660161e-02
<VARIANCE> 25
 7.920873e+00 1.047045e+01 2.206549e+01 1.648853e+01 1.999873e+01 1.193757e+01 1.905642e+01 1.659087e+01 1.577445e+01 2.518462e+01 1.588965e+01 2.036992e+01 1.530323e-01 3.432070e-01 4.907362e-01 8.536448e-01 8.822724e-01 9.284971e-01 1.146890e+00 9.959325e-01 1.288780e+00 1.305592e+00 1.353690e+00 1.034760e+00 1.156789e-01
<GCONST> 7.407498e+01
<TRANSP> 5
 0.000000e+00 1.000000e+00 0.000000e+00 0.000000e+00 0.000000e+00
 0.000000e+00 6.484610e-01 3.515389e-01 0.000000e+00 0.000000e+00
 0.000000e+00 0.000000e+00 7.248589e-01 2.751411e-01 0.000000e+00
 0.000000e+00 0.000000e+00 0.000000e+00 9.427418e-01 5.725824e-02
 0.000000e+00 0.000000e+00 0.000000e+00 0.000000e+00 0.000000e+00
<ENDHMM>
~h "oh"
<BEGINHMM>
<NUMSTATES> 5
<STATE> 2
<MEAN> 25
 4.876313e-08 -1.572510e-08 -3.479018e-08 -3.353887e-08 3.894225e-08 5.448882e-08 6.837960e-09 -3.357679e-08 -9.075150e-09 1.238669e-09 6.825321e-10 3.043588e-08 1.480543e-02 -2.130302e-03 7.752344e-03 -2.168820e-03 1.143337e-02 -2.309903e-03 4.269884e-03 -3.775733e-03 -3.292339e-03 -9.014427e-04 -3.430429e-03 -3.983431e-03 3.762102e-02
<VARIANCE> 25
 4.782532e+01 4.486550e+01 4.720150e+01 6.892854e+01 4.782745e+01 4.025578e+01 4.904441e+01 4.112494e+01 4.163441e+01 4.402450e+01 3.629408e+01 2.461185e+01 1.112554e+00 1.522353e+00 1.617351e+00 2.656559e+00 2.172489e+00 2.083682e+00 2.429415e+00 2.410789e+00 2.262104e+00 2.509146e+00 2.111452e+00 1.695109e+00 1.480569e+00
<GCONST> 9.985252e+01
<STATE> 3
<MEAN> 25
 4.876313e-08 -1.572510e-08 -3.479018e-08 -3.353887e-08 3.894225e-08 5.448882e-08 6.837960e-09 -3.357679e-08 -9.075150e-09 1.238669e-09 6.825321e-10 3.043588e-08 1.480543e-02 -2.130302e-03 7.752344e-03 -2.168820e-03 1.143337e-02 -2.309903e-03 4.269884e-03 -3.775733e-03 -3.292339e-03 -9.014427e-04 -3.430429e-03 -3.983431e-03 3.762102e-02
<VARIANCE> 25
 4.782532e+01 4.486550e+01 4.720150e+01 6.892854e+01 4.782745e+01 4.025578e+01 4.904441e+01 4.112494e+01 4.163441e+01 4.402450e+01 3.629408e+01 2.461185e+01 1.112554e+00 1.522353e+00 1.617351e+00 2.656559e+00 2.172489e+00 2.083682e+00 2.429415e+00 2.410789e+00 2.262104e+00 2.509146e+00 2.111452e+00 1.695109e+00 1.480569e+00
<GCONST> 9.985252e+01
<STATE> 4
<MEAN> 25
 4.876313e-08 -1.572510e-08 -3.479018e-08 -3.353887e-08 3.894225e-08 5.448882e-08 6.837960e-09 -3.357679e-08 -9.075150e-09 1.238669e-09 6.825321e-10 3.043588e-08 1.480543e-02 -2.130302e-03 7.752344e-03 -2.168820e-03 1.143337e-02 -2.309903e-03 4.269884e-03 -3.775733e-03 -3.292339e-03 -9.014427e-04 -3.430429e-03 -3.983431e-03 3.762102e-02
<VARIANCE> 25
 4.782532e+01 4.486550e+01 4.720150e+01 6.892854e+01 4.782745e+01 4.025578e+01 4.904441e+01 4.112494e+01 4.163441e+01 4.402450e+01 3.629408e+01 2.461185e+01 1.112554e+00 1.522353e+00 1.617351e+00 2.656559e+00 2.172489e+00 2.083682e+00 2.429415e+00 2.410789e+00 2.262104e+00 2.509146e+00 2.111452e+00 1.695109e+00 1.480569e+00
<GCONST> 9.985252e+01
<TRANSP> 5
 0.000000e+00 1.000000e+00 0.000000e+00 0.000000e+00 0.000000e+00
 0.000000e+00 6.000000e-01 4.000000e-01 0.000000e+00 0.000000e+00
 0.000000e+00 0.000000e+00 6.000000e-01 4.000000e-01 0.000000e+00
 0.000000e+00 0.000000e+00 0.000000e+00 7.000000e-01 3.000000e-01
 0.000000e+00 0.000000e+00 0.000000e+00 0.000000e+00 0.000000e+00
<ENDHMM>
~h "sp"
<BEGINHMM>
<NUMSTATES> 3
<STATE> 2
~s "silst"
<TRANSP> 3
 0.000000e+00 4.033577e-02 9.596642e-01
 0.000000e+00 8.246040e-01 1.753960e-01
 0.000000e+00 0.000000e+00 0.000000e+00
<ENDHMM>
~h "uw"
<BEGINHMM>
<NUMSTATES> 5
<STATE> 2
<MEAN> 25
 5.372663e+00 1.434098e+00 -3.909086e+00 -9.800311e+00 1.810725e-01 -4.986900e+00 -4.649065e+00 -2.982493e+00 -1.712666e+00 2.340508e+00 2.453519e-01 -1.441430e+00 9.119546e-01 3.330241e-01 -7.607962e-01 -2.001737e+00 1.601090e-01 4.681199e-01 9.810479e-02 -6.118392e-01 -8.755825e-01 1.865531e-01 -1.925597e-01 2.502576e-03 3.395689e-01
<VARIANCE> 25
 2.161337e+01 1.957144e+01 3.372339e+01 6.778268e+01 7.090611e+01 4.255654e+01 4.299680e+01 3.345529e+01 3.965998e+01 4.526900e+01 3.935676e+01 2.713282e+01 1.723154e+00 1.679398e+00 1.829007e+00 5.488198e+00 3.705610e+00 4.191131e+00 2.755897e+00 3.064490e+00 3.828104e+00 2.975185e+00 3.077115e+00 2.705245e+00 1.915603e+00
<GCONST> 1.029260e+02
<STATE> 3
<MEAN> 25
 6.836419e+00 3.093093e+00 -4.423823e+00 -1.050940e+01 -1.489138e+00 -3.871672e+00 -3.941269e+00 -4.903638e+00 -4.394090e+00 1.229976e+00 -6.232163e-01 -1.171569e+00 -2.825422e-01 5.954167e-02 4.136292e-01 1.300493e+00 -6.055390e-02 6.457137e-02 -3.231339e-02 6.037669e-02 4.153575e-01 -1.358685e-01 1.031272e-01 2.937606e-02 -6.310800e-01
<VARIANCE> 25
 1.460281e+01 2.079863e+01 2.615714e+01 6.308913e+01 4.695954e+01 3.452334e+01 3.849747e+01 3.197528e+01 3.794704e+01 4.218422e+01 3.608203e+01 2.799554e+01 6.554421e-01 9.397582e-01 1.090719e+00 3.433820e+00 2.271360e+00 2.597042e+00 2.264323e+00 2.567587e+00 2.760713e+00 2.804018e+00 2.482679e+00 1.887454e+00 7.704840e-01
<GCONST> 9.557555e+01
<STATE> 4
<MEAN> 25
 -1.407112e+00 1.372821e+00 9.233994e-01 2.550614e+00 1.176139e+00 1.732520e+00 1.362516e+00 1.518342e+00 2.182794e+00 1.907961e+00 2.482475e+00 1.111405e-01 -1.148060e-01 -2.795019e-02 9.461739e-02 2.756847e-01 4.600129e-02 1.063641e-01 6.857357e-02 1.295066e-01 1.491519e-01 -1.719714e-02 9.753984e-03 -8.983934e-03 -8.438002e-02
<VARIANCE> 25
 1.731119e+01 6.568027e+00 1.009487e+01 1.830930e+01 1.315897e+01 1.789164e+01 2.419998e+01 2.106073e+01 2.115458e+01 2.041630e+01 1.703527e+01 1.305896e+01 1.839796e-01 3.174311e-01 5.164092e-01 8.859847e-01 1.078789e+00 1.213121e+00 1.394596e+00 1.526954e+00 1.638603e+00 1.578897e+00 1.369692e+00 1.217107e+00 9.822369e-02
<GCONST> 7.561179e+01
<TRANSP> 5
 0.000000e+00 1.000000e+00 0.000000e+00 0.000000e+00 0.000000e+00
 0.000000e+00 7.263713e-01 2.736287e-01 0.000000e+00 0.000000e+00
 0.000000e+00 0.000000e+00 8.581144e-01 1.418855e-01 0.000000e+00
 0.000000e+00 0.000000e+00 0.000000e+00 9.096255e-01 9.037452e-02
 0.000000e+00 0.000000e+00 0.000000e+00 0.000000e+00 0.000000e+00
<ENDHMM>
~h "sil"
<BEGINHMM>
<NUMSTATES> 5
<STATE> 2
<MEAN> 25
 -1.226097e+01 5.202652e+00 -1.429794e+00 8.422898e+00 -1.342292e+00 6.916831e+00 -1.017153e+00 6.963828e+00 7.599449e+00 4.112832e+00 5.000199e+00 2.024139e+00 -1.822603e-02 2.856566e-02 -1.231335e-02 -3.403957e-02 5.171469e-02 5.072876e-02 -2.089568e-02 -1.796296e-02 8.072008e-02 4.509359e-02 1.233034e-02 -6.992987e-02 -2.159709e-02
<VARIANCE> 25
 5.832086e+01 1.530637e+01 2.205536e+01 2.878995e+01 3.397720e+01 1.782095e+01 3.548076e+01 3.816817e+01 3.132357e+01 1.798129e+01 1.995755e+01 1.421172e+01 7.274434e-02 1.776075e-01 2.962651e-01 4.609526e-01 5.717366e-01 6.910487e-01 9.703043e-01 1.119774e+00 1.074256e+00 1.355187e+00 1.102104e+00 1.266305e+00 2.674290e-02
<GCONST> 7.469500e+01
<STATE> 3
~s "silst"
<STATE> 4
<MEAN> 25
 -3.330931e+00 3.986570e-01 -5.444424e-01 2.556436e+00 1.093590e+00 2.719732e+00 1.615617e+00 1.400113e+00 2.145843e+00 2.184392e+00 2.523035e+00 5.025617e-01 3.563072e-02 -3.411997e-03 3.868745e-02 2.466162e-02 1.045995e-02 -4.524605e-03 -1.528895e-03 -3.789296e-02 -6.307313e-02 3.322707e-02 2.387442e-02 1.500572e-02 1.223986e-01
<VARIANCE> 25
 2.758696e+01 9.191482e+00 1.271554e+01 1.774804e+01 1.504545e+01 1.870998e+01 2.739743e+01 2.542641e+01 2.121432e+01 2.055159e+01 1.939491e+01 1.551091e+01 4.357860e-01 5.092987e-01 7.122074e-01 9.083807e-01 1.172826e+00 1.346101e+00 1.372241e+00 1.614438e+00 1.691101e+00 1.399505e+00 1.419421e+00 1.331629e+00 3.832851e-01
<GCONST> 8.072263e+01
<TRANSP> 5
 0.000000e+00 1.000000e+00 0.000000e+00 0.000000e+00 0.000000e+00
 0.000000e+00 8.553256e-01 2.034851e-02 1.243259e-01 0.000000e+00
 0.000000e+00 0.000000e+00 9.588341e-01 4.116596e-02 0.000000e+00
 0.000000e+00 1.012031e-01 0.000000e+00 7.985128e-01 1.002842e-01
 0.000000e+00 0.000000e+00 0.000000e+00 0.000000e+00 0.000000e+00
<ENDHMM>
