~o
<STREAMINFO> 1 25
<VECSIZE> 25<NULLD><MFCC_D_N_Z_0><DIAGC>
~s "silst"
<MEAN> 25
 -5.949221e+00 4.255087e+00 -9.072229e+00 3.881002e+00 -7.202332e+00 6.268864e+00 -1.077866e+00 2.203445e+00 -2.304036e+00 6.252052e+00 -4.132696e-01 3.905872e+00 1.587090e-01 -1.418683e-01 1.009395e-01 -4.312982e-02 1.459131e-01 -1.014091e-01 9.030450e-02 1.185853e-02 -2.266336e-02 -5.416287e-02 -3.752484e-02 3.859847e-02 9.508702e-01
<VARIANCE> 25
 2.407224e+01 9.567980e+00 1.346697e+01 1.216812e+01 1.722625e+01 1.262050e+01 1.924843e+01 1.247625e+01 2.100391e+01 1.307720e+01 1.381093e+01 1.001501e+01 1.902965e+00 5.869097e-01 1.049912e+00 6.176968e-01 8.450621e-01 9.075926e-01 1.001900e+00 9.891272e-01 1.065787e+00 8.434119e-01 9.977766e-01 6.986615e-01 6.906898e+00
<GCONST> 7.876185e+01
~h "b"
<BEGINHMM>
<NUMSTATES> 5
<STATE> 2
<MEAN> 25
 1.891838e+00 3.995348e+00 1.224161e+01 -4.484245e+00 -8.693079e+00 -4.800886e+00 -3.120504e+00 -6.866127e+00 -4.782653e+00 4.436992e+00 -2.092224e+00 1.533621e+00 -9.342411e-01 -3.935434e-01 1.503335e+00 -2.194743e+00 -1.751955e+00 -6.425506e-01 5.103369e-01 -8.503780e-01 -4.678562e-01 1.716706e+00 3.375977e-01 5.440239e-01 1.280993e+00
<VARIANCE> 25
 2.640100e+01 1.290448e+01 6.622755e+01 1.083627e+02 3.931342e+01 2.862052e+01 3.083243e+01 4.826167e+01 3.913961e+01 6.050634e+01 2.453346e+01 3.911824e+01 2.080951e+00 1.566442e+00 7.345006e+00 8.338187e+00 3.022062e+00 3.255085e+00 3.566593e+00 5.655400e+00 4.493724e+00 4.225734e+00 3.438675e+00 3.273715e+00 6.688579e-01
<GCONST> 1.051735e+02
<STATE> 3
<MEAN> 25
 1.036085e+00 7.441300e-01 8.561792e+00 -6.981492e+00 -1.453908e+01 -9.737633e+00 7.226274e-01 -4.232991e+00 -3.415380e+00 5.245489e+00 1.603665e+00 2.964367e-01 5.572797e-01 -7.676685e-01 -2.560328e+00 7.283627e-01 1.313403e+00 -7.829322e-01 5.528245e-02 1.556640e+00 1.377131e+00 -1.931028e+00 -1.760200e-01 -8.254390e-03 4.717965e-02
<VARIANCE> 25
 2.603634e+01 1.614988e+01 3.778916e+01 3.117739e+01 4.276133e+01 3.843318e+01 4.883925e+01 3.218891e+01 3.833443e+01 4.509237e+01 2.473520e+01 4.311227e+01 6.318546e-01 1.467357e+00 2.287762e+00 2.549684e+00 4.873790e+00 2.672748e+00 4.224000e+00 3.699110e+00 3.876189e+00 4.327312e+00 2.567230e+00 3.222089e+00 4.208091e-01
<GCONST> 9.932269e+01
<STATE> 4
<MEAN> 25
 5.724965e+00 -6.950018e-02 -3.818835e+00 -4.767683e+00 -3.606255e+00 -8.279887e+00 -4.813708e+00 -9.018670e-01 3.876891e+00 -4.238053e+00 -3.278115e+00 3.448313e-01 2.096571e-01 2.553551e-01 -1.045761e+00 -1.449187e-01 1.529015e+00 8.299398e-01 -8.661810e-01 -7.253093e-01 5.006205e-01 -1.841918e-01 -8.634952e-02 -4.299711e-01 -5.741525e-01
<VARIANCE> 25
 2.311560e+01 1.962401e+01 4.254671e+01 3.342568e+01 4.354287e+01 3.417756e+01 3.899549e+01 5.189879e+01 6.570991e+01 6.800260e+01 2.982981e+01 2.310376e+01 8.249667e-01 6.287871e-01 2.348457e+00 2.024774e+00 3.483025e+00 1.863752e+00 2.365349e+00 3.862389e+00 3.289963e+00 2.898750e+00 2.781939e+00 1.905062e+00 2.354937e-01
<GCONST> 9.664475e+01
<TRANSP> 5
 0.000000e+00 1.000000e+00 0.000000e+00 0.000000e+00 0.000000e+00
 0.000000e+00 8.260174e-01 1.739826e-01 0.000000e+00 0.000000e+00
 0.000000e+00 0.000000e+00 7.204235e-01 2.795765e-01 0.000000e+00
 0.000000e+00 0.000000e+00 0.000000e+00 6.982630e-01 3.017370e-01
 0.000000e+00 0.000000e+00 0.000000e+00 0.000000e+00 0.000000e+00
<ENDHMM>
~h "c"
<BEGINHMM>
<NUMSTATES> 5
<STATE> 2
<MEAN> 25
 4.876313e-08 -1.572510e-08 -3.479018e-08 -3.353887e-08 3.894225e-08 5.448882e-08 6.837960e-09 -3.357679e-08 -9.075150e-09 1.238669e-09 6.825321e-10 3.043588e-08 1.480543e-02 -2.130302e-03 7.752344e-03 -2.168820e-03 1.143337e-02 -2.309903e-03 4.269884e-03 -3.775733e-03 -3.292339e-03 -9.014427e-04 -3.430429e-03 -3.983431e-03 3.762102e-02
<VARIANCE> 25
 4.782532e+01 4.486550e+01 4.720150e+01 6.892854e+01 4.782745e+01 4.025578e+01 4.904441e+01 4.112494e+01 4.163441e+01 4.402450e+01 3.629408e+01 2.461185e+01 1.112554e+00 1.522353e+00 1.617351e+00 2.656559e+00 2.172489e+00 2.083682e+00 2.429415e+00 2.410789e+00 2.262104e+00 2.509146e+00 2.111452e+00 1.695109e+00 1.480569e+00
<GCONST> 9.985252e+01
<STATE> 3
<MEAN> 25
 4.876313e-08 -1.572510e-08 -3.479018e-08 -3.353887e-08 3.894225e-08 5.448882e-08 6.837960e-09 -3.357679e-08 -9.075150e-09 1.238669e-09 6.825321e-10 3.043588e-08 1.480543e-02 -2.130302e-03 7.752344e-03 -2.168820e-03 1.143337e-02 -2.309903e-03 4.269884e-03 -3.775733e-03 -3.292339e-03 -9.014427e-04 -3.430429e-03 -3.983431e-03 3.762102e-02
<VARIANCE> 25
 4.782532e+01 4.486550e+01 4.720150e+01 6.892854e+01 4.782745e+01 4.025578e+01 4.904441e+01 4.112494e+01 4.163441e+01 4.402450e+01 3.629408e+01 2.461185e+01 1.112554e+00 1.522353e+00 1.617351e+00 2.656559e+00 2.172489e+00 2.083682e+00 2.429415e+00 2.410789e+00 2.262104e+00 2.509146e+00 2.111452e+00 1.695109e+00 1.480569e+00
<GCONST> 9.985252e+01
<STATE> 4
<MEAN> 25
 4.876313e-08 -1.572510e-08 -3.479018e-08 -3.353887e-08 3.894225e-08 5.448882e-08 6.837960e-09 -3.357679e-08 -9.075150e-09 1.238669e-09 6.825321e-10 3.043588e-08 1.480543e-02 -2.130302e-03 7.752344e-03 -2.168820e-03 1.143337e-02 -2.309903e-03 4.269884e-03 -3.775733e-03 -3.292339e-03 -9.014427e-04 -3.430429e-03 -3.983431e-03 3.762102e-02
<VARIANCE> 25
 4.782532e+01 4.486550e+01 4.720150e+01 6.892854e+01 4.782745e+01 4.025578e+01 4.904441e+01 4.112494e+01 4.163441e+01 4.402450e+01 3.629408e+01 2.461185e+01 1.112554e+00 1.522353e+00 1.617351e+00 2.656559e+00 2.172489e+00 2.083682e+00 2.429415e+00 2.410789e+00 2.262104e+00 2.509146e+00 2.111452e+00 1.695109e+00 1.480569e+00
<GCONST> 9.985252e+01
<TRANSP> 5
 0.000000e+00 1.000000e+00 0.000000e+00 0.000000e+00 0.000000e+00
 0.000000e+00 6.000000e-01 4.000000e-01 0.000000e+00 0.000000e+00
 0.000000e+00 0.000000e+00 6.000000e-01 4.000000e-01 0.000000e+00
 0.000000e+00 0.000000e+00 0.000000e+00 7.000000e-01 3.000000e-01
 0.000000e+00 0.000000e+00 0.000000e+00 0.000000e+00 0.000000e+00
<ENDHMM>
~h "d"
<BEGINHMM>
<NUMSTATES> 5
<STATE> 2
<MEAN> 25
 2.547875e+00 3.727924e+00 2.556702e+00 4.138815e+00 -1.703188e+00 -7.292472e-01 -2.195363e+00 -1.757827e+00 -1.959005e+00 -8.073075e-01 -5.152360e-02 -1.997761e+00 4.696015e-01 -3.022513e-01 1.837829e+00 -1.078854e+00 -1.257424e+00 -7.483149e-01 -6.496353e-01 -8.221487e-01 -1.722515e+00 2.135982e-01 -7.416009e-01 -5.887113e-01 1.797154e+00
<VARIANCE> 25
 2.700260e+01 2.966274e+01 2.195265e+01 3.057713e+01 3.247057e+01 2.858302e+01 3.149413e+01 2.942565e+01 2.571272e+01 3.510576e+01 2.943999e+01 1.747640e+01 2.780076e+00 3.809878e+00 3.913510e+00 3.976890e+00 3.351639e+00 3.416803e+00 3.723619e+00 4.229019e+00 3.706156e+00 6.676800e+00 3.800602e+00 2.510441e+00 2.796328e+00
<GCONST> 1.026477e+02
<STATE> 3
<MEAN> 25
 9.701937e-02 1.508162e+00 1.485889e+01 -8.359845e+00 -1.117110e+01 -6.046074e-01 -7.008554e+00 -5.988313e+00 -9.311236e+00 6.182524e+00 -4.309662e+00 -4.122722e-01 -4.771688e-01 -5.590594e-01 9.503420e-01 -2.366396e+00 -1.114041e+00 -7.456987e-01 9.861954e-03 -2.531901e-01 5.247499e-01 1.304895e+00 -6.494963e-02 7.501808e-01 1.253677e+00
<VARIANCE> 25
 1.147397e+01 2.040013e+01 3.949565e+01 5.183251e+01 4.506152e+01 2.664013e+01 3.049940e+01 3.935559e+01 4.712420e+01 5.988752e+01 3.652984e+01 5.965265e+01 1.164490e+00 2.848545e+00 4.074735e+00 4.405404e+00 3.982607e+00 3.435141e+00 6.433062e+00 3.568704e+00 4.593791e+00 4.655993e+00 4.003889e+00 3.569653e+00 1.669443e+00
<GCONST> 1.049109e+02
<STATE> 4
<MEAN> 25
 4.205554e-01 -5.585044e+00 7.911468e+00 -1.327970e+01 -1.135427e+01 -6.181226e+00 4.386566e+00 1.777026e+00 -1.760360e+00 6.064821e+00 -2.733683e+00 8.222085e-01 2.996388e-01 -1.277579e+00 -2.149905e+00 -2.340061e-01 1.823830e+00 -4.390596e-01 2.048292e+00 1.278545e+00 1.274683e+00 -2.270689e+00 -4.910316e-01 -2.583637e-02 4.191637e-01
<VARIANCE> 25
 2.800237e+01 2.773302e+01 4.739480e+01 4.737411e+01 5.922787e+01 2.061913e+01 6.776353e+01 5.870163e+01 3.724583e+01 8.697458e+01 3.754691e+01 2.382863e+01 5.500182e-01 2.594629e+00 2.974475e+00 2.955061e+00 5.563791e+00 2.094998e+00 6.255670e+00 4.360354e+00 3.246875e+00 6.018525e+00 3.267234e+00 2.515574e+00 1.182928e+00
<GCONST> 1.041323e+02
<TRANSP> 5
 0.000000e+00 1.000000e+00 0.000000e+00 0.000000e+00 0.000000e+00
 0.000000e+00 7.513477e-01 2.486523e-01 0.000000e+00 0.000000e+00
 0.000000e+00 0.000000e+00 7.429086e-01 2.570914e-01 0.000000e+00
 0.000000e+00 0.000000e+00 0.000000e+00 6.750522e-01 3.249479e-01
 0.000000e+00 0.000000e+00 0.000000e+00 0.000000e+00 0.000000e+00
<ENDHMM>
~h "g"
<BEGINHMM>
<NUMSTATES> 5
<STATE> 2
<MEAN> 25
 3.217215e+00 4.869532e+00 4.227602e+00 2.171184e+00 -2.749477e+00 -1.783103e+00 -3.842322e+00 -1.371042e+00 -2.090534e+00 -8.289618e-01 -2.727069e+00 -2.232595e+00 -2.338824e-01 -7.525990e-01 1.069420e-01 3.754980e-02 8.953456e-01 -6.413025e-01 8.278485e-02 -2.604526e-01 -6.384269e-01 6.513322e-01 9.751007e-02 -3.520728e-02 8.809884e-01
<VARIANCE> 25
 5.069180e+01 1.241472e+02 6.203878e+01 6.470741e+01 5.599599e+01 5.773981e+01 7.528146e+01 5.978219e+01 4.124894e+01 4.768280e+01 6.279729e+01 3.757812e+01 4.666192e+00 9.497669e+00 6.272838e+00 8.357804e+00 6.869920e+00 6.317431e+00 6.151397e+00 4.928964e+00 4.852847e+00 5.756123e+00 5.676554e+00 3.603486e+00 7.064354e+00
<GCONST> 1.180717e+02
<STATE> 3
<MEAN> 25
 2.616343e+00 -1.922425e+00 -2.934546e+00 7.961712e-01 7.573469e+00 -3.076980e+00 -4.012670e+00 -2.071930e+00 -3.445581e+00 6.456286e+00 1.886322e-01 -7.926791e-01 8.000880e-01 1.204153e-01 -1.191846e-01 -1.698730e+00 4.618960e-01 -4.977697e-01 -2.499824e-01 -8.176127e-01 -1.182171e-01 -4.446946e-01 -5.464275e-01 -1.140961e-01 1.432750e+00
<VARIANCE> 25
 2.784295e+01 2.960964e+01 1.185907e+02 1.082176e+02 7.153431e+01 9.693861e+01 6.960792e+01 3.572567e+01 6.147226e+01 1.202735e+02 4.248685e+01 4.105854e+01 3.307759e+00 4.258408e+00 6.825885e+00 8.814884e+00 5.509305e+00 5.436993e+00 9.259042e+00 4.510455e+00 6.133412e+00 1.071163e+01 3.402765e+00 3.851565e+00 3.719415e+00
<GCONST> 1.171027e+02
<STATE> 4
<MEAN> 25
 1.937556e+00 8.034815e-01 1.060471e+01 6.130787e+00 6.023241e+00 -4.489885e+00 -6.659920e+00 -1.462999e+00 5.424005e-01 -7.147546e+00 -2.575345e+00 -3.840410e+00 5.832311e-02 2.069612e-01 -2.778986e-01 -2.484659e-01 -3.192013e-02 3.032835e-01 2.525761e-01 1.310202e-01 4.215398e-02 2.189963e-01 -7.599940e-02 8.687282e-02 -1.084523e-01
<VARIANCE> 25
 1.943770e+01 3.180989e+01 7.983535e+01 3.939384e+01 2.542260e+01 4.182907e+01 5.772859e+01 2.748246e+01 2.439787e+01 6.165370e+01 1.993521e+01 1.832454e+01 7.585933e-01 1.469820e+00 2.438675e+00 2.381726e+00 2.021419e+00 2.101234e+00 3.280918e+00 2.043615e+00 1.892232e+00 3.446944e+00 1.691273e+00 1.458987e+00 1.078100e+00
<GCONST> 9.605375e+01
<TRANSP> 5
 0.000000e+00 1.000000e+00 0.000000e+00 0.000000e+00 0.000000e+00
 0.000000e+00 6.875816e-01 3.124184e-01 0.000000e+00 0.000000e+00
 0.000000e+00 0.000000e+00 6.059848e-01 3.940152e-01 0.000000e+00
 0.000000e+00 0.000000e+00 0.000000e+00 8.326936e-01 1.673064e-01
 0.000000e+00 0.000000e+00 0.000000e+00 0.000000e+00 0.000000e+00
<ENDHMM>
~h "h"
<BEGINHMM>
<NUMSTATES> 5
<STATE> 2
<MEAN> 25
 -8.971004e-01 1.494893e+00 1.104040e+00 3.916560e+00 7.240468e-02 2.507079e+00 -1.248275e-01 5.701829e-01 1.270368e+00 8.400466e-01 2.622772e+00 -3.103780e-01 1.126302e-03 5.052293e-02 -1.242355e-02 7.902149e-03 2.501402e-02 -2.833134e-02 -3.713617e-02 8.601213e-02 1.518908e-01 -4.169019e-02 -1.193190e-01 -8.353498e-02 -1.815852e-02
<VARIANCE> 25
 1.047679e+01 5.233990e+00 6.585803e+00 9.440886e+00 9.454300e+00 1.350378e+01 1.480578e+01 1.536060e+01 1.846573e+01 1.443359e+01 1.089618e+01 1.154642e+01 1.212214e-01 2.775008e-01 4.323061e-01 5.013793e-01 7.618343e-01 1.415497e+00 1.295607e+00 1.403040e+00 1.592756e+00 1.442732e+00 1.049079e+00 1.483215e+00 4.886901e-02
<GCONST> 6.878526e+01
<STATE> 3
<MEAN> 25
 -2.487605e+00 -2.383949e+00 -3.732454e-01 5.732601e+00 6.567363e+00 -7.875839e-02 -6.629638e-04 8.378950e-01 2.184666e+00 -3.267071e+00 2.148349e+00 1.741149e+00 -8.551653e-02 -1.330862e+00 -4.257465e-01 -6.840972e-03 1.348637e+00 -2.231872e-01 2.628645e-01 -5.896649e-01 -6.532257e-01 -1.010601e+00 -1.325826e-01 9.020381e-01 8.464240e-01
<VARIANCE> 25
 1.569169e+01 2.150500e+01 1.916368e+01 8.065089e+00 1.690709e+01 2.183851e+01 1.999911e+01 4.723355e+01 4.164768e+01 3.841511e+01 1.614540e+01 2.001796e+01 4.149178e-01 1.705558e+00 2.768984e+00 1.250538e+00 1.950668e+00 1.940669e+00 1.798594e+00 3.112695e+00 2.519585e+00 2.414088e+00 2.837659e+00 2.662307e+00 2.670605e-01
<GCONST> 8.918434e+01
<STATE> 4
<MEAN> 25
 8.240310e+00 -4.113361e+00 -2.412802e+00 2.407336e+00 -8.825980e-01 -2.145087e+00 -4.680185e+00 -6.763542e+00 -6.615039e+00 -9.196075e+00 -4.855384e+00 3.787518e+00 3.174182e-01 3.635966e-01 -4.767115e-02 -3.263663e-01 -3.435299e-01 -3.516707e-01 -2.662104e-01 -5.519410e-01 -8.283422e-02 8.265562e-02 -2.068900e-02 -6.492778e-02 8.558456e-02
<VARIANCE> 25
 4.045503e+01 5.264890e+01 4.091793e+01 1.752314e+01 4.111789e+01 2.442384e+01 3.330689e+01 4.481005e+01 3.479359e+01 3.828968e+01 2.601472e+01 1.996188e+01 1.544884e+00 9.594848e-01 1.972436e+00 1.668460e+00 1.523616e+00 1.337607e+00 2.584450e+00 2.069580e+00 1.756640e+00 1.618288e+00 2.363618e+00 1.159621e+00 5.014791e-01
<GCONST> 9.318961e+01
<TRANSP> 5
 0.000000e+00 1.000000e+00 0.000000e+00 0.000000e+00 0.000000e+00
 0.000000e+00 9.493412e-01 5.065884e-02 0.000000e+00 0.000000e+00
 0.000000e+00 0.000000e+00 7.922181e-01 2.077819e-01 0.000000e+00
 0.000000e+00 0.000000e+00 0.000000e+00 9.098236e-01 9.017641e-02
 0.000000e+00 0.000000e+00 0.000000e+00 0.000000e+00 0.000000e+00
<ENDHMM>
~h "j"
<BEGINHMM>
<NUMSTATES> 5
<STATE> 2
<MEAN> 25
 4.485757e+00 2.357021e+00 6.063906e+00 -2.854751e+00 -3.605783e+00 -4.873690e+00 -5.427806e+00 -9.269440e-02 -5.197692e+00 2.311850e+00 -5.692742e+00 -3.782845e+00 -1.018437e-01 4.798387e-02 5.257282e-01 1.215701e+00 2.120244e-01 7.066255e-01 2.839307e-01 5.156732e-01 -5.372165e-02 -1.024995e+00 2.103150e-01 1.270411e-01 -3.161825e-01
<VARIANCE> 25
 7.306628e+00 3.363281e+00 2.087983e+01 2.690678e+01 3.327045e+01 6.204005e+01 3.484053e+01 1.878193e+01 4.163170e+01 9.922801e+01 2.069399e+01 1.582475e+01 2.645304e-01 3.722640e-01 2.195033e+00 7.062567e-01 5.944094e+00 5.136830e+00 1.763167e+00 2.640400e+00 3.250170e+00 2.632012e+00 2.130751e+00 1.296693e+00 5.557877e-01
<GCONST> 8.936633e+01
<STATE> 3
<MEAN> 25
 -1.684963e+00 5.532717e+00 3.757029e+00 4.715446e+00 -2.867256e+00 3.622322e+00 -5.901447e+00 -2.242027e+00 -2.417056e+00 -2.121653e+00 -2.317252e+00 -3.998852e+00 -1.749618e+00 4.611795e-01 3.806769e-01 -4.719245e-01 -6.306955e-01 3.616168e-01 6.037961e-01 -3.477571e-01 -5.556968e-02 1.170787e+00 8.340263e-01 -2.303402e-02 9.393932e-02
<VARIANCE> 25
 5.554713e+01 1.284258e+01 8.451604e+01 2.546782e+01 5.123612e+01 4.851192e+01 2.791679e+01 3.180029e+01 2.189005e+01 3.188598e+01 2.882709e+01 1.989429e+01 3.787243e+00 1.578281e+00 2.231453e+00 3.213821e+00 6.534168e+00 5.477826e+00 2.003222e+00 2.600972e+00 4.643960e+00 2.939556e+00 2.868670e+00 2.147298e+00 3.029343e+00
<GCONST> 1.022249e+02
<STATE> 4
<MEAN> 25
 -2.988959e+00 5.830986e+00 7.192294e+00 -2.856671e+00 -6.039681e+00 -8.649511e+00 -6.348228e+00 2.971742e-02 -1.036765e+00 6.079275e+00 3.850979e+00 -2.389226e+00 7.614451e-01 -3.578737e-01 -7.341989e-02 -4.880379e-01 5.871686e-02 -1.251635e+00 -2.287767e-01 1.672410e-01 1.980272e-01 2.775224e-01 -4.610074e-01 3.322079e-01 4.868505e-01
<VARIANCE> 25
 5.123679e+01 7.158869e+01 2.965253e+01 5.883277e+01 8.052733e+01 1.153470e+02 6.080259e+01 3.233426e+01 6.282321e+01 3.860101e+01 3.487956e+01 3.280069e+01 4.077058e+00 5.671720e+00 4.461383e+00 5.629050e+00 9.202389e+00 1.021252e+01 5.158774e+00 5.644862e+00 6.964251e+00 4.606972e+00 4.257347e+00 3.554866e+00 7.490793e+00
<GCONST> 1.156526e+02
<TRANSP> 5
 0.000000e+00 1.000000e+00 0.000000e+00 0.000000e+00 0.000000e+00
 0.000000e+00 8.775585e-01 1.224415e-01 0.000000e+00 0.000000e+00
 0.000000e+00 0.000000e+00 8.593072e-01 1.406928e-01 0.000000e+00
 0.000000e+00 0.000000e+00 0.000000e+00 9.041801e-01 9.581990e-02
 0.000000e+00 0.000000e+00 0.000000e+00 0.000000e+00 0.000000e+00
<ENDHMM>
~h "k"
<BEGINHMM>
<NUMSTATES> 5
<STATE> 2
<MEAN> 25
 5.305739e+00 1.901694e+00 -4.644771e+00 -3.162838e+00 9.185951e-01 -6.795193e-01 -5.199854e+00 -2.590176e+00 -1.527841e+00 -7.524097e-01 -2.610647e+00 -2.287304e+00 -6.520059e-01 -9.109854e-02 -2.868203e-01 1.098549e-02 2.338015e-01 1.576033e-02 6.684821e-01 7.583601e-02 7.431545e-02 6.855356e-01 4.220892e-01 5.320709e-02 -7.638349e-02
<VARIANCE> 25
 2.875215e+01 5.246776e+01 4.990215e+01 1.012578e+02 3.983568e+01 5.747591e+01 8.309905e+01 3.908176e+01 5.615309e+01 5.431164e+01 3.643130e+01 3.697377e+01 3.364002e+00 4.588856e+00 3.466104e+00 5.398847e+00 3.252856e+00 5.333671e+00 6.209165e+00 3.910433e+00 6.962079e+00 5.114353e+00 2.947761e+00 3.632759e+00 7.032736e+00
<GCONST> 1.124472e+02
<STATE> 3
<MEAN> 25
 -3.394235e-01 -6.696741e-01 -5.068714e+00 -5.085004e-01 1.934324e+00 3.461719e+00 8.356313e-01 -1.164937e+00 1.161879e+00 4.286635e+00 1.065278e+00 -3.539272e-01 -4.672613e-01 -2.008051e-02 2.380562e-01 6.731787e-01 1.484142e-01 7.433926e-02 -1.885925e-01 1.240945e-01 1.355706e-01 5.473267e-01 3.576032e-01 1.463997e-01 -4.097344e-01
<VARIANCE> 25
 6.792200e+00 1.723746e+01 2.218738e+01 3.111771e+01 3.671142e+01 2.074394e+01 3.297223e+01 2.203893e+01 1.647972e+01 3.391440e+01 2.757366e+01 1.717389e+01 8.850656e-01 1.148050e+00 2.620202e+00 1.844251e+00 2.199083e+00 1.995882e+00 3.455914e+00 2.261272e+00 2.162773e+00 4.674378e+00 1.980915e+00 1.889710e+00 1.361030e+00
<GCONST> 9.202528e+01
<STATE> 4
<MEAN> 25
 -2.966372e+00 7.671286e-01 -1.280873e-01 3.834383e+00 3.205849e+00 3.725952e+00 2.492095e+00 2.208083e+00 2.944691e+00 2.491648e+00 2.711148e+00 4.666869e-01 -7.361870e-02 3.292595e-02 1.286790e-01 6.500899e-02 -4.593678e-02 -2.638232e-02 4.842282e-02 6.231336e-02 3.992366e-02 -3.791140e-02 4.804866e-02 6.117114e-02 -2.521674e-02
<VARIANCE> 25
 1.256544e+01 6.269354e+00 9.748497e+00 1.276747e+01 1.653401e+01 1.320789e+01 2.357632e+01 1.694852e+01 1.749572e+01 2.055872e+01 1.612841e+01 1.162509e+01 1.472146e-01 3.229161e-01 5.646570e-01 6.986895e-01 9.034994e-01 1.213347e+00 1.531201e+00 1.373878e+00 1.481892e+00 1.578951e+00 1.293237e+00 1.087796e+00 6.655991e-02
<GCONST> 7.297421e+01
<TRANSP> 5
 0.000000e+00 1.000000e+00 0.000000e+00 0.000000e+00 0.000000e+00
 0.000000e+00 7.805311e-01 2.194689e-01 0.000000e+00 0.000000e+00
 0.000000e+00 0.000000e+00 7.431762e-01 2.568238e-01 0.000000e+00
 0.000000e+00 0.000000e+00 0.000000e+00 9.367678e-01 6.323225e-02
 0.000000e+00 0.000000e+00 0.000000e+00 0.000000e+00 0.000000e+00
<ENDHMM>
~h "l"
<BEGINHMM>
<NUMSTATES> 5
<STATE> 2
<MEAN> 25
 3.596059e+00 -6.976748e+00 -5.529367e+00 -9.121442e+00 4.152887e+00 1.761199e+00 3.187940e-01 -2.297649e+00 1.968028e+00 9.637102e-01 -1.574102e+00 -1.066737e+00 2.908508e-02 8.749086e-02 -2.135865e-01 -1.701340e-01 1.378675e-01 1.547565e-01 5.243509e-02 -4.326953e-02 1.887023e-01 7.998895e-02 2.881313e-02 -1.347654e-01 -7.471238e-02
<VARIANCE> 25
 8.112344e+00 2.694605e+01 3.535379e+01 3.342569e+01 8.158184e+01 5.896037e+01 4.182728e+01 5.156141e+01 2.417294e+01 3.550121e+01 3.137212e+01 1.934363e+01 3.520956e-01 8.221843e-01 7.483043e-01 1.364092e+00 3.591820e+00 1.587937e+00 1.572497e+00 1.660218e+00 1.715982e+00 1.882433e+00 1.266721e+00 1.168714e+00 4.845876e-01
<GCONST> 9.004880e+01
<STATE> 3
<MEAN> 25
 4.031853e+00 7.383600e-02 -3.993640e+00 -2.886271e+00 2.515760e+00 -1.397497e+00 -2.650827e+00 -4.474392e+00 4.565947e-01 -2.147251e+00 6.673897e-02 -1.068460e+00 -2.028272e-01 5.673785e-01 7.845002e-01 1.605898e+00 -4.557022e-01 1.650987e-01 -1.389174e-01 5.470315e-01 -2.245976e-01 -5.540844e-02 1.129959e-01 1.637326e-01 -9.869477e-01
<VARIANCE> 25
 1.083109e+01 1.725526e+01 2.223675e+01 4.030845e+01 5.627111e+01 4.991990e+01 4.775447e+01 5.384572e+01 3.680515e+01 2.489605e+01 3.623052e+01 2.040000e+01 4.444318e-01 1.256776e+00 1.100643e+00 2.114099e+00 1.903387e+00 1.759231e+00 2.519991e+00 2.615674e+00 2.083880e+00 2.007586e+00 1.757535e+00 1.707667e+00 6.917907e-01
<GCONST> 9.271249e+01
<STATE> 4
<MEAN> 25
 -9.345615e-02 8.922968e-01 3.402346e-01 4.466488e+00 5.239511e-01 1.158530e+00 -3.392151e-01 1.671076e+00 1.224932e+00 -6.823800e-01 2.066186e+00 -5.197453e-01 -7.993437e-02 -3.026348e-02 2.135642e-02 4.912790e-02 2.152024e-02 6.485888e-02 6.482583e-02 1.108108e-01 3.307057e-03 5.819159e-03 -8.996010e-03 -1.879675e-02 -2.796598e-02
<VARIANCE> 25
 1.137124e+01 5.250029e+00 1.079374e+01 1.621933e+01 1.569281e+01 1.711646e+01 1.736730e+01 1.726170e+01 1.846931e+01 1.673508e+01 1.693690e+01 1.415546e+01 1.772999e-01 2.861376e-01 5.500296e-01 7.568378e-01 1.006404e+00 1.300470e+00 1.242864e+00 1.560045e+00 1.630141e+00 1.334070e+00 1.202895e+00 1.155933e+00 8.900671e-02
<GCONST> 7.347211e+01
<TRANSP> 5
 0.000000e+00 1.000000e+00 0.000000e+00 0.000000e+00 0.000000e+00
 0.000000e+00 8.448393e-01 1.551607e-01 0.000000e+00 0.000000e+00
 0.000000e+00 0.000000e+00 6.989778e-01 3.010222e-01 0.000000e+00
 0.000000e+00 0.000000e+00 0.000000e+00 9.114724e-01 8.852766e-02
 0.000000e+00 0.000000e+00 0.000000e+00 0.000000e+00 0.000000e+00
<ENDHMM>
~h "m"
<BEGINHMM>
<NUMSTATES> 5
<STATE> 2
<MEAN> 25
 5.623642e+00 -3.686568e-01 -2.074209e+00 1.478377e+00 3.573205e+00 8.057603e-01 -3.515192e+00 -2.523124e+00 -2.801189e+00 -3.655326e+00 -3.518345e+00 -2.308574e+00 4.158407e-02 1.037407e+00 7.245396e-01 1.042668e+00 -1.597201e-01 -5.295020e-01 -4.930252e-01 -5.482397e-01 -3.358001e-01 -5.006615e-02 -3.828453e-01 -2.932131e-01 -5.935875e-01
<VARIANCE> 25
 3.555964e+01 5.315022e+01 3.525296e+01 7.520235e+01 4.136526e+01 5.894076e+01 3.599838e+01 3.396290e+01 3.286512e+01 3.226221e+01 2.933945e+01 2.147388e+01 1.652778e+00 2.456300e+00 2.450467e+00 3.193759e+00 2.292376e+00 3.884644e+00 2.958689e+00 3.621961e+00 2.331943e+00 2.777737e+00 2.957674e+00 2.134675e+00 1.383615e+00
<GCONST> 1.017465e+02
<STATE> 3
<MEAN> 25
 5.269022e+00 2.237309e+00 2.314337e+00 4.143280e+00 3.073079e+00 -3.956181e+00 -4.693398e+00 -4.256895e+00 -2.757149e+00 -4.623106e+00 -3.750177e+00 -4.649641e+00 -1.963617e-01 2.476324e-01 1.640650e-01 3.130956e-01 -1.707382e-01 2.235241e-01 2.369913e-01 2.626689e-01 2.230126e-01 2.405353e-01 1.477704e-01 1.063263e-01 -3.826377e-01
<VARIANCE> 25
 1.410147e+01 2.414312e+01 2.269041e+01 4.149658e+01 2.741429e+01 5.631983e+01 4.247608e+01 3.223793e+01 3.598851e+01 2.220827e+01 4.999396e+01 2.575941e+01 3.841824e-01 6.697277e-01 9.481418e-01 1.828413e+00 1.014574e+00 1.524861e+00 1.712266e+00 1.700672e+00 1.887800e+00 1.786043e+00 1.750359e+00 1.279979e+00 3.887375e-01
<GCONST> 8.880843e+01
<STATE> 4
<MEAN> 25
 -1.156961e+00 1.161347e+00 6.581499e-01 4.333908e+00 1.130422e+00 2.007279e+00 1.065568e+00 2.230040e+00 2.028546e+00 7.392244e-01 1.845653e+00 -7.550146e-02 -4.877662e-02 1.877257e-02 5.924242e-02 -7.986841e-03 -7.247062e-02 -1.151087e-02 2.799555e-02 6.524272e-02 5.624797e-02 7.105324e-02 1.047018e-01 1.565656e-02 -1.200720e-02
<VARIANCE> 25
 1.527062e+01 6.417493e+00 8.653192e+00 1.144785e+01 1.448802e+01 1.328599e+01 1.964157e+01 1.646926e+01 1.830246e+01 1.880880e+01 1.701710e+01 1.329865e+01 1.652554e-01 3.017592e-01 4.629641e-01 6.798412e-01 9.462594e-01 1.101193e+00 1.215354e+00 1.401632e+00 1.568189e+00 1.627508e+00 1.270588e+00 1.105665e+00 7.156511e-02
<GCONST> 7.248924e+01
<TRANSP> 5
 0.000000e+00 1.000000e+00 0.000000e+00 0.000000e+00 0.000000e+00
 0.000000e+00 6.672344e-01 3.327656e-01 0.000000e+00 0.000000e+00
 0.000000e+00 0.000000e+00 8.020588e-01 1.979413e-01 0.000000e+00
 0.000000e+00 0.000000e+00 0.000000e+00 9.316660e-01 6.833401e-02
 0.000000e+00 0.000000e+00 0.000000e+00 0.000000e+00 0.000000e+00
<ENDHMM>
~h "n"
<BEGINHMM>
<NUMSTATES> 5
<STATE> 2
<MEAN> 25
 6.440230e+00 1.295354e-01 -6.125355e-01 6.175666e-01 -9.476894e-01 -6.948963e+00 -4.814233e+00 -2.775234e+00 -5.909624e+00 -7.962430e+00 -1.900084e+00 2.061659e+00 -2.791629e-01 1.187586e+00 4.229387e-01 9.984331e-01 6.965949e-03 -5.561167e-02 -3.591671e-01 -8.248297e-01 5.987993e-02 5.540490e-01 -5.249947e-02 9.500191e-02 -9.573521e-01
<VARIANCE> 25
 1.443880e+01 2.996690e+01 1.338904e+01 3.062930e+01 5.831386e+01 5.698441e+01 2.565657e+01 2.828697e+01 3.758363e+01 3.628327e+01 4.475144e+01 3.173391e+01 4.049810e-01 1.646886e+00 1.294459e+00 2.364208e+00 1.408466e+00 2.740348e+00 1.694492e+00 2.965078e+00 2.096100e+00 2.205478e+00 3.197738e+00 1.534249e+00 7.390786e-01
<GCONST> 9.370312e+01
<STATE> 3
<MEAN> 25
 3.293737e+00 3.228521e+00 1.737403e+00 4.789454e+00 1.598363e+00 -2.451073e+00 -3.015757e+00 -3.134780e+00 -3.255990e+00 -4.364202e+00 -2.537480e+00 3.395444e-01 -3.425889e-01 9.798668e-02 -1.012056e-03 3.079421e-01 1.104975e-02 7.077760e-01 3.497273e-01 3.742493e-01 3.263369e-01 3.417578e-01 3.857821e-01 -1.048841e-01 -4.334655e-01
<VARIANCE> 25
 1.331750e+01 1.284349e+01 1.025681e+01 1.679829e+01 2.907113e+01 2.635216e+01 1.897676e+01 2.388988e+01 2.543199e+01 1.935364e+01 2.426884e+01 2.407751e+01 2.648923e-01 4.457251e-01 5.993419e-01 8.344360e-01 1.137584e+00 1.401100e+00 1.342227e+00 1.347306e+00 1.803874e+00 1.652486e+00 1.712018e+00 1.301865e+00 1.638385e-01
<GCONST> 7.987939e+01
<STATE> 4
<MEAN> 25
 -3.053980e+00 1.717623e+00 8.830716e-01 3.887338e+00 2.441418e+00 2.667180e+00 2.586450e+00 2.419976e+00 2.693253e+00 2.079648e+00 2.806412e+00 3.836155e-01 -4.844422e-02 -2.213805e-03 2.661292e-03 -2.700971e-03 1.650053e-03 5.126375e-02 5.529368e-02 6.493315e-02 7.000051e-02 8.915409e-02 5.803038e-02 -2.630357e-02 -9.714782e-03
<VARIANCE> 25
 1.476643e+01 6.738018e+00 6.822519e+00 9.195048e+00 1.282335e+01 1.294019e+01 1.883817e+01 1.765800e+01 1.822811e+01 1.927131e+01 1.427094e+01 1.367251e+01 1.389550e-01 3.010615e-01 4.382575e-01 6.401352e-01 8.864142e-01 1.105334e+00 1.160772e+00 1.348204e+00 1.425923e+00 1.399929e+00 1.361441e+00 1.240840e+00 5.970564e-02
<GCONST> 7.111943e+01
<TRANSP> 5
 0.000000e+00 1.000000e+00 0.000000e+00 0.000000e+00 0.000000e+00
 0.000000e+00 7.260886e-01 2.739114e-01 0.000000e+00 0.000000e+00
 0.000000e+00 0.000000e+00 8.176206e-01 1.823794e-01 0.000000e+00
 0.000000e+00 0.000000e+00 0.000000e+00 9.417126e-01 5.828736e-02
 0.000000e+00 0.000000e+00 0.000000e+00 0.000000e+00 0.000000e+00
<ENDHMM>
~h "o"
<BEGINHMM>
<NUMSTATES> 5
<STATE> 2
<MEAN> 25
 4.876313e-08 -1.572510e-08 -3.479018e-08 -3.353887e-08 3.894225e-08 5.448882e-08 6.837960e-09 -3.357679e-08 -9.075150e-09 1.238669e-09 6.825321e-10 3.043588e-08 1.480543e-02 -2.130302e-03 7.752344e-03 -2.168820e-03 1.143337e-02 -2.309903e-03 4.269884e-03 -3.775733e-03 -3.292339e-03 -9.014427e-04 -3.430429e-03 -3.983431e-03 3.762102e-02
<VARIANCE> 25
 4.782532e+01 4.486550e+01 4.720150e+01 6.892854e+01 4.782745e+01 4.025578e+01 4.904441e+01 4.112494e+01 4.163441e+01 4.402450e+01 3.629408e+01 2.461185e+01 1.112554e+00 1.522353e+00 1.617351e+00 2.656559e+00 2.172489e+00 2.083682e+00 2.429415e+00 2.410789e+00 2.262104e+00 2.509146e+00 2.111452e+00 1.695109e+00 1.480569e+00
<GCONST> 9.985252e+01
<STATE> 3
<MEAN> 25
 4.876313e-08 -1.572510e-08 -3.479018e-08 -3.353887e-08 3.894225e-08 5.448882e-08 6.837960e-09 -3.357679e-08 -9.075150e-09 1.238669e-09 6.825321e-10 3.043588e-08 1.480543e-02 -2.130302e-03 7.752344e-03 -2.168820e-03 1.143337e-02 -2.309903e-03 4.269884e-03 -3.775733e-03 -3.292339e-03 -9.014427e-04 -3.430429e-03 -3.983431e-03 3.762102e-02
<VARIANCE> 25
 4.782532e+01 4.486550e+01 4.720150e+01 6.892854e+01 4.782745e+01 4.025578e+01 4.904441e+01 4.112494e+01 4.163441e+01 4.402450e+01 3.629408e+01 2.461185e+01 1.112554e+00 1.522353e+00 1.617351e+00 2.656559e+00 2.172489e+00 2.083682e+00 2.429415e+00 2.410789e+00 2.262104e+00 2.509146e+00 2.111452e+00 1.695109e+00 1.480569e+00
<GCONST> 9.985252e+01
<STATE> 4
<MEAN> 25
 4.876313e-08 -1.572510e-08 -3.479018e-08 -3.353887e-08 3.894225e-08 5.448882e-08 6.837960e-09 -3.357679e-08 -9.075150e-09 1.238669e-09 6.825321e-10 3.043588e-08 1.480543e-02 -2.130302e-03 7.752344e-03 -2.168820e-03 1.143337e-02 -2.309903e-03 4.269884e-03 -3.775733e-03 -3.292339e-03 -9.014427e-04 -3.430429e-03 -3.983431e-03 3.762102e-02
<VARIANCE> 25
 4.782532e+01 4.486550e+01 4.720150e+01 6.892854e+01 4.782745e+01 4.025578e+01 4.904441e+01 4.112494e+01 4.163441e+01 4.402450e+01 3.629408e+01 2.461185e+01 1.112554e+00 1.522353e+00 1.617351e+00 2.656559e+00 2.172489e+00 2.083682e+00 2.429415e+00 2.410789e+00 2.262104e+00 2.509146e+00 2.111452e+00 1.695109e+00 1.480569e+00
<GCONST> 9.985252e+01
<TRANSP> 5
 0.000000e+00 1.000000e+00 0.000000e+00 0.000000e+00 0.000000e+00
 0.000000e+00 6.000000e-01 4.000000e-01 0.000000e+00 0.000000e+00
 0.000000e+00 0.000000e+00 6.000000e-01 4.000000e-01 0.000000e+00
 0.000000e+00 0.000000e+00 0.000000e+00 7.000000e-01 3.000000e-01
 0.000000e+00 0.000000e+00 0.000000e+00 0.000000e+00 0.000000e+00
<ENDHMM>
~h "p"
<BEGINHMM>
<NUMSTATES> 5
<STATE> 2
<MEAN> 25
 -3.805005e+00 2.356214e+00 -4.755016e+00 5.044813e+00 -3.150288e+00 3.867677e+00 -3.466368e+00 2.521054e+00 2.900280e+00 1.577487e+00 3.005836e+00 1.802993e+00 1.741308e+00 -5.679406e-01 5.616095e-01 -9.008423e-01 2.228274e-01 -5.041742e-01 5.915183e-01 -2.442988e-01 -7.246186e-01 9.111437e-02 2.199951e-01 -3.466139e-01 2.813135e+00
<VARIANCE> 25
 8.522955e+01 2.538830e+01 3.748154e+01 2.609727e+01 2.326046e+01 2.164364e+01 3.091345e+01 3.789798e+01 3.913572e+01 2.034971e+01 2.916770e+01 2.299611e+01 9.289492e+00 2.407804e+00 2.485857e+00 2.350275e+00 3.361851e+00 3.138934e+00 2.502319e+00 3.026014e+00 3.479609e+00 2.324382e+00 2.831996e+00 2.331753e+00 1.509332e+01
<GCONST> 1.029341e+02
<STATE> 3
<MEAN> 25
 2.044097e+00 -3.699831e+00 -3.353472e+00 -2.359615e+00 6.330151e-01 5.882766e-01 1.316135e+00 2.665043e-01 8.110297e-01 5.252117e-01 4.078663e-01 -8.852959e-01 1.190857e-01 -9.680448e-01 1.773239e-01 -4.712932e-01 6.054631e-01 -1.225894e-01 9.559839e-01 4.921278e-02 1.321501e-01 -3.111106e-01 9.334164e-02 -3.130164e-03 1.697198e+00
<VARIANCE> 25
 2.641715e+01 7.213672e+01 2.847141e+01 7.432253e+01 5.004068e+01 4.036574e+01 4.855839e+01 5.373256e+01 4.172539e+01 4.656845e+01 4.080664e+01 2.281329e+01 3.661804e+00 5.600177e+00 2.423525e+00 6.293421e+00 4.417500e+00 4.720379e+00 4.370454e+00 5.352661e+00 3.930913e+00 5.015387e+00 3.104651e+00 2.809942e+00 1.014349e+01
<GCONST> 1.104423e+02
<STATE> 4
<MEAN> 25
 -3.532976e+00 1.149334e+00 7.965270e-01 3.172906e+00 2.116909e+00 2.919311e+00 3.457699e+00 2.593315e+00 3.506680e+00 2.556056e+00 3.257047e+00 8.318587e-02 -3.736606e-02 3.386453e-02 4.184854e-02 2.845498e-02 -1.312568e-02 1.511708e-02 1.914434e-02 4.160323e-02 7.233637e-03 7.290537e-02 4.639556e-02 -2.151758e-02 1.404124e-02
<VARIANCE> 25
 1.322213e+01 7.726583e+00 8.179694e+00 1.014159e+01 1.167089e+01 1.170338e+01 1.636963e+01 1.579716e+01 1.479831e+01 2.049748e+01 1.410745e+01 1.331516e+01 1.851936e-01 3.318953e-01 5.423450e-01 7.913178e-01 1.051325e+00 9.847401e-01 1.215608e+00 1.318830e+00 1.373993e+00 1.520057e+00 1.340237e+00 1.151575e+00 1.301543e-01
<GCONST> 7.241730e+01
<TRANSP> 5
 0.000000e+00 1.000000e+00 0.000000e+00 0.000000e+00 0.000000e+00
 0.000000e+00 5.572078e-01 4.427921e-01 0.000000e+00 0.000000e+00
 0.000000e+00 0.000000e+00 6.740491e-01 3.259509e-01 0.000000e+00
 0.000000e+00 0.000000e+00 0.000000e+00 9.380658e-01 6.193414e-02
 0.000000e+00 0.000000e+00 0.000000e+00 0.000000e+00 0.000000e+00
<ENDHMM>
~h "r"
<BEGINHMM>
<NUMSTATES> 5
<STATE> 2
<MEAN> 25
 7.419388e+00 -9.910501e+00 -6.981346e-02 -1.508164e+00 -1.074605e+01 -3.170455e+00 1.975606e+00 3.643017e+00 1.041670e+00 -1.748518e+00 -3.407100e+00 -8.243327e-01 -3.904476e-01 -5.623461e-01 1.209286e+00 -5.228341e-02 -8.418855e-01 -6.282316e-02 8.563201e-01 4.900854e-01 -1.269490e+00 2.732813e-01 2.805016e-01 3.667513e-01 9.535711e-02
<VARIANCE> 25
 1.465903e+01 3.385379e+01 2.731966e+01 4.547678e+01 6.551115e+01 2.860521e+01 6.422198e+01 3.611098e+01 3.884495e+01 2.791913e+01 3.216655e+01 2.280464e+01 1.065024e+00 2.580144e+00 2.167492e+00 6.688660e+00 5.215156e+00 2.578397e+00 4.627963e+00 4.702776e+00 4.105758e+00 3.032351e+00 3.521550e+00 3.012161e+00 1.262788e+00
<GCONST> 1.026308e+02
<STATE> 3
<MEAN> 25
 3.530365e+00 -7.230170e+00 7.450561e+00 -7.275477e+00 -1.128839e+01 -3.662516e+00 8.254390e+00 5.307362e-01 -8.909906e+00 4.825253e+00 -3.814268e+00 -3.587389e+00 -2.453841e-01 1.333986e+00 1.576550e-01 4.245588e-01 5.931127e-01 1.703767e-01 8.453427e-02 -1.356400e+00 7.082847e-02 4.658758e-01 -1.002816e-01 -9.133228e-02 -7.451844e-01
<VARIANCE> 25
 1.490974e+01 3.186226e+01 3.853329e+01 3.799433e+01 4.580470e+01 2.075649e+01 6.237049e+01 5.485773e+01 4.515709e+01 6.392046e+01 3.837144e+01 1.710052e+01 8.612222e-01 8.307427e-01 1.601445e+00 2.758223e+00 1.956646e+00 1.651281e+00 4.527475e+00 1.672412e+00 4.201674e+00 4.070431e+00 2.386991e+00 1.585494e+00 6.305417e-01
<GCONST> 9.690549e+01
<STATE> 4
<MEAN> 25
 6.379911e-01 -6.132833e-01 2.442212e+00 3.012643e+00 -2.218884e+00 8.742581e-01 3.173050e+00 7.690139e-01 -2.546100e-01 8.408186e-01 6.100855e-02 -4.335749e-01 -1.979360e-01 3.700736e-01 -1.780336e-01 3.539501e-01 4.751064e-01 1.518489e-01 -2.923757e-01 -7.980120e-02 3.629788e-01 -8.076767e-02 1.554699e-01 2.378062e-01 -4.276610e-01
<VARIANCE> 25
 2.029061e+01 1.505111e+01 1.812769e+01 2.977348e+01 2.896574e+01 2.057755e+01 3.548864e+01 4.072718e+01 2.635957e+01 3.281360e+01 2.786980e+01 1.801426e+01 4.073522e-01 6.171281e-01 9.686603e-01 1.536201e+00 1.541847e+00 1.453452e+00 2.071168e+00 2.220009e+00 2.070409e+00 2.173631e+00 1.955055e+00 1.312469e+00 3.013744e-01
<GCONST> 8.720374e+01
<TRANSP> 5
 0.000000e+00 1.000000e+00 0.000000e+00 0.000000e+00 0.000000e+00
 0.000000e+00 8.060120e-01 1.939880e-01 0.000000e+00 0.000000e+00
 0.000000e+00 0.000000e+00 7.948725e-01 2.051275e-01 0.000000e+00
 0.000000e+00 0.000000e+00 0.000000e+00 7.889074e-01 2.110926e-01
 0.000000e+00 0.000000e+00 0.000000e+00 0.000000e+00 0.000000e+00
<ENDHMM>
~h "s"
<BEGINHMM>
<NUMSTATES> 5
<STATE> 2
<MEAN> 25
 -1.007926e+01 6.268604e+00 -5.071500e+00 6.482263e+00 -1.184539e+00 -1.118087e+00 5.172716e+00 1.985656e+00 -1.497237e+00 1.865855e+00 3.130021e+00 -7.742441e-01 -7.365700e-01 2.103918e-01 -2.529470e-01 1.708545e-01 -7.392754e-02 1.319608e-01 2.725320e-01 1.441717e-01 -2.530599e-02 3.372609e-01 3.527589e-01 7.003827e-02 1.795433e-01
<VARIANCE> 25
 2.805956e+01 4.560677e+01 1.846491e+01 4.051227e+01 2.745190e+01 2.186922e+01 2.596846e+01 2.925382e+01 3.630674e+01 2.967419e+01 2.328968e+01 2.109334e+01 1.752057e+00 1.861084e+00 1.460302e+00 1.368887e+00 1.399275e+00 1.815973e+00 2.015674e+00 2.080402e+00 2.203367e+00 2.244037e+00 1.808533e+00 1.746304e+00 4.800438e-01
<GCONST> 9.218351e+01
<STATE> 3
<MEAN> 25
 -1.139788e+01 -1.398589e+00 4.531982e+00 -3.596503e+00 -2.211079e+00 2.063766e+00 5.205980e+00 -3.361433e+00 2.606324e-01 4.116917e+00 5.205647e+00 -5.149032e-01 5.540856e-01 -4.910792e-01 7.254291e-01 -9.644656e-01 -4.086516e-01 -5.120140e-01 -6.184008e-01 -4.340811e-01 2.071484e-01 -1.073831e-01 -4.649200e-01 1.088733e-01 4.841906e-01
<VARIANCE> 25
 3.926532e+01 8.522379e+01 1.157178e+02 1.462043e+02 4.210973e+01 7.669182e+01 5.554856e+01 7.855318e+01 6.855491e+01 3.829692e+01 2.402761e+01 3.732278e+01 6.355757e+00 2.312727e+00 4.441036e+00 4.324032e+00 2.416623e+00 3.555908e+00 3.543368e+00 4.083205e+00 3.054344e+00 2.547484e+00 2.890634e+00 1.943551e+00 3.091805e+00
<GCONST> 1.103039e+02
<STATE> 4
<MEAN> 25
 -2.013712e+00 2.110006e+00 -2.289095e+00 1.326260e-01 -4.413916e+00 -4.603217e+00 1.043342e+00 1.464530e+00 -6.667184e-01 2.867787e-01 2.154057e-01 7.858486e-01 3.931963e+00 -1.146866e+00 -4.545797e-02 -2.916843e+00 -4.218162e-01 -1.456690e+00 -2.195832e+00 -4.492211e-01 -7.939956e-01 -1.898545e+00 -3.083017e+00 4.058443e-01 1.405641e+00
<VARIANCE> 25
 4.782223e+01 3.015685e+01 3.600584e+01 4.495550e+01 3.119024e+01 3.410102e+01 4.682974e+01 5.001943e+01 2.678859e+01 3.549245e+01 3.335909e+01 1.868612e+01 1.399548e+00 4.276450e+00 3.998295e+00 6.992162e+00 5.061120e+00 3.376601e+00 5.870050e+00 6.394738e+00 4.689513e+00 6.057481e+00 2.966769e+00 3.389310e+00 1.857793e+00
<GCONST> 1.064888e+02
<TRANSP> 5
 0.000000e+00 1.000000e+00 0.000000e+00 0.000000e+00 0.000000e+00
 0.000000e+00 8.855608e-01 1.144393e-01 0.000000e+00 0.000000e+00
 0.000000e+00 0.000000e+00 6.979556e-01 3.020443e-01 0.000000e+00
 0.000000e+00 0.000000e+00 0.000000e+00 5.272745e-01 4.727254e-01
 0.000000e+00 0.000000e+00 0.000000e+00 0.000000e+00 0.000000e+00
<ENDHMM>
~h "t"
<BEGINHMM>
<NUMSTATES> 5
<STATE> 2
<MEAN> 25
 4.720686e+00 3.304188e+00 -3.261840e+00 3.534376e+00 -9.586639e-01 3.085149e+00 -2.703847e+00 -8.043420e-01 -2.279637e+00 -2.619512e+00 -4.198227e-01 9.428868e-01 -9.754862e-01 -1.718450e-02 -3.182451e-02 -3.365187e-01 -1.841738e-02 -1.933808e-01 4.418316e-01 4.645488e-01 -2.768620e-01 4.369603e-01 4.059831e-01 -5.028204e-01 2.148944e-02
<VARIANCE> 25
 3.551174e+01 3.106104e+01 5.866922e+01 2.303037e+01 2.339371e+01 5.433210e+01 3.048593e+01 3.165129e+01 2.640156e+01 3.320079e+01 3.899263e+01 4.507678e+01 2.126173e+00 2.686710e+00 3.257947e+00 2.521616e+00 2.583809e+00 4.523246e+00 3.105900e+00 3.179388e+00 1.957256e+00 3.984686e+00 3.263139e+00 3.659037e+00 3.714253e+00
<GCONST> 1.028720e+02
<STATE> 3
<MEAN> 25
 -2.830128e+00 -5.806125e-01 5.678956e-01 4.978130e-01 -2.183717e+00 -2.032425e+00 1.625003e+00 1.156805e+00 -2.943127e+00 2.142029e+00 2.450719e+00 -1.526459e+00 -1.382640e-01 -1.180177e+00 -1.896367e-01 -3.826046e+00 -2.099639e-01 -2.456388e+00 2.577125e-01 -6.210097e-01 4.023551e-01 1.150839e+00 -2.282899e-01 -4.198698e-01 3.467244e+00
<VARIANCE> 25
 2.283336e+01 2.432179e+01 3.636267e+01 3.593645e+01 4.695673e+01 5.506583e+01 3.202455e+01 4.999141e+01 3.546445e+01 3.275136e+01 3.564879e+01 3.897403e+01 3.184420e+00 4.465650e+00 8.663508e+00 5.057155e+00 4.534020e+00 6.823801e+00 5.433378e+00 5.605914e+00 5.111264e+00 6.541268e+00 5.572820e+00 3.909600e+00 4.321658e+00
<GCONST> 1.103096e+02
<STATE> 4
<MEAN> 25
 1.440435e+00 3.397614e-02 -5.768867e-01 -8.967593e+00 -2.658771e+00 -6.415351e+00 -1.433003e+00 -1.246264e+00 8.495068e-01 1.761436e+00 -3.378301e-01 -9.611233e-01 1.555158e+00 -4.659737e-01 -1.328856e+00 -2.973440e+00 5.171527e-01 -3.452832e-01 -7.072390e-01 -9.519286e-01 8.561978e-01 -1.635967e-02 -1.223612e+00 -2.213176e-02 1.585321e+00
<VARIANCE> 25
 2.025952e+01 2.499293e+01 8.321204e+01 4.425996e+01 5.235457e+01 4.205060e+01 3.600364e+01 4.481045e+01 4.117883e+01 4.121389e+01 4.569950e+01 2.514368e+01 3.163264e+00 5.254073e+00 5.782989e+00 7.838047e+00 4.768383e+00 3.337948e+00 4.621475e+00 7.892063e+00 4.187419e+00 4.965313e+00 4.697782e+00 3.650543e+00 4.672936e+00
<GCONST> 1.103588e+02
<TRANSP> 5
 0.000000e+00 1.000000e+00 0.000000e+00 0.000000e+00 0.000000e+00
 0.000000e+00 6.909075e-01 3.090924e-01 0.000000e+00 0.000000e+00
 0.000000e+00 0.000000e+00 4.663301e-01 5.336699e-01 0.000000e+00
 0.000000e+00 0.000000e+00 0.000000e+00 2.856015e-01 7.143986e-01
 0.000000e+00 0.000000e+00 0.000000e+00 0.000000e+00 0.000000e+00
<ENDHMM>
~h "w"
<BEGINHMM>
<NUMSTATES> 5
<STATE> 2
<MEAN> 25
 9.445963e+00 8.872448e+00 2.213827e+00 -7.447970e+00 -2.410762e+00 -6.662821e+00 -5.344260e+00 -1.742492e+00 -7.546953e+00 5.004638e-01 -1.664752e+00 4.582726e-01 1.873694e-01 2.702686e-02 -5.506296e-01 -6.041743e-01 -2.267037e-01 -4.114346e-01 4.746570e-01 5.422817e-01 -1.443514e-02 -2.197893e-01 3.152878e-01 -1.917360e-02 1.179098e-01
<VARIANCE> 25
 3.753202e+00 7.619040e+00 4.747801e+01 1.416859e+01 1.733970e+01 2.878566e+01 2.753063e+01 6.789126e+01 4.089090e+01 5.994160e+01 2.967541e+01 3.154539e+01 2.180747e-01 6.381207e-01 1.073373e+00 1.939309e+00 6.807933e-01 1.353281e+00 1.745093e+00 9.855798e-01 1.475688e+00 3.036136e+00 1.326457e+00 1.099915e+00 4.274123e-01
<GCONST> 8.445233e+01
<STATE> 3
<MEAN> 25
 7.895913e+00 7.668141e-01 -3.128126e+00 -1.649162e+01 2.796987e+00 -4.693649e+00 6.570020e-01 -5.313534e-01 -1.136961e+00 2.485686e+00 1.648811e+00 -3.085292e+00 -6.170788e-01 -2.300677e+00 -3.430525e-01 -3.872420e-01 1.545766e+00 7.150140e-01 9.375768e-01 -7.270604e-01 1.406659e+00 -4.628029e-01 -5.277982e-01 -1.103640e+00 1.469326e+00
<VARIANCE> 25
 1.118580e+01 3.922875e+01 2.948716e+01 1.858709e+01 4.976637e+01 4.860302e+01 3.707822e+01 6.193594e+01 5.241103e+01 1.106857e+02 4.632739e+01 4.593459e+01 3.598097e-01 7.961254e-01 1.316919e+00 3.716569e+00 1.641198e+00 1.662250e+00 2.961130e+00 2.711189e+00 3.851330e+00 5.946047e+00 8.461002e+00 4.974206e+00 6.307979e-01
<GCONST> 1.000309e+02
<STATE> 4
<MEAN> 25
 2.247399e+00 -8.866797e+00 -5.207961e+00 -1.054415e+01 4.275333e+00 -1.805462e+00 7.022062e+00 -5.987314e-01 1.774588e-01 4.882085e-01 3.427245e+00 -2.135915e-02 -2.221472e-01 -3.272581e-01 -8.726919e-02 3.634001e-01 -7.179698e-02 1.561658e-01 1.062088e-01 4.476650e-02 -4.979055e-02 1.820319e-01 1.461471e-01 3.836955e-01 -1.125352e-01
<VARIANCE> 25
 1.241422e+01 2.954733e+01 2.431751e+01 2.455643e+01 4.237409e+01 3.848607e+01 3.565059e+01 2.901787e+01 2.592563e+01 3.730143e+01 4.515988e+01 3.552299e+01 1.680910e-01 5.004160e-01 4.846530e-01 4.605482e-01 8.356372e-01 9.587675e-01 8.756404e-01 1.386688e+00 9.558617e-01 2.097819e+00 1.599633e+00 1.230336e+00 2.373157e-01
<GCONST> 8.276880e+01
<TRANSP> 5
 0.000000e+00 1.000000e+00 0.000000e+00 0.000000e+00 0.000000e+00
 0.000000e+00 9.010698e-01 9.893021e-02 0.000000e+00 0.000000e+00
 0.000000e+00 0.000000e+00 8.416158e-01 1.583842e-01 0.000000e+00
 0.000000e+00 0.000000e+00 0.000000e+00 9.258680e-01 7.413205e-02
 0.000000e+00 0.000000e+00 0.000000e+00 0.000000e+00 0.000000e+00
<ENDHMM>
~h "y"
<BEGINHMM>
<NUMSTATES> 5
<STATE> 2
<MEAN> 25
 2.292226e+00 -5.731183e-01 9.477393e+00 -1.036347e+01 -8.756233e+00 -3.052923e+00 5.930760e-01 -5.543106e+00 -4.174771e+00 1.623578e+00 -3.184136e+00 1.226462e+00 -2.549830e-01 1.152901e+00 1.042030e+00 -5.916532e-01 -6.287503e-01 1.548947e-01 -8.861935e-01 -7.765740e-01 2.805387e-01 1.196590e+00 -4.789907e-02 1.661813e-01 -3.420687e-01
<VARIANCE> 25
 2.131054e+01 4.752139e+01 3.814748e+01 3.127514e+01 6.770128e+01 1.644363e+01 9.019396e+01 4.616526e+01 5.548539e+01 4.307017e+01 3.098182e+01 3.175197e+01 1.765946e-01 1.365063e+00 1.377513e+00 1.137363e+00 2.841225e+00 1.251029e+00 3.777843e+00 2.660801e+00 1.798392e+00 3.519538e+00 1.456740e+00 2.328840e+00 2.748010e-01
<GCONST> 9.434850e+01
<STATE> 3
<MEAN> 25
 3.823953e-02 -4.625790e-01 1.123206e+01 -1.455610e+01 -1.095569e+01 -4.796247e+00 3.285645e+00 -4.389402e+00 -2.152423e+00 6.172605e+00 -1.943038e+00 -4.190500e-01 3.225842e-01 -2.140074e+00 -1.972980e+00 1.520169e-01 -7.295153e-02 -1.779914e-01 2.717840e+00 1.784803e+00 -6.035664e-02 -1.241145e+00 1.310464e-01 -7.354992e-01 9.632019e-01
<VARIANCE> 25
 1.969049e+01 2.735388e+01 3.959965e+01 3.431482e+01 6.195262e+01 1.711928e+01 8.774065e+01 4.751187e+01 4.351460e+01 4.085977e+01 3.149389e+01 3.264446e+01 4.159975e-01 1.173537e+00 2.656451e+00 2.593190e+00 6.831708e+00 2.095148e+00 3.281564e+00 2.678695e+00 2.542599e+00 5.925141e+00 2.515595e+00 2.335866e+00 3.182637e-01
<GCONST> 9.855704e+01
<STATE> 4
<MEAN> 25
 4.990244e+00 -8.790529e+00 -6.824056e-01 -9.969714e+00 -5.184618e+00 -4.109408e+00 7.817936e+00 1.591669e+00 -4.280174e+00 -4.710063e+00 -5.297951e+00 2.055467e-01 5.020941e-01 -1.564009e+00 -2.092680e+00 8.412528e-01 3.176911e+00 4.620183e-01 -6.805018e-02 -4.081783e-01 3.786426e-01 -1.833689e+00 -6.702410e-01 5.654089e-01 1.775555e-01
<VARIANCE> 25
 3.265396e+01 1.922097e+01 2.263224e+01 5.182940e+01 1.007222e+02 1.263579e+01 4.120630e+01 3.135964e+01 7.391810e+01 2.977502e+01 4.130515e+01 2.083398e+01 3.017530e-01 8.529388e-01 1.319287e+00 1.671088e+00 2.715500e+00 1.498274e+00 2.550369e+00 2.709010e+00 1.462314e+00 3.009941e+00 1.847129e+00 1.997922e+00 1.083232e-01
<GCONST> 9.155795e+01
<TRANSP> 5
 0.000000e+00 1.000000e+00 0.000000e+00 0.000000e+00 0.000000e+00
 0.000000e+00 8.628992e-01 1.371008e-01 0.000000e+00 0.000000e+00
 0.000000e+00 0.000000e+00 7.433369e-01 2.566631e-01 0.000000e+00
 0.000000e+00 0.000000e+00 0.000000e+00 6.501167e-01 3.498832e-01
 0.000000e+00 0.000000e+00 0.000000e+00 0.000000e+00 0.000000e+00
<ENDHMM>
~h "aa"
<BEGINHMM>
<NUMSTATES> 5
<STATE> 2
<MEAN> 25
 3.459663e+00 -4.943511e+00 -1.796741e+00 -3.267068e+00 1.783057e+00 -2.133076e+00 5.915825e-01 -1.056554e+00 -9.013991e-01 -3.136451e+00 -2.576372e+00 -5.298796e-01 6.472595e-01 -1.676853e+00 -8.405262e-01 -1.314733e+00 9.741106e-01 1.580523e-01 3.549686e-01 -4.114408e-01 -4.486079e-01 -8.350847e-01 -4.989112e-01 8.948264e-02 1.566438e+00
<VARIANCE> 25
 2.941217e+01 5.266100e+01 4.025618e+01 5.874464e+01 5.190377e+01 3.933115e+01 7.102302e+01 5.450364e+01 3.771243e+01 4.057668e+01 4.647583e+01 2.853349e+01 2.322070e+00 3.168866e+00 3.062187e+00 4.344208e+00 4.265030e+00 4.300498e+00 5.139657e+00 6.078139e+00 3.268033e+00 3.669367e+00 3.990139e+00 2.459140e+00 2.384718e+00
<GCONST> 1.080381e+02
<STATE> 3
<MEAN> 25
 2.953435e+00 -1.143515e+01 -3.942286e+00 -6.838501e+00 6.310016e+00 -7.122768e-01 6.097058e+00 -1.110858e+00 -6.688485e-01 -4.671544e+00 -2.461472e+00 1.639264e-01 3.721515e-01 3.880119e-01 5.276174e-02 7.232903e-01 -2.312879e-01 1.299930e-01 -5.781192e-01 1.125980e-01 -3.633386e-01 -1.986672e-01 -7.526679e-02 6.104904e-02 -6.796449e-01
<VARIANCE> 25
 1.468449e+01 2.256392e+01 2.631463e+01 3.881987e+01 3.625331e+01 3.330686e+01 4.991328e+01 4.225079e+01 4.167170e+01 3.126520e+01 4.462276e+01 2.748369e+01 5.311611e-01 1.598411e+00 1.232521e+00 1.849842e+00 2.441608e+00 2.112516e+00 2.753471e+00 2.499344e+00 2.273825e+00 2.142393e+00 1.848672e+00 1.813562e+00 1.100257e+00
<GCONST> 9.483208e+01
<STATE> 4
<MEAN> 25
 9.186536e+00 -8.903166e+00 -7.029187e+00 -2.855324e+00 9.469648e-01 -1.952114e+00 -4.791441e+00 -9.212884e-01 -5.378007e+00 -9.408866e+00 -5.992904e+00 2.154217e+00 -1.271234e-01 6.851265e-01 2.260369e-01 2.375476e-01 -4.473795e-01 -2.030514e-01 -1.945159e-01 -9.099032e-02 -1.155628e-02 -4.107250e-02 1.855528e-01 -1.827389e-01 -5.200503e-01
<VARIANCE> 25
 1.941745e+01 2.847749e+01 2.433496e+01 2.988915e+01 3.203241e+01 2.883055e+01 4.577877e+01 3.106794e+01 2.674018e+01 2.884380e+01 3.258254e+01 2.735365e+01 3.433060e-01 1.226007e+00 1.012759e+00 1.204198e+00 1.803766e+00 1.543855e+00 1.838788e+00 1.693645e+00 1.561106e+00 1.789621e+00 1.749508e+00 1.509950e+00 3.610606e-01
<GCONST> 8.885387e+01
<TRANSP> 5
 0.000000e+00 1.000000e+00 0.000000e+00 0.000000e+00 0.000000e+00
 0.000000e+00 6.975795e-01 3.024205e-01 0.000000e+00 0.000000e+00
 0.000000e+00 0.000000e+00 8.176236e-01 1.823764e-01 0.000000e+00
 0.000000e+00 0.000000e+00 0.000000e+00 7.797842e-01 2.202158e-01
 0.000000e+00 0.000000e+00 0.000000e+00 0.000000e+00 0.000000e+00
<ENDHMM>
~h "ao"
<BEGINHMM>
<NUMSTATES> 5
<STATE> 2
<MEAN> 25
 4.975820e+00 -1.428059e-01 -6.143831e+00 -1.460368e+01 3.331980e+00 -2.207796e+00 6.199749e-01 -4.299706e+00 -2.866136e+00 8.020533e+00 9.206109e-01 -2.690083e+00 2.337242e-01 -8.156698e-01 -3.552200e-01 -2.001144e+00 -5.501325e-01 9.251702e-02 6.240826e-01 -5.659663e-02 4.881420e-01 -1.463170e-01 2.096914e-01 -5.901043e-01 8.586252e-01
<VARIANCE> 25
 1.235913e+01 1.299781e+01 2.044008e+01 6.761442e+01 3.292955e+01 2.163372e+01 3.636192e+01 2.497493e+01 3.094792e+01 4.456422e+01 2.350306e+01 2.123159e+01 5.400730e-01 7.084195e-01 9.110492e-01 7.879096e+00 3.194917e+00 2.413168e+00 2.595816e+00 1.545278e+00 3.354876e+00 5.616291e+00 1.647136e+00 1.633237e+00 8.887784e-01
<GCONST> 9.332896e+01
<STATE> 3
<MEAN> 25
 6.013685e+00 -6.625220e-01 1.556572e+00 -1.572316e+01 -1.432300e+00 -4.882545e+00 3.500673e-01 3.317028e+00 -2.910003e+00 -3.891032e+00 -3.735315e+00 -6.613625e+00 3.680867e-01 -2.645002e-01 3.373819e-01 6.991321e-01 -7.929881e-01 -4.256389e-01 -6.388077e-01 1.293620e+00 9.822850e-01 -1.349724e-01 -3.501194e-01 -8.473795e-01 2.730096e-01
<VARIANCE> 25
 1.045197e+01 2.165771e+01 5.819357e+01 2.631225e+01 3.433797e+01 3.037745e+01 4.759221e+01 6.983000e+01 6.040390e+01 7.156612e+01 4.382334e+01 1.796606e+01 4.413812e-01 1.963799e+00 1.656996e+00 4.622382e+00 4.972061e+00 2.132615e+00 2.523858e+00 2.342047e+00 3.313252e+00 5.928817e+00 3.680012e+00 1.150687e+00 3.866449e-01
<GCONST> 9.830362e+01
<STATE> 4
<MEAN> 25
 1.154365e+01 -9.402916e-01 -6.045866e+00 -1.348468e+01 -3.648678e+00 -5.417655e-01 -5.030194e+00 -2.501478e+00 3.364398e+00 2.740345e+00 -3.662926e-01 -4.951815e+00 6.469088e-02 -4.633982e-01 -4.622704e-02 9.018174e-01 -6.265518e-01 -1.975502e-01 2.427916e-01 3.253947e-01 3.568700e-01 -3.351315e-01 -2.844870e-01 3.058086e-01 -1.255927e-01
<VARIANCE> 25
 1.578934e+01 1.939548e+01 2.279146e+01 3.055420e+01 4.831614e+01 3.833172e+01 8.880788e+01 8.817076e+01 5.602452e+01 3.690136e+01 2.679247e+01 2.962193e+01 1.202428e-01 6.648014e-01 6.927347e-01 2.880482e+00 1.723636e+00 1.438994e+00 1.438273e+00 1.698985e+00 2.205950e+00 2.718692e+00 2.302298e+00 1.185958e+00 1.114705e-01
<GCONST> 8.958562e+01
<TRANSP> 5
 0.000000e+00 1.000000e+00 0.000000e+00 0.000000e+00 0.000000e+00
 0.000000e+00 8.053725e-01 1.946275e-01 0.000000e+00 0.000000e+00
 0.000000e+00 0.000000e+00 6.564296e-01 3.435704e-01 0.000000e+00
 0.000000e+00 0.000000e+00 0.000000e+00 8.351191e-01 1.648809e-01
 0.000000e+00 0.000000e+00 0.000000e+00 0.000000e+00 0.000000e+00
<ENDHMM>
~h "eh"
<BEGINHMM>
<NUMSTATES> 5
<STATE> 2
<MEAN> 25
 2.772453e+00 -1.183718e+00 -2.019480e+00 -1.400638e+00 -2.078189e+00 -2.390757e+00 2.889915e-01 -1.093442e+00 1.731938e+00 4.431654e-01 -6.228439e-01 -3.598402e-01 1.506100e+00 -7.269496e-01 -5.036094e-01 -1.315972e+00 -4.605241e-01 -1.861682e+00 -6.873193e-01 -5.851619e-02 6.625480e-02 -4.940892e-01 -1.322502e+00 -1.392610e-01 1.564989e+00
<VARIANCE> 25
 3.096596e+01 2.420120e+01 3.407105e+01 3.993761e+01 3.593419e+01 5.524381e+01 3.972072e+01 4.043913e+01 3.804311e+01 4.667975e+01 4.410097e+01 1.981412e+01 3.096560e+00 2.664278e+00 2.229682e+00 4.641119e+00 4.018622e+00 5.198573e+00 4.254968e+00 5.078413e+00 4.336283e+00 4.703449e+00 5.724074e+00 2.619462e+00 3.189549e+00
<GCONST> 1.064543e+02
<STATE> 3
<MEAN> 25
 6.378112e+00 -1.919272e+00 7.487566e-01 -3.811413e+00 -5.194388e+00 -6.065524e+00 2.594596e+00 3.494258e-01 -3.632794e+00 -1.941995e+00 -4.953446e+00 3.389790e-01 -1.516697e-01 -5.233970e-01 3.768962e-01 -1.230853e-01 5.333310e-01 -3.877794e-01 1.062442e-01 6.916522e-01 -3.144234e-01 -3.097494e-01 3.726868e-02 2.233511e-01 4.696663e-01
<VARIANCE> 25
 3.375669e+01 5.916732e+01 3.923796e+01 5.624288e+01 6.858578e+01 5.553477e+01 6.515149e+01 4.939878e+01 7.220154e+01 5.183004e+01 5.890303e+01 2.927750e+01 2.348820e+00 4.890813e+00 2.259062e+00 3.330572e+00 4.366060e+00 3.505484e+00 3.519000e+00 5.345051e+00 3.101549e+00 3.387574e+00 3.250634e+00 2.637764e+00 3.625893e+00
<GCONST> 1.091585e+02
<STATE> 4
<MEAN> 25
 4.624169e+00 3.864833e-01 -3.798485e-01 -1.316017e+00 -4.573276e+00 -8.667054e+00 -8.790061e-01 8.822247e-01 -9.545003e-01 -2.856155e+00 -3.383386e+00 8.944751e-02 -1.484286e+00 1.274434e+00 -2.853351e-01 1.428089e+00 4.608076e-01 9.244422e-01 2.873396e-01 -4.545099e-01 -2.403311e-01 3.251727e-01 8.110883e-01 -6.779844e-01 -4.115614e-01
<VARIANCE> 25
 3.453988e+01 6.366211e+01 1.744750e+01 4.939458e+01 3.266219e+01 5.796579e+01 5.363595e+01 4.235292e+01 6.210105e+01 4.381135e+01 3.330908e+01 3.420678e+01 3.202907e+00 3.871623e+00 1.271068e+00 3.338638e+00 2.387140e+00 4.869322e+00 3.664570e+00 3.250980e+00 2.699803e+00 2.224253e+00 2.210009e+00 2.578123e+00 8.114380e-01
<GCONST> 1.028405e+02
<TRANSP> 5
 0.000000e+00 1.000000e+00 0.000000e+00 0.000000e+00 0.000000e+00
 0.000000e+00 6.117614e-01 3.882386e-01 0.000000e+00 0.000000e+00
 0.000000e+00 0.000000e+00 5.244246e-01 4.755754e-01 0.000000e+00
 0.000000e+00 0.000000e+00 0.000000e+00 6.587323e-01 3.412677e-01
 0.000000e+00 0.000000e+00 0.000000e+00 0.000000e+00 0.000000e+00
<ENDHMM>
~h "hh"
<BEGINHMM>
<NUMSTATES> 5
<STATE> 2
<MEAN> 25
 -1.254295e+00 -1.458236e+00 -3.384657e+00 1.704734e+00 2.820542e+00 1.508183e-01 -1.727326e-01 -2.218820e+00 -1.425718e-01 4.792762e-01 2.636693e+00 6.820861e-01 -1.209736e-01 2.092969e-01 3.834040e-01 2.023570e-01 -1.613491e-02 5.149192e-01 3.458110e-01 3.429546e-01 1.637977e-01 9.160127e-02 1.395363e-04 7.107142e-02 -4.067184e-01
<VARIANCE> 25
 3.312729e+00 4.984858e+00 5.816021e+00 1.904472e+01 1.114215e+01 1.904223e+01 1.520580e+01 1.313365e+01 2.210955e+01 2.836997e+01 2.040381e+01 1.776849e+01 2.750432e-01 4.315629e-01 5.442024e-01 1.029284e+00 1.061446e+00 1.178130e+00 1.196396e+00 1.512216e+00 1.532303e+00 1.869845e+00 1.228372e+00 1.420011e+00 1.353750e-01
<GCONST> 7.416222e+01
<STATE> 3
<MEAN> 25
 1.172696e+00 5.572214e-01 5.429755e-01 4.676545e+00 1.383926e+00 2.244824e+00 -3.349983e-01 7.705042e-01 1.704956e-01 -3.567280e-01 2.406175e+00 4.415944e-01 -1.454768e-02 2.371487e-02 9.125622e-02 4.218742e-02 -5.261401e-02 -1.875305e-02 2.082591e-02 6.617743e-02 3.550626e-02 -3.028610e-02 -3.845923e-02 8.185273e-02 -3.281028e-02
<VARIANCE> 25
 2.427898e+00 2.755338e+00 4.960779e+00 7.707871e+00 9.524138e+00 1.204346e+01 1.152206e+01 1.546654e+01 1.321860e+01 1.731322e+01 1.159235e+01 1.653086e+01 1.564712e-01 2.203895e-01 4.252780e-01 6.898936e-01 8.247209e-01 1.023819e+00 1.056499e+00 1.488489e+00 1.578668e+00 1.715571e+00 1.392122e+00 1.246679e+00 3.622045e-02
<GCONST> 6.602485e+01
<STATE> 4
<MEAN> 25
 -5.935048e+00 8.013284e-01 1.822729e+00 1.745629e+00 2.544149e+00 2.955659e+00 4.136638e+00 2.410098e+00 4.088920e+00 3.717336e+00 3.232966e+00 -2.780608e-01 -4.523604e-02 -3.656183e-03 5.015356e-02 2.962440e-02 -1.262222e-02 -1.183870e-02 4.974125e-02 6.326398e-02 6.914659e-02 6.728224e-02 1.811923e-02 -1.384336e-02 2.032841e-02
<VARIANCE> 25
 2.513913e+00 2.638767e+00 4.573079e+00 6.777452e+00 9.562262e+00 1.424755e+01 1.046378e+01 1.346077e+01 1.529858e+01 1.372436e+01 1.156321e+01 1.148575e+01 1.196075e-01 2.221599e-01 4.533828e-01 5.717740e-01 9.079663e-01 1.125996e+00 1.136124e+00 1.483229e+00 1.845612e+00 1.422785e+00 1.168784e+00 1.279232e+00 3.020044e-02
<GCONST> 6.480463e+01
<TRANSP> 5
 0.000000e+00 1.000000e+00 0.000000e+00 0.000000e+00 0.000000e+00
 0.000000e+00 8.729736e-01 1.270264e-01 0.000000e+00 0.000000e+00
 0.000000e+00 0.000000e+00 9.347414e-01 6.525858e-02 0.000000e+00
 0.000000e+00 0.000000e+00 0.000000e+00 9.585037e-01 4.149633e-02
 0.000000e+00 0.000000e+00 0.000000e+00 0.000000e+00 0.000000e+00
<ENDHMM>
~h "ih"
<BEGINHMM>
<NUMSTATES> 5
<STATE> 2
<MEAN> 25
 8.573445e-01 5.073777e+00 9.839173e+00 -4.997007e+00 -3.282340e+00 -3.282121e+00 -5.297577e+00 -3.801792e+00 -1.241419e-02 -1.507900e+00 -3.386161e+00 -8.717697e-01 -1.379139e-01 1.523255e-01 7.374755e-01 -6.326455e-01 2.334882e-02 -1.525098e-01 -6.395895e-01 4.895696e-02 -1.535088e-02 -2.871755e-01 -3.617360e-01 -1.415215e-03 1.933324e-01
<VARIANCE> 25
 2.740372e+01 8.287435e+01 7.691304e+01 1.621652e+02 6.992401e+01 4.677617e+01 5.741317e+01 5.452900e+01 5.003267e+01 4.275325e+01 3.235758e+01 3.886100e+01 2.504831e+00 3.241182e+00 4.986725e+00 9.862453e+00 5.533895e+00 4.075597e+00 5.094717e+00 4.674962e+00 5.279605e+00 5.022824e+00 3.572956e+00 2.976230e+00 3.297827e+00
<GCONST> 1.131641e+02
<STATE> 3
<MEAN> 25
 5.741852e-01 5.437481e+00 1.114036e+01 -8.469086e+00 -4.076072e+00 -3.672895e+00 -7.930638e+00 -5.959414e+00 -2.262941e+00 -5.086476e-01 -4.285623e+00 -2.686534e-01 6.006053e-02 -7.461766e-02 -4.919783e-01 5.089441e-01 3.955548e-01 1.055285e-01 1.168548e-01 1.785153e-01 1.794100e-01 -6.379495e-02 3.835263e-01 8.979893e-02 -4.209390e-01
<VARIANCE> 25
 1.705084e+01 3.223862e+01 4.262517e+01 9.826791e+01 7.402124e+01 3.661922e+01 3.819616e+01 4.789855e+01 4.502715e+01 4.140074e+01 2.644636e+01 3.699311e+01 4.824835e-01 6.843424e-01 1.290691e+00 3.214980e+00 2.066621e+00 1.749722e+00 1.893533e+00 2.172205e+00 1.806350e+00 1.729642e+00 1.742435e+00 1.569978e+00 5.245798e-01
<GCONST> 9.494447e+01
<STATE> 4
<MEAN> 25
 -1.142689e+00 1.679375e+00 1.766788e+00 3.506618e+00 6.785118e-01 1.699871e+00 2.138108e-01 9.284238e-01 1.688249e+00 6.355617e-01 1.832543e+00 2.637303e-01 -1.209581e-02 -6.075367e-02 -2.188515e-01 1.409355e-01 7.517329e-02 1.015538e-01 1.595244e-01 2.100874e-02 -2.849404e-03 5.601726e-02 1.045313e-01 -3.229742e-02 -5.616620e-02
<VARIANCE> 25
 1.326224e+01 1.341852e+01 1.676499e+01 2.226498e+01 1.912867e+01 1.992830e+01 2.620636e+01 2.399338e+01 2.267390e+01 2.164804e+01 1.819432e+01 1.509554e+01 1.909468e-01 4.021573e-01 7.019367e-01 1.079024e+00 1.126799e+00 1.293766e+00 1.436107e+00 1.461611e+00 1.443168e+00 1.464487e+00 1.320655e+00 1.328687e+00 1.171135e-01
<GCONST> 7.868948e+01
<TRANSP> 5
 0.000000e+00 1.000000e+00 0.000000e+00 0.000000e+00 0.000000e+00
 0.000000e+00 7.733940e-01 2.266059e-01 0.000000e+00 0.000000e+00
 0.000000e+00 0.000000e+00 8.509474e-01 1.490526e-01 0.000000e+00
 0.000000e+00 0.000000e+00 0.000000e+00 8.878089e-01 1.121910e-01
 0.000000e+00 0.000000e+00 0.000000e+00 0.000000e+00 0.000000e+00
<ENDHMM>
~h "ng"
<BEGINHMM>
<NUMSTATES> 5
<STATE> 2
<MEAN> 25
 3.824871e+00 -2.342722e+00 8.724626e-01 -1.661500e+00 4.054969e+00 -8.551891e+00 -9.411094e-02 -2.808483e+00 2.850457e-01 -1.796113e+00 5.916668e-01 -4.640368e+00 -2.770938e-01 -2.201924e-01 1.285501e-01 4.785300e-01 5.425845e-01 -2.554233e-01 -6.729010e-01 -1.059317e-01 5.409380e-01 2.014501e-01 6.403015e-01 -1.107643e-01 -4.706712e-02
<VARIANCE> 25
 9.290696e+00 4.867757e+01 3.754261e+01 5.343591e+01 3.868540e+01 4.746967e+01 6.059356e+01 5.328793e+01 4.501463e+01 4.041662e+01 5.864601e+01 4.172688e+01 5.485899e-01 8.636004e-01 1.093925e+00 1.347516e+00 1.474067e+00 1.801305e+00 2.358319e+00 2.295233e+00 1.719925e+00 2.514707e+00 1.544279e+00 1.744270e+00 4.999896e-01
<GCONST> 9.463792e+01
<STATE> 3
<MEAN> 25
 2.293465e+00 -2.714131e-01 2.386238e+00 4.081369e+00 7.702341e+00 -4.052892e+00 -2.241759e+00 -1.745496e+00 3.512343e+00 -1.009075e+00 1.303076e+00 -4.283160e+00 -1.602437e-01 2.540255e-01 -5.287824e-02 1.817962e-01 -3.222029e-01 7.864406e-01 3.119521e-01 4.353854e-01 8.477768e-02 1.624242e-01 -1.557917e-01 2.866325e-01 -5.992793e-01
<VARIANCE> 25
 9.385032e+00 3.903504e+01 4.032093e+01 2.820058e+01 3.157495e+01 4.079536e+01 3.207965e+01 4.194518e+01 4.870040e+01 2.927955e+01 6.860113e+01 2.752028e+01 5.820367e-01 1.875597e+00 1.502015e+00 1.287617e+00 1.231383e+00 2.085059e+00 2.453518e+00 1.905190e+00 2.118821e+00 1.990957e+00 2.646098e+00 1.259352e+00 9.043320e-01
<GCONST> 9.383300e+01
<STATE> 4
<MEAN> 25
 -8.232519e-01 -5.119354e-03 -2.660726e+00 3.299265e+00 -9.231518e-01 2.595159e+00 1.952323e+00 6.140679e-01 1.743963e-01 2.703274e+00 8.022439e-01 1.906634e+00 -6.341197e-02 -9.378819e-03 -2.160161e-02 -1.730632e-02 -7.959671e-02 2.884291e-02 -2.878136e-02 2.879543e-02 -4.146211e-04 5.139260e-02 2.765165e-02 4.507750e-02 -6.636012e-02
<VARIANCE> 25
 7.349842e+00 8.687236e+00 2.091936e+01 1.465491e+01 1.680751e+01 1.208178e+01 1.813470e+01 1.480484e+01 1.502747e+01 2.327638e+01 1.480908e+01 1.732884e+01 1.331449e-01 2.694075e-01 4.136043e-01 7.938387e-01 8.103104e-01 8.717502e-01 1.113014e+00 9.521672e-01 1.144421e+00 1.154100e+00 1.245275e+00 9.859629e-01 1.038831e-01
<GCONST> 7.162801e+01
<TRANSP> 5
 0.000000e+00 1.000000e+00 0.000000e+00 0.000000e+00 0.000000e+00
 0.000000e+00 7.055380e-01 2.944620e-01 0.000000e+00 0.000000e+00
 0.000000e+00 0.000000e+00 7.976487e-01 2.023513e-01 0.000000e+00
 0.000000e+00 0.000000e+00 0.000000e+00 9.463795e-01 5.362054e-02
 0.000000e+00 0.000000e+00 0.000000e+00 0.000000e+00 0.000000e+00
<ENDHMM>
~h "oh"
<BEGINHMM>
<NUMSTATES> 5
<STATE> 2
<MEAN> 25
 4.876313e-08 -1.572510e-08 -3.479018e-08 -3.353887e-08 3.894225e-08 5.448882e-08 6.837960e-09 -3.357679e-08 -9.075150e-09 1.238669e-09 6.825321e-10 3.043588e-08 1.480543e-02 -2.130302e-03 7.752344e-03 -2.168820e-03 1.143337e-02 -2.309903e-03 4.269884e-03 -3.775733e-03 -3.292339e-03 -9.014427e-04 -3.430429e-03 -3.983431e-03 3.762102e-02
<VARIANCE> 25
 4.782532e+01 4.486550e+01 4.720150e+01 6.892854e+01 4.782745e+01 4.025578e+01 4.904441e+01 4.112494e+01 4.163441e+01 4.402450e+01 3.629408e+01 2.461185e+01 1.112554e+00 1.522353e+00 1.617351e+00 2.656559e+00 2.172489e+00 2.083682e+00 2.429415e+00 2.410789e+00 2.262104e+00 2.509146e+00 2.111452e+00 1.695109e+00 1.480569e+00
<GCONST> 9.985252e+01
<STATE> 3
<MEAN> 25
 4.876313e-08 -1.572510e-08 -3.479018e-08 -3.353887e-08 3.894225e-08 5.448882e-08 6.837960e-09 -3.357679e-08 -9.075150e-09 1.238669e-09 6.825321e-10 3.043588e-08 1.480543e-02 -2.130302e-03 7.752344e-03 -2.168820e-03 1.143337e-02 -2.309903e-03 4.269884e-03 -3.775733e-03 -3.292339e-03 -9.014427e-04 -3.430429e-03 -3.983431e-03 3.762102e-02
<VARIANCE> 25
 4.782532e+01 4.486550e+01 4.720150e+01 6.892854e+01 4.782745e+01 4.025578e+01 4.904441e+01 4.112494e+01 4.163441e+01 4.402450e+01 3.629408e+01 2.461185e+01 1.112554e+00 1.522353e+00 1.617351e+00 2.656559e+00 2.172489e+00 2.083682e+00 2.429415e+00 2.410789e+00 2.262104e+00 2.509146e+00 2.111452e+00 1.695109e+00 1.480569e+00
<GCONST> 9.985252e+01
<STATE> 4
<MEAN> 25
 4.876313e-08 -1.572510e-08 -3.479018e-08 -3.353887e-08 3.894225e-08 5.448882e-08 6.837960e-09 -3.357679e-08 -9.075150e-09 1.238669e-09 6.825321e-10 3.043588e-08 1.480543e-02 -2.130302e-03 7.752344e-03 -2.168820e-03 1.143337e-02 -2.309903e-03 4.269884e-03 -3.775733e-03 -3.292339e-03 -9.014427e-04 -3.430429e-03 -3.983431e-03 3.762102e-02
<VARIANCE> 25
 4.782532e+01 4.486550e+01 4.720150e+01 6.892854e+01 4.782745e+01 4.025578e+01 4.904441e+01 4.112494e+01 4.163441e+01 4.402450e+01 3.629408e+01 2.461185e+01 1.112554e+00 1.522353e+00 1.617351e+00 2.656559e+00 2.172489e+00 2.083682e+00 2.429415e+00 2.410789e+00 2.262104e+00 2.509146e+00 2.111452e+00 1.695109e+00 1.480569e+00
<GCONST> 9.985252e+01
<TRANSP> 5
 0.000000e+00 1.000000e+00 0.000000e+00 0.000000e+00 0.000000e+00
 0.000000e+00 6.000000e-01 4.000000e-01 0.000000e+00 0.000000e+00
 0.000000e+00 0.000000e+00 6.000000e-01 4.000000e-01 0.000000e+00
 0.000000e+00 0.000000e+00 0.000000e+00 7.000000e-01 3.000000e-01
 0.000000e+00 0.000000e+00 0.000000e+00 0.000000e+00 0.000000e+00
<ENDHMM>
~h "sp"
<BEGINHMM>
<NUMSTATES> 3
<STATE> 2
~s "silst"
<TRANSP> 3
 0.000000e+00 1.544412e-02 9.845559e-01
 0.000000e+00 9.373361e-01 6.266387e-02
 0.000000e+00 0.000000e+00 0.000000e+00
<ENDHMM>
~h "uw"
<BEGINHMM>
<NUMSTATES> 5
<STATE> 2
<MEAN> 25
 4.918791e+00 1.269223e+00 -4.339864e+00 -1.054958e+01 1.236854e+00 -4.609245e+00 -3.676607e+00 -3.302940e+00 -1.931255e+00 3.189568e+00 8.302175e-01 -8.574965e-01 9.951343e-01 3.972958e-01 -7.960815e-01 -2.201173e+00 1.106564e-01 4.702196e-01 2.847413e-01 -5.830985e-01 -1.056376e+00 1.581613e-01 -2.979375e-01 2.050884e-02 3.780162e-01
<VARIANCE> 25
 2.067960e+01 1.548407e+01 3.142596e+01 7.101572e+01 6.849033e+01 3.979638e+01 4.136114e+01 3.388097e+01 4.220010e+01 4.479786e+01 4.093245e+01 2.767953e+01 1.639873e+00 1.457772e+00 1.675384e+00 4.987857e+00 3.949245e+00 4.169915e+00 2.660474e+00 3.014132e+00 3.619550e+00 2.949842e+00 3.041464e+00 2.882275e+00 1.918759e+00
<GCONST> 1.022278e+02
<STATE> 3
<MEAN> 25
 6.819546e+00 3.244991e+00 -3.813194e+00 -9.639724e+00 -1.998099e+00 -3.995323e+00 -3.689857e+00 -4.325819e+00 -4.096949e+00 7.406648e-01 -9.023164e-01 -1.585207e+00 -2.992604e-01 3.717083e-02 4.517884e-01 1.367087e+00 -5.547754e-02 4.215233e-02 -8.927121e-02 6.542656e-02 4.557836e-01 -1.005809e-01 1.488281e-01 6.675784e-03 -6.094993e-01
<VARIANCE> 25
 1.552689e+01 1.995514e+01 2.702349e+01 6.337735e+01 4.793277e+01 3.493896e+01 3.927534e+01 3.651063e+01 3.620990e+01 4.038061e+01 3.579579e+01 2.845288e+01 6.280427e-01 9.228613e-01 1.115603e+00 3.123455e+00 2.282799e+00 2.609117e+00 2.168963e+00 2.705285e+00 2.457020e+00 2.718851e+00 2.528908e+00 1.794099e+00 6.812212e-01
<GCONST> 9.531852e+01
<STATE> 4
<MEAN> 25
 -6.987820e-01 1.087555e+00 6.038103e-01 2.716763e+00 1.035121e+00 1.340592e+00 5.383350e-01 1.376670e+00 1.667198e+00 1.336302e+00 2.210443e+00 1.861321e-01 -1.092243e-01 -2.338521e-02 7.843093e-02 2.928243e-01 3.983843e-02 1.148261e-01 5.766559e-02 1.135824e-01 1.517936e-01 -2.862794e-02 -2.929515e-02 -3.328941e-02 -8.312593e-02
<VARIANCE> 25
 1.712183e+01 7.220942e+00 9.975377e+00 1.825028e+01 1.390180e+01 1.830994e+01 2.453542e+01 2.220198e+01 2.177426e+01 2.006766e+01 1.850645e+01 1.326429e+01 1.593051e-01 3.230269e-01 5.232909e-01 8.542914e-01 1.023838e+00 1.260653e+00 1.459056e+00 1.551885e+00 1.689010e+00 1.569219e+00 1.361177e+00 1.202835e+00 8.508793e-02
<GCONST> 7.569542e+01
<TRANSP> 5
 0.000000e+00 1.000000e+00 0.000000e+00 0.000000e+00 0.000000e+00
 0.000000e+00 7.194678e-01 2.805323e-01 0.000000e+00 0.000000e+00
 0.000000e+00 0.000000e+00 8.676885e-01 1.323115e-01 0.000000e+00
 0.000000e+00 0.000000e+00 0.000000e+00 8.788810e-01 1.211190e-01
 0.000000e+00 0.000000e+00 0.000000e+00 0.000000e+00 0.000000e+00
<ENDHMM>
~h "sil"
<BEGINHMM>
<NUMSTATES> 5
<STATE> 2
<MEAN> 25
 -1.634274e+01 6.592267e+00 -2.661656e+00 1.066787e+01 -3.787713e+00 7.765164e+00 -3.763312e+00 8.956733e+00 9.367495e+00 3.786133e+00 5.867504e+00 2.358183e+00 -1.654634e-02 2.904578e-02 -1.108688e-02 -3.813553e-02 4.285789e-02 5.329375e-02 -3.865456e-02 -3.666979e-02 1.023505e-01 7.307101e-02 1.285185e-02 -8.589584e-02 -2.097913e-02
<VARIANCE> 25
 3.431979e+01 1.575292e+01 2.269128e+01 2.231196e+01 2.544072e+01 1.961976e+01 2.218079e+01 3.735166e+01 3.037617e+01 1.960636e+01 2.014022e+01 1.341668e+01 7.217266e-02 1.806538e-01 2.870199e-01 4.210255e-01 5.282757e-01 6.607308e-01 8.960310e-01 1.148512e+00 1.064366e+00 1.460722e+00 1.141752e+00 1.247014e+00 2.389368e-02
<GCONST> 7.297148e+01
<STATE> 3
~s "silst"
<STATE> 4
<MEAN> 25
 -4.247573e+00 1.505056e+00 3.393628e-01 3.394276e+00 2.147122e+00 3.967636e+00 3.048167e+00 2.390111e+00 3.200338e+00 3.479328e+00 2.986618e+00 7.964045e-01 -1.697294e-02 2.797093e-03 5.641983e-03 1.893333e-02 2.164501e-02 1.354723e-02 6.989528e-03 -1.577471e-02 -2.090332e-02 2.502316e-02 2.002974e-02 2.862982e-03 2.110530e-02
<VARIANCE> 25
 1.392919e+01 7.612014e+00 1.114504e+01 1.537000e+01 1.539328e+01 1.424867e+01 1.909390e+01 1.766435e+01 1.691269e+01 1.631117e+01 1.402324e+01 1.591005e+01 1.884962e-01 3.503016e-01 5.172722e-01 7.299752e-01 9.546544e-01 1.089355e+00 1.187996e+00 1.299960e+00 1.404114e+00 1.345178e+00 1.284202e+00 1.304788e+00 9.209788e-02
<GCONST> 7.354257e+01
<TRANSP> 5
 0.000000e+00 1.000000e+00 0.000000e+00 0.000000e+00 0.000000e+00
 0.000000e+00 8.770644e-01 2.872217e-02 9.421334e-02 0.000000e+00
 0.000000e+00 0.000000e+00 9.588953e-01 4.110467e-02 0.000000e+00
 0.000000e+00 8.330832e-03 0.000000e+00 9.209651e-01 7.070401e-02
 0.000000e+00 0.000000e+00 0.000000e+00 0.000000e+00 0.000000e+00
<ENDHMM>
