~o
<STREAMINFO> 1 25
<VECSIZE> 25<NULLD><MFCC_D_N_Z_0><DIAGC>
~h "b"
<BEGINHMM>
<NUMSTATES> 5
<STATE> 2
<MEAN> 25
 1.741673e+00 3.735174e+00 1.269494e+01 -5.478972e+00 -9.453717e+00 -5.343785e+00 -2.828285e+00 -7.455744e+00 -4.850467e+00 5.182591e+00 -2.049600e+00 1.373851e+00 -9.016043e-01 -5.081702e-01 1.330183e+00 -2.130606e+00 -1.706932e+00 -7.624104e-01 6.331091e-01 -5.566655e-01 -4.238349e-01 1.590351e+00 2.755262e-01 5.410786e-01 1.308662e+00
<VARIANCE> 25
 2.777868e+01 1.317960e+01 6.820670e+01 1.060906e+02 3.861508e+01 2.778842e+01 3.852319e+01 4.527448e+01 4.023503e+01 6.220096e+01 2.807921e+01 3.861035e+01 2.094790e+00 1.859476e+00 8.989639e+00 9.589898e+00 3.249805e+00 3.452472e+00 3.949865e+00 7.796491e+00 4.573709e+00 4.982162e+00 3.627320e+00 3.364389e+00 6.841387e-01
<GCONST> 1.069025e+02
<STATE> 3
<MEAN> 25
 1.824882e+00 4.658642e-01 7.708225e+00 -6.919491e+00 -1.329620e+01 -9.741282e+00 -7.117691e-01 -3.132339e+00 -2.393697e+00 4.089909e+00 8.989930e-03 4.562371e-01 5.934581e-01 -4.899076e-01 -2.164124e+00 4.651544e-01 1.425216e+00 -3.700213e-01 -3.108237e-01 8.599247e-01 1.419181e+00 -1.551816e+00 -3.865349e-01 -1.020040e-01 -1.577587e-01
<VARIANCE> 25
 2.374351e+01 1.816035e+01 5.371696e+01 2.610136e+01 5.083007e+01 4.385620e+01 4.742469e+01 3.910265e+01 4.626324e+01 4.188030e+01 3.451682e+01 4.314337e+01 6.692847e-01 1.417644e+00 2.714891e+00 2.469301e+00 5.180951e+00 2.751652e+00 3.870705e+00 4.287466e+00 3.943769e+00 4.552628e+00 2.967960e+00 3.094439e+00 5.257997e-01
<GCONST> 1.011480e+02
<STATE> 4
<MEAN> 25
 6.798742e+00 1.031564e+00 -2.966912e+00 -3.466838e+00 -2.638849e+00 -7.294943e+00 -5.924002e+00 -2.602544e+00 3.162705e+00 -3.951017e+00 -2.976652e+00 -1.681377e-01 1.250982e-01 3.169612e-01 -8.062098e-01 -1.129220e-01 1.157348e+00 7.398270e-01 -6.044794e-01 -6.700060e-01 1.928434e-01 -1.614389e-01 2.199084e-01 -3.199306e-01 -5.131731e-01
<VARIANCE> 25
 2.245032e+01 2.310894e+01 4.301054e+01 3.896114e+01 4.577095e+01 3.370831e+01 4.448530e+01 7.856004e+01 6.112362e+01 6.297724e+01 3.125821e+01 2.719692e+01 6.802441e-01 6.830823e-01 2.099747e+00 1.802951e+00 2.908057e+00 1.906814e+00 2.348483e+00 3.303182e+00 2.496932e+00 2.410447e+00 2.560693e+00 1.768200e+00 2.118047e-01
<GCONST> 9.620332e+01
<TRANSP> 5
 0.000000e+00 1.000000e+00 0.000000e+00 0.000000e+00 0.000000e+00
 0.000000e+00 8.207086e-01 1.792915e-01 0.000000e+00 0.000000e+00
 0.000000e+00 0.000000e+00 7.728212e-01 2.271789e-01 0.000000e+00
 0.000000e+00 0.000000e+00 0.000000e+00 7.000602e-01 2.999398e-01
 0.000000e+00 0.000000e+00 0.000000e+00 0.000000e+00 0.000000e+00
<ENDHMM>
~h "c"
<BEGINHMM>
<NUMSTATES> 5
<STATE> 2
<MEAN> 25
 4.876313e-08 -1.572510e-08 -3.479018e-08 -3.353887e-08 3.894225e-08 5.448882e-08 6.837960e-09 -3.357679e-08 -9.075150e-09 1.238669e-09 6.825321e-10 3.043588e-08 1.480543e-02 -2.130302e-03 7.752344e-03 -2.168820e-03 1.143337e-02 -2.309903e-03 4.269884e-03 -3.775733e-03 -3.292339e-03 -9.014427e-04 -3.430429e-03 -3.983431e-03 3.762102e-02
<VARIANCE> 25
 4.782532e+01 4.486550e+01 4.720150e+01 6.892854e+01 4.782745e+01 4.025578e+01 4.904441e+01 4.112494e+01 4.163441e+01 4.402450e+01 3.629408e+01 2.461185e+01 1.112554e+00 1.522353e+00 1.617351e+00 2.656559e+00 2.172489e+00 2.083682e+00 2.429415e+00 2.410789e+00 2.262104e+00 2.509146e+00 2.111452e+00 1.695109e+00 1.480569e+00
<GCONST> 9.985252e+01
<STATE> 3
<MEAN> 25
 4.876313e-08 -1.572510e-08 -3.479018e-08 -3.353887e-08 3.894225e-08 5.448882e-08 6.837960e-09 -3.357679e-08 -9.075150e-09 1.238669e-09 6.825321e-10 3.043588e-08 1.480543e-02 -2.130302e-03 7.752344e-03 -2.168820e-03 1.143337e-02 -2.309903e-03 4.269884e-03 -3.775733e-03 -3.292339e-03 -9.014427e-04 -3.430429e-03 -3.983431e-03 3.762102e-02
<VARIANCE> 25
 4.782532e+01 4.486550e+01 4.720150e+01 6.892854e+01 4.782745e+01 4.025578e+01 4.904441e+01 4.112494e+01 4.163441e+01 4.402450e+01 3.629408e+01 2.461185e+01 1.112554e+00 1.522353e+00 1.617351e+00 2.656559e+00 2.172489e+00 2.083682e+00 2.429415e+00 2.410789e+00 2.262104e+00 2.509146e+00 2.111452e+00 1.695109e+00 1.480569e+00
<GCONST> 9.985252e+01
<STATE> 4
<MEAN> 25
 4.876313e-08 -1.572510e-08 -3.479018e-08 -3.353887e-08 3.894225e-08 5.448882e-08 6.837960e-09 -3.357679e-08 -9.075150e-09 1.238669e-09 6.825321e-10 3.043588e-08 1.480543e-02 -2.130302e-03 7.752344e-03 -2.168820e-03 1.143337e-02 -2.309903e-03 4.269884e-03 -3.775733e-03 -3.292339e-03 -9.014427e-04 -3.430429e-03 -3.983431e-03 3.762102e-02
<VARIANCE> 25
 4.782532e+01 4.486550e+01 4.720150e+01 6.892854e+01 4.782745e+01 4.025578e+01 4.904441e+01 4.112494e+01 4.163441e+01 4.402450e+01 3.629408e+01 2.461185e+01 1.112554e+00 1.522353e+00 1.617351e+00 2.656559e+00 2.172489e+00 2.083682e+00 2.429415e+00 2.410789e+00 2.262104e+00 2.509146e+00 2.111452e+00 1.695109e+00 1.480569e+00
<GCONST> 9.985252e+01
<TRANSP> 5
 0.000000e+00 1.000000e+00 0.000000e+00 0.000000e+00 0.000000e+00
 0.000000e+00 6.000000e-01 4.000000e-01 0.000000e+00 0.000000e+00
 0.000000e+00 0.000000e+00 6.000000e-01 4.000000e-01 0.000000e+00
 0.000000e+00 0.000000e+00 0.000000e+00 7.000000e-01 3.000000e-01
 0.000000e+00 0.000000e+00 0.000000e+00 0.000000e+00 0.000000e+00
<ENDHMM>
~h "d"
<BEGINHMM>
<NUMSTATES> 5
<STATE> 2
<MEAN> 25
 2.518545e+00 3.862298e+00 3.081574e+00 4.211100e+00 -2.580736e+00 -4.637145e-01 -2.331446e+00 -1.485633e+00 -2.473153e+00 -5.674842e-01 -4.606366e-02 -2.000366e+00 3.910255e-01 -4.731620e-01 2.033098e+00 -1.296242e+00 -1.411557e+00 -7.837657e-01 -5.135038e-01 -9.108914e-01 -1.752848e+00 5.376363e-01 -7.420452e-01 -3.927585e-01 2.096479e+00
<VARIANCE> 25
 2.706258e+01 3.141791e+01 3.459578e+01 3.460543e+01 2.944473e+01 2.719614e+01 3.225246e+01 3.104141e+01 2.941706e+01 3.742155e+01 2.673122e+01 2.013721e+01 3.525510e+00 4.071185e+00 4.002616e+00 4.333309e+00 3.324286e+00 3.750476e+00 3.739619e+00 4.585860e+00 3.989478e+00 6.594563e+00 3.704040e+00 2.980074e+00 3.667433e+00
<GCONST> 1.045201e+02
<STATE> 3
<MEAN> 25
 -1.340014e-02 1.417437e+00 1.420719e+01 -7.424324e+00 -9.975757e+00 -2.753283e+00 -6.178387e+00 -5.560061e+00 -7.364229e+00 6.375262e+00 -3.090306e+00 1.492104e+00 -4.011246e-01 -8.246835e-01 7.984519e-01 -2.184192e+00 -1.025567e+00 -7.057205e-01 2.327635e-02 -1.064350e-01 2.173009e-01 8.682032e-01 -2.825148e-01 5.211557e-01 1.502714e+00
<VARIANCE> 25
 1.348432e+01 3.287508e+01 6.515591e+01 7.612234e+01 5.164079e+01 3.699637e+01 4.661268e+01 4.913488e+01 6.201538e+01 6.271932e+01 3.827721e+01 4.558994e+01 1.335424e+00 4.400856e+00 6.636323e+00 7.730106e+00 5.571095e+00 4.051379e+00 9.518636e+00 3.961949e+00 5.559981e+00 7.129256e+00 4.723702e+00 4.213984e+00 3.218163e+00
<GCONST> 1.118674e+02
<STATE> 4
<MEAN> 25
 4.407994e-01 -5.117934e+00 8.973146e+00 -1.213234e+01 -8.932322e+00 -5.263965e+00 1.283713e+00 -1.351188e-01 -2.975182e+00 4.133821e+00 -3.129544e+00 -5.022120e-01 2.259230e-01 -1.007203e+00 -1.700675e+00 -5.240510e-01 1.401701e+00 -4.166514e-01 1.602974e+00 8.579112e-01 1.113313e+00 -1.269577e+00 -1.026205e-01 -2.217074e-02 4.280743e-01
<VARIANCE> 25
 1.862472e+01 3.307682e+01 5.432652e+01 5.925483e+01 8.929683e+01 3.358643e+01 1.274639e+02 5.132291e+01 4.269544e+01 8.958289e+01 5.539291e+01 3.491435e+01 4.858973e-01 2.276245e+00 3.093320e+00 2.529232e+00 5.545874e+00 1.718347e+00 6.234266e+00 3.760882e+00 2.717805e+00 7.147716e+00 3.211996e+00 2.095423e+00 8.325076e-01
<GCONST> 1.053128e+02
<TRANSP> 5
 0.000000e+00 1.000000e+00 0.000000e+00 0.000000e+00 0.000000e+00
 0.000000e+00 7.177170e-01 2.822830e-01 0.000000e+00 0.000000e+00
 0.000000e+00 0.000000e+00 7.135720e-01 2.864280e-01 0.000000e+00
 0.000000e+00 0.000000e+00 0.000000e+00 7.405825e-01 2.594175e-01
 0.000000e+00 0.000000e+00 0.000000e+00 0.000000e+00 0.000000e+00
<ENDHMM>
~h "g"
<BEGINHMM>
<NUMSTATES> 5
<STATE> 2
<MEAN> 25
 2.459267e-01 4.657715e+00 7.969144e+00 -8.152753e-01 -1.205908e+00 -3.108451e+00 -4.361362e+00 -2.710020e+00 3.597015e-01 -8.696287e-01 -2.318864e+00 -1.819890e+00 4.352739e-02 -6.118700e-01 1.824256e-01 5.234732e-02 5.442795e-01 -7.468891e-01 -3.049293e-01 -2.907277e-01 -2.864953e-01 1.917481e-01 1.272538e-02 -2.120718e-01 8.244145e-01
<VARIANCE> 25
 5.384332e+01 1.336373e+02 8.270341e+01 1.397100e+02 7.389240e+01 7.413775e+01 7.345332e+01 5.153864e+01 5.758707e+01 6.256865e+01 4.826062e+01 3.654831e+01 4.893489e+00 7.332599e+00 6.326882e+00 1.086078e+01 5.745774e+00 5.664551e+00 6.112121e+00 4.189350e+00 5.535264e+00 6.522011e+00 4.365798e+00 3.599520e+00 6.250719e+00
<GCONST> 1.194046e+02
<STATE> 3
<MEAN> 25
 1.798854e+00 -8.635275e-01 4.289481e+00 6.850622e-01 5.305783e+00 -3.881749e+00 -3.921977e+00 -1.837814e+00 -9.493504e-01 -4.203506e-01 -7.684525e-01 -1.760228e+00 7.170445e-01 3.733505e-01 -3.588945e-01 -9.798371e-01 1.029893e-01 -7.688755e-02 8.745173e-02 -6.458272e-01 -3.810498e-01 -4.696541e-02 -4.241589e-01 -1.271113e-01 6.188451e-01
<VARIANCE> 25
 1.952268e+01 2.914977e+01 1.608350e+02 9.543993e+01 5.939550e+01 6.007572e+01 6.608940e+01 4.286777e+01 4.633047e+01 1.584840e+02 3.696563e+01 4.182409e+01 1.985690e+00 3.206565e+00 4.326002e+00 7.095418e+00 4.640779e+00 3.945589e+00 7.216442e+00 3.797758e+00 4.673184e+00 7.861731e+00 3.593292e+00 2.720068e+00 3.226537e+00
<GCONST> 1.128522e+02
<STATE> 4
<MEAN> 25
 3.974310e+00 3.976023e+00 8.261158e+00 1.358279e+00 2.749490e+00 -3.212495e+00 -6.015040e+00 -2.905470e+00 -2.809094e+00 -4.671129e+00 -2.711613e+00 -3.836813e+00 1.156977e-01 2.381317e-01 -1.913727e-01 -1.803092e-01 -1.882723e-02 2.043783e-01 1.750366e-01 1.276165e-01 -2.805318e-02 1.801794e-01 -1.214928e-01 5.246606e-02 -1.515860e-01
<VARIANCE> 25
 1.694822e+01 4.921541e+01 5.977415e+01 8.106995e+01 5.571941e+01 3.085003e+01 6.506893e+01 4.682490e+01 2.439117e+01 5.231578e+01 2.699840e+01 2.290122e+01 5.675967e-01 1.342727e+00 2.034074e+00 3.100047e+00 2.269522e+00 1.921382e+00 2.724611e+00 2.187565e+00 1.904504e+00 3.909806e+00 1.711140e+00 1.642574e+00 1.064602e+00
<GCONST> 9.814026e+01
<TRANSP> 5
 0.000000e+00 1.000000e+00 0.000000e+00 0.000000e+00 0.000000e+00
 0.000000e+00 8.063243e-01 1.936757e-01 0.000000e+00 0.000000e+00
 0.000000e+00 0.000000e+00 6.966646e-01 3.033354e-01 0.000000e+00
 0.000000e+00 0.000000e+00 0.000000e+00 8.196977e-01 1.803023e-01
 0.000000e+00 0.000000e+00 0.000000e+00 0.000000e+00 0.000000e+00
<ENDHMM>
~h "h"
<BEGINHMM>
<NUMSTATES> 5
<STATE> 2
<MEAN> 25
 -9.161595e-01 1.466157e+00 1.050989e+00 3.922453e+00 2.114967e-01 2.513342e+00 -1.023709e-01 4.821144e-01 1.262098e+00 9.049197e-01 2.661666e+00 -3.018377e-01 -1.910230e-02 4.609945e-02 -5.704204e-03 2.584727e-02 2.867657e-02 -2.076349e-02 -5.206659e-02 1.012463e-01 1.632083e-01 -2.755217e-02 -7.505192e-02 -6.395181e-02 -2.289509e-02
<VARIANCE> 25
 1.027314e+01 5.160922e+00 6.472340e+00 9.391058e+00 9.719532e+00 1.340742e+01 1.478342e+01 1.567796e+01 1.838915e+01 1.480135e+01 1.087553e+01 1.129784e+01 1.371458e-01 2.837812e-01 4.335003e-01 5.315018e-01 7.876059e-01 1.381987e+00 1.302419e+00 1.402526e+00 1.612525e+00 1.513109e+00 1.109047e+00 1.492970e+00 5.125077e-02
<GCONST> 6.915648e+01
<STATE> 3
<MEAN> 25
 -2.675848e+00 -1.869947e+00 2.582061e-01 6.005587e+00 6.625991e+00 -4.215670e-01 -2.117598e-01 5.449204e-01 2.314088e+00 -3.293400e+00 2.013041e+00 1.445552e+00 -9.993326e-02 -1.236704e+00 -4.384446e-01 -4.034870e-02 1.313984e+00 -1.970675e-01 4.047227e-01 -6.250594e-01 -6.190310e-01 -9.835091e-01 -3.513810e-02 7.665315e-01 8.187675e-01
<VARIANCE> 25
 1.622229e+01 1.261207e+01 1.307626e+01 7.216278e+00 1.739639e+01 2.127304e+01 1.879862e+01 4.421741e+01 4.306142e+01 3.920734e+01 1.599067e+01 1.703068e+01 4.344066e-01 1.522522e+00 2.884637e+00 1.166738e+00 2.106288e+00 2.081026e+00 1.804406e+00 3.189732e+00 2.659659e+00 2.469040e+00 2.564671e+00 2.650192e+00 2.359513e-01
<GCONST> 8.787274e+01
<STATE> 4
<MEAN> 25
 8.102118e+00 -3.850235e+00 -2.954443e+00 1.854440e+00 -6.620178e-01 -2.131081e+00 -4.616447e+00 -6.958375e+00 -6.363597e+00 -8.685353e+00 -4.394370e+00 3.697507e+00 3.188679e-01 2.206599e-01 -1.299144e-01 -3.781478e-01 -2.903166e-01 -3.331315e-01 -2.067192e-01 -4.848272e-01 -7.318863e-02 4.558497e-02 -1.135382e-01 -1.013904e-01 1.420408e-01
<VARIANCE> 25
 4.162107e+01 5.410077e+01 4.196071e+01 2.153321e+01 4.048907e+01 2.433611e+01 3.723692e+01 4.987220e+01 3.584068e+01 3.882541e+01 2.692877e+01 1.998943e+01 1.466553e+00 1.250495e+00 1.954769e+00 1.605599e+00 1.467941e+00 1.263218e+00 2.476508e+00 1.993592e+00 1.669174e+00 1.526482e+00 2.346496e+00 1.414306e+00 6.076450e-01
<GCONST> 9.402026e+01
<TRANSP> 5
 0.000000e+00 1.000000e+00 0.000000e+00 0.000000e+00 0.000000e+00
 0.000000e+00 9.518872e-01 4.811276e-02 0.000000e+00 0.000000e+00
 0.000000e+00 0.000000e+00 7.789251e-01 2.210750e-01 0.000000e+00
 0.000000e+00 0.000000e+00 0.000000e+00 9.178842e-01 8.211578e-02
 0.000000e+00 0.000000e+00 0.000000e+00 0.000000e+00 0.000000e+00
<ENDHMM>
~h "j"
<BEGINHMM>
<NUMSTATES> 5
<STATE> 2
<MEAN> 25
 4.591527e+00 2.323339e+00 5.586666e+00 -1.294939e+00 -4.029505e+00 -4.413432e+00 -5.410631e+00 -2.329912e-01 -5.064808e+00 1.772303e+00 -5.844651e+00 -3.652078e+00 -3.755300e-01 1.341721e-01 4.020861e-01 1.183966e+00 3.331959e-02 9.843650e-01 4.095010e-01 4.751346e-01 -4.439521e-02 -1.109282e+00 3.571054e-01 -4.275354e-02 -3.013485e-01
<VARIANCE> 25
 8.650318e+00 3.540800e+00 2.958599e+01 4.193663e+01 3.270650e+01 6.348339e+01 3.706469e+01 2.299068e+01 3.552739e+01 9.008967e+01 2.173112e+01 1.531974e+01 1.170828e+00 5.609089e-01 2.611725e+00 8.076927e-01 5.794703e+00 5.218109e+00 1.880385e+00 2.661643e+00 3.385861e+00 2.618511e+00 1.864974e+00 1.718690e+00 6.603060e-01
<GCONST> 9.303487e+01
<STATE> 3
<MEAN> 25
 -2.670491e+00 5.648320e+00 5.538863e+00 3.163957e+00 -4.375507e+00 2.577402e+00 -5.144159e+00 -2.071833e+00 -3.536530e+00 -1.337864e+00 -1.634656e+00 -3.484013e+00 -1.059232e+00 3.478463e-01 4.786612e-01 -4.695640e-01 -6.043437e-01 -3.605725e-01 2.304885e-01 -3.303351e-01 -1.428044e-01 1.152820e+00 4.170188e-01 3.982849e-01 -1.463489e-02
<VARIANCE> 25
 5.003923e+01 1.133236e+01 7.962626e+01 1.880140e+01 5.895878e+01 6.311778e+01 2.482749e+01 2.834638e+01 3.048093e+01 4.199792e+01 2.791870e+01 2.308158e+01 5.801282e+00 1.346109e+00 1.707014e+00 2.568846e+00 7.205405e+00 7.426416e+00 2.288553e+00 2.637995e+00 4.351634e+00 2.354098e+00 2.939777e+00 1.888570e+00 2.695293e+00
<GCONST> 1.023437e+02
<STATE> 4
<MEAN> 25
 -1.844884e+00 5.224343e+00 6.256407e+00 -2.605736e+00 -5.139046e+00 -9.027730e+00 -7.357967e+00 5.872421e-01 -6.307478e-01 5.275373e+00 2.518995e+00 -3.033225e+00 5.167012e-01 -3.206988e-01 -2.760422e-01 -5.606278e-01 3.847916e-01 -7.493380e-01 -1.287012e-01 9.044750e-02 2.767918e-01 3.179710e-01 -2.346162e-01 1.455311e-01 4.802297e-01
<VARIANCE> 25
 5.676252e+01 6.971010e+01 2.825290e+01 5.796103e+01 7.572089e+01 1.139159e+02 6.095794e+01 3.122628e+01 5.639795e+01 4.721231e+01 4.784256e+01 3.249364e+01 3.433816e+00 5.299600e+00 4.520205e+00 5.501916e+00 8.785875e+00 8.857273e+00 4.458363e+00 5.282158e+00 6.417704e+00 4.516596e+00 4.534562e+00 3.156953e+00 7.047158e+00
<GCONST> 1.150903e+02
<TRANSP> 5
 0.000000e+00 1.000000e+00 0.000000e+00 0.000000e+00 0.000000e+00
 0.000000e+00 8.744493e-01 1.255507e-01 0.000000e+00 0.000000e+00
 0.000000e+00 0.000000e+00 8.534363e-01 1.465637e-01 0.000000e+00
 0.000000e+00 0.000000e+00 0.000000e+00 9.120900e-01 8.791000e-02
 0.000000e+00 0.000000e+00 0.000000e+00 0.000000e+00 0.000000e+00
<ENDHMM>
~h "k"
<BEGINHMM>
<NUMSTATES> 5
<STATE> 2
<MEAN> 25
 4.151620e+00 1.260530e+00 -4.542972e+00 -1.727520e+00 1.435783e+00 1.057207e+00 -4.587114e+00 -1.574140e+00 -8.655781e-01 -9.981890e-01 -2.104792e+00 -2.519421e+00 -6.683051e-01 -1.715372e-01 -2.431542e-01 -2.956181e-01 1.267866e-01 -8.597542e-02 4.740756e-01 3.165206e-01 4.835453e-02 6.759875e-01 2.164887e-01 -1.906706e-01 2.683004e-01
<VARIANCE> 25
 3.040568e+01 3.634803e+01 4.581973e+01 9.556406e+01 3.590416e+01 5.340903e+01 5.987080e+01 3.618875e+01 4.665384e+01 5.172651e+01 4.276613e+01 3.695671e+01 3.417986e+00 3.829263e+00 3.603392e+00 6.145928e+00 3.591052e+00 5.596566e+00 5.460147e+00 4.099798e+00 5.642380e+00 5.637210e+00 3.035288e+00 4.790390e+00 6.026463e+00
<GCONST> 1.114444e+02
<STATE> 3
<MEAN> 25
 1.052977e+00 -1.323359e+00 -3.711681e+00 -4.308573e+00 1.767949e+00 4.226117e-01 4.581196e-01 1.062331e-01 1.413773e+00 2.534910e+00 -1.066338e+00 -1.118284e+00 -2.530716e-01 -4.034581e-01 -2.380785e-02 3.376466e-02 2.088700e-01 1.310244e-01 4.740560e-01 -2.287918e-01 1.984494e-01 5.723498e-01 3.533030e-01 1.432765e-01 1.879674e-01
<VARIANCE> 25
 1.687785e+01 2.891623e+01 2.682271e+01 1.022112e+02 3.848685e+01 3.563606e+01 4.053400e+01 3.406095e+01 2.858376e+01 5.174100e+01 3.113747e+01 3.298997e+01 2.433887e+00 2.338839e+00 2.963377e+00 7.533498e+00 2.953898e+00 3.698759e+00 4.396922e+00 4.063303e+00 3.575846e+00 4.945548e+00 3.772259e+00 3.539689e+00 5.560444e+00
<GCONST> 1.060402e+02
<STATE> 4
<MEAN> 25
 -2.925825e+00 3.055871e-01 -6.339911e-01 3.272475e+00 2.555028e+00 3.373054e+00 2.248901e+00 1.935676e+00 2.696433e+00 2.780089e+00 2.402853e+00 5.891764e-01 -5.179092e-02 2.421603e-02 1.147517e-01 1.010034e-01 -7.023194e-02 -1.409176e-02 4.335319e-02 4.056659e-02 6.301276e-03 -5.854415e-02 4.864140e-02 4.685856e-02 -3.185020e-02
<VARIANCE> 25
 1.293968e+01 7.048023e+00 1.277442e+01 1.635176e+01 1.792137e+01 1.343058e+01 2.213465e+01 1.760109e+01 1.643054e+01 2.214239e+01 1.793204e+01 1.228610e+01 2.848533e-01 4.768019e-01 7.404675e-01 8.769714e-01 1.022389e+00 1.248420e+00 1.516765e+00 1.512673e+00 1.589631e+00 1.754504e+00 1.530716e+00 1.088141e+00 2.001012e-01
<GCONST> 7.711533e+01
<TRANSP> 5
 0.000000e+00 1.000000e+00 0.000000e+00 0.000000e+00 0.000000e+00
 0.000000e+00 7.008390e-01 2.991610e-01 0.000000e+00 0.000000e+00
 0.000000e+00 0.000000e+00 6.065384e-01 3.934616e-01 0.000000e+00
 0.000000e+00 0.000000e+00 0.000000e+00 9.528219e-01 4.717813e-02
 0.000000e+00 0.000000e+00 0.000000e+00 0.000000e+00 0.000000e+00
<ENDHMM>
~h "l"
<BEGINHMM>
<NUMSTATES> 5
<STATE> 2
<MEAN> 25
 4.792652e+00 -4.169788e+00 -4.068732e+00 -8.571796e+00 1.111592e+00 -6.517895e-01 -1.378700e+00 -2.825030e+00 1.825948e+00 4.499886e-01 -9.837058e-01 -1.716644e+00 -3.768948e-02 1.711508e-01 -1.243415e-01 1.732668e-01 1.867033e-01 9.494952e-02 8.617119e-02 7.132176e-02 9.171246e-02 -2.815739e-02 1.825891e-03 6.664091e-02 -2.519350e-01
<VARIANCE> 25
 1.021614e+01 4.008304e+01 3.674162e+01 4.573521e+01 9.284552e+01 7.636036e+01 5.133554e+01 5.822232e+01 3.943345e+01 3.837167e+01 3.823767e+01 2.036574e+01 3.951642e-01 1.494598e+00 1.075427e+00 2.744253e+00 3.679891e+00 2.334930e+00 2.244077e+00 2.214442e+00 1.921386e+00 2.525225e+00 1.798240e+00 1.266150e+00 8.101596e-01
<GCONST> 9.673871e+01
<STATE> 3
<MEAN> 25
 3.588163e+00 -1.388360e+00 -4.083752e+00 -3.784976e+00 2.946284e+00 -3.716640e-01 -1.324966e+00 -3.580614e+00 1.037672e+00 -1.700301e+00 -9.094090e-01 -5.798577e-01 -2.659203e-01 3.611735e-01 4.501105e-01 1.116987e+00 -4.264524e-02 2.211466e-01 1.092423e-01 5.616300e-01 -7.163636e-03 -1.659357e-02 2.359360e-01 1.336038e-01 -7.156455e-01
<VARIANCE> 25
 1.121580e+01 3.443136e+01 2.714899e+01 5.133658e+01 5.652303e+01 5.037904e+01 3.756394e+01 3.666623e+01 3.164326e+01 2.968692e+01 3.189989e+01 2.276189e+01 5.960073e-01 1.230567e+00 1.246312e+00 2.611828e+00 2.084993e+00 1.902717e+00 2.383917e+00 2.259094e+00 1.779132e+00 2.025936e+00 1.853845e+00 1.640570e+00 6.972410e-01
<GCONST> 9.372382e+01
<STATE> 4
<MEAN> 25
 -9.721965e-01 1.165866e+00 4.007582e-01 4.219164e+00 1.029467e+00 1.799837e+00 9.323287e-01 1.764383e+00 1.917286e+00 1.935615e-01 2.076715e+00 -6.951664e-02 -1.003939e-01 -1.760022e-02 4.440646e-02 7.193001e-02 -1.760666e-02 4.406486e-02 4.682988e-02 1.344945e-01 3.461077e-02 6.231717e-02 2.837546e-02 -1.900136e-02 -4.748987e-02
<VARIANCE> 25
 1.348351e+01 5.366086e+00 1.012508e+01 1.589932e+01 1.511416e+01 1.581339e+01 1.881777e+01 1.700989e+01 1.859705e+01 1.911154e+01 1.592607e+01 1.432730e+01 1.737072e-01 3.067166e-01 5.831791e-01 7.298871e-01 1.000589e+00 1.231042e+00 1.227037e+00 1.547185e+00 1.559191e+00 1.347904e+00 1.164941e+00 1.193244e+00 9.586184e-02
<GCONST> 7.364868e+01
<TRANSP> 5
 0.000000e+00 1.000000e+00 0.000000e+00 0.000000e+00 0.000000e+00
 0.000000e+00 8.149743e-01 1.850257e-01 0.000000e+00 0.000000e+00
 0.000000e+00 0.000000e+00 6.654714e-01 3.345287e-01 0.000000e+00
 0.000000e+00 0.000000e+00 0.000000e+00 9.437953e-01 5.620468e-02
 0.000000e+00 0.000000e+00 0.000000e+00 0.000000e+00 0.000000e+00
<ENDHMM>
~h "m"
<BEGINHMM>
<NUMSTATES> 5
<STATE> 2
<MEAN> 25
 4.726360e+00 -1.003823e+00 -1.183105e+00 1.601445e+00 3.799780e+00 5.115789e-01 -3.543335e+00 -3.019589e+00 -2.184948e+00 -3.171441e+00 -3.312802e+00 -2.418826e+00 2.497669e-02 5.712926e-01 5.384476e-01 7.926742e-01 -9.763150e-02 -5.029035e-01 -4.893084e-01 -3.587327e-01 -2.160952e-01 -8.170278e-02 -1.904751e-01 -2.223134e-01 -3.637396e-01
<VARIANCE> 25
 2.929647e+01 5.911669e+01 3.484705e+01 6.640948e+01 4.080708e+01 5.208614e+01 3.785841e+01 3.908305e+01 3.862960e+01 2.976574e+01 3.583524e+01 2.464246e+01 1.557546e+00 1.926625e+00 2.048338e+00 2.649811e+00 1.860942e+00 3.154366e+00 2.984550e+00 3.963393e+00 2.515619e+00 2.300539e+00 2.865744e+00 1.973732e+00 1.328961e+00
<GCONST> 1.007464e+02
<STATE> 3
<MEAN> 25
 4.575855e+00 1.162356e+00 2.142147e+00 3.536209e+00 2.696852e+00 -4.176635e+00 -4.116527e+00 -3.691467e+00 -2.070941e+00 -3.627862e+00 -1.956360e+00 -4.573667e+00 -8.330238e-02 2.546165e-01 1.694803e-01 4.497901e-01 -1.465103e-01 1.006450e-01 5.648373e-02 1.908307e-01 1.110631e-01 7.752910e-02 -4.459223e-02 9.654665e-03 -3.638522e-01
<VARIANCE> 25
 1.741422e+01 3.116107e+01 2.892541e+01 5.731031e+01 3.731719e+01 6.840494e+01 4.064228e+01 3.572188e+01 3.910662e+01 2.610880e+01 5.331079e+01 3.152943e+01 6.427940e-01 9.102413e-01 1.167831e+00 2.234214e+00 1.204350e+00 2.011757e+00 2.000119e+00 2.061048e+00 2.024026e+00 2.089162e+00 2.171931e+00 1.559954e+00 5.787413e-01
<GCONST> 9.397732e+01
<STATE> 4
<MEAN> 25
 -4.532003e-02 1.516006e+00 8.706401e-01 4.000407e+00 1.366987e+00 1.069451e+00 5.179774e-01 1.380313e+00 1.064470e+00 -2.056887e-01 4.172252e-01 -1.020072e+00 -6.145909e-02 3.485597e-02 7.148193e-02 -2.413101e-02 -1.198422e-01 -1.293881e-02 4.909002e-02 9.438497e-02 7.012317e-02 1.102844e-01 1.484655e-01 4.200476e-02 -2.976448e-02
<VARIANCE> 25
 2.547641e+01 1.021543e+01 1.160252e+01 1.876646e+01 2.020705e+01 2.051706e+01 2.844028e+01 2.488192e+01 2.096384e+01 2.381180e+01 2.769701e+01 1.764957e+01 2.121025e-01 3.788226e-01 4.875757e-01 8.180391e-01 9.791034e-01 1.142759e+00 1.299021e+00 1.446585e+00 1.579802e+00 1.645582e+00 1.365355e+00 1.071582e+00 1.361586e-01
<GCONST> 7.853076e+01
<TRANSP> 5
 0.000000e+00 1.000000e+00 0.000000e+00 0.000000e+00 0.000000e+00
 0.000000e+00 6.397682e-01 3.602317e-01 0.000000e+00 0.000000e+00
 0.000000e+00 0.000000e+00 6.144114e-01 3.855886e-01 0.000000e+00
 0.000000e+00 0.000000e+00 0.000000e+00 9.118787e-01 8.812129e-02
 0.000000e+00 0.000000e+00 0.000000e+00 0.000000e+00 0.000000e+00
<ENDHMM>
~h "n"
<BEGINHMM>
<NUMSTATES> 5
<STATE> 2
<MEAN> 25
 5.595752e+00 1.381489e+00 3.809575e-01 1.608411e+00 -4.174603e-01 -6.407298e+00 -4.417069e+00 -3.529282e+00 -5.357860e+00 -6.813323e+00 -1.735734e+00 1.478004e+00 -3.064154e-01 7.627553e-01 2.255861e-01 8.574758e-01 -2.063156e-02 4.232635e-01 -1.540047e-01 -2.841204e-01 2.155292e-01 5.487499e-01 6.426141e-02 8.483002e-02 -8.611313e-01
<VARIANCE> 25
 1.416551e+01 2.762621e+01 1.193060e+01 3.459909e+01 5.029451e+01 5.764785e+01 2.885619e+01 2.558756e+01 4.054842e+01 2.831645e+01 4.504310e+01 3.233246e+01 3.936935e-01 1.137078e+00 1.143372e+00 2.348514e+00 1.416267e+00 2.284217e+00 2.032094e+00 2.496282e+00 2.166728e+00 2.114721e+00 3.002910e+00 1.576800e+00 7.181505e-01
<GCONST> 9.257375e+01
<STATE> 3
<MEAN> 25
 3.343471e+00 3.231542e+00 1.583431e+00 4.688265e+00 1.186100e+00 -2.424720e+00 -3.767739e+00 -3.169358e+00 -3.069381e+00 -4.249802e+00 -2.199025e+00 4.998931e-01 -4.033516e-01 1.318432e-01 -6.641179e-03 3.758971e-01 5.828172e-02 7.992994e-01 3.943424e-01 4.467531e-01 4.041251e-01 4.342105e-01 3.619424e-01 -1.680138e-01 -5.173056e-01
<VARIANCE> 25
 1.927665e+01 2.262143e+01 1.183476e+01 2.144999e+01 3.555211e+01 3.255796e+01 1.967733e+01 2.468991e+01 2.800854e+01 1.946898e+01 2.659679e+01 2.493974e+01 3.496966e-01 5.423061e-01 7.576068e-01 1.176999e+00 1.290741e+00 1.528417e+00 1.613906e+00 1.656889e+00 2.089452e+00 1.783477e+00 2.177092e+00 1.390460e+00 2.436060e-01
<GCONST> 8.449668e+01
<STATE> 4
<MEAN> 25
 -2.490057e+00 1.733742e+00 8.898840e-01 4.098273e+00 2.233974e+00 2.446868e+00 2.192076e+00 2.223627e+00 2.352661e+00 1.715651e+00 2.550270e+00 3.732848e-01 -5.969569e-02 9.736099e-04 4.897332e-04 1.091486e-02 5.379289e-03 7.027660e-02 6.954969e-02 6.271428e-02 7.100121e-02 1.020227e-01 6.695791e-02 -3.310406e-02 -2.137505e-02
<VARIANCE> 25
 1.510146e+01 6.805945e+00 7.129683e+00 1.031910e+01 1.344823e+01 1.332656e+01 1.953849e+01 1.847991e+01 1.929407e+01 2.034641e+01 1.519806e+01 1.385551e+01 1.623367e-01 3.106583e-01 4.620571e-01 6.956497e-01 9.112629e-01 1.150570e+00 1.184729e+00 1.322259e+00 1.449963e+00 1.462368e+00 1.355920e+00 1.229108e+00 8.350610e-02
<GCONST> 7.243162e+01
<TRANSP> 5
 0.000000e+00 1.000000e+00 0.000000e+00 0.000000e+00 0.000000e+00
 0.000000e+00 6.866014e-01 3.133986e-01 0.000000e+00 0.000000e+00
 0.000000e+00 0.000000e+00 6.706659e-01 3.293340e-01 0.000000e+00
 0.000000e+00 0.000000e+00 0.000000e+00 9.562184e-01 4.378159e-02
 0.000000e+00 0.000000e+00 0.000000e+00 0.000000e+00 0.000000e+00
<ENDHMM>
~h "o"
<BEGINHMM>
<NUMSTATES> 5
<STATE> 2
<MEAN> 25
 4.876313e-08 -1.572510e-08 -3.479018e-08 -3.353887e-08 3.894225e-08 5.448882e-08 6.837960e-09 -3.357679e-08 -9.075150e-09 1.238669e-09 6.825321e-10 3.043588e-08 1.480543e-02 -2.130302e-03 7.752344e-03 -2.168820e-03 1.143337e-02 -2.309903e-03 4.269884e-03 -3.775733e-03 -3.292339e-03 -9.014427e-04 -3.430429e-03 -3.983431e-03 3.762102e-02
<VARIANCE> 25
 4.782532e+01 4.486550e+01 4.720150e+01 6.892854e+01 4.782745e+01 4.025578e+01 4.904441e+01 4.112494e+01 4.163441e+01 4.402450e+01 3.629408e+01 2.461185e+01 1.112554e+00 1.522353e+00 1.617351e+00 2.656559e+00 2.172489e+00 2.083682e+00 2.429415e+00 2.410789e+00 2.262104e+00 2.509146e+00 2.111452e+00 1.695109e+00 1.480569e+00
<GCONST> 9.985252e+01
<STATE> 3
<MEAN> 25
 4.876313e-08 -1.572510e-08 -3.479018e-08 -3.353887e-08 3.894225e-08 5.448882e-08 6.837960e-09 -3.357679e-08 -9.075150e-09 1.238669e-09 6.825321e-10 3.043588e-08 1.480543e-02 -2.130302e-03 7.752344e-03 -2.168820e-03 1.143337e-02 -2.309903e-03 4.269884e-03 -3.775733e-03 -3.292339e-03 -9.014427e-04 -3.430429e-03 -3.983431e-03 3.762102e-02
<VARIANCE> 25
 4.782532e+01 4.486550e+01 4.720150e+01 6.892854e+01 4.782745e+01 4.025578e+01 4.904441e+01 4.112494e+01 4.163441e+01 4.402450e+01 3.629408e+01 2.461185e+01 1.112554e+00 1.522353e+00 1.617351e+00 2.656559e+00 2.172489e+00 2.083682e+00 2.429415e+00 2.410789e+00 2.262104e+00 2.509146e+00 2.111452e+00 1.695109e+00 1.480569e+00
<GCONST> 9.985252e+01
<STATE> 4
<MEAN> 25
 4.876313e-08 -1.572510e-08 -3.479018e-08 -3.353887e-08 3.894225e-08 5.448882e-08 6.837960e-09 -3.357679e-08 -9.075150e-09 1.238669e-09 6.825321e-10 3.043588e-08 1.480543e-02 -2.130302e-03 7.752344e-03 -2.168820e-03 1.143337e-02 -2.309903e-03 4.269884e-03 -3.775733e-03 -3.292339e-03 -9.014427e-04 -3.430429e-03 -3.983431e-03 3.762102e-02
<VARIANCE> 25
 4.782532e+01 4.486550e+01 4.720150e+01 6.892854e+01 4.782745e+01 4.025578e+01 4.904441e+01 4.112494e+01 4.163441e+01 4.402450e+01 3.629408e+01 2.461185e+01 1.112554e+00 1.522353e+00 1.617351e+00 2.656559e+00 2.172489e+00 2.083682e+00 2.429415e+00 2.410789e+00 2.262104e+00 2.509146e+00 2.111452e+00 1.695109e+00 1.480569e+00
<GCONST> 9.985252e+01
<TRANSP> 5
 0.000000e+00 1.000000e+00 0.000000e+00 0.000000e+00 0.000000e+00
 0.000000e+00 6.000000e-01 4.000000e-01 0.000000e+00 0.000000e+00
 0.000000e+00 0.000000e+00 6.000000e-01 4.000000e-01 0.000000e+00
 0.000000e+00 0.000000e+00 0.000000e+00 7.000000e-01 3.000000e-01
 0.000000e+00 0.000000e+00 0.000000e+00 0.000000e+00 0.000000e+00
<ENDHMM>
~h "p"
<BEGINHMM>
<NUMSTATES> 5
<STATE> 2
<MEAN> 25
 -2.791418e+00 2.260515e+00 -4.978298e+00 4.399159e+00 -2.902669e+00 3.900730e+00 -3.286066e+00 2.586282e+00 2.370399e+00 1.993973e+00 3.113299e+00 1.396389e+00 1.782068e+00 -7.974242e-01 5.024815e-01 -1.192240e+00 2.699339e-01 -7.445259e-01 5.981365e-01 -2.613751e-01 -7.241983e-01 6.414361e-02 1.104036e-02 -5.419496e-01 3.153928e+00
<VARIANCE> 25
 7.381187e+01 2.892012e+01 3.885092e+01 3.138309e+01 2.815953e+01 2.334808e+01 3.853142e+01 3.561761e+01 3.490477e+01 2.273755e+01 2.616982e+01 2.415989e+01 9.479905e+00 3.048508e+00 2.927007e+00 3.400440e+00 3.427050e+00 3.499950e+00 3.028279e+00 3.714441e+00 4.132405e+00 2.707206e+00 3.009999e+00 2.459643e+00 1.603294e+01
<GCONST> 1.053154e+02
<STATE> 3
<MEAN> 25
 7.855452e-01 -2.144910e+00 -2.690864e+00 -1.918741e+00 -4.700039e-01 1.749197e-01 1.938427e+00 7.728019e-01 1.295176e+00 1.761489e+00 1.587416e+00 -1.791333e+00 6.618493e-01 -1.613014e+00 -8.052897e-02 -1.520398e+00 8.438423e-01 -3.846650e-01 1.081717e+00 -3.317469e-01 1.456475e-01 -5.267049e-01 -5.279982e-01 -1.664383e-01 2.875598e+00
<VARIANCE> 25
 2.501284e+01 5.432869e+01 3.283710e+01 6.472285e+01 4.602170e+01 3.578174e+01 4.060818e+01 5.536429e+01 3.704344e+01 2.992535e+01 2.723089e+01 1.753106e+01 4.548711e+00 5.650284e+00 3.214365e+00 7.769380e+00 5.542122e+00 5.504506e+00 4.786196e+00 6.932231e+00 3.530978e+00 5.122562e+00 3.541871e+00 2.479622e+00 9.724216e+00
<GCONST> 1.098535e+02
<STATE> 4
<MEAN> 25
 -2.202705e+00 1.064371e+00 2.378958e-01 2.640632e+00 1.606744e+00 2.502858e+00 2.572445e+00 2.197144e+00 3.220841e+00 1.988294e+00 2.777053e+00 -1.173839e-01 1.193275e-01 -9.409560e-02 -5.413809e-02 -1.826935e-01 -1.251310e-01 -1.438353e-01 -5.123284e-02 -3.382856e-02 -9.291306e-03 1.922131e-03 -5.260949e-02 1.666045e-02 2.941757e-01
<VARIANCE> 25
 1.888531e+01 1.320957e+01 1.065418e+01 2.059880e+01 1.379226e+01 1.569751e+01 1.877802e+01 1.993770e+01 1.614314e+01 1.997510e+01 1.586321e+01 1.401597e+01 8.200505e-01 7.466094e-01 8.585082e-01 1.307010e+00 1.393187e+00 1.405716e+00 1.434797e+00 1.702602e+00 1.533168e+00 1.985254e+00 1.656460e+00 1.223769e+00 8.698689e-01
<GCONST> 8.221072e+01
<TRANSP> 5
 0.000000e+00 1.000000e+00 0.000000e+00 0.000000e+00 0.000000e+00
 0.000000e+00 5.392970e-01 4.607029e-01 0.000000e+00 0.000000e+00
 0.000000e+00 0.000000e+00 5.159951e-01 4.840049e-01 0.000000e+00
 0.000000e+00 0.000000e+00 0.000000e+00 8.675005e-01 1.324995e-01
 0.000000e+00 0.000000e+00 0.000000e+00 0.000000e+00 0.000000e+00
<ENDHMM>
~h "r"
<BEGINHMM>
<NUMSTATES> 5
<STATE> 2
<MEAN> 25
 6.533219e+00 -1.115834e+01 -3.058693e-01 -2.249784e+00 -9.338948e+00 -2.237178e+00 4.364637e+00 3.631686e+00 -3.235862e-01 -2.336904e+00 -4.003121e+00 -8.407284e-01 -4.365211e-01 -6.092146e-01 1.089700e+00 -2.714455e-01 -7.235764e-01 1.371763e-01 8.317456e-01 5.235363e-01 -1.109359e+00 3.394167e-01 2.854140e-01 3.027508e-01 1.248637e-01
<VARIANCE> 25
 1.543763e+01 3.196938e+01 3.101192e+01 5.408501e+01 7.662697e+01 2.672914e+01 6.065341e+01 3.950871e+01 4.067896e+01 3.022562e+01 3.406768e+01 2.382328e+01 1.316785e+00 2.633608e+00 2.027557e+00 5.960393e+00 6.096099e+00 2.211399e+00 5.005176e+00 5.156390e+00 4.282892e+00 3.194856e+00 3.631063e+00 2.877581e+00 1.491351e+00
<GCONST> 1.037431e+02
<STATE> 3
<MEAN> 25
 3.251242e+00 -8.178643e+00 6.647443e+00 -6.497632e+00 -9.580101e+00 -2.714931e+00 9.363767e+00 1.128659e+00 -8.175271e+00 4.115317e+00 -4.251369e+00 -2.164655e+00 -1.294458e-01 1.241858e+00 1.949846e-01 5.099216e-01 3.979119e-01 7.879557e-02 -1.725914e-01 -1.036007e+00 -6.800898e-02 4.972763e-01 1.572369e-01 -1.301409e-01 -7.843269e-01
<VARIANCE> 25
 1.473548e+01 2.775074e+01 5.156999e+01 3.917258e+01 4.031747e+01 2.354041e+01 6.094690e+01 6.825079e+01 5.520369e+01 7.959027e+01 3.924406e+01 2.238635e+01 9.569034e-01 1.106339e+00 2.019142e+00 2.993502e+00 2.213923e+00 1.834780e+00 4.615734e+00 2.775725e+00 5.236199e+00 4.507456e+00 2.725472e+00 1.912292e+00 7.917795e-01
<GCONST> 1.003132e+02
<STATE> 4
<MEAN> 25
 1.663500e+00 -1.262259e+00 2.813183e+00 1.111783e+00 -4.653958e+00 1.255237e-01 3.135018e+00 3.963766e-01 -1.539832e+00 1.148030e+00 -3.769018e-01 -9.500308e-01 -1.386466e-01 4.878451e-01 -1.686322e-01 2.927115e-01 3.931354e-01 1.577629e-01 -2.032198e-01 -2.552462e-01 3.076723e-01 -3.740064e-02 1.208303e-01 1.478864e-01 -4.203868e-01
<VARIANCE> 25
 2.264675e+01 1.837443e+01 2.075890e+01 4.426474e+01 5.911372e+01 2.517050e+01 3.046365e+01 3.700263e+01 3.312400e+01 3.397586e+01 2.854708e+01 1.681590e+01 4.023046e-01 7.174448e-01 1.032142e+00 1.399274e+00 1.486127e+00 1.517372e+00 1.931894e+00 2.177150e+00 1.959595e+00 2.160502e+00 1.824787e+00 1.361625e+00 2.877853e-01
<GCONST> 8.881584e+01
<TRANSP> 5
 0.000000e+00 1.000000e+00 0.000000e+00 0.000000e+00 0.000000e+00
 0.000000e+00 7.753097e-01 2.246903e-01 0.000000e+00 0.000000e+00
 0.000000e+00 0.000000e+00 7.708930e-01 2.291070e-01 0.000000e+00
 0.000000e+00 0.000000e+00 0.000000e+00 8.271542e-01 1.728458e-01
 0.000000e+00 0.000000e+00 0.000000e+00 0.000000e+00 0.000000e+00
<ENDHMM>
~h "s"
<BEGINHMM>
<NUMSTATES> 5
<STATE> 2
<MEAN> 25
 -1.024997e+01 6.711113e+00 -5.125289e+00 7.047142e+00 -1.483667e+00 -1.040393e+00 5.215826e+00 1.659538e+00 -1.548303e+00 1.770276e+00 3.027151e+00 -7.384908e-01 -8.531115e-01 3.372593e-01 -1.838898e-01 1.620545e-01 -1.460422e-01 5.477174e-02 3.258141e-01 9.836631e-02 -1.342599e-01 2.580811e-01 3.958025e-01 8.472353e-02 3.263586e-01
<VARIANCE> 25
 3.080309e+01 4.792022e+01 2.464455e+01 4.053819e+01 2.737157e+01 2.594170e+01 2.569988e+01 2.770914e+01 3.901384e+01 3.060441e+01 2.262648e+01 2.035706e+01 2.335847e+00 2.303924e+00 1.927576e+00 1.807867e+00 1.449038e+00 2.090847e+00 2.242852e+00 2.142906e+00 2.461925e+00 2.310682e+00 1.906724e+00 1.832766e+00 1.376711e+00
<GCONST> 9.542126e+01
<STATE> 3
<MEAN> 25
 -1.039682e+01 8.861895e-01 2.665188e-01 -1.109795e+00 -2.190304e+00 -1.348463e+00 5.751989e+00 -5.865946e-01 -9.200214e-01 2.223700e+00 4.626348e+00 -7.764661e-02 1.722666e+00 -9.882439e-01 2.030817e-01 -1.573103e+00 -3.121518e-01 -7.695031e-01 -8.322383e-01 -6.277166e-03 6.468280e-02 -6.660303e-01 -1.119035e+00 1.102657e-01 4.951774e-01
<VARIANCE> 25
 4.118843e+01 7.524114e+01 9.976820e+01 1.206985e+02 3.982412e+01 5.831011e+01 5.363218e+01 6.978966e+01 5.387727e+01 3.745364e+01 3.183159e+01 3.285873e+01 6.525597e+00 3.225387e+00 3.420321e+00 5.503856e+00 2.833962e+00 2.925941e+00 3.821630e+00 4.342343e+00 3.088396e+00 4.263056e+00 3.725266e+00 2.035712e+00 1.783585e+00
<GCONST> 1.100109e+02
<STATE> 4
<MEAN> 25
 -1.835130e+00 4.006276e-01 -3.027126e+00 -1.300005e+00 -2.886629e+00 -3.617678e+00 2.469904e+00 1.866994e+00 -1.754772e+00 -2.124832e-01 -4.899821e-01 3.353695e-01 2.679360e+00 -1.229324e+00 1.210537e-01 -1.876554e+00 -4.956946e-02 -4.891328e-01 -1.392316e+00 -9.076502e-01 -6.677025e-01 -1.224109e+00 -2.018836e+00 1.960472e-01 1.058686e+00
<VARIANCE> 25
 5.426539e+01 3.874207e+01 2.783858e+01 5.728562e+01 3.925213e+01 3.624228e+01 4.716096e+01 4.253043e+01 3.105902e+01 4.878437e+01 3.447984e+01 2.423073e+01 3.682537e+00 2.889702e+00 3.531754e+00 5.044328e+00 5.333426e+00 3.551787e+00 6.610333e+00 5.104548e+00 3.945996e+00 5.653680e+00 4.865418e+00 2.759205e+00 1.556370e+00
<GCONST> 1.077370e+02
<TRANSP> 5
 0.000000e+00 1.000000e+00 0.000000e+00 0.000000e+00 0.000000e+00
 0.000000e+00 8.676312e-01 1.323688e-01 0.000000e+00 0.000000e+00
 0.000000e+00 0.000000e+00 6.945506e-01 3.054494e-01 0.000000e+00
 0.000000e+00 0.000000e+00 0.000000e+00 3.732955e-01 6.267045e-01
 0.000000e+00 0.000000e+00 0.000000e+00 0.000000e+00 0.000000e+00
<ENDHMM>
~h "t"
<BEGINHMM>
<NUMSTATES> 5
<STATE> 2
<MEAN> 25
 3.705819e+00 3.436743e+00 -1.928478e+00 3.585251e+00 -6.883621e-01 2.171138e+00 -3.118949e+00 -1.302998e+00 -3.289249e+00 -2.354430e+00 -1.392701e-01 -1.363270e-01 -9.835535e-01 -4.977934e-01 -1.563180e-01 -1.034439e+00 -1.329551e-01 -3.722584e-01 5.544519e-01 2.121557e-01 -2.880678e-01 3.086863e-01 3.463128e-01 -1.640839e-01 8.151519e-01
<VARIANCE> 25
 3.863339e+01 4.212603e+01 5.801090e+01 2.607982e+01 2.471861e+01 4.900492e+01 4.041592e+01 3.224705e+01 2.731632e+01 2.653323e+01 3.516190e+01 4.471439e+01 3.053493e+00 3.969144e+00 3.965017e+00 4.166879e+00 2.979979e+00 5.086685e+00 4.453317e+00 3.867145e+00 2.681206e+00 3.698746e+00 3.631699e+00 3.529139e+00 5.880579e+00
<GCONST> 1.063627e+02
<STATE> 3
<MEAN> 25
 1.465418e-01 -1.122127e+00 -1.834975e+00 -2.413671e+00 -1.979497e+00 -1.871081e+00 9.315610e-01 6.981009e-02 -2.056456e+00 9.220573e-01 1.201862e+00 5.335050e-01 4.728798e-01 -8.711653e-01 -5.771049e-01 -3.152481e+00 -1.825881e-02 -1.809091e+00 -1.183999e-01 -3.701375e-01 5.359419e-01 5.539111e-01 -5.976354e-01 -2.361738e-01 2.622246e+00
<VARIANCE> 25
 4.148566e+01 2.456601e+01 7.377750e+01 5.691018e+01 4.466645e+01 8.265888e+01 3.450723e+01 4.877023e+01 4.136944e+01 4.364211e+01 4.059531e+01 4.129141e+01 4.149822e+00 4.956716e+00 7.479721e+00 6.736744e+00 3.954324e+00 8.394511e+00 5.780767e+00 5.660244e+00 5.793547e+00 7.846159e+00 5.342933e+00 3.812125e+00 6.320720e+00
<GCONST> 1.143898e+02
<STATE> 4
<MEAN> 25
 2.082909e+00 -2.243247e+00 -3.333162e+00 -7.863782e+00 -1.070086e-01 -4.358395e+00 -2.862002e-01 -1.289370e+00 5.905145e-01 1.070853e+00 -1.172630e+00 -8.052497e-01 1.128164e+00 -2.504303e-01 -7.958093e-01 -1.981814e+00 6.972367e-01 -5.818736e-02 -5.571814e-01 -1.082576e+00 3.020072e-01 5.861530e-02 -9.264346e-01 -2.687686e-01 1.072226e+00
<VARIANCE> 25
 3.288715e+01 3.493947e+01 4.785914e+01 4.878780e+01 5.550190e+01 4.377432e+01 4.898164e+01 3.349288e+01 4.118205e+01 4.675993e+01 4.734415e+01 1.970556e+01 2.329408e+00 3.738575e+00 4.911792e+00 7.613894e+00 3.820916e+00 3.969613e+00 3.760129e+00 4.671376e+00 3.125536e+00 4.047563e+00 3.885202e+00 2.619073e+00 3.513255e+00
<GCONST> 1.078342e+02
<TRANSP> 5
 0.000000e+00 1.000000e+00 0.000000e+00 0.000000e+00 0.000000e+00
 0.000000e+00 5.977527e-01 4.022473e-01 0.000000e+00 0.000000e+00
 0.000000e+00 0.000000e+00 5.428710e-01 4.571290e-01 0.000000e+00
 0.000000e+00 0.000000e+00 0.000000e+00 2.736271e-01 7.263729e-01
 0.000000e+00 0.000000e+00 0.000000e+00 0.000000e+00 0.000000e+00
<ENDHMM>
~h "w"
<BEGINHMM>
<NUMSTATES> 5
<STATE> 2
<MEAN> 25
 9.798753e+00 8.061457e+00 -2.493279e-01 -8.229876e+00 -2.176840e+00 -5.977115e+00 -6.422990e+00 -4.324655e+00 -7.722732e+00 1.345098e+00 1.105349e+00 1.410595e+00 1.914857e-01 -8.510813e-02 -5.605260e-01 -1.033218e+00 -1.053273e-01 -1.490482e-01 5.779406e-01 3.256208e-01 1.779146e-01 -5.766574e-02 2.885011e-01 -1.094473e-01 2.638433e-01
<VARIANCE> 25
 5.687831e+00 1.379508e+01 4.485029e+01 2.667576e+01 2.497106e+01 3.410120e+01 3.877138e+01 7.117800e+01 4.582282e+01 5.940833e+01 2.451284e+01 3.073257e+01 2.883406e-01 1.126396e+00 1.411745e+00 2.561970e+00 1.052383e+00 1.926034e+00 2.016341e+00 1.491113e+00 1.988474e+00 4.291820e+00 1.376206e+00 1.365608e+00 6.184911e-01
<GCONST> 9.086319e+01
<STATE> 3
<MEAN> 25
 7.450153e+00 -2.624603e-01 -3.719204e+00 -1.596081e+01 3.980982e+00 -4.484231e+00 1.089570e+00 -1.066360e+00 -3.889228e-01 4.403658e+00 1.238506e+00 -3.587317e+00 -7.581844e-01 -2.208146e+00 -1.414315e-01 -1.259414e-01 1.397472e+00 3.741043e-01 1.074937e+00 -4.451689e-01 1.366028e+00 -6.856924e-01 -6.312549e-01 -1.181135e+00 1.438199e+00
<VARIANCE> 25
 1.412518e+01 5.177036e+01 2.499258e+01 2.618733e+01 4.687191e+01 4.470459e+01 4.599572e+01 4.454575e+01 5.825219e+01 1.113755e+02 5.614178e+01 4.612518e+01 2.548263e-01 1.266628e+00 1.120347e+00 3.352257e+00 2.289265e+00 1.842130e+00 2.836784e+00 2.562452e+00 3.832083e+00 5.875884e+00 9.348701e+00 4.728034e+00 7.766688e-01
<GCONST> 1.012006e+02
<STATE> 4
<MEAN> 25
 2.215759e+00 -9.308562e+00 -5.642397e+00 -1.012520e+01 4.126127e+00 -1.291485e+00 6.587935e+00 -8.850222e-01 6.490095e-01 5.902099e-01 2.968137e+00 -1.069628e-01 -1.981743e-01 -2.578139e-01 -2.614023e-02 4.155191e-01 -4.051074e-02 1.667271e-01 8.796239e-02 1.046948e-01 -2.089008e-02 1.008103e-01 -1.583358e-02 3.488060e-01 -1.583755e-01
<VARIANCE> 25
 1.430291e+01 2.838548e+01 2.176674e+01 2.390986e+01 4.463331e+01 3.576258e+01 3.703740e+01 2.988727e+01 2.005993e+01 3.599118e+01 5.244513e+01 3.511246e+01 1.732107e-01 4.657306e-01 4.999911e-01 5.164160e-01 8.828391e-01 9.910699e-01 8.821832e-01 1.424344e+00 9.891201e-01 2.021302e+00 1.442133e+00 1.247388e+00 2.611238e-01
<GCONST> 8.285360e+01
<TRANSP> 5
 0.000000e+00 1.000000e+00 0.000000e+00 0.000000e+00 0.000000e+00
 0.000000e+00 8.635767e-01 1.364233e-01 0.000000e+00 0.000000e+00
 0.000000e+00 0.000000e+00 8.263122e-01 1.736879e-01 0.000000e+00
 0.000000e+00 0.000000e+00 0.000000e+00 9.288447e-01 7.115529e-02
 0.000000e+00 0.000000e+00 0.000000e+00 0.000000e+00 0.000000e+00
<ENDHMM>
~h "y"
<BEGINHMM>
<NUMSTATES> 5
<STATE> 2
<MEAN> 25
 1.293457e+00 -3.278102e+00 8.474213e+00 -1.100697e+01 -5.503362e+00 -3.326609e+00 3.492399e+00 -4.642461e+00 -2.056913e+00 7.695743e-02 -2.639753e+00 1.583488e+00 -3.158556e-01 1.156324e+00 1.291547e+00 -8.158594e-01 -1.129277e+00 3.335357e-02 -6.164217e-01 -7.934796e-01 1.723157e-01 1.396160e+00 5.836539e-02 1.466636e-01 -3.047021e-01
<VARIANCE> 25
 2.116324e+01 4.777335e+01 5.876754e+01 4.107813e+01 4.975729e+01 1.861279e+01 9.105531e+01 5.124633e+01 5.890969e+01 6.010830e+01 3.367113e+01 3.367146e+01 1.996326e-01 1.792997e+00 1.669872e+00 1.368055e+00 3.455836e+00 1.559225e+00 5.891692e+00 3.329750e+00 2.398126e+00 3.980861e+00 1.710619e+00 2.830019e+00 4.771332e-01
<GCONST> 9.869210e+01
<STATE> 3
<MEAN> 25
 2.913383e-01 -2.034576e+00 9.583396e+00 -1.417611e+01 -8.589793e+00 -4.605386e+00 4.013166e+00 -3.116286e+00 -1.788429e+00 3.609611e+00 -2.668250e+00 -1.603707e-01 2.874537e-01 -1.467669e+00 -1.709206e+00 1.794158e-01 8.188119e-01 1.920990e-01 1.575031e+00 9.950217e-01 6.931455e-02 -1.210022e+00 -4.933209e-02 -3.034543e-01 5.970068e-01
<VARIANCE> 25
 1.731512e+01 3.441122e+01 5.179827e+01 3.467132e+01 6.809303e+01 1.687424e+01 9.653201e+01 4.810893e+01 4.314852e+01 5.556964e+01 3.579802e+01 3.054790e+01 3.855307e-01 2.482141e+00 3.406917e+00 2.614455e+00 7.350276e+00 1.888528e+00 5.503388e+00 3.787812e+00 2.269630e+00 5.853575e+00 2.500504e+00 2.592489e+00 4.995527e-01
<GCONST> 1.016719e+02
<STATE> 4
<MEAN> 25
 6.635686e+00 -5.676182e+00 6.786556e-01 -6.851304e+00 -7.463842e+00 -2.991969e+00 1.780815e+00 -2.770547e+00 -6.115570e+00 -3.352216e+00 -5.046096e+00 1.116577e-01 2.478075e-01 -6.307253e-01 -1.031322e+00 4.500484e-01 1.443288e+00 1.982601e-01 -4.760125e-01 -3.336867e-01 2.829164e-01 -5.819191e-01 -2.005576e-01 6.439172e-02 -3.195604e-02
<VARIANCE> 25
 2.357684e+01 6.953264e+01 4.951545e+01 3.924276e+01 1.456500e+02 1.610076e+01 7.816113e+01 4.676874e+01 6.173695e+01 5.027304e+01 3.031110e+01 2.101765e+01 2.711876e-01 1.782503e+00 1.376644e+00 1.238105e+00 3.395433e+00 1.231820e+00 2.557842e+00 2.385392e+00 1.066510e+00 2.594868e+00 1.539822e+00 1.739771e+00 2.112193e-01
<GCONST> 9.487657e+01
<TRANSP> 5
 0.000000e+00 1.000000e+00 0.000000e+00 0.000000e+00 0.000000e+00
 0.000000e+00 8.224045e-01 1.775955e-01 0.000000e+00 0.000000e+00
 0.000000e+00 0.000000e+00 8.111542e-01 1.888458e-01 0.000000e+00
 0.000000e+00 0.000000e+00 0.000000e+00 8.045152e-01 1.954848e-01
 0.000000e+00 0.000000e+00 0.000000e+00 0.000000e+00 0.000000e+00
<ENDHMM>
~h "aa"
<BEGINHMM>
<NUMSTATES> 5
<STATE> 2
<MEAN> 25
 3.216636e+00 -7.972119e+00 -2.721371e+00 -4.705990e+00 3.590955e+00 -1.716437e+00 2.990027e+00 -1.037093e+00 -5.716859e-01 -3.338515e+00 -2.594673e+00 -9.128523e-02 5.088931e-01 -1.158652e+00 -5.428894e-01 -6.090580e-01 7.833492e-01 1.992159e-01 6.197217e-02 -2.729977e-01 -4.770327e-01 -6.574314e-01 -3.811593e-01 8.542967e-02 9.103808e-01
<VARIANCE> 25
 2.671262e+01 5.817638e+01 3.762128e+01 5.375545e+01 5.488658e+01 3.700313e+01 7.549550e+01 4.897026e+01 3.887738e+01 4.135404e+01 4.860228e+01 2.923415e+01 1.901971e+00 3.271843e+00 2.609097e+00 3.644729e+00 4.009843e+00 3.773963e+00 4.325005e+00 4.749968e+00 2.976013e+00 3.347890e+00 3.412159e+00 2.393030e+00 2.648388e+00
<GCONST> 1.065734e+02
<STATE> 3
<MEAN> 25
 4.924248e+00 -1.056292e+01 -4.378881e+00 -5.213064e+00 5.080209e+00 -8.200905e-01 2.560727e+00 -8.322701e-01 -2.793713e+00 -5.875713e+00 -3.982289e+00 6.874481e-01 3.960360e-01 7.219934e-01 1.127883e-01 8.657380e-01 -3.791598e-01 7.401973e-02 -7.364613e-01 -5.439418e-02 -3.879097e-01 -2.649733e-01 -9.324098e-02 2.635798e-02 -8.909827e-01
<VARIANCE> 25
 2.122030e+01 3.495060e+01 3.030062e+01 4.469645e+01 4.435857e+01 3.941417e+01 6.204766e+01 4.195402e+01 4.145207e+01 3.359380e+01 3.990149e+01 3.114630e+01 6.912339e-01 2.259801e+00 1.663648e+00 2.187674e+00 2.409738e+00 2.291375e+00 2.736557e+00 2.962519e+00 2.356781e+00 2.379818e+00 2.166290e+00 1.980671e+00 1.269207e+00
<GCONST> 9.842020e+01
<STATE> 4
<MEAN> 25
 6.989282e+00 -6.947779e+00 -5.354515e+00 -2.707727e+00 2.136925e+00 -1.873623e+00 -2.678339e+00 -1.472243e+00 -4.185135e+00 -8.103099e+00 -4.448884e+00 1.061522e+00 -1.628176e-01 6.969104e-01 3.012511e-01 3.262103e-01 -3.945661e-01 -1.695430e-01 -5.544574e-02 -7.087707e-02 -4.932861e-02 1.200335e-01 1.902807e-01 -6.329595e-02 -5.272769e-01
<VARIANCE> 25
 2.561349e+01 3.481250e+01 2.788114e+01 3.479301e+01 3.846347e+01 3.340983e+01 5.831321e+01 3.369121e+01 3.316641e+01 3.390361e+01 3.847656e+01 2.779171e+01 3.454271e-01 1.084420e+00 9.238719e-01 1.216778e+00 1.580984e+00 1.676391e+00 1.784088e+00 1.839826e+00 1.566824e+00 1.819199e+00 1.486634e+00 1.394107e+00 3.731236e-01
<GCONST> 9.044758e+01
<TRANSP> 5
 0.000000e+00 1.000000e+00 0.000000e+00 0.000000e+00 0.000000e+00
 0.000000e+00 7.429320e-01 2.570679e-01 0.000000e+00 0.000000e+00
 0.000000e+00 0.000000e+00 7.427292e-01 2.572707e-01 0.000000e+00
 0.000000e+00 0.000000e+00 0.000000e+00 8.338763e-01 1.661237e-01
 0.000000e+00 0.000000e+00 0.000000e+00 0.000000e+00 0.000000e+00
<ENDHMM>
~h "ao"
<BEGINHMM>
<NUMSTATES> 5
<STATE> 2
<MEAN> 25
 5.456883e+00 6.240681e-02 -5.976312e+00 -1.414047e+01 3.303742e+00 -2.370103e+00 -4.451151e-01 -4.145355e+00 -3.149127e+00 7.874999e+00 5.462667e-01 -2.872786e+00 3.485601e-01 -7.333617e-01 -3.177184e-01 -2.126058e+00 -5.482712e-01 5.776102e-02 5.539306e-01 -1.003035e-02 4.286200e-01 -1.017211e-01 1.335306e-01 -5.990794e-01 8.489102e-01
<VARIANCE> 25
 1.316485e+01 1.292279e+01 2.263496e+01 6.786987e+01 3.376191e+01 2.107235e+01 3.900160e+01 2.506256e+01 3.314626e+01 5.234689e+01 2.534738e+01 1.920041e+01 7.150238e-01 8.858097e-01 1.251389e+00 7.136173e+00 3.383677e+00 2.619942e+00 2.943570e+00 1.837981e+00 3.451281e+00 5.341604e+00 1.969383e+00 1.632349e+00 9.059654e-01
<GCONST> 9.510565e+01
<STATE> 3
<MEAN> 25
 6.123506e+00 -2.500227e+00 -2.230205e+00 -1.509496e+01 -2.729005e-01 -2.748915e+00 8.898409e-01 -5.835952e-01 -2.870144e-01 -8.766072e-01 -1.985212e+00 -6.688131e+00 2.804088e-01 -4.980908e-01 5.705287e-01 1.319344e+00 -1.054744e+00 -1.109425e-01 -5.098274e-01 1.049076e+00 1.125874e+00 -6.909311e-01 -2.428960e-01 -5.574109e-01 2.567429e-01
<VARIANCE> 25
 9.868841e+00 2.378186e+01 6.559119e+01 3.499802e+01 4.837225e+01 2.864222e+01 5.103879e+01 6.125063e+01 6.854083e+01 8.286662e+01 4.265185e+01 2.048698e+01 3.891408e-01 1.980482e+00 1.443769e+00 5.800581e+00 4.844611e+00 2.244300e+00 2.692077e+00 2.382191e+00 3.890282e+00 5.906045e+00 2.775508e+00 1.846322e+00 5.105469e-01
<GCONST> 1.000484e+02
<STATE> 4
<MEAN> 25
 1.099142e+01 -1.496135e+00 -4.300842e+00 -1.141971e+01 -5.594780e+00 -2.592843e+00 -4.870975e+00 -5.423179e-01 2.983746e+00 1.830535e+00 -1.298858e+00 -4.368551e+00 -1.727976e-02 -4.358682e-01 1.949068e-01 9.284406e-01 -7.725685e-01 -3.002037e-01 4.996730e-01 5.235715e-01 5.872719e-02 -2.343266e-01 -2.313828e-01 3.133579e-01 -1.231420e-01
<VARIANCE> 25
 1.598734e+01 2.345917e+01 3.297866e+01 5.491401e+01 5.488732e+01 4.818724e+01 7.612793e+01 8.956391e+01 5.708762e+01 3.446605e+01 3.039901e+01 2.779451e+01 1.984121e-01 6.620387e-01 1.355946e+00 3.464618e+00 1.911006e+00 1.738116e+00 1.841961e+00 2.186390e+00 2.974843e+00 2.560725e+00 2.251778e+00 1.382184e+00 2.299265e-01
<GCONST> 9.421381e+01
<TRANSP> 5
 0.000000e+00 1.000000e+00 0.000000e+00 0.000000e+00 0.000000e+00
 0.000000e+00 8.113154e-01 1.886846e-01 0.000000e+00 0.000000e+00
 0.000000e+00 0.000000e+00 6.398013e-01 3.601987e-01 0.000000e+00
 0.000000e+00 0.000000e+00 0.000000e+00 8.718921e-01 1.281078e-01
 0.000000e+00 0.000000e+00 0.000000e+00 0.000000e+00 0.000000e+00
<ENDHMM>
~h "eh"
<BEGINHMM>
<NUMSTATES> 5
<STATE> 2
<MEAN> 25
 4.056072e+00 -1.037734e+00 -2.156685e+00 -2.050850e+00 -3.678654e+00 -3.191957e+00 6.972992e-02 -9.101236e-01 7.815408e-01 9.193122e-04 -1.675508e+00 1.267334e-01 1.088269e+00 -3.623138e-01 -3.078504e-01 -1.010634e+00 -7.837695e-02 -1.705756e+00 -6.423497e-01 4.656820e-02 -7.565601e-02 -2.970471e-01 -1.188997e+00 -1.775853e-01 9.599712e-01
<VARIANCE> 25
 3.356899e+01 3.093384e+01 3.698412e+01 4.034864e+01 4.371131e+01 6.677445e+01 4.151287e+01 3.894699e+01 5.071329e+01 4.729104e+01 4.805493e+01 2.815157e+01 3.433078e+00 3.463843e+00 2.437361e+00 6.027200e+00 5.203302e+00 5.468742e+00 4.857611e+00 5.823416e+00 4.630488e+00 5.228485e+00 6.477563e+00 3.002237e+00 4.806339e+00
<GCONST> 1.101382e+02
<STATE> 3
<MEAN> 25
 5.433318e+00 -1.949814e-01 -6.933767e-01 -2.671753e+00 -4.526616e+00 -7.584060e+00 9.715801e-01 2.731776e-01 -1.011351e+00 -1.013946e+00 -4.028500e+00 -3.329043e-01 -5.439678e-01 9.552208e-02 8.258936e-02 3.856291e-01 8.474135e-01 8.508053e-02 7.705434e-02 3.171082e-01 -4.142628e-01 -3.382978e-01 5.277338e-02 -2.381089e-01 5.175073e-01
<VARIANCE> 25
 3.288328e+01 6.287405e+01 3.920268e+01 6.058513e+01 7.263251e+01 6.093139e+01 5.511921e+01 4.688151e+01 8.308704e+01 4.657320e+01 5.761757e+01 2.727748e+01 3.950150e+00 7.793958e+00 2.317015e+00 7.123022e+00 4.611621e+00 5.552473e+00 3.693096e+00 6.532273e+00 3.694633e+00 2.894125e+00 4.812166e+00 2.619375e+00 3.833001e+00
<GCONST> 1.121310e+02
<STATE> 4
<MEAN> 25
 3.814969e+00 -4.531855e-01 -7.816018e-01 -1.425309e+00 -3.525477e+00 -7.353169e+00 -3.299662e-01 1.136620e+00 -2.347134e+00 -3.408568e+00 -2.983672e+00 -2.918273e-01 -1.293692e+00 6.576073e-01 -1.980666e-01 8.292296e-01 4.594404e-01 6.774756e-01 4.263203e-01 -3.102663e-01 -5.004705e-02 3.793439e-01 5.637822e-01 -5.386201e-01 -2.662140e-01
<VARIANCE> 25
 4.260854e+01 6.258098e+01 2.028104e+01 4.944792e+01 3.615427e+01 4.968451e+01 5.341199e+01 4.262323e+01 4.807078e+01 4.556104e+01 4.040891e+01 3.504431e+01 2.734604e+00 3.195099e+00 1.349001e+00 2.415386e+00 2.347182e+00 3.875441e+00 3.250469e+00 3.076576e+00 2.607201e+00 2.401475e+00 2.239964e+00 2.491805e+00 7.817910e-01
<GCONST> 1.020843e+02
<TRANSP> 5
 0.000000e+00 1.000000e+00 0.000000e+00 0.000000e+00 0.000000e+00
 0.000000e+00 5.846469e-01 4.153531e-01 0.000000e+00 0.000000e+00
 0.000000e+00 0.000000e+00 4.975089e-01 5.024911e-01 0.000000e+00
 0.000000e+00 0.000000e+00 0.000000e+00 6.634289e-01 3.365711e-01
 0.000000e+00 0.000000e+00 0.000000e+00 0.000000e+00 0.000000e+00
<ENDHMM>
~h "hh"
<BEGINHMM>
<NUMSTATES> 5
<STATE> 2
<MEAN> 25
 -9.501326e-01 -8.579873e-01 -3.115526e+00 1.187852e+00 2.455264e+00 -2.646422e-01 -2.125962e-01 -3.337119e+00 1.996751e-01 1.559892e+00 3.270510e+00 -1.632348e-01 -2.238000e-01 -4.335672e-02 2.217684e-01 4.535352e-01 1.342788e-01 6.032631e-01 3.695619e-01 4.959837e-01 3.088956e-01 1.974267e-01 1.532053e-01 1.133472e-01 -3.669010e-01
<VARIANCE> 25
 3.791259e+00 6.300753e+00 6.659087e+00 2.288515e+01 1.310909e+01 2.111202e+01 1.410573e+01 1.507409e+01 2.539435e+01 2.067418e+01 1.740283e+01 1.740470e+01 3.581208e-01 4.528647e-01 5.697856e-01 1.154711e+00 1.023288e+00 1.083091e+00 1.072081e+00 1.459382e+00 1.635818e+00 2.157318e+00 1.037395e+00 1.243933e+00 1.178159e-01
<GCONST> 7.479639e+01
<STATE> 3
<MEAN> 25
 6.927782e-01 1.903245e-01 -2.645295e-01 4.165165e+00 2.046260e+00 2.549983e+00 2.429286e-01 -4.807517e-01 1.624883e-01 4.190820e-01 2.943090e+00 1.500355e+00 -1.432647e-02 1.062475e-01 2.124590e-01 8.447344e-02 -7.260933e-02 2.942429e-02 3.869459e-03 1.687539e-01 6.455204e-02 -3.208275e-02 -3.356505e-02 -4.440263e-03 -9.768048e-02
<VARIANCE> 25
 4.356424e+00 3.300483e+00 5.169186e+00 1.061687e+01 9.282387e+00 1.128209e+01 1.128641e+01 1.305131e+01 1.362955e+01 1.780192e+01 1.211979e+01 1.077718e+01 1.655529e-01 2.423225e-01 4.209386e-01 6.377997e-01 8.455853e-01 1.011930e+00 1.053274e+00 1.669037e+00 1.730944e+00 1.780771e+00 1.387966e+00 1.163164e+00 7.727528e-02
<GCONST> 6.754712e+01
<STATE> 4
<MEAN> 25
 -4.759681e+00 1.011086e+00 1.857170e+00 2.274873e+00 2.272537e+00 2.865181e+00 3.428119e+00 2.691204e+00 3.431995e+00 2.987843e+00 3.100038e+00 -4.337848e-01 -3.231645e-02 -2.885812e-02 7.582242e-03 -6.678809e-03 -1.399979e-02 -3.204456e-02 3.153399e-02 8.725731e-03 2.678471e-02 -7.592894e-03 -3.086101e-02 6.378522e-03 2.796249e-02
<VARIANCE> 25
 8.554930e+00 2.966414e+00 4.404686e+00 8.312066e+00 1.047023e+01 1.393920e+01 1.538685e+01 1.297052e+01 1.722698e+01 1.848852e+01 1.219074e+01 1.362644e+01 1.412918e-01 2.310452e-01 4.353897e-01 6.304715e-01 8.874097e-01 1.081413e+00 1.311375e+00 1.463691e+00 1.831033e+00 1.663678e+00 1.228669e+00 1.288768e+00 4.861705e-02
<GCONST> 6.838266e+01
<TRANSP> 5
 0.000000e+00 1.000000e+00 0.000000e+00 0.000000e+00 0.000000e+00
 0.000000e+00 8.322352e-01 1.677648e-01 0.000000e+00 0.000000e+00
 0.000000e+00 0.000000e+00 9.290689e-01 7.093115e-02 0.000000e+00
 0.000000e+00 0.000000e+00 0.000000e+00 9.645209e-01 3.547916e-02
 0.000000e+00 0.000000e+00 0.000000e+00 0.000000e+00 0.000000e+00
<ENDHMM>
~h "ih"
<BEGINHMM>
<NUMSTATES> 5
<STATE> 2
<MEAN> 25
 8.067487e-01 3.877510e+00 1.020097e+01 -5.926227e+00 -4.831362e+00 -2.688727e+00 -5.017837e+00 -5.030174e+00 -1.366354e+00 -2.753612e-01 -3.684310e+00 -1.448251e+00 -1.349361e-01 1.677672e-01 9.141599e-01 -1.046518e+00 1.437697e-01 -1.917499e-01 -7.510542e-01 -1.700436e-01 9.708858e-02 -1.803181e-01 -4.382035e-01 1.361678e-01 3.248054e-01
<VARIANCE> 25
 3.545315e+01 7.300687e+01 6.208118e+01 1.322140e+02 8.577596e+01 5.484532e+01 5.710314e+01 5.184594e+01 5.514679e+01 4.427964e+01 3.376201e+01 4.074859e+01 2.302310e+00 2.527025e+00 4.493311e+00 8.503325e+00 5.090171e+00 4.270577e+00 4.816853e+00 4.232270e+00 4.509225e+00 4.263619e+00 3.571056e+00 2.838047e+00 2.418275e+00
<GCONST> 1.119484e+02
<STATE> 3
<MEAN> 25
 1.074070e-01 5.205241e+00 1.181411e+01 -8.779284e+00 -2.646736e+00 -3.970323e+00 -7.956205e+00 -5.940395e+00 -1.237159e+00 -1.136994e+00 -4.029296e+00 -1.119341e-01 8.749966e-02 -1.069443e-01 -5.888606e-01 6.237611e-01 3.556565e-01 8.150496e-02 1.858970e-01 3.150906e-01 2.014862e-01 -1.168977e-01 4.402851e-01 4.908425e-02 -4.565238e-01
<VARIANCE> 25
 1.710097e+01 4.257231e+01 4.811919e+01 1.182577e+02 7.142854e+01 4.038802e+01 4.181623e+01 4.875418e+01 4.680367e+01 4.555930e+01 2.623376e+01 3.731642e+01 6.288966e-01 9.543898e-01 1.554546e+00 3.268525e+00 2.024678e+00 1.922866e+00 2.042137e+00 2.571032e+00 2.190445e+00 2.080928e+00 1.877579e+00 1.837285e+00 5.887490e-01
<GCONST> 9.768058e+01
<STATE> 4
<MEAN> 25
 -1.046854e+00 1.976753e+00 2.304006e+00 2.981977e+00 5.796399e-01 9.011325e-01 -1.302075e-01 1.030313e+00 1.849074e+00 7.386344e-01 1.510758e+00 2.486707e-01 -1.403871e-02 -7.591277e-02 -2.743180e-01 1.524944e-01 7.259677e-02 1.506419e-01 1.987269e-01 5.109417e-02 2.614067e-02 5.790171e-02 9.920126e-02 -2.736011e-02 -9.865815e-02
<VARIANCE> 25
 1.475746e+01 1.515485e+01 2.347231e+01 3.227985e+01 2.243040e+01 2.525580e+01 2.951650e+01 2.780731e+01 2.370281e+01 2.425788e+01 1.919114e+01 1.723847e+01 2.196598e-01 4.421890e-01 7.986963e-01 1.229492e+00 1.228249e+00 1.312323e+00 1.530331e+00 1.510492e+00 1.370359e+00 1.549036e+00 1.334329e+00 1.363940e+00 1.635548e-01
<GCONST> 8.169925e+01
<TRANSP> 5
 0.000000e+00 1.000000e+00 0.000000e+00 0.000000e+00 0.000000e+00
 0.000000e+00 7.852308e-01 2.147691e-01 0.000000e+00 0.000000e+00
 0.000000e+00 0.000000e+00 8.221883e-01 1.778117e-01 0.000000e+00
 0.000000e+00 0.000000e+00 0.000000e+00 8.864971e-01 1.135029e-01
 0.000000e+00 0.000000e+00 0.000000e+00 0.000000e+00 0.000000e+00
<ENDHMM>
~h "ng"
<BEGINHMM>
<NUMSTATES> 5
<STATE> 2
<MEAN> 25
 4.316199e+00 -2.918439e+00 5.750874e-01 -3.220184e+00 4.091833e+00 -7.726513e+00 2.259047e+00 -3.346522e+00 -8.968991e-01 -1.184936e+00 -8.315834e-01 -5.341220e+00 -4.368565e-02 -7.689659e-02 1.056942e-01 6.062337e-01 4.187872e-01 -1.021987e-01 -5.999324e-01 -2.168956e-01 4.303948e-01 -1.420623e-02 3.888662e-01 -3.678846e-02 -1.555328e-01
<VARIANCE> 25
 1.151082e+01 4.440570e+01 4.317124e+01 5.493064e+01 6.062457e+01 4.900475e+01 6.210242e+01 6.797285e+01 5.562249e+01 3.690120e+01 6.178063e+01 4.263209e+01 6.978858e-01 1.078706e+00 1.285736e+00 1.996839e+00 2.458724e+00 1.963456e+00 2.420662e+00 2.538390e+00 1.695513e+00 2.747215e+00 2.174384e+00 1.638277e+00 7.012201e-01
<GCONST> 9.830527e+01
<STATE> 3
<MEAN> 25
 3.096559e+00 -2.248721e+00 2.423731e-01 8.307875e-01 8.138014e+00 -5.262884e+00 -1.719580e+00 -3.929878e+00 2.015895e+00 -4.340715e-01 2.336553e+00 -4.916842e+00 -1.480453e-01 4.547233e-01 1.789348e-01 4.486840e-01 -1.133715e-01 8.134873e-01 -2.827492e-01 4.281865e-01 1.024680e-01 -1.095083e-02 -3.022456e-01 7.371768e-02 -7.370902e-01
<VARIANCE> 25
 9.751128e+00 5.222080e+01 2.886521e+01 3.013893e+01 4.658006e+01 3.353497e+01 4.407067e+01 3.265179e+01 5.061464e+01 3.386534e+01 9.295862e+01 3.556779e+01 4.113113e-01 1.606036e+00 9.982255e-01 1.394240e+00 1.616914e+00 1.935533e+00 2.540324e+00 1.920558e+00 1.894449e+00 1.922056e+00 3.042132e+00 1.333827e+00 7.829368e-01
<GCONST> 9.421393e+01
<STATE> 4
<MEAN> 25
 4.439153e-02 4.152609e-02 -9.741497e-01 3.929363e+00 4.661034e-01 1.954138e+00 1.150119e+00 4.049936e-01 5.198240e-01 1.528307e+00 5.583457e-01 7.764221e-01 -1.043878e-01 -4.800838e-02 -1.093077e-02 -2.581011e-03 -1.254298e-01 7.882281e-02 -1.780189e-02 1.247359e-01 7.612792e-02 8.342764e-02 1.437686e-01 1.232150e-01 -8.045967e-02
<VARIANCE> 25
 8.040051e+00 1.323495e+01 2.316352e+01 1.551020e+01 1.922318e+01 1.198217e+01 1.936419e+01 1.909060e+01 1.700413e+01 2.665784e+01 1.896889e+01 2.287742e+01 1.860607e-01 4.229073e-01 5.864332e-01 9.228719e-01 9.790114e-01 1.009123e+00 1.301930e+00 1.086636e+00 1.369329e+00 1.395187e+00 1.513345e+00 1.099341e+00 1.486070e-01
<GCONST> 7.646844e+01
<TRANSP> 5
 0.000000e+00 1.000000e+00 0.000000e+00 0.000000e+00 0.000000e+00
 0.000000e+00 6.441564e-01 3.558436e-01 0.000000e+00 0.000000e+00
 0.000000e+00 0.000000e+00 7.063263e-01 2.936737e-01 0.000000e+00
 0.000000e+00 0.000000e+00 0.000000e+00 9.346531e-01 6.534687e-02
 0.000000e+00 0.000000e+00 0.000000e+00 0.000000e+00 0.000000e+00
<ENDHMM>
~h "oh"
<BEGINHMM>
<NUMSTATES> 5
<STATE> 2
<MEAN> 25
 4.876313e-08 -1.572510e-08 -3.479018e-08 -3.353887e-08 3.894225e-08 5.448882e-08 6.837960e-09 -3.357679e-08 -9.075150e-09 1.238669e-09 6.825321e-10 3.043588e-08 1.480543e-02 -2.130302e-03 7.752344e-03 -2.168820e-03 1.143337e-02 -2.309903e-03 4.269884e-03 -3.775733e-03 -3.292339e-03 -9.014427e-04 -3.430429e-03 -3.983431e-03 3.762102e-02
<VARIANCE> 25
 4.782532e+01 4.486550e+01 4.720150e+01 6.892854e+01 4.782745e+01 4.025578e+01 4.904441e+01 4.112494e+01 4.163441e+01 4.402450e+01 3.629408e+01 2.461185e+01 1.112554e+00 1.522353e+00 1.617351e+00 2.656559e+00 2.172489e+00 2.083682e+00 2.429415e+00 2.410789e+00 2.262104e+00 2.509146e+00 2.111452e+00 1.695109e+00 1.480569e+00
<GCONST> 9.985252e+01
<STATE> 3
<MEAN> 25
 4.876313e-08 -1.572510e-08 -3.479018e-08 -3.353887e-08 3.894225e-08 5.448882e-08 6.837960e-09 -3.357679e-08 -9.075150e-09 1.238669e-09 6.825321e-10 3.043588e-08 1.480543e-02 -2.130302e-03 7.752344e-03 -2.168820e-03 1.143337e-02 -2.309903e-03 4.269884e-03 -3.775733e-03 -3.292339e-03 -9.014427e-04 -3.430429e-03 -3.983431e-03 3.762102e-02
<VARIANCE> 25
 4.782532e+01 4.486550e+01 4.720150e+01 6.892854e+01 4.782745e+01 4.025578e+01 4.904441e+01 4.112494e+01 4.163441e+01 4.402450e+01 3.629408e+01 2.461185e+01 1.112554e+00 1.522353e+00 1.617351e+00 2.656559e+00 2.172489e+00 2.083682e+00 2.429415e+00 2.410789e+00 2.262104e+00 2.509146e+00 2.111452e+00 1.695109e+00 1.480569e+00
<GCONST> 9.985252e+01
<STATE> 4
<MEAN> 25
 4.876313e-08 -1.572510e-08 -3.479018e-08 -3.353887e-08 3.894225e-08 5.448882e-08 6.837960e-09 -3.357679e-08 -9.075150e-09 1.238669e-09 6.825321e-10 3.043588e-08 1.480543e-02 -2.130302e-03 7.752344e-03 -2.168820e-03 1.143337e-02 -2.309903e-03 4.269884e-03 -3.775733e-03 -3.292339e-03 -9.014427e-04 -3.430429e-03 -3.983431e-03 3.762102e-02
<VARIANCE> 25
 4.782532e+01 4.486550e+01 4.720150e+01 6.892854e+01 4.782745e+01 4.025578e+01 4.904441e+01 4.112494e+01 4.163441e+01 4.402450e+01 3.629408e+01 2.461185e+01 1.112554e+00 1.522353e+00 1.617351e+00 2.656559e+00 2.172489e+00 2.083682e+00 2.429415e+00 2.410789e+00 2.262104e+00 2.509146e+00 2.111452e+00 1.695109e+00 1.480569e+00
<GCONST> 9.985252e+01
<TRANSP> 5
 0.000000e+00 1.000000e+00 0.000000e+00 0.000000e+00 0.000000e+00
 0.000000e+00 6.000000e-01 4.000000e-01 0.000000e+00 0.000000e+00
 0.000000e+00 0.000000e+00 6.000000e-01 4.000000e-01 0.000000e+00
 0.000000e+00 0.000000e+00 0.000000e+00 7.000000e-01 3.000000e-01
 0.000000e+00 0.000000e+00 0.000000e+00 0.000000e+00 0.000000e+00
<ENDHMM>
~h "uw"
<BEGINHMM>
<NUMSTATES> 5
<STATE> 2
<MEAN> 25
 6.217647e+00 1.998156e+00 -3.946864e+00 -9.692874e+00 -4.941700e-01 -5.355865e+00 -5.581221e+00 -3.534120e+00 -2.433887e+00 1.707103e+00 -3.106630e-01 -1.502462e+00 8.379570e-01 2.599140e-01 -7.194705e-01 -1.832603e+00 1.330457e-01 4.494586e-01 6.118783e-02 -6.382554e-01 -7.850126e-01 2.665926e-01 -7.983539e-02 1.027394e-01 2.534227e-01
<VARIANCE> 25
 1.962249e+01 2.025169e+01 3.550769e+01 7.320885e+01 6.507844e+01 4.379345e+01 4.323634e+01 3.293380e+01 4.172099e+01 4.816776e+01 3.839042e+01 2.525765e+01 1.738582e+00 1.603416e+00 1.959767e+00 6.194247e+00 3.635784e+00 4.332866e+00 3.128031e+00 3.601498e+00 3.703645e+00 2.906783e+00 3.424688e+00 2.489259e+00 1.663098e+00
<GCONST> 1.032223e+02
<STATE> 3
<MEAN> 25
 6.975447e+00 3.116937e+00 -4.804585e+00 -1.103240e+01 -1.102704e+00 -4.180689e+00 -4.220415e+00 -5.292864e+00 -4.690449e+00 1.380817e+00 -3.695004e-01 -1.027132e+00 -2.578193e-01 9.771647e-02 3.473963e-01 1.140931e+00 -9.047320e-02 6.432307e-02 8.659467e-03 5.606113e-02 3.716805e-01 -1.020992e-01 6.748009e-02 1.666449e-02 -6.198819e-01
<VARIANCE> 25
 1.461288e+01 2.186354e+01 2.412037e+01 6.355807e+01 4.901657e+01 3.585635e+01 3.969419e+01 2.835386e+01 3.849507e+01 4.447680e+01 4.002662e+01 2.958562e+01 7.412675e-01 1.048187e+00 1.169782e+00 3.969402e+00 2.378327e+00 2.773808e+00 2.299183e+00 2.539488e+00 3.214539e+00 2.867345e+00 2.599707e+00 2.031651e+00 8.929267e-01
<GCONST> 9.677493e+01
<STATE> 4
<MEAN> 25
 -1.162347e+00 1.511425e+00 7.325948e-01 1.830563e+00 1.142213e+00 1.500741e+00 1.082405e+00 1.098745e+00 1.856796e+00 1.927166e+00 2.211299e+00 7.553095e-02 -1.409664e-01 -3.814034e-02 1.146865e-01 3.263254e-01 3.668688e-02 1.076590e-01 8.175662e-02 1.371687e-01 1.762162e-01 -2.620075e-02 1.189551e-02 -1.829491e-02 -1.071160e-01
<VARIANCE> 25
 1.836628e+01 6.563098e+00 1.076483e+01 2.278268e+01 1.501240e+01 2.071500e+01 2.413887e+01 2.177087e+01 2.287220e+01 2.119182e+01 1.872252e+01 1.341780e+01 2.182460e-01 3.260549e-01 5.576847e-01 1.015004e+00 1.126881e+00 1.243611e+00 1.380788e+00 1.566720e+00 1.648363e+00 1.642685e+00 1.427804e+00 1.230836e+00 1.432912e-01
<GCONST> 7.746945e+01
<TRANSP> 5
 0.000000e+00 1.000000e+00 0.000000e+00 0.000000e+00 0.000000e+00
 0.000000e+00 7.088495e-01 2.911505e-01 0.000000e+00 0.000000e+00
 0.000000e+00 0.000000e+00 8.407316e-01 1.592683e-01 0.000000e+00
 0.000000e+00 0.000000e+00 0.000000e+00 9.142073e-01 8.579273e-02
 0.000000e+00 0.000000e+00 0.000000e+00 0.000000e+00 0.000000e+00
<ENDHMM>
~h "sil"
<BEGINHMM>
<NUMSTATES> 5
<STATE> 2
<MEAN> 25
 -1.023416e+01 4.471293e+00 -1.613721e+00 7.264810e+00 -1.151325e+00 6.132948e+00 -2.214077e-01 5.893646e+00 6.021738e+00 3.940259e+00 4.057253e+00 1.697228e+00 -2.481688e-02 2.367744e-02 1.030187e-03 -6.058952e-03 3.309537e-02 5.489007e-02 -1.457610e-02 -7.367588e-03 6.107614e-02 4.783905e-02 2.346046e-02 -4.540922e-02 -2.523560e-02
<VARIANCE> 25
 5.930200e+01 1.487094e+01 2.275256e+01 3.038511e+01 2.945790e+01 1.855788e+01 3.163568e+01 3.809725e+01 3.718602e+01 1.644170e+01 2.129488e+01 1.459943e+01 9.100942e-02 1.902127e-01 3.199952e-01 4.815939e-01 6.161489e-01 7.362784e-01 1.031887e+00 1.079821e+00 1.072064e+00 1.226065e+00 1.110281e+00 1.241042e+00 4.474781e-02
<GCONST> 7.569961e+01
<STATE> 3
<MEAN> 25
 -7.665186e+00 4.474480e+00 -8.137653e+00 4.640611e+00 -6.935395e+00 6.459031e+00 -1.693604e+00 2.547989e+00 -8.938680e-01 5.756476e+00 5.770623e-01 3.505746e+00 2.738127e-02 -1.116146e-01 -2.919629e-02 -5.432046e-02 1.267834e-01 -9.589916e-02 2.075024e-02 -5.041787e-02 -4.605938e-02 -3.006000e-02 -2.460580e-02 4.704898e-02 6.577094e-01
<VARIANCE> 25
 3.495797e+01 9.703737e+00 1.954815e+01 1.476228e+01 2.189430e+01 1.253656e+01 2.024879e+01 1.649747e+01 3.594183e+01 1.518281e+01 1.753940e+01 1.037123e+01 9.964906e-01 4.979255e-01 7.002746e-01 6.039870e-01 6.756075e-01 8.945104e-01 9.470504e-01 1.054186e+00 9.866752e-01 1.053245e+00 9.386936e-01 7.447166e-01 4.465983e+00
<GCONST> 7.948062e+01
<STATE> 4
<MEAN> 25
 -2.659263e+00 3.911748e-01 -5.538582e-01 2.928338e+00 9.928722e-01 2.732149e+00 1.721807e+00 1.621255e+00 2.204605e+00 2.081271e+00 2.633355e+00 8.441384e-01 1.149528e-01 -2.200872e-02 5.139367e-02 1.231283e-02 2.933178e-02 -3.335739e-02 2.901632e-02 -3.252260e-02 -5.766900e-02 6.405745e-03 -2.350720e-03 1.050716e-02 2.495470e-01
<VARIANCE> 25
 2.484219e+01 9.356086e+00 1.221927e+01 1.664002e+01 1.430263e+01 1.791661e+01 2.681093e+01 2.358874e+01 2.038995e+01 2.253612e+01 1.967875e+01 1.573034e+01 8.346691e-01 4.754176e-01 7.512125e-01 8.604618e-01 1.124927e+00 1.276751e+00 1.310288e+00 1.564367e+00 1.737731e+00 1.391769e+00 1.360458e+00 1.297240e+00 1.737948e+00
<GCONST> 8.229442e+01
<TRANSP> 5
 0.000000e+00 1.000000e+00 0.000000e+00 0.000000e+00 0.000000e+00
 0.000000e+00 9.395206e-01 6.047938e-02 0.000000e+00 0.000000e+00
 0.000000e+00 0.000000e+00 8.693562e-01 1.306438e-01 0.000000e+00
 0.000000e+00 0.000000e+00 0.000000e+00 9.164460e-01 8.355404e-02
 0.000000e+00 0.000000e+00 0.000000e+00 0.000000e+00 0.000000e+00
<ENDHMM>
~h "sp"
<BEGINHMM>
<NUMSTATES> 3
<STATE> 2
<MEAN> 25
 -7.665186e+00 4.474480e+00 -8.137653e+00 4.640611e+00 -6.935395e+00 6.459031e+00 -1.693604e+00 2.547989e+00 -8.938680e-01 5.756476e+00 5.770623e-01 3.505746e+00 2.738127e-02 -1.116146e-01 -2.919629e-02 -5.432046e-02 1.267834e-01 -9.589916e-02 2.075024e-02 -5.041787e-02 -4.605938e-02 -3.006000e-02 -2.460580e-02 4.704898e-02 6.577094e-01
<VARIANCE> 25
 3.495797e+01 9.703737e+00 1.954815e+01 1.476228e+01 2.189430e+01 1.253656e+01 2.024879e+01 1.649747e+01 3.594183e+01 1.518281e+01 1.753940e+01 1.037123e+01 9.964906e-01 4.979255e-01 7.002746e-01 6.039870e-01 6.756075e-01 8.945104e-01 9.470504e-01 1.054186e+00 9.866752e-01 1.053245e+00 9.386936e-01 7.447166e-01 4.465983e+00
<GCONST> 7.948062e+01
<TRANSP> 3
 0.0 1.0 0.0
 0.0 0.9 0.1
 0.0 0.0 0.0
<ENDHMM>
