~o
<STREAMINFO> 1 25
<VECSIZE> 25<NULLD><MFCC_D_N_Z_0><DIAGC>
~s "silst"
<MEAN> 25
 -6.178838e+00 4.470759e+00 -9.088874e+00 4.015380e+00 -7.505546e+00 6.390894e+00 -1.407735e+00 2.236879e+00 -2.310182e+00 6.214038e+00 -3.403152e-01 3.964600e+00 1.723252e-01 -1.535411e-01 1.078990e-01 -3.859735e-02 1.653183e-01 -1.110293e-01 9.776361e-02 1.172689e-02 -2.271770e-02 -6.081295e-02 -5.062041e-02 3.299209e-02 1.029262e+00
<VARIANCE> 25
 2.586175e+01 9.992526e+00 1.471468e+01 1.286186e+01 1.714067e+01 1.311921e+01 1.916515e+01 1.266500e+01 2.247535e+01 1.396899e+01 1.446610e+01 1.042525e+01 2.062142e+00 6.271153e-01 1.101746e+00 6.462054e-01 8.553001e-01 9.177368e-01 1.027581e+00 1.018768e+00 1.097987e+00 8.693301e-01 1.031561e+00 7.089520e-01 7.392621e+00
<GCONST> 7.977947e+01
~h "b"
<BEGINHMM>
<NUMSTATES> 5
<STATE> 2
<MEAN> 25
 2.022429e+00 4.003165e+00 1.197974e+01 -4.112334e+00 -8.430840e+00 -4.686954e+00 -3.119019e+00 -6.614065e+00 -4.834672e+00 4.183090e+00 -2.121396e+00 1.383526e+00 -9.599881e-01 -3.888410e-01 1.589494e+00 -2.299791e+00 -1.742614e+00 -6.089017e-01 4.486220e-01 -9.117089e-01 -4.899529e-01 1.770182e+00 3.269448e-01 5.646207e-01 1.297505e+00
<VARIANCE> 25
 2.630995e+01 1.305140e+01 6.731738e+01 1.095181e+02 3.950588e+01 2.948076e+01 3.023475e+01 5.007829e+01 3.910204e+01 6.014689e+01 2.474575e+01 3.875348e+01 2.094728e+00 1.578962e+00 7.046074e+00 8.052135e+00 3.086240e+00 3.293041e+00 3.489941e+00 5.485394e+00 4.547217e+00 4.085782e+00 3.467982e+00 3.283012e+00 6.621619e-01
<GCONST> 1.051503e+02
<STATE> 3
<MEAN> 25
 7.755747e-01 8.886591e-01 9.190410e+00 -7.280979e+00 -1.484979e+01 -9.396210e+00 7.519842e-01 -4.693080e+00 -3.936466e+00 6.013160e+00 1.719213e+00 4.103864e-01 4.787405e-01 -7.855651e-01 -2.527468e+00 7.433739e-01 1.119364e+00 -9.060154e-01 2.737969e-01 1.572801e+00 1.241561e+00 -1.880001e+00 2.342738e-02 -1.003858e-02 1.414906e-01
<VARIANCE> 25
 2.629549e+01 1.555569e+01 3.894334e+01 3.242113e+01 3.893167e+01 3.797823e+01 4.815123e+01 3.177167e+01 3.596688e+01 4.006583e+01 2.400733e+01 4.490914e+01 6.256568e-01 1.487407e+00 2.373801e+00 2.740366e+00 4.930346e+00 2.520830e+00 4.261218e+00 3.765916e+00 3.902061e+00 4.265644e+00 2.425323e+00 3.089063e+00 3.738905e-01
<GCONST> 9.892786e+01
<STATE> 4
<MEAN> 25
 5.443645e+00 -4.441436e-01 -3.840832e+00 -5.067516e+00 -3.844322e+00 -8.742528e+00 -4.561712e+00 -1.003788e+00 4.015893e+00 -4.307998e+00 -3.231414e+00 3.496389e-01 2.781860e-01 2.027578e-01 -1.184522e+00 -1.826546e-01 1.602109e+00 8.674082e-01 -9.451436e-01 -6.999007e-01 6.952502e-01 -2.795010e-01 -1.871724e-01 -4.268676e-01 -5.795203e-01
<VARIANCE> 25
 2.396152e+01 1.748266e+01 4.238358e+01 3.320914e+01 4.495631e+01 3.360918e+01 4.128459e+01 5.148421e+01 6.459966e+01 6.946384e+01 3.077497e+01 2.324051e+01 8.985188e-01 6.955661e-01 2.422364e+00 1.989024e+00 3.681117e+00 1.811688e+00 2.465937e+00 3.917445e+00 3.397415e+00 3.314849e+00 3.001861e+00 2.070575e+00 2.203891e-01
<GCONST> 9.720202e+01
<TRANSP> 5
 0.000000e+00 1.000000e+00 0.000000e+00 0.000000e+00 0.000000e+00
 0.000000e+00 8.231309e-01 1.768691e-01 0.000000e+00 0.000000e+00
 0.000000e+00 0.000000e+00 7.165021e-01 2.834979e-01 0.000000e+00
 0.000000e+00 0.000000e+00 0.000000e+00 7.025330e-01 2.974670e-01
 0.000000e+00 0.000000e+00 0.000000e+00 0.000000e+00 0.000000e+00
<ENDHMM>
~h "c"
<BEGINHMM>
<NUMSTATES> 5
<STATE> 2
<MEAN> 25
 4.876313e-08 -1.572510e-08 -3.479018e-08 -3.353887e-08 3.894225e-08 5.448882e-08 6.837960e-09 -3.357679e-08 -9.075150e-09 1.238669e-09 6.825321e-10 3.043588e-08 1.480543e-02 -2.130302e-03 7.752344e-03 -2.168820e-03 1.143337e-02 -2.309903e-03 4.269884e-03 -3.775733e-03 -3.292339e-03 -9.014427e-04 -3.430429e-03 -3.983431e-03 3.762102e-02
<VARIANCE> 25
 4.782532e+01 4.486550e+01 4.720150e+01 6.892854e+01 4.782745e+01 4.025578e+01 4.904441e+01 4.112494e+01 4.163441e+01 4.402450e+01 3.629408e+01 2.461185e+01 1.112554e+00 1.522353e+00 1.617351e+00 2.656559e+00 2.172489e+00 2.083682e+00 2.429415e+00 2.410789e+00 2.262104e+00 2.509146e+00 2.111452e+00 1.695109e+00 1.480569e+00
<GCONST> 9.985252e+01
<STATE> 3
<MEAN> 25
 4.876313e-08 -1.572510e-08 -3.479018e-08 -3.353887e-08 3.894225e-08 5.448882e-08 6.837960e-09 -3.357679e-08 -9.075150e-09 1.238669e-09 6.825321e-10 3.043588e-08 1.480543e-02 -2.130302e-03 7.752344e-03 -2.168820e-03 1.143337e-02 -2.309903e-03 4.269884e-03 -3.775733e-03 -3.292339e-03 -9.014427e-04 -3.430429e-03 -3.983431e-03 3.762102e-02
<VARIANCE> 25
 4.782532e+01 4.486550e+01 4.720150e+01 6.892854e+01 4.782745e+01 4.025578e+01 4.904441e+01 4.112494e+01 4.163441e+01 4.402450e+01 3.629408e+01 2.461185e+01 1.112554e+00 1.522353e+00 1.617351e+00 2.656559e+00 2.172489e+00 2.083682e+00 2.429415e+00 2.410789e+00 2.262104e+00 2.509146e+00 2.111452e+00 1.695109e+00 1.480569e+00
<GCONST> 9.985252e+01
<STATE> 4
<MEAN> 25
 4.876313e-08 -1.572510e-08 -3.479018e-08 -3.353887e-08 3.894225e-08 5.448882e-08 6.837960e-09 -3.357679e-08 -9.075150e-09 1.238669e-09 6.825321e-10 3.043588e-08 1.480543e-02 -2.130302e-03 7.752344e-03 -2.168820e-03 1.143337e-02 -2.309903e-03 4.269884e-03 -3.775733e-03 -3.292339e-03 -9.014427e-04 -3.430429e-03 -3.983431e-03 3.762102e-02
<VARIANCE> 25
 4.782532e+01 4.486550e+01 4.720150e+01 6.892854e+01 4.782745e+01 4.025578e+01 4.904441e+01 4.112494e+01 4.163441e+01 4.402450e+01 3.629408e+01 2.461185e+01 1.112554e+00 1.522353e+00 1.617351e+00 2.656559e+00 2.172489e+00 2.083682e+00 2.429415e+00 2.410789e+00 2.262104e+00 2.509146e+00 2.111452e+00 1.695109e+00 1.480569e+00
<GCONST> 9.985252e+01
<TRANSP> 5
 0.000000e+00 1.000000e+00 0.000000e+00 0.000000e+00 0.000000e+00
 0.000000e+00 6.000000e-01 4.000000e-01 0.000000e+00 0.000000e+00
 0.000000e+00 0.000000e+00 6.000000e-01 4.000000e-01 0.000000e+00
 0.000000e+00 0.000000e+00 0.000000e+00 7.000000e-01 3.000000e-01
 0.000000e+00 0.000000e+00 0.000000e+00 0.000000e+00 0.000000e+00
<ENDHMM>
~h "d"
<BEGINHMM>
<NUMSTATES> 5
<STATE> 2
<MEAN> 25
 2.475474e+00 3.698729e+00 2.642865e+00 4.172888e+00 -1.797998e+00 -7.251580e-01 -2.178425e+00 -1.729029e+00 -1.978604e+00 -8.114325e-01 -4.820866e-02 -2.025911e+00 4.747932e-01 -2.935368e-01 1.856039e+00 -1.104664e+00 -1.263450e+00 -7.706451e-01 -6.695319e-01 -8.302931e-01 -1.731746e+00 2.211486e-01 -7.398128e-01 -5.568339e-01 1.795964e+00
<VARIANCE> 25
 2.708177e+01 3.018497e+01 2.244414e+01 2.799389e+01 3.345816e+01 2.906460e+01 3.136703e+01 3.074676e+01 2.600943e+01 3.437153e+01 2.878618e+01 1.745643e+01 2.754248e+00 3.785149e+00 3.849642e+00 4.108942e+00 3.338673e+00 3.409532e+00 3.745265e+00 4.241767e+00 3.614356e+00 6.669557e+00 3.812435e+00 2.521618e+00 2.840935e+00
<GCONST> 1.026556e+02
<STATE> 3
<MEAN> 25
 6.387852e-02 1.536640e+00 1.492383e+01 -8.376106e+00 -1.128366e+01 -6.564975e-01 -7.042551e+00 -6.088260e+00 -9.288839e+00 6.169639e+00 -4.401035e+00 -4.502157e-01 -4.675912e-01 -5.877560e-01 9.226606e-01 -2.345680e+00 -1.126830e+00 -7.375736e-01 2.360935e-02 -2.288379e-01 5.353845e-01 1.352162e+00 -1.979628e-02 8.205516e-01 1.217819e+00
<VARIANCE> 25
 1.133453e+01 2.007417e+01 3.685258e+01 5.102790e+01 4.414780e+01 2.624776e+01 2.999769e+01 3.804500e+01 4.585769e+01 5.936644e+01 3.417673e+01 5.883749e+01 1.145169e+00 2.759206e+00 3.987226e+00 4.325404e+00 3.840916e+00 3.277500e+00 6.390869e+00 3.499784e+00 4.442000e+00 4.432722e+00 3.965491e+00 3.406548e+00 1.594621e+00
<GCONST> 1.042127e+02
<STATE> 4
<MEAN> 25
 2.064306e-01 -5.467113e+00 8.267100e+00 -1.336370e+01 -1.166937e+01 -6.303583e+00 4.313746e+00 1.608329e+00 -1.577880e+00 6.421432e+00 -2.483552e+00 8.580006e-01 3.181254e-01 -1.271533e+00 -2.175741e+00 -2.281802e-01 1.796234e+00 -4.632656e-01 2.106464e+00 1.355910e+00 1.356374e+00 -2.288614e+00 -4.992597e-01 -4.789142e-02 4.062684e-01
<VARIANCE> 25
 2.705014e+01 2.756598e+01 4.534446e+01 4.610035e+01 5.656594e+01 2.032152e+01 6.757323e+01 5.923235e+01 3.736774e+01 8.126523e+01 3.766830e+01 2.241643e+01 5.390365e-01 2.720316e+00 2.981810e+00 3.115994e+00 5.711952e+00 2.208292e+00 6.117740e+00 4.329314e+00 3.233972e+00 6.155439e+00 3.289233e+00 2.695945e+00 1.236412e+00
<GCONST> 1.041141e+02
<TRANSP> 5
 0.000000e+00 1.000000e+00 0.000000e+00 0.000000e+00 0.000000e+00
 0.000000e+00 7.535672e-01 2.464329e-01 0.000000e+00 0.000000e+00
 0.000000e+00 0.000000e+00 7.448645e-01 2.551355e-01 0.000000e+00
 0.000000e+00 0.000000e+00 0.000000e+00 6.678057e-01 3.321943e-01
 0.000000e+00 0.000000e+00 0.000000e+00 0.000000e+00 0.000000e+00
<ENDHMM>
~h "g"
<BEGINHMM>
<NUMSTATES> 5
<STATE> 2
<MEAN> 25
 3.598981e+00 4.255760e+00 3.705124e+00 2.054670e+00 -2.689965e+00 -1.354986e+00 -3.706395e+00 -1.476254e+00 -2.154066e+00 -1.056349e+00 -2.422145e+00 -2.183956e+00 -2.852933e-01 -6.526649e-01 1.821272e-01 1.426892e-02 8.828045e-01 -5.402572e-01 5.805491e-02 -2.444112e-01 -6.450298e-01 6.160069e-01 1.115694e-01 2.672071e-02 8.726138e-01
<VARIANCE> 25
 5.135318e+01 1.182165e+02 5.571622e+01 5.890343e+01 5.267964e+01 5.840421e+01 7.342419e+01 6.074736e+01 3.910230e+01 4.696964e+01 6.760471e+01 3.561875e+01 4.836743e+00 9.375422e+00 6.003939e+00 7.377440e+00 6.664340e+00 6.319128e+00 5.980505e+00 4.850473e+00 4.479527e+00 5.421733e+00 5.981992e+00 3.325755e+00 6.734500e+00
<GCONST> 1.172919e+02
<STATE> 3
<MEAN> 25
 2.535198e+00 -2.109327e+00 -2.979626e+00 8.419470e-01 7.703841e+00 -3.061116e+00 -3.960500e+00 -1.919597e+00 -3.340677e+00 6.361482e+00 4.865967e-01 -7.443906e-01 7.528793e-01 5.385707e-02 -1.344455e-01 -1.724598e+00 5.049433e-01 -5.517076e-01 -2.363202e-01 -7.759348e-01 -6.174517e-02 -4.486591e-01 -5.015056e-01 -9.169170e-02 1.500429e+00
<VARIANCE> 25
 3.019151e+01 2.932120e+01 1.161376e+02 1.078442e+02 6.920166e+01 9.737740e+01 7.359985e+01 3.620675e+01 6.184161e+01 1.197848e+02 4.204122e+01 4.104416e+01 3.385649e+00 4.335554e+00 6.891634e+00 8.764600e+00 5.581650e+00 5.586547e+00 9.429225e+00 4.552496e+00 6.197351e+00 1.070911e+01 3.364753e+00 3.922952e+00 3.728772e+00
<GCONST> 1.173136e+02
<STATE> 4
<MEAN> 25
 1.898114e+00 7.677233e-01 1.061017e+01 6.173276e+00 6.035352e+00 -4.472245e+00 -6.639288e+00 -1.429797e+00 6.024911e-01 -7.136485e+00 -2.518405e+00 -3.848423e+00 5.675694e-02 2.157927e-01 -2.798031e-01 -2.430980e-01 -3.445168e-02 3.023205e-01 2.465468e-01 1.223641e-01 3.625230e-02 2.176799e-01 -8.459901e-02 7.709619e-02 -1.101393e-01
<VARIANCE> 25
 1.951132e+01 3.163068e+01 7.981544e+01 3.846128e+01 2.539573e+01 4.182013e+01 5.803350e+01 2.709669e+01 2.404372e+01 6.170722e+01 2.019078e+01 1.830753e+01 7.586799e-01 1.486448e+00 2.443259e+00 2.359738e+00 1.988091e+00 2.087922e+00 3.260085e+00 2.048261e+00 1.887820e+00 3.435782e+00 1.712914e+00 1.470434e+00 1.068587e+00
<GCONST> 9.599856e+01
<TRANSP> 5
 0.000000e+00 1.000000e+00 0.000000e+00 0.000000e+00 0.000000e+00
 0.000000e+00 6.920637e-01 3.079363e-01 0.000000e+00 0.000000e+00
 0.000000e+00 0.000000e+00 6.138203e-01 3.861797e-01 0.000000e+00
 0.000000e+00 0.000000e+00 0.000000e+00 8.325440e-01 1.674560e-01
 0.000000e+00 0.000000e+00 0.000000e+00 0.000000e+00 0.000000e+00
<ENDHMM>
~h "h"
<BEGINHMM>
<NUMSTATES> 5
<STATE> 2
<MEAN> 25
 -4.694298e-01 1.857989e+00 1.194651e+00 4.142611e+00 -2.633791e-01 2.688889e+00 -6.345541e-01 4.727273e-01 1.171975e+00 5.075263e-01 2.654431e+00 -3.893843e-01 9.715484e-03 6.296699e-02 -3.222714e-03 -6.897053e-03 1.331685e-02 -5.607750e-02 -3.329976e-02 1.166311e-01 1.586946e-01 -4.826368e-02 -1.497533e-01 -1.122688e-01 -2.037200e-02
<VARIANCE> 25
 1.054866e+01 4.666543e+00 6.819173e+00 9.975544e+00 9.350396e+00 1.420428e+01 1.382333e+01 1.593046e+01 1.966155e+01 1.404142e+01 1.137954e+01 1.145638e+01 1.183310e-01 2.621849e-01 4.179471e-01 5.032194e-01 7.942131e-01 1.477996e+00 1.328689e+00 1.392506e+00 1.597638e+00 1.421449e+00 1.086993e+00 1.476442e+00 5.118501e-02
<GCONST> 6.890224e+01
<STATE> 3
<MEAN> 25
 -2.447253e+00 -2.591612e+00 -5.177231e-01 5.637293e+00 6.590601e+00 -2.738335e-02 6.808264e-02 9.044362e-01 2.107268e+00 -3.299765e+00 2.066454e+00 1.817865e+00 -8.293268e-02 -1.328094e+00 -3.967104e-01 1.086175e-03 1.329378e+00 -2.211744e-01 2.406663e-01 -5.956405e-01 -6.520660e-01 -9.950772e-01 -1.618179e-01 9.052078e-01 8.508866e-01
<VARIANCE> 25
 1.549413e+01 2.474866e+01 2.032453e+01 8.466783e+00 1.687686e+01 2.169833e+01 1.994217e+01 4.671989e+01 4.156962e+01 3.863364e+01 1.635432e+01 2.055958e+01 4.092984e-01 1.683043e+00 2.763961e+00 1.241291e+00 1.946273e+00 1.909762e+00 1.800140e+00 3.064554e+00 2.476563e+00 2.383145e+00 2.887102e+00 2.631292e+00 2.671020e-01
<GCONST> 8.934733e+01
<STATE> 4
<MEAN> 25
 8.285993e+00 -4.019522e+00 -2.360203e+00 2.424228e+00 -9.455060e-01 -2.181622e+00 -4.730131e+00 -6.849484e+00 -6.620535e+00 -9.199599e+00 -4.863705e+00 3.753973e+00 3.198810e-01 3.753815e-01 -5.663216e-02 -3.306533e-01 -3.452617e-01 -3.544233e-01 -2.625027e-01 -5.479719e-01 -7.731636e-02 8.627408e-02 -4.392549e-03 -7.189421e-02 7.888915e-02
<VARIANCE> 25
 4.034255e+01 5.171189e+01 4.070562e+01 1.757350e+01 4.066983e+01 2.435232e+01 3.311580e+01 4.410077e+01 3.512158e+01 3.843540e+01 2.615780e+01 1.988635e+01 1.553357e+00 9.417411e-01 1.972622e+00 1.677172e+00 1.532170e+00 1.344038e+00 2.601565e+00 2.079094e+00 1.764567e+00 1.627731e+00 2.333528e+00 1.154424e+00 4.956541e-01
<GCONST> 9.314083e+01
<TRANSP> 5
 0.000000e+00 1.000000e+00 0.000000e+00 0.000000e+00 0.000000e+00
 0.000000e+00 9.415650e-01 5.843497e-02 0.000000e+00 0.000000e+00
 0.000000e+00 0.000000e+00 7.960958e-01 2.039043e-01 0.000000e+00
 0.000000e+00 0.000000e+00 0.000000e+00 9.092996e-01 9.070049e-02
 0.000000e+00 0.000000e+00 0.000000e+00 0.000000e+00 0.000000e+00
<ENDHMM>
~h "j"
<BEGINHMM>
<NUMSTATES> 5
<STATE> 2
<MEAN> 25
 4.489031e+00 2.357513e+00 6.051842e+00 -2.889271e+00 -3.655938e+00 -4.901535e+00 -5.382767e+00 -9.131947e-02 -5.175003e+00 2.365419e+00 -5.704777e+00 -3.784853e+00 -1.006664e-01 4.317727e-02 5.259104e-01 1.210990e+00 2.122270e-01 7.021867e-01 2.810279e-01 5.207464e-01 -6.724683e-02 -1.040139e+00 2.032035e-01 1.293453e-01 -3.126452e-01
<VARIANCE> 25
 7.310101e+00 3.372563e+00 2.091075e+01 2.681442e+01 3.256959e+01 6.207436e+01 3.433089e+01 1.882555e+01 4.166005e+01 9.912833e+01 2.068336e+01 1.588979e+01 2.632284e-01 3.660773e-01 2.199841e+00 7.037254e-01 5.960203e+00 5.153767e+00 1.765796e+00 2.640434e+00 3.211650e+00 2.564067e+00 2.131929e+00 1.298374e+00 5.537315e-01
<GCONST> 8.928220e+01
<STATE> 3
<MEAN> 25
 -1.223534e+00 5.515293e+00 3.475647e+00 4.947403e+00 -2.413447e+00 3.525977e+00 -6.201555e+00 -2.145607e+00 -2.301326e+00 -2.344472e+00 -2.551861e+00 -3.934418e+00 -1.908803e+00 4.784571e-01 3.571329e-01 -4.877355e-01 -4.842764e-01 5.796664e-01 5.859493e-01 -3.045270e-01 7.315208e-02 1.174266e+00 8.679406e-01 -5.743475e-02 8.120696e-02
<VARIANCE> 25
 5.240247e+01 1.315877e+01 8.518197e+01 2.475237e+01 4.948658e+01 4.942572e+01 2.782505e+01 3.243883e+01 2.135931e+01 3.145357e+01 2.704798e+01 1.987645e+01 3.175793e+00 1.545464e+00 2.264860e+00 3.315363e+00 6.220037e+00 4.431479e+00 2.029725e+00 2.625037e+00 4.461058e+00 3.034715e+00 2.925748e+00 2.157619e+00 3.140999e+00
<GCONST> 1.017303e+02
<STATE> 4
<MEAN> 25
 -3.224054e+00 5.823601e+00 7.300202e+00 -2.810326e+00 -6.233737e+00 -8.295981e+00 -6.198989e+00 -9.437945e-02 -1.167966e+00 5.999651e+00 3.816481e+00 -2.475700e+00 8.044158e-01 -3.462966e-01 -4.917974e-02 -4.713504e-01 -4.492850e-02 -1.347508e+00 -1.926123e-01 1.263237e-01 1.210091e-01 3.098264e-01 -4.502208e-01 3.443987e-01 4.794878e-01
<VARIANCE> 25
 5.234310e+01 6.973303e+01 2.929640e+01 5.736476e+01 7.958041e+01 1.178995e+02 6.036844e+01 3.217938e+01 6.237148e+01 3.842777e+01 3.506897e+01 3.249323e+01 4.058490e+00 5.575336e+00 4.390588e+00 5.506862e+00 9.433118e+00 1.031252e+01 5.092698e+00 5.567463e+00 7.057122e+00 4.546327e+00 4.160133e+00 3.486690e+00 7.287128e+00
<GCONST> 1.154709e+02
<TRANSP> 5
 0.000000e+00 1.000000e+00 0.000000e+00 0.000000e+00 0.000000e+00
 0.000000e+00 8.771842e-01 1.228158e-01 0.000000e+00 0.000000e+00
 0.000000e+00 0.000000e+00 8.543745e-01 1.456255e-01 0.000000e+00
 0.000000e+00 0.000000e+00 0.000000e+00 9.068453e-01 9.315476e-02
 0.000000e+00 0.000000e+00 0.000000e+00 0.000000e+00 0.000000e+00
<ENDHMM>
~h "k"
<BEGINHMM>
<NUMSTATES> 5
<STATE> 2
<MEAN> 25
 5.296095e+00 1.901701e+00 -4.547603e+00 -3.150578e+00 7.319111e-01 -6.088107e-01 -5.151353e+00 -2.718704e+00 -1.626610e+00 -7.125975e-01 -2.602754e+00 -2.240175e+00 -6.473349e-01 -6.848032e-02 -2.861673e-01 3.315572e-02 2.581877e-01 1.922283e-02 6.309412e-01 2.960535e-02 6.932912e-02 7.153976e-01 4.321766e-01 5.256407e-02 -8.262093e-02
<VARIANCE> 25
 2.854019e+01 5.153429e+01 5.054278e+01 9.931698e+01 4.355676e+01 5.633044e+01 8.244583e+01 3.927754e+01 5.596916e+01 5.289601e+01 3.592242e+01 3.640305e+01 3.294953e+00 4.562516e+00 3.502625e+00 5.352972e+00 3.242552e+00 5.242106e+00 6.189867e+00 3.925480e+00 6.854101e+00 5.087331e+00 2.911726e+00 3.589734e+00 6.917250e+00
<GCONST> 1.123162e+02
<STATE> 3
<MEAN> 25
 -4.208779e-01 -6.208467e-01 -5.082893e+00 -5.437105e-01 1.898767e+00 3.545199e+00 7.808870e-01 -1.146364e+00 1.184729e+00 4.348374e+00 1.078117e+00 -2.715319e-01 -4.561468e-01 -5.246077e-03 2.915685e-01 6.771381e-01 1.379128e-01 7.360774e-02 -1.364946e-01 1.608690e-01 1.278647e-01 4.705393e-01 3.530419e-01 1.601340e-01 -4.114628e-01
<VARIANCE> 25
 6.517610e+00 1.629880e+01 2.113642e+01 3.073975e+01 3.539671e+01 1.995688e+01 3.095450e+01 2.113367e+01 1.612181e+01 3.300728e+01 2.667343e+01 1.710404e+01 8.305463e-01 1.066579e+00 2.407599e+00 1.685436e+00 2.073112e+00 1.896640e+00 3.268183e+00 2.152169e+00 2.091688e+00 4.439545e+00 1.936646e+00 1.809208e+00 1.213465e+00
<GCONST> 9.080769e+01
<STATE> 4
<MEAN> 25
 -3.000381e+00 7.894142e-01 -1.168092e-01 3.993942e+00 3.193500e+00 3.715285e+00 2.592004e+00 2.326365e+00 2.940675e+00 2.467469e+00 2.762412e+00 4.391982e-01 -6.990124e-02 2.940305e-02 1.185730e-01 5.267845e-02 -5.342174e-02 -2.899901e-02 3.966931e-02 6.536769e-02 3.907934e-02 -3.708447e-02 4.830146e-02 6.507513e-02 -2.192395e-02
<VARIANCE> 25
 1.292566e+01 6.384488e+00 9.365121e+00 1.227104e+01 1.688486e+01 1.326622e+01 2.384986e+01 1.715378e+01 1.750670e+01 2.053619e+01 1.627522e+01 1.119896e+01 1.478159e-01 3.244579e-01 5.550845e-01 6.984379e-01 8.888720e-01 1.229273e+00 1.512610e+00 1.400714e+00 1.511268e+00 1.571628e+00 1.298631e+00 1.038429e+00 6.534875e-02
<GCONST> 7.291067e+01
<TRANSP> 5
 0.000000e+00 1.000000e+00 0.000000e+00 0.000000e+00 0.000000e+00
 0.000000e+00 7.866906e-01 2.133094e-01 0.000000e+00 0.000000e+00
 0.000000e+00 0.000000e+00 7.536843e-01 2.463157e-01 0.000000e+00
 0.000000e+00 0.000000e+00 0.000000e+00 9.326224e-01 6.737761e-02
 0.000000e+00 0.000000e+00 0.000000e+00 0.000000e+00 0.000000e+00
<ENDHMM>
~h "l"
<BEGINHMM>
<NUMSTATES> 5
<STATE> 2
<MEAN> 25
 3.591451e+00 -7.009710e+00 -5.580301e+00 -9.082937e+00 4.259759e+00 1.890825e+00 3.193996e-01 -2.407405e+00 1.902807e+00 1.030977e+00 -1.566101e+00 -1.075764e+00 2.646323e-02 9.312769e-02 -2.025594e-01 -1.748706e-01 1.308072e-01 1.424486e-01 5.017644e-02 -5.252632e-02 1.885119e-01 8.191913e-02 3.412039e-02 -1.386253e-01 -6.834454e-02
<VARIANCE> 25
 8.199301e+00 2.671361e+01 3.499391e+01 3.353629e+01 8.177083e+01 5.670987e+01 4.168305e+01 5.037084e+01 2.380089e+01 3.525763e+01 3.145435e+01 1.939342e+01 3.393266e-01 8.238546e-01 7.521347e-01 1.378179e+00 3.502691e+00 1.535556e+00 1.541180e+00 1.623870e+00 1.707719e+00 1.818727e+00 1.249368e+00 1.169037e+00 4.634176e-01
<GCONST> 8.974533e+01
<STATE> 3
<MEAN> 25
 4.212408e+00 5.619777e-02 -4.070187e+00 -3.098652e+00 2.371688e+00 -1.879422e+00 -2.992349e+00 -4.550600e+00 4.447967e-01 -2.087986e+00 1.990924e-01 -9.673572e-01 -2.066471e-01 6.049297e-01 7.894310e-01 1.624881e+00 -4.240005e-01 1.231533e-01 -1.548434e-01 4.965909e-01 -2.394029e-01 -8.393214e-02 1.322585e-01 2.060936e-01 -1.005319e+00
<VARIANCE> 25
 1.125949e+01 1.724728e+01 2.235739e+01 4.070185e+01 5.537244e+01 5.367641e+01 5.098906e+01 5.778715e+01 3.923739e+01 2.501699e+01 3.589760e+01 2.047790e+01 4.648130e-01 1.263633e+00 1.144181e+00 2.139161e+00 1.827489e+00 1.930408e+00 2.630533e+00 2.750134e+00 2.058538e+00 2.022598e+00 1.810009e+00 1.724870e+00 7.294912e-01
<GCONST> 9.335580e+01
<STATE> 4
<MEAN> 25
 -2.080001e-03 8.794335e-01 1.749179e-01 4.398241e+00 4.526474e-01 1.071852e+00 -4.773396e-01 1.452221e+00 1.093992e+00 -8.850867e-01 1.983434e+00 -6.724805e-01 -8.220519e-02 -3.080109e-02 2.762363e-02 5.247262e-02 1.114160e-02 6.833817e-02 6.680518e-02 1.196240e-01 -8.840058e-04 1.048464e-03 -2.769561e-02 -3.722748e-02 -3.154765e-02
<VARIANCE> 25
 1.111300e+01 5.453699e+00 1.036493e+01 1.689441e+01 1.605032e+01 1.764795e+01 1.736115e+01 1.777297e+01 1.852124e+01 1.657306e+01 1.747815e+01 1.431256e+01 1.874710e-01 2.893291e-01 5.463928e-01 7.734268e-01 1.009445e+00 1.307350e+00 1.262031e+00 1.622077e+00 1.652173e+00 1.325322e+00 1.211823e+00 1.176502e+00 9.466039e-02
<GCONST> 7.384292e+01
<TRANSP> 5
 0.000000e+00 1.000000e+00 0.000000e+00 0.000000e+00 0.000000e+00
 0.000000e+00 8.437404e-01 1.562596e-01 0.000000e+00 0.000000e+00
 0.000000e+00 0.000000e+00 6.894891e-01 3.105109e-01 0.000000e+00
 0.000000e+00 0.000000e+00 0.000000e+00 9.049397e-01 9.506033e-02
 0.000000e+00 0.000000e+00 0.000000e+00 0.000000e+00 0.000000e+00
<ENDHMM>
~h "m"
<BEGINHMM>
<NUMSTATES> 5
<STATE> 2
<MEAN> 25
 5.723052e+00 -5.877907e-01 -2.260347e+00 1.530560e+00 3.828819e+00 9.174930e-01 -3.492441e+00 -2.494890e+00 -2.758389e+00 -3.700345e+00 -3.345460e+00 -2.289315e+00 -2.703006e-02 1.043602e+00 7.090607e-01 1.075136e+00 -1.228182e-01 -4.592381e-01 -4.540300e-01 -5.017070e-01 -3.518755e-01 -1.642515e-02 -2.928675e-01 -2.098743e-01 -6.556046e-01
<VARIANCE> 25
 3.587859e+01 5.319892e+01 3.569044e+01 7.681705e+01 4.109133e+01 5.935828e+01 3.542993e+01 3.443562e+01 3.405331e+01 3.220963e+01 2.960245e+01 2.182778e+01 1.484939e+00 2.478516e+00 2.478081e+00 3.221139e+00 2.128790e+00 3.640332e+00 2.871243e+00 3.611561e+00 2.315838e+00 2.702041e+00 2.833702e+00 2.079060e+00 1.253400e+00
<GCONST> 1.013946e+02
<STATE> 3
<MEAN> 25
 5.218388e+00 2.258009e+00 2.196127e+00 4.125206e+00 3.165815e+00 -3.601494e+00 -4.514559e+00 -4.181999e+00 -2.845206e+00 -4.590716e+00 -3.651041e+00 -4.461516e+00 -2.160189e-01 2.337912e-01 1.472504e-01 3.119724e-01 -1.913269e-01 2.196991e-01 2.353528e-01 2.809002e-01 2.131887e-01 2.211504e-01 1.652334e-01 1.235437e-01 -3.937362e-01
<VARIANCE> 25
 1.397498e+01 2.333615e+01 2.233296e+01 4.060361e+01 2.643223e+01 5.434475e+01 4.137886e+01 3.241674e+01 3.518391e+01 2.213085e+01 4.853358e+01 2.615351e+01 3.695542e-01 6.454808e-01 9.162955e-01 1.776001e+00 1.008198e+00 1.480485e+00 1.663610e+00 1.671695e+00 1.894910e+00 1.772086e+00 1.755133e+00 1.273119e+00 3.630938e-01
<GCONST> 8.829865e+01
<STATE> 4
<MEAN> 25
 -1.289645e+00 1.118240e+00 6.740804e-01 4.284995e+00 1.170172e+00 2.056611e+00 1.247725e+00 2.307695e+00 2.187996e+00 9.687291e-01 2.072990e+00 1.921389e-02 -4.656093e-02 1.707546e-02 5.606520e-02 -2.707134e-03 -6.162845e-02 -9.158537e-03 2.489742e-02 5.850154e-02 5.667965e-02 6.368002e-02 8.845434e-02 1.715834e-02 -1.002953e-02
<VARIANCE> 25
 1.471774e+01 6.155421e+00 8.724324e+00 1.103777e+01 1.451754e+01 1.301705e+01 1.966655e+01 1.681244e+01 1.881669e+01 1.912462e+01 1.663692e+01 1.302612e+01 1.614015e-01 3.105901e-01 4.607874e-01 6.757027e-01 9.480739e-01 1.114335e+00 1.199141e+00 1.407068e+00 1.599560e+00 1.588526e+00 1.282204e+00 1.109825e+00 6.678627e-02
<GCONST> 7.232484e+01
<TRANSP> 5
 0.000000e+00 1.000000e+00 0.000000e+00 0.000000e+00 0.000000e+00
 0.000000e+00 6.660194e-01 3.339806e-01 0.000000e+00 0.000000e+00
 0.000000e+00 0.000000e+00 8.075860e-01 1.924141e-01 0.000000e+00
 0.000000e+00 0.000000e+00 0.000000e+00 9.353070e-01 6.469296e-02
 0.000000e+00 0.000000e+00 0.000000e+00 0.000000e+00 0.000000e+00
<ENDHMM>
~h "n"
<BEGINHMM>
<NUMSTATES> 5
<STATE> 2
<MEAN> 25
 6.409989e+00 -7.677108e-02 -5.872407e-01 5.716435e-01 -7.773170e-01 -6.842691e+00 -4.666759e+00 -2.634564e+00 -5.901200e+00 -8.078914e+00 -1.993116e+00 2.040346e+00 -2.572558e-01 1.241419e+00 4.225829e-01 1.022292e+00 1.039684e-02 -9.191801e-02 -3.861807e-01 -8.689350e-01 4.786213e-02 5.372507e-01 -6.086201e-02 1.044483e-01 -9.853364e-01
<VARIANCE> 25
 1.436601e+01 3.060907e+01 1.371690e+01 3.043621e+01 5.895787e+01 5.611341e+01 2.552694e+01 2.850977e+01 3.732227e+01 3.656821e+01 4.449300e+01 3.082496e+01 4.195139e-01 1.696680e+00 1.302540e+00 2.356329e+00 1.414764e+00 2.752268e+00 1.727845e+00 2.995352e+00 2.125093e+00 2.236236e+00 3.233049e+00 1.532443e+00 7.422982e-01
<GCONST> 9.384960e+01
<STATE> 3
<MEAN> 25
 3.261623e+00 3.194020e+00 1.652427e+00 4.688272e+00 1.467395e+00 -2.590792e+00 -3.102554e+00 -3.178119e+00 -3.296369e+00 -4.366815e+00 -2.482145e+00 4.149012e-01 -3.407633e-01 1.045602e-01 7.641118e-03 2.990586e-01 8.775922e-03 7.161520e-01 3.388962e-01 3.692940e-01 3.265348e-01 3.509365e-01 3.875252e-01 -1.052363e-01 -4.341154e-01
<VARIANCE> 25
 1.309795e+01 1.251674e+01 1.013984e+01 1.677456e+01 2.894542e+01 2.722337e+01 1.945939e+01 2.357224e+01 2.514609e+01 1.951526e+01 2.500723e+01 2.472428e+01 2.652183e-01 4.443893e-01 6.042596e-01 8.333350e-01 1.139757e+00 1.402623e+00 1.368783e+00 1.352758e+00 1.797222e+00 1.641215e+00 1.726888e+00 1.292603e+00 1.621398e-01
<GCONST> 7.992978e+01
<STATE> 4
<MEAN> 25
 -3.203788e+00 1.669857e+00 9.174084e-01 3.833710e+00 2.517770e+00 2.698555e+00 2.701497e+00 2.479236e+00 2.814208e+00 2.152162e+00 2.871291e+00 3.648071e-01 -4.968386e-02 -3.059716e-03 3.723981e-03 -2.692788e-03 5.952964e-03 5.751472e-02 5.834588e-02 7.187661e-02 7.915876e-02 9.087277e-02 5.449666e-02 -3.188829e-02 -8.770714e-03
<VARIANCE> 25
 1.470494e+01 6.664806e+00 6.860382e+00 9.300798e+00 1.284649e+01 1.302226e+01 1.866855e+01 1.741546e+01 1.795179e+01 1.946233e+01 1.403970e+01 1.373181e+01 1.403762e-01 3.023277e-01 4.378264e-01 6.517439e-01 8.892784e-01 1.118325e+00 1.157189e+00 1.360406e+00 1.415348e+00 1.399777e+00 1.357556e+00 1.230973e+00 6.082612e-02
<GCONST> 7.114151e+01
<TRANSP> 5
 0.000000e+00 1.000000e+00 0.000000e+00 0.000000e+00 0.000000e+00
 0.000000e+00 7.279406e-01 2.720594e-01 0.000000e+00 0.000000e+00
 0.000000e+00 0.000000e+00 8.188810e-01 1.811190e-01 0.000000e+00
 0.000000e+00 0.000000e+00 0.000000e+00 9.390688e-01 6.093120e-02
 0.000000e+00 0.000000e+00 0.000000e+00 0.000000e+00 0.000000e+00
<ENDHMM>
~h "o"
<BEGINHMM>
<NUMSTATES> 5
<STATE> 2
<MEAN> 25
 4.876313e-08 -1.572510e-08 -3.479018e-08 -3.353887e-08 3.894225e-08 5.448882e-08 6.837960e-09 -3.357679e-08 -9.075150e-09 1.238669e-09 6.825321e-10 3.043588e-08 1.480543e-02 -2.130302e-03 7.752344e-03 -2.168820e-03 1.143337e-02 -2.309903e-03 4.269884e-03 -3.775733e-03 -3.292339e-03 -9.014427e-04 -3.430429e-03 -3.983431e-03 3.762102e-02
<VARIANCE> 25
 4.782532e+01 4.486550e+01 4.720150e+01 6.892854e+01 4.782745e+01 4.025578e+01 4.904441e+01 4.112494e+01 4.163441e+01 4.402450e+01 3.629408e+01 2.461185e+01 1.112554e+00 1.522353e+00 1.617351e+00 2.656559e+00 2.172489e+00 2.083682e+00 2.429415e+00 2.410789e+00 2.262104e+00 2.509146e+00 2.111452e+00 1.695109e+00 1.480569e+00
<GCONST> 9.985252e+01
<STATE> 3
<MEAN> 25
 4.876313e-08 -1.572510e-08 -3.479018e-08 -3.353887e-08 3.894225e-08 5.448882e-08 6.837960e-09 -3.357679e-08 -9.075150e-09 1.238669e-09 6.825321e-10 3.043588e-08 1.480543e-02 -2.130302e-03 7.752344e-03 -2.168820e-03 1.143337e-02 -2.309903e-03 4.269884e-03 -3.775733e-03 -3.292339e-03 -9.014427e-04 -3.430429e-03 -3.983431e-03 3.762102e-02
<VARIANCE> 25
 4.782532e+01 4.486550e+01 4.720150e+01 6.892854e+01 4.782745e+01 4.025578e+01 4.904441e+01 4.112494e+01 4.163441e+01 4.402450e+01 3.629408e+01 2.461185e+01 1.112554e+00 1.522353e+00 1.617351e+00 2.656559e+00 2.172489e+00 2.083682e+00 2.429415e+00 2.410789e+00 2.262104e+00 2.509146e+00 2.111452e+00 1.695109e+00 1.480569e+00
<GCONST> 9.985252e+01
<STATE> 4
<MEAN> 25
 4.876313e-08 -1.572510e-08 -3.479018e-08 -3.353887e-08 3.894225e-08 5.448882e-08 6.837960e-09 -3.357679e-08 -9.075150e-09 1.238669e-09 6.825321e-10 3.043588e-08 1.480543e-02 -2.130302e-03 7.752344e-03 -2.168820e-03 1.143337e-02 -2.309903e-03 4.269884e-03 -3.775733e-03 -3.292339e-03 -9.014427e-04 -3.430429e-03 -3.983431e-03 3.762102e-02
<VARIANCE> 25
 4.782532e+01 4.486550e+01 4.720150e+01 6.892854e+01 4.782745e+01 4.025578e+01 4.904441e+01 4.112494e+01 4.163441e+01 4.402450e+01 3.629408e+01 2.461185e+01 1.112554e+00 1.522353e+00 1.617351e+00 2.656559e+00 2.172489e+00 2.083682e+00 2.429415e+00 2.410789e+00 2.262104e+00 2.509146e+00 2.111452e+00 1.695109e+00 1.480569e+00
<GCONST> 9.985252e+01
<TRANSP> 5
 0.000000e+00 1.000000e+00 0.000000e+00 0.000000e+00 0.000000e+00
 0.000000e+00 6.000000e-01 4.000000e-01 0.000000e+00 0.000000e+00
 0.000000e+00 0.000000e+00 6.000000e-01 4.000000e-01 0.000000e+00
 0.000000e+00 0.000000e+00 0.000000e+00 7.000000e-01 3.000000e-01
 0.000000e+00 0.000000e+00 0.000000e+00 0.000000e+00 0.000000e+00
<ENDHMM>
~h "p"
<BEGINHMM>
<NUMSTATES> 5
<STATE> 2
<MEAN> 25
 -4.083737e+00 2.340917e+00 -4.802192e+00 5.280512e+00 -3.037734e+00 3.905347e+00 -3.527137e+00 2.592964e+00 3.215897e+00 1.650993e+00 3.237940e+00 1.993982e+00 1.717041e+00 -5.504312e-01 5.155449e-01 -8.424321e-01 2.953952e-01 -4.956833e-01 5.926944e-01 -2.234548e-01 -6.973925e-01 1.058997e-01 1.092080e-01 -3.083408e-01 2.699090e+00
<VARIANCE> 25
 8.571426e+01 2.599265e+01 3.483593e+01 2.518009e+01 2.413657e+01 2.124944e+01 3.129243e+01 3.966146e+01 3.794545e+01 1.997608e+01 2.893592e+01 2.272557e+01 8.993208e+00 2.427259e+00 2.436813e+00 2.178946e+00 3.163194e+00 3.055196e+00 2.474956e+00 3.022891e+00 3.405537e+00 2.227417e+00 2.549780e+00 2.306956e+00 1.555281e+01
<GCONST> 1.024916e+02
<STATE> 3
<MEAN> 25
 2.413625e+00 -3.699197e+00 -3.492401e+00 -2.101069e+00 6.550829e-01 7.552468e-01 5.898789e-01 8.335768e-01 1.071121e+00 5.817570e-01 7.723746e-02 -5.860950e-01 8.028758e-02 -9.857414e-01 2.158272e-01 -4.008141e-01 5.641941e-01 -1.389353e-01 1.071602e+00 1.256493e-01 1.183242e-02 -3.897453e-01 1.059297e-01 -5.831569e-02 1.688953e+00
<VARIANCE> 25
 2.350184e+01 7.178986e+01 2.549774e+01 7.412631e+01 4.723733e+01 4.016895e+01 4.892867e+01 5.185975e+01 3.977686e+01 4.861230e+01 4.294102e+01 2.539582e+01 3.243058e+00 5.598394e+00 2.135804e+00 6.037193e+00 4.421792e+00 4.701751e+00 4.191270e+00 5.194803e+00 3.707792e+00 5.118551e+00 3.239455e+00 2.954760e+00 1.019371e+01
<GCONST> 1.099657e+02
<STATE> 4
<MEAN> 25
 -3.642181e+00 1.196038e+00 9.109345e-01 3.191589e+00 2.087165e+00 2.886945e+00 3.432284e+00 2.571037e+00 3.539966e+00 2.598275e+00 3.245740e+00 4.503366e-02 -3.621109e-02 2.666641e-02 3.326915e-02 2.335456e-02 -1.289525e-02 2.091050e-02 1.871409e-02 2.666372e-02 7.303070e-03 7.778736e-02 4.149766e-02 -2.241180e-02 8.349790e-03
<VARIANCE> 25
 1.243213e+01 7.301352e+00 8.154751e+00 9.662867e+00 1.178578e+01 1.178016e+01 1.645002e+01 1.552909e+01 1.465554e+01 2.021277e+01 1.393809e+01 1.335327e+01 1.657829e-01 3.211797e-01 5.217834e-01 7.882972e-01 1.051661e+00 9.670162e-01 1.200225e+00 1.288858e+00 1.380729e+00 1.507015e+00 1.305795e+00 1.179429e+00 8.604979e-02
<GCONST> 7.155968e+01
<TRANSP> 5
 0.000000e+00 1.000000e+00 0.000000e+00 0.000000e+00 0.000000e+00
 0.000000e+00 5.515632e-01 4.484367e-01 0.000000e+00 0.000000e+00
 0.000000e+00 0.000000e+00 6.326640e-01 3.673360e-01 0.000000e+00
 0.000000e+00 0.000000e+00 0.000000e+00 9.394620e-01 6.053798e-02
 0.000000e+00 0.000000e+00 0.000000e+00 0.000000e+00 0.000000e+00
<ENDHMM>
~h "r"
<BEGINHMM>
<NUMSTATES> 5
<STATE> 2
<MEAN> 25
 7.462284e+00 -9.825861e+00 -2.170525e-01 -1.424730e+00 -1.065189e+01 -3.191159e+00 1.678455e+00 3.580773e+00 1.157974e+00 -1.725986e+00 -3.399543e+00 -8.840857e-01 -3.774730e-01 -5.575444e-01 1.225814e+00 5.893039e-02 -8.643976e-01 -7.482905e-02 8.614937e-01 5.313228e-01 -1.270608e+00 2.418514e-01 2.472834e-01 3.747799e-01 6.851695e-02
<VARIANCE> 25
 1.494230e+01 3.414008e+01 2.795921e+01 4.379678e+01 6.553209e+01 2.963268e+01 6.403524e+01 3.632507e+01 4.049027e+01 2.769121e+01 3.209306e+01 2.262670e+01 1.073788e+00 2.527684e+00 2.104348e+00 6.952486e+00 5.236684e+00 2.635857e+00 4.588355e+00 4.647147e+00 4.082280e+00 3.085301e+00 3.504054e+00 2.953708e+00 1.270186e+00
<GCONST> 1.027009e+02
<STATE> 3
<MEAN> 25
 3.535755e+00 -7.288673e+00 7.326393e+00 -7.347568e+00 -1.138924e+01 -3.647182e+00 8.110286e+00 6.870797e-01 -8.921891e+00 4.762861e+00 -3.769252e+00 -3.764256e+00 -2.948580e-01 1.314109e+00 1.987976e-01 3.563792e-01 6.376165e-01 1.945542e-01 1.808321e-01 -1.397265e+00 7.838636e-02 4.900335e-01 -1.444446e-01 -1.236656e-01 -7.186295e-01
<VARIANCE> 25
 1.479274e+01 3.267090e+01 3.860509e+01 3.767370e+01 4.638135e+01 2.133415e+01 6.320456e+01 5.439124e+01 4.521774e+01 6.312511e+01 3.785323e+01 1.592111e+01 8.011972e-01 8.409790e-01 1.498348e+00 2.615362e+00 1.940786e+00 1.709312e+00 4.416024e+00 1.525912e+00 3.994975e+00 4.009261e+00 2.358958e+00 1.599283e+00 6.118760e-01
<GCONST> 9.649580e+01
<STATE> 4
<MEAN> 25
 4.310460e-01 -7.550808e-01 2.251376e+00 2.931922e+00 -1.970179e+00 1.051170e+00 3.239226e+00 9.474037e-01 -2.541598e-01 6.819922e-01 -1.253908e-02 -7.066737e-01 -2.205170e-01 3.769725e-01 -1.461395e-01 3.611238e-01 4.679909e-01 1.189510e-01 -2.899837e-01 -9.662547e-02 3.455960e-01 -4.901449e-02 1.732134e-01 2.257588e-01 -4.359272e-01
<VARIANCE> 25
 1.889566e+01 1.511204e+01 1.995896e+01 3.017587e+01 2.779061e+01 2.047731e+01 3.605979e+01 3.918369e+01 2.665489e+01 3.522068e+01 2.921424e+01 1.748642e+01 4.223027e-01 6.473052e-01 9.899826e-01 1.540631e+00 1.536916e+00 1.444677e+00 2.120631e+00 2.188870e+00 2.070195e+00 2.172890e+00 1.913314e+00 1.304303e+00 3.007212e-01
<GCONST> 8.735477e+01
<TRANSP> 5
 0.000000e+00 1.000000e+00 0.000000e+00 0.000000e+00 0.000000e+00
 0.000000e+00 8.084947e-01 1.915053e-01 0.000000e+00 0.000000e+00
 0.000000e+00 0.000000e+00 7.925363e-01 2.074637e-01 0.000000e+00
 0.000000e+00 0.000000e+00 0.000000e+00 7.860979e-01 2.139021e-01
 0.000000e+00 0.000000e+00 0.000000e+00 0.000000e+00 0.000000e+00
<ENDHMM>
~h "s"
<BEGINHMM>
<NUMSTATES> 5
<STATE> 2
<MEAN> 25
 -1.002152e+01 6.231043e+00 -5.031184e+00 6.461013e+00 -1.169880e+00 -1.091614e+00 5.139224e+00 2.018365e+00 -1.463892e+00 1.873398e+00 3.135477e+00 -7.564230e-01 -7.381477e-01 2.016237e-01 -2.529991e-01 1.711618e-01 -7.298569e-02 1.287332e-01 2.803663e-01 1.485106e-01 -2.830277e-02 3.391551e-01 3.563734e-01 7.837334e-02 1.854856e-01
<VARIANCE> 25
 2.845865e+01 4.537436e+01 1.861914e+01 4.058161e+01 2.730384e+01 2.164539e+01 2.581408e+01 2.906161e+01 3.626667e+01 2.964016e+01 2.322066e+01 2.106707e+01 1.676839e+00 1.839635e+00 1.434311e+00 1.318266e+00 1.402654e+00 1.828593e+00 2.008427e+00 2.044677e+00 2.203251e+00 2.230771e+00 1.794254e+00 1.742843e+00 4.770065e-01
<GCONST> 9.202290e+01
<STATE> 3
<MEAN> 25
 -1.139441e+01 -1.381965e+00 4.477715e+00 -3.575733e+00 -2.206324e+00 2.124158e+00 5.215349e+00 -3.341093e+00 2.494181e-01 4.138949e+00 5.205635e+00 -4.951130e-01 4.762343e-01 -4.940655e-01 7.265798e-01 -9.139138e-01 -3.935328e-01 -4.688168e-01 -5.651094e-01 -4.403467e-01 2.110610e-01 -1.026238e-01 -4.159518e-01 1.040705e-01 4.722097e-01
<VARIANCE> 25
 3.981690e+01 8.571840e+01 1.165360e+02 1.461966e+02 4.195399e+01 7.714902e+01 5.562627e+01 7.823401e+01 6.937039e+01 3.846876e+01 2.425522e+01 3.704414e+01 6.298675e+00 2.334355e+00 4.433637e+00 4.209575e+00 2.362117e+00 3.540800e+00 3.386047e+00 4.050260e+00 3.065497e+00 2.518555e+00 2.746460e+00 1.939420e+00 3.102322e+00
<GCONST> 1.101819e+02
<STATE> 4
<MEAN> 25
 -2.524537e+00 2.365665e+00 -2.015363e+00 4.927644e-01 -4.380234e+00 -4.384654e+00 1.235836e+00 1.209514e+00 -6.973572e-01 5.916938e-01 5.408361e-01 6.670780e-01 3.941507e+00 -1.063846e+00 3.507086e-02 -2.945209e+00 -5.283043e-01 -1.510498e+00 -2.291704e+00 -4.772933e-01 -7.280010e-01 -1.844869e+00 -3.091823e+00 4.132393e-01 1.336307e+00
<VARIANCE> 25
 4.705327e+01 3.034344e+01 3.596596e+01 4.590681e+01 3.293229e+01 3.481802e+01 4.701304e+01 5.137693e+01 2.658796e+01 3.407632e+01 3.229273e+01 1.914039e+01 1.395533e+00 4.179007e+00 4.083522e+00 6.989902e+00 4.935807e+00 3.298986e+00 5.696079e+00 6.461172e+00 4.725115e+00 6.015147e+00 3.022866e+00 3.335404e+00 1.768401e+00
<GCONST> 1.064284e+02
<TRANSP> 5
 0.000000e+00 1.000000e+00 0.000000e+00 0.000000e+00 0.000000e+00
 0.000000e+00 8.854774e-01 1.145226e-01 0.000000e+00 0.000000e+00
 0.000000e+00 0.000000e+00 6.980716e-01 3.019284e-01 0.000000e+00
 0.000000e+00 0.000000e+00 0.000000e+00 5.325637e-01 4.674363e-01
 0.000000e+00 0.000000e+00 0.000000e+00 0.000000e+00 0.000000e+00
<ENDHMM>
~h "t"
<BEGINHMM>
<NUMSTATES> 5
<STATE> 2
<MEAN> 25
 4.626221e+00 3.175605e+00 -3.112962e+00 3.375909e+00 -7.745494e-01 3.258238e+00 -2.786585e+00 -5.834336e-01 -2.122715e+00 -2.689469e+00 -4.748865e-01 1.051367e+00 -9.509264e-01 2.990983e-02 -2.479662e-02 -2.666956e-01 -4.083868e-04 -1.465842e-01 3.999773e-01 4.331055e-01 -2.861387e-01 4.065616e-01 3.883659e-01 -5.249450e-01 -4.895727e-02
<VARIANCE> 25
 3.591364e+01 3.088163e+01 6.011786e+01 2.306673e+01 2.424768e+01 5.343800e+01 3.135009e+01 3.240895e+01 2.580874e+01 3.249893e+01 3.757756e+01 4.518137e+01 2.018905e+00 2.505332e+00 3.153952e+00 2.433319e+00 2.541364e+00 4.530029e+00 3.007195e+00 3.198369e+00 1.883880e+00 3.886303e+00 3.155681e+00 3.548499e+00 3.432679e+00
<GCONST> 1.024582e+02
<STATE> 3
<MEAN> 25
 -2.924605e+00 -4.980878e-01 4.683356e-01 9.384488e-01 -1.952335e+00 -1.622010e+00 1.414561e+00 1.338563e+00 -2.734054e+00 1.839101e+00 2.384451e+00 -1.663056e+00 -2.141868e-01 -1.224802e+00 -2.668633e-01 -3.725937e+00 -2.490163e-01 -2.497077e+00 4.041440e-01 -6.317093e-01 3.683458e-01 1.196313e+00 -1.784452e-01 -4.980934e-01 3.532254e+00
<VARIANCE> 25
 2.242550e+01 2.514161e+01 3.397646e+01 3.301509e+01 4.614465e+01 5.237959e+01 3.390690e+01 4.662010e+01 3.423923e+01 3.391532e+01 3.269332e+01 3.740525e+01 3.395204e+00 4.408734e+00 8.883756e+00 5.221276e+00 4.509520e+00 6.549377e+00 5.522585e+00 5.539782e+00 5.044580e+00 6.421080e+00 5.600495e+00 3.824038e+00 4.178706e+00
<GCONST> 1.099478e+02
<STATE> 4
<MEAN> 25
 1.668343e+00 1.481042e-01 -1.423046e+00 -8.103457e+00 -1.998372e+00 -6.528547e+00 -1.319054e+00 -1.126330e+00 4.452054e-01 1.254680e+00 -8.606591e-01 -8.309348e-01 1.631964e+00 -3.806658e-01 -1.310915e+00 -3.178709e+00 5.388077e-01 -3.233664e-01 -8.259893e-01 -1.107769e+00 7.382386e-01 -1.180274e-02 -1.242046e+00 1.447406e-01 1.679963e+00
<VARIANCE> 25
 2.080623e+01 2.498703e+01 7.399269e+01 4.386897e+01 4.689863e+01 4.580864e+01 3.751639e+01 4.491271e+01 4.139995e+01 4.058692e+01 4.224023e+01 2.823833e+01 3.301782e+00 5.446575e+00 6.336133e+00 7.406701e+00 5.055339e+00 3.653908e+00 4.860021e+00 7.689661e+00 4.570189e+00 4.965355e+00 4.704058e+00 3.458786e+00 4.864472e+00
<GCONST> 1.106671e+02
<TRANSP> 5
 0.000000e+00 1.000000e+00 0.000000e+00 0.000000e+00 0.000000e+00
 0.000000e+00 6.937495e-01 3.062506e-01 0.000000e+00 0.000000e+00
 0.000000e+00 0.000000e+00 4.681523e-01 5.318477e-01 0.000000e+00
 0.000000e+00 0.000000e+00 0.000000e+00 2.654046e-01 7.345954e-01
 0.000000e+00 0.000000e+00 0.000000e+00 0.000000e+00 0.000000e+00
<ENDHMM>
~h "w"
<BEGINHMM>
<NUMSTATES> 5
<STATE> 2
<MEAN> 25
 9.400218e+00 8.908811e+00 2.311259e+00 -7.327289e+00 -2.326561e+00 -6.643893e+00 -5.338136e+00 -1.744021e+00 -7.579791e+00 5.130402e-01 -1.798180e+00 4.482997e-01 1.787410e-01 6.184866e-02 -5.212395e-01 -5.791897e-01 -2.482724e-01 -4.563006e-01 4.878128e-01 5.708093e-01 -5.637456e-02 -2.496266e-01 3.089429e-01 3.754456e-03 1.031162e-01
<VARIANCE> 25
 3.687840e+00 7.633862e+00 4.771640e+01 1.360334e+01 1.734037e+01 2.721807e+01 2.765988e+01 6.705965e+01 4.153112e+01 5.991996e+01 2.895614e+01 3.165953e+01 2.130006e-01 5.973496e-01 1.022966e+00 1.911095e+00 6.715301e-01 1.280166e+00 1.660414e+00 9.473952e-01 1.325799e+00 2.796755e+00 1.351677e+00 1.098348e+00 4.234055e-01
<GCONST> 8.383959e+01
<STATE> 3
<MEAN> 25
 8.016783e+00 1.109940e+00 -3.040669e+00 -1.642447e+01 2.469388e+00 -4.837224e+00 4.276769e-01 -5.381870e-01 -1.364555e+00 2.427130e+00 1.801305e+00 -2.892294e+00 -5.785357e-01 -2.282732e+00 -3.984520e-01 -4.442551e-01 1.540441e+00 7.545380e-01 9.043615e-01 -7.346662e-01 1.455157e+00 -3.871290e-01 -4.934440e-01 -1.108845e+00 1.456047e+00
<VARIANCE> 25
 1.117072e+01 3.883998e+01 3.010437e+01 1.825251e+01 5.092937e+01 5.079282e+01 3.745065e+01 6.378939e+01 5.146766e+01 1.098250e+02 4.618786e+01 4.564565e+01 4.093715e-01 7.981707e-01 1.418632e+00 3.757779e+00 1.576264e+00 1.650573e+00 3.108166e+00 2.677750e+00 3.849833e+00 6.291926e+00 8.254326e+00 4.868160e+00 6.349639e-01
<GCONST> 1.003156e+02
<STATE> 4
<MEAN> 25
 2.468766e+00 -8.581147e+00 -5.355777e+00 -1.073573e+01 4.057379e+00 -1.751133e+00 6.717524e+00 -7.147968e-01 4.723656e-02 6.323040e-01 3.316956e+00 -1.982960e-01 -2.308896e-01 -3.358615e-01 -9.781348e-02 3.638844e-01 -6.031333e-02 1.687265e-01 1.084607e-01 2.927260e-02 -4.270653e-02 1.818650e-01 1.583944e-01 3.856537e-01 -1.029849e-01
<VARIANCE> 25
 1.175878e+01 2.853932e+01 2.401670e+01 2.424880e+01 4.155433e+01 3.922705e+01 3.290623e+01 2.887222e+01 2.642871e+01 3.758390e+01 4.450443e+01 3.563757e+01 1.622815e-01 5.061314e-01 4.660437e-01 4.490284e-01 7.998309e-01 9.467050e-01 8.715177e-01 1.359450e+00 9.257065e-01 2.096734e+00 1.548533e+00 1.228057e+00 2.436948e-01
<GCONST> 8.237484e+01
<TRANSP> 5
 0.000000e+00 1.000000e+00 0.000000e+00 0.000000e+00 0.000000e+00
 0.000000e+00 8.989905e-01 1.010095e-01 0.000000e+00 0.000000e+00
 0.000000e+00 0.000000e+00 8.444799e-01 1.555202e-01 0.000000e+00
 0.000000e+00 0.000000e+00 0.000000e+00 9.237204e-01 7.627964e-02
 0.000000e+00 0.000000e+00 0.000000e+00 0.000000e+00 0.000000e+00
<ENDHMM>
~h "y"
<BEGINHMM>
<NUMSTATES> 5
<STATE> 2
<MEAN> 25
 2.311377e+00 -3.842262e-01 9.585218e+00 -1.033585e+01 -8.927379e+00 -3.026912e+00 3.674707e-01 -5.580180e+00 -4.253296e+00 1.761761e+00 -3.227430e+00 1.206517e+00 -2.506984e-01 1.155532e+00 1.026190e+00 -5.831636e-01 -5.893385e-01 1.553146e-01 -9.264464e-01 -8.030915e-01 2.915846e-01 1.179195e+00 -4.571218e-02 1.810581e-01 -3.469545e-01
<VARIANCE> 25
 2.136001e+01 4.609476e+01 3.739555e+01 3.141857e+01 6.745567e+01 1.653569e+01 8.828383e+01 4.581301e+01 5.589757e+01 4.185133e+01 3.052131e+01 3.205633e+01 1.788642e-01 1.371385e+00 1.393498e+00 1.141049e+00 2.791249e+00 1.258569e+00 3.668617e+00 2.625522e+00 1.775310e+00 3.538493e+00 1.451807e+00 2.330307e+00 2.720712e-01
<GCONST> 9.420859e+01
<STATE> 3
<MEAN> 25
 1.561703e-01 -1.260507e-01 1.156411e+01 -1.442336e+01 -1.121290e+01 -4.713451e+00 2.749439e+00 -4.801153e+00 -2.299189e+00 6.441022e+00 -1.968242e+00 -3.289701e-01 2.969173e-01 -2.121279e+00 -1.883424e+00 1.391529e-01 -2.920245e-01 -2.261305e-01 2.809584e+00 1.808953e+00 -9.198758e-02 -1.090554e+00 1.900671e-01 -8.006355e-01 9.739246e-01
<VARIANCE> 25
 2.074038e+01 2.587818e+01 3.811080e+01 3.603704e+01 6.281255e+01 1.725142e+01 8.522237e+01 4.630095e+01 4.548909e+01 3.945051e+01 3.221079e+01 3.365711e+01 4.117584e-01 1.192507e+00 2.733909e+00 2.503857e+00 5.987450e+00 2.102674e+00 3.014627e+00 2.739577e+00 2.478376e+00 5.683612e+00 2.416450e+00 2.228403e+00 3.229263e-01
<GCONST> 9.826187e+01
<STATE> 4
<MEAN> 25
 4.351584e+00 -8.660947e+00 -2.466730e-01 -1.062963e+01 -4.997509e+00 -4.290874e+00 8.426612e+00 1.826084e+00 -3.673779e+00 -4.482291e+00 -4.892922e+00 -5.705702e-02 5.377105e-01 -1.650921e+00 -2.221045e+00 8.416677e-01 3.323574e+00 5.333211e-01 1.050594e-02 -3.147004e-01 3.700997e-01 -2.021919e+00 -7.153627e-01 6.055765e-01 2.113452e-01
<VARIANCE> 25
 3.278358e+01 1.748666e+01 2.190841e+01 5.164815e+01 9.670574e+01 1.292892e+01 4.117642e+01 3.095065e+01 7.136412e+01 2.919357e+01 4.097912e+01 2.030203e+01 3.223322e-01 8.599384e-01 1.310879e+00 1.909867e+00 2.793053e+00 1.457439e+00 2.609892e+00 2.699313e+00 1.592218e+00 3.325970e+00 1.908344e+00 2.004687e+00 1.141359e-01
<GCONST> 9.180558e+01
<TRANSP> 5
 0.000000e+00 1.000000e+00 0.000000e+00 0.000000e+00 0.000000e+00
 0.000000e+00 8.609734e-01 1.390266e-01 0.000000e+00 0.000000e+00
 0.000000e+00 0.000000e+00 7.358606e-01 2.641394e-01 0.000000e+00
 0.000000e+00 0.000000e+00 0.000000e+00 6.521884e-01 3.478115e-01
 0.000000e+00 0.000000e+00 0.000000e+00 0.000000e+00 0.000000e+00
<ENDHMM>
~h "aa"
<BEGINHMM>
<NUMSTATES> 5
<STATE> 2
<MEAN> 25
 3.469312e+00 -4.725281e+00 -1.746946e+00 -3.086503e+00 1.596282e+00 -2.167066e+00 5.804069e-01 -1.006275e+00 -9.533750e-01 -3.043898e+00 -2.687442e+00 -5.224349e-01 6.645176e-01 -1.709701e+00 -8.415095e-01 -1.366584e+00 9.873316e-01 1.450674e-01 3.698823e-01 -3.869824e-01 -4.596051e-01 -8.371382e-01 -5.381510e-01 9.522025e-02 1.608154e+00
<VARIANCE> 25
 2.945000e+01 5.208667e+01 4.045693e+01 5.857324e+01 5.144673e+01 3.943369e+01 7.090685e+01 5.486475e+01 3.752539e+01 4.079175e+01 4.578915e+01 2.814030e+01 2.395040e+00 3.201086e+00 3.069985e+00 4.397097e+00 4.330319e+00 4.331183e+00 5.177409e+00 6.184864e+00 3.340736e+00 3.764409e+00 4.043644e+00 2.435633e+00 2.469694e+00
<GCONST> 1.081898e+02
<STATE> 3
<MEAN> 25
 2.820410e+00 -1.141371e+01 -3.875096e+00 -7.013635e+00 6.292275e+00 -7.161155e-01 6.377842e+00 -1.072008e+00 -6.096445e-01 -4.660789e+00 -2.381747e+00 1.708348e-01 3.482760e-01 3.340755e-01 4.879157e-02 6.735101e-01 -2.017203e-01 1.371054e-01 -5.359679e-01 1.156759e-01 -3.446223e-01 -1.865308e-01 -6.371710e-02 5.806533e-02 -6.291027e-01
<VARIANCE> 25
 1.423583e+01 2.268824e+01 2.614006e+01 3.794451e+01 3.668763e+01 3.253269e+01 4.851955e+01 4.247332e+01 4.108603e+01 3.131461e+01 4.477809e+01 2.686252e+01 5.418690e-01 1.556342e+00 1.217529e+00 1.800916e+00 2.491163e+00 2.062103e+00 2.727727e+00 2.448133e+00 2.227290e+00 2.122997e+00 1.799586e+00 1.790242e+00 1.087940e+00
<GCONST> 9.454966e+01
<STATE> 4
<MEAN> 25
 9.318238e+00 -9.145642e+00 -7.158557e+00 -2.880820e+00 9.779032e-01 -1.963311e+00 -4.915641e+00 -9.684197e-01 -5.406305e+00 -9.460788e+00 -6.137265e+00 2.249738e+00 -1.101911e-01 6.875324e-01 2.163959e-01 2.558503e-01 -4.607854e-01 -1.941449e-01 -2.314229e-01 -9.517378e-02 -3.856465e-03 -5.822270e-02 1.769676e-01 -2.053796e-01 -5.323302e-01
<VARIANCE> 25
 1.885016e+01 2.736717e+01 2.354380e+01 2.913358e+01 3.126548e+01 2.953483e+01 4.403725e+01 3.012351e+01 2.682053e+01 2.855346e+01 3.209267e+01 2.757197e+01 3.611291e-01 1.259795e+00 1.043665e+00 1.254789e+00 1.847062e+00 1.549077e+00 1.890369e+00 1.721403e+00 1.573298e+00 1.815247e+00 1.773480e+00 1.500928e+00 3.900451e-01
<GCONST> 8.896857e+01
<TRANSP> 5
 0.000000e+00 1.000000e+00 0.000000e+00 0.000000e+00 0.000000e+00
 0.000000e+00 6.984640e-01 3.015361e-01 0.000000e+00 0.000000e+00
 0.000000e+00 0.000000e+00 8.209138e-01 1.790862e-01 0.000000e+00
 0.000000e+00 0.000000e+00 0.000000e+00 7.760273e-01 2.239728e-01
 0.000000e+00 0.000000e+00 0.000000e+00 0.000000e+00 0.000000e+00
<ENDHMM>
~h "ao"
<BEGINHMM>
<NUMSTATES> 5
<STATE> 2
<MEAN> 25
 4.882466e+00 -1.285124e-01 -6.143513e+00 -1.463287e+01 3.298805e+00 -2.232111e+00 7.773916e-01 -4.284777e+00 -2.960853e+00 7.890599e+00 9.652962e-01 -2.669518e+00 2.454908e-01 -8.380247e-01 -3.525954e-01 -2.004104e+00 -6.032603e-01 5.486462e-02 5.887172e-01 -3.297437e-02 5.184087e-01 -1.909404e-01 1.818985e-01 -6.054330e-01 8.761452e-01
<VARIANCE> 25
 1.192163e+01 1.330668e+01 2.037501e+01 6.810683e+01 3.348027e+01 2.184512e+01 3.554337e+01 2.526717e+01 3.061756e+01 4.517815e+01 2.399809e+01 2.109965e+01 5.804726e-01 7.064887e-01 8.976735e-01 8.029182e+00 3.231486e+00 2.340261e+00 2.686126e+00 1.495162e+00 3.349985e+00 5.707049e+00 1.633785e+00 1.660695e+00 8.774273e-01
<GCONST> 9.341889e+01
<STATE> 3
<MEAN> 25
 6.189945e+00 -3.003609e-02 2.437376e+00 -1.581272e+01 -2.120920e+00 -6.002736e+00 2.493736e-01 5.421679e+00 -3.653656e+00 -4.228615e+00 -4.029974e+00 -7.092247e+00 3.434130e-01 -2.297564e-01 1.657050e-01 5.763938e-01 -6.855314e-01 -4.536034e-01 -4.069772e-01 1.232881e+00 9.401692e-01 1.594463e-01 -2.132089e-01 -8.373726e-01 2.178897e-01
<VARIANCE> 25
 9.643371e+00 1.887066e+01 5.142625e+01 2.498028e+01 2.926631e+01 3.182594e+01 4.039021e+01 8.593954e+01 5.146131e+01 6.160573e+01 3.917916e+01 1.931313e+01 4.260812e-01 1.730056e+00 1.732462e+00 3.962833e+00 4.412517e+00 1.920696e+00 2.912882e+00 2.249222e+00 3.048110e+00 5.305193e+00 3.674179e+00 9.719902e-01 3.863385e-01
<GCONST> 9.673199e+01
<STATE> 4
<MEAN> 25
 1.172688e+01 -1.119937e+00 -6.757168e+00 -1.357854e+01 -3.256439e+00 3.459563e-01 -5.406215e+00 -3.954562e+00 3.907251e+00 3.326168e+00 -1.201312e-01 -4.662407e+00 7.193594e-02 -4.640242e-01 -2.434905e-02 8.553317e-01 -5.928727e-01 -1.275004e-01 1.344271e-01 2.682075e-01 3.649564e-01 -4.014625e-01 -3.280548e-01 3.035546e-01 -9.985824e-02
<VARIANCE> 25
 1.575915e+01 1.903831e+01 1.590857e+01 2.848319e+01 5.134569e+01 2.871742e+01 9.141478e+01 6.069969e+01 5.277125e+01 3.808813e+01 2.696618e+01 2.816513e+01 1.197141e-01 7.337672e-01 6.204663e-01 2.907018e+00 1.863580e+00 1.524322e+00 1.290659e+00 1.732298e+00 2.302827e+00 2.846045e+00 2.313167e+00 1.200905e+00 1.074376e-01
<GCONST> 8.860012e+01
<TRANSP> 5
 0.000000e+00 1.000000e+00 0.000000e+00 0.000000e+00 0.000000e+00
 0.000000e+00 8.042272e-01 1.957728e-01 0.000000e+00 0.000000e+00
 0.000000e+00 0.000000e+00 6.755988e-01 3.244012e-01 0.000000e+00
 0.000000e+00 0.000000e+00 0.000000e+00 8.260697e-01 1.739303e-01
 0.000000e+00 0.000000e+00 0.000000e+00 0.000000e+00 0.000000e+00
<ENDHMM>
~h "eh"
<BEGINHMM>
<NUMSTATES> 5
<STATE> 2
<MEAN> 25
 2.252694e+00 -9.334236e-01 -1.862150e+00 -1.173838e+00 -2.006244e+00 -2.275422e+00 4.670526e-01 -6.636823e-01 1.496194e+00 9.395553e-01 -4.306699e-01 -3.731668e-01 1.582093e+00 -6.796350e-01 -4.456773e-01 -1.347752e+00 -5.526670e-01 -1.870416e+00 -7.131973e-01 -1.724428e-01 1.037843e-01 -4.829209e-01 -1.182312e+00 -1.768367e-01 1.695150e+00
<VARIANCE> 25
 2.973497e+01 2.331135e+01 3.391220e+01 3.894297e+01 3.539730e+01 5.246791e+01 3.995461e+01 3.908075e+01 3.634703e+01 4.347821e+01 4.243796e+01 1.925759e+01 3.246362e+00 2.580889e+00 2.460969e+00 4.785337e+00 3.645587e+00 4.930791e+00 4.049241e+00 4.772602e+00 4.285631e+00 4.803512e+00 5.732090e+00 2.494720e+00 3.324683e+00
<GCONST> 1.059541e+02
<STATE> 3
<MEAN> 25
 6.825410e+00 -2.285904e+00 5.485642e-01 -3.964176e+00 -5.550562e+00 -5.673636e+00 2.085339e+00 1.694555e-01 -3.329542e+00 -2.608425e+00 -4.890584e+00 6.297679e-01 -3.833715e-02 -3.946750e-01 3.428466e-01 -3.899805e-02 3.720520e-01 -4.263026e-01 -1.469360e-02 7.083035e-01 -2.918029e-01 -2.663790e-01 3.301350e-02 2.421646e-01 3.536219e-01
<VARIANCE> 25
 3.290924e+01 5.844602e+01 4.235929e+01 5.560439e+01 6.250270e+01 5.918017e+01 6.250086e+01 5.463263e+01 7.097575e+01 5.455037e+01 5.695167e+01 3.050455e+01 2.173177e+00 4.361869e+00 2.257036e+00 2.996646e+00 4.078530e+00 3.499319e+00 3.404467e+00 5.076842e+00 3.153955e+00 3.548398e+00 3.241737e+00 2.790484e+00 3.405321e+00
<GCONST> 1.088579e+02
<STATE> 4
<MEAN> 25
 4.398784e+00 9.363848e-01 -4.265360e-01 -9.804230e-01 -4.682874e+00 -8.689296e+00 -8.412439e-01 6.232299e-01 -8.162688e-01 -2.412291e+00 -3.143326e+00 -2.167050e-01 -1.522439e+00 1.344382e+00 -3.452468e-01 1.506464e+00 5.171252e-01 1.043490e+00 3.067280e-01 -4.389723e-01 -2.364902e-01 3.071026e-01 8.535800e-01 -6.928563e-01 -4.421164e-01
<VARIANCE> 25
 3.581538e+01 6.153157e+01 1.787900e+01 4.978840e+01 3.115017e+01 5.940993e+01 5.233520e+01 4.197865e+01 6.436713e+01 4.142586e+01 3.125299e+01 3.335810e+01 3.276448e+00 3.855543e+00 1.264500e+00 3.292732e+00 2.349647e+00 4.737366e+00 3.765113e+00 3.362971e+00 2.661704e+00 2.124705e+00 2.206105e+00 2.555460e+00 8.086571e-01
<GCONST> 1.026530e+02
<TRANSP> 5
 0.000000e+00 1.000000e+00 0.000000e+00 0.000000e+00 0.000000e+00
 0.000000e+00 6.162717e-01 3.837282e-01 0.000000e+00 0.000000e+00
 0.000000e+00 0.000000e+00 5.703359e-01 4.296642e-01 0.000000e+00
 0.000000e+00 0.000000e+00 0.000000e+00 6.504452e-01 3.495549e-01
 0.000000e+00 0.000000e+00 0.000000e+00 0.000000e+00 0.000000e+00
<ENDHMM>
~h "hh"
<BEGINHMM>
<NUMSTATES> 5
<STATE> 2
<MEAN> 25
 -1.227888e+00 -1.469840e+00 -3.416788e+00 1.637512e+00 2.880889e+00 1.929320e-01 -1.247848e-01 -2.167749e+00 -1.440829e-01 4.181659e-01 2.602462e+00 7.443385e-01 -1.095732e-01 2.282552e-01 4.041050e-01 1.909600e-01 -1.195410e-02 5.106750e-01 3.371932e-01 3.286536e-01 1.527627e-01 9.679200e-02 1.667620e-03 7.854175e-02 -4.152459e-01
<VARIANCE> 25
 3.284964e+00 5.088830e+00 5.847315e+00 1.896671e+01 1.116895e+01 1.906945e+01 1.505204e+01 1.315423e+01 2.176842e+01 2.879729e+01 2.034736e+01 1.786135e+01 2.646052e-01 4.228544e-01 5.252093e-01 1.028441e+00 1.068804e+00 1.178852e+00 1.207909e+00 1.497793e+00 1.520607e+00 1.864163e+00 1.240317e+00 1.421749e+00 1.337255e-01
<GCONST> 7.407285e+01
<STATE> 3
<MEAN> 25
 1.174709e+00 5.574692e-01 5.454685e-01 4.676779e+00 1.379235e+00 2.240997e+00 -3.393461e-01 7.719418e-01 1.721067e-01 -3.526297e-01 2.405788e+00 4.413498e-01 -1.469040e-02 2.262603e-02 8.977530e-02 4.211634e-02 -5.186423e-02 -1.909070e-02 2.155413e-02 6.714655e-02 3.656081e-02 -3.096860e-02 -3.945089e-02 8.272042e-02 -3.253405e-02
<VARIANCE> 25
 2.423864e+00 2.754961e+00 4.956590e+00 7.710293e+00 9.497489e+00 1.205861e+01 1.151512e+01 1.547513e+01 1.322718e+01 1.730121e+01 1.158465e+01 1.654953e+01 1.567011e-01 2.198708e-01 4.240687e-01 6.891901e-01 8.242505e-01 1.024384e+00 1.057309e+00 1.493986e+00 1.582119e+00 1.714040e+00 1.391018e+00 1.246157e+00 3.608918e-02
<GCONST> 6.601748e+01
<STATE> 4
<MEAN> 25
 -5.934025e+00 8.016306e-01 1.825039e+00 1.748414e+00 2.549607e+00 2.963006e+00 4.144284e+00 2.417625e+00 4.095213e+00 3.722958e+00 3.231154e+00 -2.849335e-01 -4.491918e-02 -3.270269e-03 5.064816e-02 3.018827e-02 -1.091207e-02 -1.026047e-02 4.900917e-02 6.301164e-02 6.992865e-02 6.895555e-02 1.939733e-02 -1.285939e-02 2.034570e-02
<VARIANCE> 25
 2.510588e+00 2.639534e+00 4.576401e+00 6.782707e+00 9.557415e+00 1.422851e+01 1.043821e+01 1.343948e+01 1.529516e+01 1.372956e+01 1.157872e+01 1.146814e+01 1.196418e-01 2.222164e-01 4.537538e-01 5.721300e-01 9.064166e-01 1.125350e+00 1.137087e+00 1.484784e+00 1.844718e+00 1.419688e+00 1.169250e+00 1.280489e+00 3.017710e-02
<GCONST> 6.479872e+01
<TRANSP> 5
 0.000000e+00 1.000000e+00 0.000000e+00 0.000000e+00 0.000000e+00
 0.000000e+00 8.709112e-01 1.290889e-01 0.000000e+00 0.000000e+00
 0.000000e+00 0.000000e+00 9.346756e-01 6.532449e-02 0.000000e+00
 0.000000e+00 0.000000e+00 0.000000e+00 9.584368e-01 4.156324e-02
 0.000000e+00 0.000000e+00 0.000000e+00 0.000000e+00 0.000000e+00
<ENDHMM>
~h "ih"
<BEGINHMM>
<NUMSTATES> 5
<STATE> 2
<MEAN> 25
 9.808902e-01 5.476517e+00 9.953526e+00 -4.948405e+00 -3.214367e+00 -3.409335e+00 -5.406815e+00 -3.744193e+00 1.251910e-01 -1.577399e+00 -3.472748e+00 -9.899590e-01 -7.831767e-02 1.645373e-01 6.775098e-01 -5.374026e-01 -5.562540e-03 -1.587485e-01 -6.305599e-01 2.477716e-02 -4.969409e-02 -2.931338e-01 -3.554195e-01 -4.573094e-02 1.729503e-01
<VARIANCE> 25
 2.831836e+01 8.539106e+01 7.853339e+01 1.649302e+02 6.749783e+01 4.790287e+01 5.636165e+01 5.346373e+01 5.082781e+01 4.262506e+01 3.209057e+01 3.817207e+01 2.505829e+00 3.131517e+00 4.858175e+00 9.673981e+00 5.372361e+00 4.090882e+00 4.960786e+00 4.596603e+00 5.188973e+00 4.998122e+00 3.490159e+00 2.978826e+00 3.228287e+00
<GCONST> 1.129865e+02
<STATE> 3
<MEAN> 25
 5.550265e-01 5.239857e+00 1.093859e+01 -8.284490e+00 -4.160638e+00 -3.617981e+00 -7.875363e+00 -5.938050e+00 -2.363581e+00 -4.445413e-01 -4.278704e+00 -2.248085e-01 5.385029e-02 -7.571455e-02 -4.886169e-01 5.026623e-01 4.060855e-01 9.563405e-02 1.189599e-01 1.864729e-01 1.817389e-01 -5.773076e-02 3.778281e-01 8.192155e-02 -4.225039e-01
<VARIANCE> 25
 1.689544e+01 2.888087e+01 4.117560e+01 9.602050e+01 7.429761e+01 3.593781e+01 3.847463e+01 4.818292e+01 4.363052e+01 4.079591e+01 2.635504e+01 3.679089e+01 4.602153e-01 6.959431e-01 1.293666e+00 3.203542e+00 2.064501e+00 1.740724e+00 1.880852e+00 2.156533e+00 1.778507e+00 1.670736e+00 1.741704e+00 1.563773e+00 5.209034e-01
<GCONST> 9.459708e+01
<STATE> 4
<MEAN> 25
 -1.064867e+00 1.684825e+00 1.750391e+00 3.607088e+00 6.895057e-01 1.673077e+00 1.646791e-01 9.496593e-01 1.594308e+00 5.606202e-01 1.752735e+00 2.724815e-01 -1.046553e-02 -6.036005e-02 -2.141332e-01 1.334632e-01 6.717154e-02 9.288102e-02 1.554107e-01 2.455433e-02 -8.489103e-03 5.220351e-02 1.067664e-01 -3.177729e-02 -5.437524e-02
<VARIANCE> 25
 1.306343e+01 1.299809e+01 1.655280e+01 2.161503e+01 1.869792e+01 1.956677e+01 2.594530e+01 2.422273e+01 2.260710e+01 2.140421e+01 1.813454e+01 1.496148e+01 1.847742e-01 3.996375e-01 7.084565e-01 1.032956e+00 1.121035e+00 1.265335e+00 1.445022e+00 1.435685e+00 1.437720e+00 1.454305e+00 1.316764e+00 1.325762e+00 1.111173e-01
<GCONST> 7.835105e+01
<TRANSP> 5
 0.000000e+00 1.000000e+00 0.000000e+00 0.000000e+00 0.000000e+00
 0.000000e+00 7.854627e-01 2.145373e-01 0.000000e+00 0.000000e+00
 0.000000e+00 0.000000e+00 8.493241e-01 1.506759e-01 0.000000e+00
 0.000000e+00 0.000000e+00 0.000000e+00 8.895324e-01 1.104677e-01
 0.000000e+00 0.000000e+00 0.000000e+00 0.000000e+00 0.000000e+00
<ENDHMM>
~h "ng"
<BEGINHMM>
<NUMSTATES> 5
<STATE> 2
<MEAN> 25
 3.832969e+00 -2.618469e+00 4.965838e-01 -1.480359e+00 4.342624e+00 -8.559856e+00 -2.474613e-01 -3.268628e+00 5.206762e-01 -1.165984e+00 1.418149e+00 -4.605558e+00 -2.782357e-01 -1.756090e-01 1.941113e-01 5.528585e-01 5.307476e-01 -1.943009e-01 -7.015628e-01 -7.868518e-02 5.690515e-01 1.428433e-01 6.501462e-01 -1.153860e-01 -1.115410e-01
<VARIANCE> 25
 8.329772e+00 4.612053e+01 3.621255e+01 4.950597e+01 3.961971e+01 4.522621e+01 5.483022e+01 5.409191e+01 4.484538e+01 4.072573e+01 6.467188e+01 4.034939e+01 5.564144e-01 8.113988e-01 1.073941e+00 1.324699e+00 1.524790e+00 1.760760e+00 2.268882e+00 2.212458e+00 1.634161e+00 2.415400e+00 1.518583e+00 1.783296e+00 5.064880e-01
<GCONST> 9.409969e+01
<STATE> 3
<MEAN> 25
 2.284573e+00 8.032539e-02 2.798112e+00 4.386785e+00 7.283578e+00 -3.624667e+00 -2.368500e+00 -1.129886e+00 3.548310e+00 -1.248932e+00 9.319027e-01 -3.933311e+00 -1.284934e-01 2.391012e-01 -1.262188e-01 1.138923e-01 -3.803819e-01 7.876619e-01 4.173210e-01 4.291322e-01 1.127792e-01 2.313091e-01 -1.242862e-01 3.821505e-01 -5.683514e-01
<VARIANCE> 25
 9.807949e+00 3.604026e+01 4.000495e+01 2.579282e+01 3.298671e+01 4.096630e+01 3.283846e+01 4.019737e+01 4.802644e+01 2.822207e+01 6.153076e+01 2.908322e+01 5.996289e-01 2.052330e+00 1.538441e+00 1.246211e+00 1.173014e+00 2.091701e+00 2.457224e+00 2.069013e+00 2.252539e+00 2.047421e+00 2.746846e+00 1.252622e+00 9.758664e-01
<GCONST> 9.397164e+01
<STATE> 4
<MEAN> 25
 -9.242097e-01 1.240324e-01 -2.883286e+00 3.229949e+00 -1.074268e+00 2.786685e+00 1.963358e+00 7.007887e-01 5.962902e-02 2.797006e+00 7.763568e-01 1.959607e+00 -5.923988e-02 -4.037716e-03 -2.272653e-02 -1.919351e-02 -6.995229e-02 1.426094e-02 -2.205867e-02 2.032209e-02 -4.306294e-03 4.060635e-02 1.714519e-02 3.365137e-02 -5.807506e-02
<VARIANCE> 25
 7.504076e+00 7.739981e+00 2.187307e+01 1.399808e+01 1.614041e+01 1.193531e+01 1.704749e+01 1.434237e+01 1.462821e+01 2.270480e+01 1.451529e+01 1.635542e+01 1.304881e-01 2.575443e-01 4.224420e-01 7.702712e-01 8.006874e-01 8.562322e-01 1.085829e+00 9.377762e-01 1.121027e+00 1.123748e+00 1.237260e+00 9.709377e-01 1.120101e-01
<GCONST> 7.111829e+01
<TRANSP> 5
 0.000000e+00 1.000000e+00 0.000000e+00 0.000000e+00 0.000000e+00
 0.000000e+00 7.300057e-01 2.699943e-01 0.000000e+00 0.000000e+00
 0.000000e+00 0.000000e+00 7.988831e-01 2.011169e-01 0.000000e+00
 0.000000e+00 0.000000e+00 0.000000e+00 9.511283e-01 4.887173e-02
 0.000000e+00 0.000000e+00 0.000000e+00 0.000000e+00 0.000000e+00
<ENDHMM>
~h "oh"
<BEGINHMM>
<NUMSTATES> 5
<STATE> 2
<MEAN> 25
 4.876313e-08 -1.572510e-08 -3.479018e-08 -3.353887e-08 3.894225e-08 5.448882e-08 6.837960e-09 -3.357679e-08 -9.075150e-09 1.238669e-09 6.825321e-10 3.043588e-08 1.480543e-02 -2.130302e-03 7.752344e-03 -2.168820e-03 1.143337e-02 -2.309903e-03 4.269884e-03 -3.775733e-03 -3.292339e-03 -9.014427e-04 -3.430429e-03 -3.983431e-03 3.762102e-02
<VARIANCE> 25
 4.782532e+01 4.486550e+01 4.720150e+01 6.892854e+01 4.782745e+01 4.025578e+01 4.904441e+01 4.112494e+01 4.163441e+01 4.402450e+01 3.629408e+01 2.461185e+01 1.112554e+00 1.522353e+00 1.617351e+00 2.656559e+00 2.172489e+00 2.083682e+00 2.429415e+00 2.410789e+00 2.262104e+00 2.509146e+00 2.111452e+00 1.695109e+00 1.480569e+00
<GCONST> 9.985252e+01
<STATE> 3
<MEAN> 25
 4.876313e-08 -1.572510e-08 -3.479018e-08 -3.353887e-08 3.894225e-08 5.448882e-08 6.837960e-09 -3.357679e-08 -9.075150e-09 1.238669e-09 6.825321e-10 3.043588e-08 1.480543e-02 -2.130302e-03 7.752344e-03 -2.168820e-03 1.143337e-02 -2.309903e-03 4.269884e-03 -3.775733e-03 -3.292339e-03 -9.014427e-04 -3.430429e-03 -3.983431e-03 3.762102e-02
<VARIANCE> 25
 4.782532e+01 4.486550e+01 4.720150e+01 6.892854e+01 4.782745e+01 4.025578e+01 4.904441e+01 4.112494e+01 4.163441e+01 4.402450e+01 3.629408e+01 2.461185e+01 1.112554e+00 1.522353e+00 1.617351e+00 2.656559e+00 2.172489e+00 2.083682e+00 2.429415e+00 2.410789e+00 2.262104e+00 2.509146e+00 2.111452e+00 1.695109e+00 1.480569e+00
<GCONST> 9.985252e+01
<STATE> 4
<MEAN> 25
 4.876313e-08 -1.572510e-08 -3.479018e-08 -3.353887e-08 3.894225e-08 5.448882e-08 6.837960e-09 -3.357679e-08 -9.075150e-09 1.238669e-09 6.825321e-10 3.043588e-08 1.480543e-02 -2.130302e-03 7.752344e-03 -2.168820e-03 1.143337e-02 -2.309903e-03 4.269884e-03 -3.775733e-03 -3.292339e-03 -9.014427e-04 -3.430429e-03 -3.983431e-03 3.762102e-02
<VARIANCE> 25
 4.782532e+01 4.486550e+01 4.720150e+01 6.892854e+01 4.782745e+01 4.025578e+01 4.904441e+01 4.112494e+01 4.163441e+01 4.402450e+01 3.629408e+01 2.461185e+01 1.112554e+00 1.522353e+00 1.617351e+00 2.656559e+00 2.172489e+00 2.083682e+00 2.429415e+00 2.410789e+00 2.262104e+00 2.509146e+00 2.111452e+00 1.695109e+00 1.480569e+00
<GCONST> 9.985252e+01
<TRANSP> 5
 0.000000e+00 1.000000e+00 0.000000e+00 0.000000e+00 0.000000e+00
 0.000000e+00 6.000000e-01 4.000000e-01 0.000000e+00 0.000000e+00
 0.000000e+00 0.000000e+00 6.000000e-01 4.000000e-01 0.000000e+00
 0.000000e+00 0.000000e+00 0.000000e+00 7.000000e-01 3.000000e-01
 0.000000e+00 0.000000e+00 0.000000e+00 0.000000e+00 0.000000e+00
<ENDHMM>
~h "sp"
<BEGINHMM>
<NUMSTATES> 3
<STATE> 2
~s "silst"
<TRANSP> 3
 0.000000e+00 1.199605e-02 9.880040e-01
 0.000000e+00 9.432032e-01 5.679688e-02
 0.000000e+00 0.000000e+00 0.000000e+00
<ENDHMM>
~h "uw"
<BEGINHMM>
<NUMSTATES> 5
<STATE> 2
<MEAN> 25
 4.974776e+00 1.187024e+00 -4.555107e+00 -1.099766e+01 1.327742e+00 -4.409280e+00 -3.444374e+00 -3.477613e+00 -2.187285e+00 3.470292e+00 1.122622e+00 -7.189315e-01 9.596685e-01 3.669089e-01 -7.558439e-01 -2.133615e+00 1.367418e-01 4.353481e-01 3.240793e-01 -5.553555e-01 -1.006373e+00 1.216674e-01 -3.068362e-01 5.820867e-03 3.782310e-01
<VARIANCE> 25
 2.006123e+01 1.646504e+01 3.015375e+01 7.084505e+01 6.647929e+01 3.896757e+01 4.048811e+01 3.280978e+01 4.394566e+01 4.520118e+01 4.244002e+01 2.957459e+01 1.606313e+00 1.489073e+00 1.621820e+00 4.975991e+00 3.851801e+00 4.116342e+00 2.615560e+00 2.972497e+00 3.697563e+00 2.956696e+00 3.055083e+00 2.933135e+00 1.881268e+00
<GCONST> 1.021854e+02
<STATE> 3
<MEAN> 25
 6.781800e+00 3.107813e+00 -3.826379e+00 -9.470288e+00 -1.915782e+00 -4.020211e+00 -3.619843e+00 -4.188198e+00 -3.954229e+00 5.489081e-01 -1.010471e+00 -1.709709e+00 -3.017704e-01 4.116553e-02 4.461897e-01 1.373349e+00 -5.852390e-02 3.953767e-02 -1.139887e-01 7.278650e-02 4.666573e-01 -9.469223e-02 1.401084e-01 8.234836e-03 -6.112782e-01
<VARIANCE> 25
 1.586734e+01 2.185338e+01 2.730774e+01 6.322866e+01 4.868505e+01 3.497261e+01 4.027367e+01 3.714152e+01 3.622145e+01 4.055005e+01 3.577540e+01 2.806606e+01 6.220750e-01 9.355416e-01 1.111703e+00 3.109954e+00 2.294354e+00 2.628133e+00 2.145873e+00 2.713565e+00 2.440740e+00 2.743910e+00 2.536608e+00 1.798853e+00 7.063164e-01
<GCONST> 9.553354e+01
<STATE> 4
<MEAN> 25
 -4.027861e-02 1.037144e+00 2.633232e-01 2.793262e+00 7.992402e-01 1.147495e+00 -2.041878e-01 1.138551e+00 1.172009e+00 8.336961e-01 1.850384e+00 2.691097e-01 -1.129465e-01 -1.054530e-02 9.412586e-02 3.304385e-01 3.170803e-02 1.103575e-01 5.134904e-02 1.163637e-01 1.504056e-01 -3.896082e-02 -2.996734e-02 -4.448374e-02 -9.387715e-02
<VARIANCE> 25
 1.595003e+01 7.867692e+00 1.011241e+01 1.979359e+01 1.359464e+01 1.880943e+01 2.268558e+01 2.151944e+01 2.034471e+01 1.898633e+01 1.906067e+01 1.374390e+01 1.596043e-01 3.050926e-01 5.628105e-01 8.560442e-01 1.051758e+00 1.301141e+00 1.476295e+00 1.559091e+00 1.681965e+00 1.625443e+00 1.379859e+00 1.213656e+00 8.900274e-02
<GCONST> 7.583491e+01
<TRANSP> 5
 0.000000e+00 1.000000e+00 0.000000e+00 0.000000e+00 0.000000e+00
 0.000000e+00 7.286783e-01 2.713217e-01 0.000000e+00 0.000000e+00
 0.000000e+00 0.000000e+00 8.692507e-01 1.307493e-01 0.000000e+00
 0.000000e+00 0.000000e+00 0.000000e+00 8.662643e-01 1.337357e-01
 0.000000e+00 0.000000e+00 0.000000e+00 0.000000e+00 0.000000e+00
<ENDHMM>
~h "sil"
<BEGINHMM>
<NUMSTATES> 5
<STATE> 2
<MEAN> 25
 -1.635501e+01 6.599223e+00 -2.674237e+00 1.069979e+01 -3.806170e+00 7.749454e+00 -3.828870e+00 8.954769e+00 9.373816e+00 3.762425e+00 5.804184e+00 2.319906e+00 -1.500758e-02 3.267454e-02 -7.604009e-03 -3.523636e-02 3.835285e-02 5.232380e-02 -3.573396e-02 -3.048538e-02 1.108603e-01 8.116162e-02 2.196697e-02 -8.381841e-02 -2.072022e-02
<VARIANCE> 25
 3.382429e+01 1.560549e+01 2.265508e+01 2.230758e+01 2.505190e+01 1.974495e+01 2.178945e+01 3.713618e+01 3.049055e+01 1.958172e+01 2.044767e+01 1.347640e+01 7.724844e-02 1.817280e-01 2.874497e-01 4.250296e-01 5.475062e-01 6.870067e-01 9.094182e-01 1.150735e+00 1.072204e+00 1.462340e+00 1.155096e+00 1.264418e+00 2.548320e-02
<GCONST> 7.320992e+01
<STATE> 3
~s "silst"
<STATE> 4
<MEAN> 25
 -4.275308e+00 1.594884e+00 3.927636e-01 3.352348e+00 2.234720e+00 3.971422e+00 3.191833e+00 2.377877e+00 3.201341e+00 3.593488e+00 2.990638e+00 7.772117e-01 -2.151121e-02 1.836783e-03 3.867894e-03 2.030910e-02 3.599633e-02 2.233072e-02 1.162245e-02 -1.505203e-02 -2.052540e-02 2.253552e-02 2.722516e-02 1.085861e-02 1.392116e-02
<VARIANCE> 25
 1.302392e+01 7.336105e+00 1.125440e+01 1.445389e+01 1.503519e+01 1.400326e+01 1.814095e+01 1.745921e+01 1.639723e+01 1.586033e+01 1.402772e+01 1.598295e+01 1.654127e-01 3.367501e-01 5.070804e-01 7.173172e-01 9.176314e-01 1.051188e+00 1.177732e+00 1.266385e+00 1.373963e+00 1.348686e+00 1.254540e+00 1.293903e+00 8.146358e-02
<GCONST> 7.273779e+01
<TRANSP> 5
 0.000000e+00 1.000000e+00 0.000000e+00 0.000000e+00 0.000000e+00
 0.000000e+00 8.805276e-01 2.981730e-02 8.965512e-02 0.000000e+00
 0.000000e+00 0.000000e+00 9.541267e-01 4.587334e-02 0.000000e+00
 0.000000e+00 6.033141e-03 0.000000e+00 9.245603e-01 6.940657e-02
 0.000000e+00 0.000000e+00 0.000000e+00 0.000000e+00 0.000000e+00
<ENDHMM>
