~o
<STREAMINFO> 1 25
<VECSIZE> 25<NULLD><MFCC_D_N_Z_0><DIAGC>
~s "silst"
<MEAN> 25
 -5.728916e+00 4.124128e+00 -9.017293e+00 3.886324e+00 -6.827021e+00 6.204260e+00 -8.068378e-01 2.239635e+00 -2.161902e+00 6.165189e+00 -4.610969e-01 3.829953e+00 1.503872e-01 -1.317483e-01 7.283638e-02 -4.133702e-02 1.474680e-01 -9.126844e-02 8.498134e-02 -1.841582e-03 -3.750796e-02 -5.911503e-02 -4.497271e-02 2.581458e-02 8.771257e-01
<VARIANCE> 25
 2.337996e+01 8.973469e+00 1.229314e+01 1.130863e+01 1.754146e+01 1.235289e+01 1.938430e+01 1.251367e+01 2.055523e+01 1.278884e+01 1.356060e+01 1.002533e+01 1.792321e+00 5.373766e-01 9.527493e-01 5.900865e-01 8.141223e-01 8.825017e-01 1.022833e+00 9.712434e-01 1.032634e+00 8.243365e-01 9.285704e-01 7.061512e-01 6.490475e+00
<GCONST> 7.791798e+01
~h "b"
<BEGINHMM>
<NUMSTATES> 5
<STATE> 2
<MEAN> 25
 1.880267e+00 4.001240e+00 1.256879e+01 -5.099130e+00 -9.036655e+00 -4.991912e+00 -3.125225e+00 -7.218715e+00 -4.792207e+00 4.830126e+00 -2.049830e+00 1.828814e+00 -9.099283e-01 -3.813702e-01 1.497327e+00 -2.197419e+00 -1.774866e+00 -7.373834e-01 5.756086e-01 -8.346388e-01 -4.415861e-01 1.735850e+00 3.619522e-01 5.611578e-01 1.284509e+00
<VARIANCE> 25
 2.628669e+01 1.288514e+01 6.640018e+01 1.053622e+02 3.807328e+01 2.770864e+01 3.302632e+01 4.605246e+01 3.894570e+01 6.142448e+01 2.455044e+01 3.809666e+01 2.043324e+00 1.501024e+00 7.765647e+00 8.637549e+00 3.118167e+00 3.258615e+00 3.717331e+00 5.889416e+00 4.573226e+00 4.358075e+00 3.446316e+00 3.303196e+00 6.787110e-01
<GCONST> 1.053025e+02
<STATE> 3
<MEAN> 25
 1.295253e+00 7.579263e-01 8.101501e+00 -6.828757e+00 -1.423990e+01 -9.858863e+00 3.550243e-01 -3.935220e+00 -2.648896e+00 4.719231e+00 1.462485e+00 3.095080e-01 6.284137e-01 -6.778567e-01 -2.526356e+00 7.214005e-01 1.510357e+00 -6.863511e-01 -9.913511e-02 1.458087e+00 1.472325e+00 -1.892014e+00 -3.390321e-01 -6.464866e-02 -4.310494e-02
<VARIANCE> 25
 2.507350e+01 1.716017e+01 3.958483e+01 2.879014e+01 4.452262e+01 3.788359e+01 5.000264e+01 3.362072e+01 4.242038e+01 4.526594e+01 2.674638e+01 4.045483e+01 5.724187e-01 1.418278e+00 2.234455e+00 2.316726e+00 4.912013e+00 2.663987e+00 4.198932e+00 3.717416e+00 3.785508e+00 4.261286e+00 2.648928e+00 3.234559e+00 4.573917e-01
<GCONST> 9.935597e+01
<STATE> 4
<MEAN> 25
 6.107991e+00 3.260046e-01 -3.718306e+00 -4.570086e+00 -3.394674e+00 -8.143803e+00 -5.122970e+00 -1.088235e+00 3.719527e+00 -4.274505e+00 -3.298202e+00 2.734602e-01 1.761848e-01 2.985879e-01 -9.248925e-01 -8.521747e-02 1.422150e+00 7.769482e-01 -7.454947e-01 -7.584118e-01 2.772852e-01 -1.273982e-01 -2.998299e-02 -4.156277e-01 -5.929863e-01
<VARIANCE> 25
 1.973457e+01 2.144445e+01 4.500199e+01 3.314685e+01 4.064343e+01 3.369422e+01 3.784792e+01 5.599437e+01 6.596202e+01 6.678692e+01 2.763925e+01 2.441168e+01 7.230427e-01 5.799875e-01 2.245761e+00 1.987191e+00 3.039872e+00 2.072820e+00 2.420441e+00 3.638857e+00 3.002949e+00 2.564610e+00 2.568519e+00 1.804436e+00 2.267748e-01
<GCONST> 9.582256e+01
<TRANSP> 5
 0.000000e+00 1.000000e+00 0.000000e+00 0.000000e+00 0.000000e+00
 0.000000e+00 8.213933e-01 1.786067e-01 0.000000e+00 0.000000e+00
 0.000000e+00 0.000000e+00 7.377195e-01 2.622804e-01 0.000000e+00
 0.000000e+00 0.000000e+00 0.000000e+00 6.917058e-01 3.082942e-01
 0.000000e+00 0.000000e+00 0.000000e+00 0.000000e+00 0.000000e+00
<ENDHMM>
~h "c"
<BEGINHMM>
<NUMSTATES> 5
<STATE> 2
<MEAN> 25
 4.876313e-08 -1.572510e-08 -3.479018e-08 -3.353887e-08 3.894225e-08 5.448882e-08 6.837960e-09 -3.357679e-08 -9.075150e-09 1.238669e-09 6.825321e-10 3.043588e-08 1.480543e-02 -2.130302e-03 7.752344e-03 -2.168820e-03 1.143337e-02 -2.309903e-03 4.269884e-03 -3.775733e-03 -3.292339e-03 -9.014427e-04 -3.430429e-03 -3.983431e-03 3.762102e-02
<VARIANCE> 25
 4.782532e+01 4.486550e+01 4.720150e+01 6.892854e+01 4.782745e+01 4.025578e+01 4.904441e+01 4.112494e+01 4.163441e+01 4.402450e+01 3.629408e+01 2.461185e+01 1.112554e+00 1.522353e+00 1.617351e+00 2.656559e+00 2.172489e+00 2.083682e+00 2.429415e+00 2.410789e+00 2.262104e+00 2.509146e+00 2.111452e+00 1.695109e+00 1.480569e+00
<GCONST> 9.985252e+01
<STATE> 3
<MEAN> 25
 4.876313e-08 -1.572510e-08 -3.479018e-08 -3.353887e-08 3.894225e-08 5.448882e-08 6.837960e-09 -3.357679e-08 -9.075150e-09 1.238669e-09 6.825321e-10 3.043588e-08 1.480543e-02 -2.130302e-03 7.752344e-03 -2.168820e-03 1.143337e-02 -2.309903e-03 4.269884e-03 -3.775733e-03 -3.292339e-03 -9.014427e-04 -3.430429e-03 -3.983431e-03 3.762102e-02
<VARIANCE> 25
 4.782532e+01 4.486550e+01 4.720150e+01 6.892854e+01 4.782745e+01 4.025578e+01 4.904441e+01 4.112494e+01 4.163441e+01 4.402450e+01 3.629408e+01 2.461185e+01 1.112554e+00 1.522353e+00 1.617351e+00 2.656559e+00 2.172489e+00 2.083682e+00 2.429415e+00 2.410789e+00 2.262104e+00 2.509146e+00 2.111452e+00 1.695109e+00 1.480569e+00
<GCONST> 9.985252e+01
<STATE> 4
<MEAN> 25
 4.876313e-08 -1.572510e-08 -3.479018e-08 -3.353887e-08 3.894225e-08 5.448882e-08 6.837960e-09 -3.357679e-08 -9.075150e-09 1.238669e-09 6.825321e-10 3.043588e-08 1.480543e-02 -2.130302e-03 7.752344e-03 -2.168820e-03 1.143337e-02 -2.309903e-03 4.269884e-03 -3.775733e-03 -3.292339e-03 -9.014427e-04 -3.430429e-03 -3.983431e-03 3.762102e-02
<VARIANCE> 25
 4.782532e+01 4.486550e+01 4.720150e+01 6.892854e+01 4.782745e+01 4.025578e+01 4.904441e+01 4.112494e+01 4.163441e+01 4.402450e+01 3.629408e+01 2.461185e+01 1.112554e+00 1.522353e+00 1.617351e+00 2.656559e+00 2.172489e+00 2.083682e+00 2.429415e+00 2.410789e+00 2.262104e+00 2.509146e+00 2.111452e+00 1.695109e+00 1.480569e+00
<GCONST> 9.985252e+01
<TRANSP> 5
 0.000000e+00 1.000000e+00 0.000000e+00 0.000000e+00 0.000000e+00
 0.000000e+00 6.000000e-01 4.000000e-01 0.000000e+00 0.000000e+00
 0.000000e+00 0.000000e+00 6.000000e-01 4.000000e-01 0.000000e+00
 0.000000e+00 0.000000e+00 0.000000e+00 7.000000e-01 3.000000e-01
 0.000000e+00 0.000000e+00 0.000000e+00 0.000000e+00 0.000000e+00
<ENDHMM>
~h "d"
<BEGINHMM>
<NUMSTATES> 5
<STATE> 2
<MEAN> 25
 2.601618e+00 3.826017e+00 2.540090e+00 4.229691e+00 -1.663912e+00 -6.361562e-01 -2.160612e+00 -1.752969e+00 -1.949152e+00 -8.596388e-01 -1.384771e-01 -2.036750e+00 4.638615e-01 -3.056992e-01 1.819305e+00 -1.094176e+00 -1.281478e+00 -7.361995e-01 -6.084080e-01 -8.509003e-01 -1.726836e+00 2.371354e-01 -7.645261e-01 -5.685785e-01 1.805040e+00
<VARIANCE> 25
 2.688906e+01 2.888695e+01 2.304684e+01 3.093517e+01 3.127150e+01 2.696727e+01 3.108855e+01 2.824211e+01 2.557944e+01 3.567187e+01 2.890101e+01 1.781246e+01 2.809160e+00 3.777784e+00 3.989141e+00 3.915926e+00 3.318463e+00 3.383249e+00 3.640976e+00 4.223625e+00 3.739815e+00 6.773380e+00 3.744018e+00 2.514855e+00 2.757380e+00
<GCONST> 1.024970e+02
<STATE> 3
<MEAN> 25
 1.281778e-01 1.518278e+00 1.478995e+01 -8.298362e+00 -1.108926e+01 -7.296126e-01 -6.966268e+00 -6.032563e+00 -9.283436e+00 6.073813e+00 -4.261793e+00 -3.465632e-01 -4.799723e-01 -5.746503e-01 9.953550e-01 -2.404360e+00 -1.100987e+00 -7.906059e-01 -3.816551e-02 -2.652250e-01 4.998367e-01 1.252813e+00 -7.897919e-02 7.176266e-01 1.304838e+00
<VARIANCE> 25
 1.192752e+01 2.109888e+01 4.152230e+01 5.204844e+01 4.512221e+01 2.905509e+01 3.132473e+01 4.156959e+01 4.853872e+01 6.036852e+01 3.803082e+01 5.988410e+01 1.187886e+00 3.030351e+00 4.178052e+00 4.588617e+00 4.144547e+00 3.638063e+00 6.596381e+00 3.596281e+00 4.674090e+00 4.827092e+00 4.119336e+00 3.726238e+00 1.803059e+00
<GCONST> 1.057682e+02
<STATE> 4
<MEAN> 25
 5.157952e-01 -5.689558e+00 7.818136e+00 -1.325907e+01 -1.116414e+01 -6.133380e+00 4.256964e+00 1.706829e+00 -1.920877e+00 5.844668e+00 -2.938339e+00 7.517487e-01 2.887724e-01 -1.270946e+00 -2.073524e+00 -2.367620e-01 1.813997e+00 -4.421608e-01 1.959433e+00 1.226040e+00 1.225917e+00 -2.154297e+00 -4.402447e-01 -8.100178e-03 4.122064e-01
<VARIANCE> 25
 2.790539e+01 2.735635e+01 4.797905e+01 4.627778e+01 6.209489e+01 2.090053e+01 6.912217e+01 5.825979e+01 3.717590e+01 8.898361e+01 3.786894e+01 2.411633e+01 5.401850e-01 2.463225e+00 3.033216e+00 2.722214e+00 5.458313e+00 1.982373e+00 6.404165e+00 4.330084e+00 3.204783e+00 6.199515e+00 3.195179e+00 2.364767e+00 1.086435e+00
<GCONST> 1.038755e+02
<TRANSP> 5
 0.000000e+00 1.000000e+00 0.000000e+00 0.000000e+00 0.000000e+00
 0.000000e+00 7.472236e-01 2.527764e-01 0.000000e+00 0.000000e+00
 0.000000e+00 0.000000e+00 7.400876e-01 2.599125e-01 0.000000e+00
 0.000000e+00 0.000000e+00 0.000000e+00 6.882704e-01 3.117296e-01
 0.000000e+00 0.000000e+00 0.000000e+00 0.000000e+00 0.000000e+00
<ENDHMM>
~h "g"
<BEGINHMM>
<NUMSTATES> 5
<STATE> 2
<MEAN> 25
 2.780321e+00 5.197246e+00 4.737291e+00 2.333926e+00 -2.704165e+00 -2.044181e+00 -3.988873e+00 -1.162980e+00 -1.865779e+00 -5.963992e-01 -2.657040e+00 -2.227153e+00 -2.640359e-01 -8.456222e-01 6.461916e-02 6.379171e-02 8.924060e-01 -7.323616e-01 6.362400e-02 -2.174564e-01 -6.622616e-01 5.919314e-01 1.682620e-01 -9.311969e-02 9.056626e-01
<VARIANCE> 25
 5.117225e+01 1.309524e+02 7.026833e+01 7.095211e+01 5.954599e+01 5.927954e+01 7.619487e+01 5.810226e+01 4.471035e+01 4.718742e+01 6.146344e+01 3.934446e+01 4.630290e+00 9.191545e+00 6.553614e+00 9.441444e+00 6.821368e+00 6.161761e+00 6.265063e+00 4.819751e+00 5.335476e+00 6.138618e+00 5.548391e+00 3.957247e+00 7.184031e+00
<GCONST> 1.188530e+02
<STATE> 3
<MEAN> 25
 2.675993e+00 -1.827080e+00 -2.788659e+00 5.584617e-01 7.209576e+00 -2.979647e+00 -3.957068e+00 -2.211095e+00 -3.422222e+00 6.562481e+00 3.543713e-02 -6.767213e-01 8.558688e-01 2.788833e-01 -1.206916e-01 -1.639462e+00 3.715297e-01 -3.903316e-01 -2.647141e-01 -9.177887e-01 -2.118779e-01 -3.689797e-01 -6.418023e-01 -1.432526e-01 1.291008e+00
<VARIANCE> 25
 2.613782e+01 2.871870e+01 1.228552e+02 1.055685e+02 7.583403e+01 9.400896e+01 6.744988e+01 3.464294e+01 6.086435e+01 1.202462e+02 4.304822e+01 4.290104e+01 3.172694e+00 4.130649e+00 6.690417e+00 8.794679e+00 5.535556e+00 5.302240e+00 8.948357e+00 4.429021e+00 5.932209e+00 1.072469e+01 3.411242e+00 3.635756e+00 3.849020e+00
<GCONST> 1.168115e+02
<STATE> 4
<MEAN> 25
 2.021360e+00 8.777851e-01 1.047557e+01 6.009942e+00 5.931570e+00 -4.469198e+00 -6.633340e+00 -1.522203e+00 3.683940e-01 -7.136852e+00 -2.645784e+00 -3.805552e+00 6.615005e-02 2.041034e-01 -2.833496e-01 -2.564742e-01 -2.964226e-02 2.847856e-01 2.610899e-01 1.378761e-01 4.957255e-02 2.208073e-01 -7.176609e-02 8.892966e-02 -1.078468e-01
<VARIANCE> 25
 1.994254e+01 3.184492e+01 8.082931e+01 4.116517e+01 2.615394e+01 4.208290e+01 5.723868e+01 2.790495e+01 2.591108e+01 6.179904e+01 2.017695e+01 1.834404e+01 7.409322e-01 1.472280e+00 2.395579e+00 2.475310e+00 2.038714e+00 2.090558e+00 3.254844e+00 2.045665e+00 1.932611e+00 3.497911e+00 1.683258e+00 1.449944e+00 1.122732e+00
<GCONST> 9.631431e+01
<TRANSP> 5
 0.000000e+00 1.000000e+00 0.000000e+00 0.000000e+00 0.000000e+00
 0.000000e+00 6.982545e-01 3.017455e-01 0.000000e+00 0.000000e+00
 0.000000e+00 0.000000e+00 6.002053e-01 3.997947e-01 0.000000e+00
 0.000000e+00 0.000000e+00 0.000000e+00 8.336607e-01 1.663394e-01
 0.000000e+00 0.000000e+00 0.000000e+00 0.000000e+00 0.000000e+00
<ENDHMM>
~h "h"
<BEGINHMM>
<NUMSTATES> 5
<STATE> 2
<MEAN> 25
 -9.424675e-01 1.461348e+00 1.096495e+00 3.894256e+00 1.154411e-01 2.487406e+00 -6.091295e-02 5.791304e-01 1.299396e+00 9.047229e-01 2.611600e+00 -3.083880e-01 -8.946917e-04 5.044084e-02 -1.161329e-02 1.158079e-02 2.536661e-02 -2.661723e-02 -3.722706e-02 9.151602e-02 1.562519e-01 -4.062217e-02 -1.112689e-01 -7.605100e-02 -1.745073e-02
<VARIANCE> 25
 1.038819e+01 5.246552e+00 6.520872e+00 9.378847e+00 9.407683e+00 1.341242e+01 1.493196e+01 1.535858e+01 1.836385e+01 1.459225e+01 1.089177e+01 1.149998e+01 1.225207e-01 2.786667e-01 4.340692e-01 5.029352e-01 7.628964e-01 1.403504e+00 1.296228e+00 1.411772e+00 1.604216e+00 1.452466e+00 1.044593e+00 1.477760e+00 4.874549e-02
<GCONST> 6.878525e+01
<STATE> 3
<MEAN> 25
 -2.509098e+00 -2.313145e+00 -2.953644e-01 5.787272e+00 6.582515e+00 -1.072168e-01 -3.457558e-02 8.073199e-01 2.193052e+00 -3.271152e+00 2.178797e+00 1.735086e+00 -8.832482e-02 -1.334044e+00 -4.425403e-01 -1.675984e-02 1.352353e+00 -2.224845e-01 2.843735e-01 -5.903868e-01 -6.560380e-01 -1.020892e+00 -1.249162e-01 8.958191e-01 8.444978e-01
<VARIANCE> 25
 1.580750e+01 1.989746e+01 1.867010e+01 7.834752e+00 1.683497e+01 2.192208e+01 2.002755e+01 4.756005e+01 4.174968e+01 3.819672e+01 1.608014e+01 1.976585e+01 4.172315e-01 1.715706e+00 2.773155e+00 1.244288e+00 1.961131e+00 1.958131e+00 1.780770e+00 3.139516e+00 2.543176e+00 2.428490e+00 2.808517e+00 2.675650e+00 2.668968e-01
<GCONST> 8.907706e+01
<STATE> 4
<MEAN> 25
 8.243737e+00 -4.132321e+00 -2.454775e+00 2.374615e+00 -8.669758e-01 -2.134486e+00 -4.695034e+00 -6.742357e+00 -6.631495e+00 -9.171789e+00 -4.840295e+00 3.800919e+00 3.176313e-01 3.557783e-01 -4.982511e-02 -3.273999e-01 -3.440739e-01 -3.501799e-01 -2.661934e-01 -5.497610e-01 -8.435249e-02 8.048212e-02 -2.949030e-02 -6.133946e-02 8.870777e-02
<VARIANCE> 25
 4.034976e+01 5.318734e+01 4.099775e+01 1.766465e+01 4.124056e+01 2.441726e+01 3.337080e+01 4.524022e+01 3.437642e+01 3.841934e+01 2.595417e+01 1.992843e+01 1.538376e+00 9.694079e-01 1.980368e+00 1.665602e+00 1.517946e+00 1.333672e+00 2.576221e+00 2.065277e+00 1.749183e+00 1.610426e+00 2.373058e+00 1.162570e+00 5.039493e-01
<GCONST> 9.320741e+01
<TRANSP> 5
 0.000000e+00 1.000000e+00 0.000000e+00 0.000000e+00 0.000000e+00
 0.000000e+00 9.504437e-01 4.955623e-02 0.000000e+00 0.000000e+00
 0.000000e+00 0.000000e+00 7.900484e-01 2.099517e-01 0.000000e+00
 0.000000e+00 0.000000e+00 0.000000e+00 9.102027e-01 8.979731e-02
 0.000000e+00 0.000000e+00 0.000000e+00 0.000000e+00 0.000000e+00
<ENDHMM>
~h "j"
<BEGINHMM>
<NUMSTATES> 5
<STATE> 2
<MEAN> 25
 4.597503e+00 2.328167e+00 5.926642e+00 -2.458442e+00 -3.513492e+00 -4.685409e+00 -5.576250e+00 -1.892726e-01 -5.276489e+00 1.930300e+00 -5.795604e+00 -3.679829e+00 -1.708909e-01 4.470399e-02 5.238075e-01 1.253035e+00 2.189385e-01 7.276257e-01 2.792206e-01 4.737170e-01 -4.293764e-02 -1.032061e+00 2.414401e-01 1.051299e-01 -3.059256e-01
<VARIANCE> 25
 7.918557e+00 3.398340e+00 2.217232e+01 3.149490e+01 3.362818e+01 6.186072e+01 3.604718e+01 1.965853e+01 4.081138e+01 9.972695e+01 2.126036e+01 1.656662e+01 4.394812e-01 3.856044e-01 2.229544e+00 7.321302e-01 5.809024e+00 5.038312e+00 1.757997e+00 2.622746e+00 3.253589e+00 2.637479e+00 2.074182e+00 1.320081e+00 5.708662e-01
<GCONST> 9.038335e+01
<STATE> 3
<MEAN> 25
 -2.322283e+00 5.694768e+00 4.169679e+00 4.370471e+00 -3.427395e+00 3.611162e+00 -5.511611e+00 -2.267678e+00 -2.426422e+00 -1.626568e+00 -1.915276e+00 -4.068601e+00 -1.548844e+00 4.445475e-01 3.920785e-01 -5.428129e-01 -7.590894e-01 1.401173e-01 6.078103e-01 -3.473867e-01 -1.647771e-01 1.215072e+00 7.742866e-01 5.619662e-02 8.573373e-02
<VARIANCE> 25
 5.393432e+01 1.217856e+01 8.531160e+01 2.462821e+01 5.309505e+01 5.005563e+01 2.707791e+01 3.098206e+01 2.220302e+01 3.288708e+01 2.854096e+01 1.959954e+01 4.636083e+00 1.615633e+00 2.168222e+00 2.924353e+00 6.720730e+00 6.487867e+00 2.012053e+00 2.633323e+00 4.765514e+00 2.676143e+00 2.895481e+00 2.200152e+00 2.982556e+00
<GCONST> 1.024154e+02
<STATE> 4
<MEAN> 25
 -2.822596e+00 5.783628e+00 7.038687e+00 -2.978087e+00 -5.762329e+00 -8.912077e+00 -6.469055e+00 1.582545e-01 -8.760661e-01 6.116631e+00 3.871578e+00 -2.355607e+00 6.971399e-01 -3.493227e-01 -1.107508e-01 -5.150951e-01 1.610271e-01 -1.140817e+00 -2.472757e-01 1.818017e-01 2.725813e-01 2.758602e-01 -4.398190e-01 2.978863e-01 4.989071e-01
<VARIANCE> 25
 5.080688e+01 7.304198e+01 2.974385e+01 5.992360e+01 8.171739e+01 1.138831e+02 6.097932e+01 3.218126e+01 6.325786e+01 3.883852e+01 3.453062e+01 3.335789e+01 3.986974e+00 5.755207e+00 4.548850e+00 5.727522e+00 9.157797e+00 9.999012e+00 5.136436e+00 5.714373e+00 6.902731e+00 4.687818e+00 4.399076e+00 3.570848e+00 7.636287e+00
<GCONST> 1.157815e+02
<TRANSP> 5
 0.000000e+00 1.000000e+00 0.000000e+00 0.000000e+00 0.000000e+00
 0.000000e+00 8.805252e-01 1.194748e-01 0.000000e+00 0.000000e+00
 0.000000e+00 0.000000e+00 8.587226e-01 1.412774e-01 0.000000e+00
 0.000000e+00 0.000000e+00 0.000000e+00 9.024622e-01 9.753785e-02
 0.000000e+00 0.000000e+00 0.000000e+00 0.000000e+00 0.000000e+00
<ENDHMM>
~h "k"
<BEGINHMM>
<NUMSTATES> 5
<STATE> 2
<MEAN> 25
 5.329979e+00 2.258698e+00 -4.677052e+00 -3.076631e+00 9.136074e-01 -5.148488e-01 -5.355786e+00 -2.428617e+00 -1.545638e+00 -8.721756e-01 -2.461679e+00 -2.579603e+00 -7.044065e-01 -1.104741e-01 -3.402311e-01 -3.254475e-02 2.217813e-01 2.300848e-02 6.520629e-01 1.568344e-01 3.422720e-02 6.893792e-01 3.817370e-01 7.567509e-02 -1.191321e-01
<VARIANCE> 25
 2.959351e+01 4.966656e+01 5.027651e+01 1.045206e+02 3.844875e+01 5.762040e+01 8.253445e+01 3.899026e+01 5.586135e+01 5.561882e+01 3.767541e+01 3.556863e+01 3.405232e+00 4.455562e+00 3.546415e+00 5.455547e+00 3.342225e+00 5.546768e+00 6.361405e+00 3.898408e+00 7.192185e+00 5.192547e+00 3.042965e+00 3.538257e+00 6.866180e+00
<GCONST> 1.125643e+02
<STATE> 3
<MEAN> 25
 -3.013826e-01 -1.009459e+00 -5.238185e+00 -4.515686e-01 2.177329e+00 2.952963e+00 9.358363e-01 -1.092340e+00 1.322046e+00 4.223916e+00 7.370042e-01 -2.011801e-01 -4.461250e-01 -9.172678e-02 2.153362e-01 6.424352e-01 1.707133e-01 1.033331e-01 -1.149873e-01 9.765372e-03 1.816800e-01 6.551241e-01 3.676246e-01 2.547368e-02 -2.801893e-01
<VARIANCE> 25
 7.343261e+00 2.006193e+01 2.301102e+01 3.256106e+01 3.514362e+01 2.410067e+01 3.539006e+01 2.201693e+01 1.704712e+01 3.614257e+01 2.802256e+01 2.031960e+01 1.107669e+00 1.429638e+00 2.845807e+00 2.184221e+00 2.374781e+00 2.130057e+00 3.935135e+00 2.654275e+00 2.350496e+00 4.980100e+00 2.126055e+00 2.363434e+00 2.150469e+00
<GCONST> 9.482070e+01
<STATE> 4
<MEAN> 25
 -3.220407e+00 5.912023e-01 -5.530018e-02 3.532351e+00 3.030681e+00 3.532134e+00 2.506079e+00 2.123996e+00 2.902918e+00 2.507767e+00 2.621007e+00 3.853004e-01 -7.398072e-02 3.343240e-02 1.266710e-01 7.218758e-02 -4.740535e-02 -1.230907e-02 4.417094e-02 5.475742e-02 2.678788e-02 -2.526522e-02 4.986451e-02 6.496531e-02 -2.410045e-02
<VARIANCE> 25
 1.213615e+01 6.030609e+00 9.866836e+00 1.304593e+01 1.587801e+01 1.334749e+01 2.196667e+01 1.632929e+01 1.658388e+01 2.004106e+01 1.637432e+01 1.160624e+01 1.671692e-01 3.313212e-01 5.585154e-01 7.240579e-01 9.556602e-01 1.179701e+00 1.493827e+00 1.363944e+00 1.487110e+00 1.563174e+00 1.365498e+00 1.094532e+00 8.048309e-02
<GCONST> 7.314839e+01
<TRANSP> 5
 0.000000e+00 1.000000e+00 0.000000e+00 0.000000e+00 0.000000e+00
 0.000000e+00 7.661638e-01 2.338362e-01 0.000000e+00 0.000000e+00
 0.000000e+00 0.000000e+00 7.186253e-01 2.813747e-01 0.000000e+00
 0.000000e+00 0.000000e+00 0.000000e+00 9.457774e-01 5.422257e-02
 0.000000e+00 0.000000e+00 0.000000e+00 0.000000e+00 0.000000e+00
<ENDHMM>
~h "l"
<BEGINHMM>
<NUMSTATES> 5
<STATE> 2
<MEAN> 25
 3.624845e+00 -6.751447e+00 -5.421450e+00 -9.177594e+00 3.730502e+00 1.395105e+00 2.922354e-01 -2.070457e+00 2.093249e+00 9.529602e-01 -1.492733e+00 -9.927666e-01 2.539213e-02 6.450670e-02 -2.328500e-01 -1.489179e-01 1.453339e-01 1.962621e-01 7.574221e-02 -2.161801e-02 1.892332e-01 7.397191e-02 -1.240197e-03 -1.093418e-01 -8.991437e-02
<VARIANCE> 25
 8.007121e+00 2.736431e+01 3.620388e+01 3.361671e+01 8.031553e+01 6.286935e+01 4.301746e+01 5.500037e+01 2.564053e+01 3.620722e+01 3.099159e+01 1.923533e+01 3.761658e-01 8.596971e-01 7.538353e-01 1.390381e+00 3.705997e+00 1.757985e+00 1.645968e+00 1.769751e+00 1.696189e+00 2.032799e+00 1.324203e+00 1.155968e+00 5.744401e-01
<GCONST> 9.093110e+01
<STATE> 3
<MEAN> 25
 3.784561e+00 -1.250054e-01 -3.959815e+00 -2.758772e+00 3.110873e+00 -6.730875e-01 -2.243407e+00 -4.786060e+00 4.450423e-01 -2.152571e+00 1.049495e-01 -1.219497e+00 -1.998085e-01 5.918547e-01 8.142294e-01 1.630293e+00 -4.424764e-01 1.652355e-01 -1.359091e-01 5.699646e-01 -1.983613e-01 -5.425236e-02 1.266313e-01 1.372852e-01 -9.549535e-01
<VARIANCE> 25
 1.007516e+01 1.895769e+01 2.265752e+01 4.067715e+01 5.949118e+01 4.465770e+01 4.406702e+01 4.483282e+01 3.528004e+01 2.375918e+01 3.523153e+01 2.022280e+01 4.268873e-01 1.220584e+00 1.040402e+00 2.054795e+00 1.954056e+00 1.627727e+00 2.508288e+00 2.449211e+00 2.148167e+00 1.947366e+00 1.600075e+00 1.712827e+00 6.145903e-01
<GCONST> 9.183174e+01
<STATE> 4
<MEAN> 25
 -5.994184e-01 8.905667e-01 2.372214e-01 4.301124e+00 8.487425e-01 1.324121e+00 3.541557e-01 1.745535e+00 1.392781e+00 -1.229821e-01 2.204356e+00 -3.933361e-01 -7.314144e-02 -2.355951e-02 1.788903e-02 5.006636e-02 2.028488e-02 5.260177e-02 5.407083e-02 1.033871e-01 4.421920e-06 1.055600e-02 -4.033728e-03 -2.419424e-02 -2.386489e-02
<VARIANCE> 25
 1.194825e+01 5.015326e+00 1.012172e+01 1.515345e+01 1.579570e+01 1.626562e+01 1.933383e+01 1.670079e+01 1.787704e+01 1.806174e+01 1.612662e+01 1.399574e+01 1.671274e-01 2.733872e-01 5.517084e-01 7.446954e-01 1.020719e+00 1.286593e+00 1.229249e+00 1.511672e+00 1.572834e+00 1.341254e+00 1.186013e+00 1.174019e+00 7.920861e-02
<GCONST> 7.305416e+01
<TRANSP> 5
 0.000000e+00 1.000000e+00 0.000000e+00 0.000000e+00 0.000000e+00
 0.000000e+00 8.443371e-01 1.556629e-01 0.000000e+00 0.000000e+00
 0.000000e+00 0.000000e+00 6.951791e-01 3.048209e-01 0.000000e+00
 0.000000e+00 0.000000e+00 0.000000e+00 9.225167e-01 7.748333e-02
 0.000000e+00 0.000000e+00 0.000000e+00 0.000000e+00 0.000000e+00
<ENDHMM>
~h "m"
<BEGINHMM>
<NUMSTATES> 5
<STATE> 2
<MEAN> 25
 5.457684e+00 -3.013337e-02 -1.891451e+00 1.424702e+00 3.491170e+00 7.382126e-01 -3.493235e+00 -2.630535e+00 -2.753592e+00 -3.527512e+00 -3.599144e+00 -2.426180e+00 7.836632e-02 9.750335e-01 7.273300e-01 9.996357e-01 -1.665847e-01 -6.274034e-01 -5.782059e-01 -6.238567e-01 -3.394075e-01 -6.243014e-02 -3.889018e-01 -3.500596e-01 -5.139878e-01
<VARIANCE> 25
 3.506100e+01 5.479889e+01 3.456512e+01 7.319582e+01 4.002401e+01 5.688734e+01 3.717624e+01 3.517590e+01 3.239070e+01 3.240166e+01 2.828500e+01 2.196785e+01 1.853337e+00 2.438486e+00 2.408749e+00 3.168114e+00 2.334846e+00 3.938834e+00 3.080821e+00 3.817226e+00 2.420469e+00 2.746250e+00 3.141807e+00 2.188073e+00 1.463192e+00
<GCONST> 1.020651e+02
<STATE> 3
<MEAN> 25
 5.281108e+00 2.149360e+00 2.475576e+00 4.194893e+00 3.027421e+00 -4.327416e+00 -4.912990e+00 -4.381470e+00 -2.606004e+00 -4.584118e+00 -3.648264e+00 -4.869534e+00 -1.837767e-01 2.524773e-01 1.633392e-01 3.190879e-01 -1.592756e-01 2.345927e-01 2.312934e-01 2.411707e-01 2.228751e-01 2.273574e-01 1.231977e-01 9.072401e-02 -3.770137e-01
<VARIANCE> 25
 1.396928e+01 2.567756e+01 2.324357e+01 4.397943e+01 2.780111e+01 5.888849e+01 4.299876e+01 3.316957e+01 3.682540e+01 2.236356e+01 5.315617e+01 2.592065e+01 4.263115e-01 7.218939e-01 1.011364e+00 1.927083e+00 9.963531e-01 1.608667e+00 1.789488e+00 1.755190e+00 1.922512e+00 1.834437e+00 1.854985e+00 1.311218e+00 4.288048e-01
<GCONST> 8.977213e+01
<STATE> 4
<MEAN> 25
 -9.736931e-01 1.279750e+00 7.330188e-01 4.369301e+00 1.103393e+00 2.057870e+00 9.132411e-01 2.169407e+00 1.973366e+00 5.536116e-01 1.718284e+00 -1.194388e-01 -5.374003e-02 1.494325e-02 5.857722e-02 -1.172770e-02 -8.162107e-02 -1.415613e-02 3.237202e-02 7.192636e-02 6.080390e-02 7.542176e-02 1.151376e-01 2.366744e-02 -1.794530e-02
<VARIANCE> 25
 1.624717e+01 6.838584e+00 8.737477e+00 1.173485e+01 1.445529e+01 1.359998e+01 1.970774e+01 1.675238e+01 1.864808e+01 1.876887e+01 1.812644e+01 1.390461e+01 1.695659e-01 3.127158e-01 4.611135e-01 6.808046e-01 9.328514e-01 1.077962e+00 1.228612e+00 1.380692e+00 1.569034e+00 1.594407e+00 1.286179e+00 1.117849e+00 8.030438e-02
<GCONST> 7.295240e+01
<TRANSP> 5
 0.000000e+00 1.000000e+00 0.000000e+00 0.000000e+00 0.000000e+00
 0.000000e+00 6.589802e-01 3.410198e-01 0.000000e+00 0.000000e+00
 0.000000e+00 0.000000e+00 7.908882e-01 2.091117e-01 0.000000e+00
 0.000000e+00 0.000000e+00 0.000000e+00 9.308093e-01 6.919071e-02
 0.000000e+00 0.000000e+00 0.000000e+00 0.000000e+00 0.000000e+00
<ENDHMM>
~h "n"
<BEGINHMM>
<NUMSTATES> 5
<STATE> 2
<MEAN> 25
 6.464778e+00 3.629057e-01 -5.985375e-01 6.531969e-01 -1.091757e+00 -7.102686e+00 -4.874310e+00 -2.939793e+00 -5.969841e+00 -7.807169e+00 -1.783235e+00 2.079982e+00 -2.946553e-01 1.128168e+00 4.120280e-01 9.769475e-01 1.904244e-03 7.684678e-04 -3.345028e-01 -7.537252e-01 6.528871e-02 5.638395e-01 -2.989506e-02 9.481820e-02 -9.329215e-01
<VARIANCE> 25
 1.449465e+01 2.886427e+01 1.312351e+01 3.095643e+01 5.743247e+01 5.668147e+01 2.610742e+01 2.775356e+01 3.830628e+01 3.552482e+01 4.444604e+01 3.296135e+01 3.915409e-01 1.558840e+00 1.285773e+00 2.367684e+00 1.408216e+00 2.716698e+00 1.686591e+00 2.886617e+00 2.084663e+00 2.210059e+00 3.169420e+00 1.519114e+00 7.296654e-01
<GCONST> 9.349762e+01
<STATE> 3
<MEAN> 25
 3.300056e+00 3.295467e+00 1.739669e+00 4.807588e+00 1.656830e+00 -2.407930e+00 -3.072724e+00 -3.222086e+00 -3.306180e+00 -4.353881e+00 -2.602037e+00 3.450289e-01 -3.506351e-01 9.012975e-02 -1.102856e-02 3.077556e-01 1.919848e-02 7.326088e-01 3.683589e-01 4.041173e-01 3.482669e-01 3.402550e-01 3.810407e-01 -1.107097e-01 -4.391603e-01
<VARIANCE> 25
 1.369365e+01 1.328213e+01 1.053833e+01 1.711366e+01 2.932944e+01 2.622429e+01 1.859557e+01 2.367158e+01 2.566716e+01 1.962843e+01 2.423886e+01 2.389211e+01 2.702040e-01 4.497679e-01 6.025965e-01 8.385204e-01 1.138057e+00 1.398953e+00 1.353211e+00 1.342769e+00 1.797254e+00 1.647039e+00 1.731239e+00 1.299799e+00 1.642686e-01
<GCONST> 8.002341e+01
<STATE> 4
<MEAN> 25
 -3.035576e+00 1.719860e+00 8.104598e-01 3.904211e+00 2.398139e+00 2.695920e+00 2.589603e+00 2.356546e+00 2.654057e+00 2.135115e+00 2.725028e+00 4.382278e-01 -4.841126e-02 -2.075581e-03 2.205912e-03 -3.270908e-03 1.534570e-04 5.143212e-02 5.668945e-02 6.132233e-02 6.486794e-02 9.044728e-02 6.335589e-02 -1.929392e-02 -1.147562e-02
<VARIANCE> 25
 1.456001e+01 6.672332e+00 6.952384e+00 9.179337e+00 1.283781e+01 1.303568e+01 1.864103e+01 1.770621e+01 1.821044e+01 1.970978e+01 1.450121e+01 1.384376e+01 1.375878e-01 3.017960e-01 4.340668e-01 6.364503e-01 8.790703e-01 1.103286e+00 1.159360e+00 1.333189e+00 1.415802e+00 1.409356e+00 1.366315e+00 1.240001e+00 6.027956e-02
<GCONST> 7.112999e+01
<TRANSP> 5
 0.000000e+00 1.000000e+00 0.000000e+00 0.000000e+00 0.000000e+00
 0.000000e+00 7.225606e-01 2.774394e-01 0.000000e+00 0.000000e+00
 0.000000e+00 0.000000e+00 8.096175e-01 1.903825e-01 0.000000e+00
 0.000000e+00 0.000000e+00 0.000000e+00 9.438514e-01 5.614866e-02
 0.000000e+00 0.000000e+00 0.000000e+00 0.000000e+00 0.000000e+00
<ENDHMM>
~h "o"
<BEGINHMM>
<NUMSTATES> 5
<STATE> 2
<MEAN> 25
 4.876313e-08 -1.572510e-08 -3.479018e-08 -3.353887e-08 3.894225e-08 5.448882e-08 6.837960e-09 -3.357679e-08 -9.075150e-09 1.238669e-09 6.825321e-10 3.043588e-08 1.480543e-02 -2.130302e-03 7.752344e-03 -2.168820e-03 1.143337e-02 -2.309903e-03 4.269884e-03 -3.775733e-03 -3.292339e-03 -9.014427e-04 -3.430429e-03 -3.983431e-03 3.762102e-02
<VARIANCE> 25
 4.782532e+01 4.486550e+01 4.720150e+01 6.892854e+01 4.782745e+01 4.025578e+01 4.904441e+01 4.112494e+01 4.163441e+01 4.402450e+01 3.629408e+01 2.461185e+01 1.112554e+00 1.522353e+00 1.617351e+00 2.656559e+00 2.172489e+00 2.083682e+00 2.429415e+00 2.410789e+00 2.262104e+00 2.509146e+00 2.111452e+00 1.695109e+00 1.480569e+00
<GCONST> 9.985252e+01
<STATE> 3
<MEAN> 25
 4.876313e-08 -1.572510e-08 -3.479018e-08 -3.353887e-08 3.894225e-08 5.448882e-08 6.837960e-09 -3.357679e-08 -9.075150e-09 1.238669e-09 6.825321e-10 3.043588e-08 1.480543e-02 -2.130302e-03 7.752344e-03 -2.168820e-03 1.143337e-02 -2.309903e-03 4.269884e-03 -3.775733e-03 -3.292339e-03 -9.014427e-04 -3.430429e-03 -3.983431e-03 3.762102e-02
<VARIANCE> 25
 4.782532e+01 4.486550e+01 4.720150e+01 6.892854e+01 4.782745e+01 4.025578e+01 4.904441e+01 4.112494e+01 4.163441e+01 4.402450e+01 3.629408e+01 2.461185e+01 1.112554e+00 1.522353e+00 1.617351e+00 2.656559e+00 2.172489e+00 2.083682e+00 2.429415e+00 2.410789e+00 2.262104e+00 2.509146e+00 2.111452e+00 1.695109e+00 1.480569e+00
<GCONST> 9.985252e+01
<STATE> 4
<MEAN> 25
 4.876313e-08 -1.572510e-08 -3.479018e-08 -3.353887e-08 3.894225e-08 5.448882e-08 6.837960e-09 -3.357679e-08 -9.075150e-09 1.238669e-09 6.825321e-10 3.043588e-08 1.480543e-02 -2.130302e-03 7.752344e-03 -2.168820e-03 1.143337e-02 -2.309903e-03 4.269884e-03 -3.775733e-03 -3.292339e-03 -9.014427e-04 -3.430429e-03 -3.983431e-03 3.762102e-02
<VARIANCE> 25
 4.782532e+01 4.486550e+01 4.720150e+01 6.892854e+01 4.782745e+01 4.025578e+01 4.904441e+01 4.112494e+01 4.163441e+01 4.402450e+01 3.629408e+01 2.461185e+01 1.112554e+00 1.522353e+00 1.617351e+00 2.656559e+00 2.172489e+00 2.083682e+00 2.429415e+00 2.410789e+00 2.262104e+00 2.509146e+00 2.111452e+00 1.695109e+00 1.480569e+00
<GCONST> 9.985252e+01
<TRANSP> 5
 0.000000e+00 1.000000e+00 0.000000e+00 0.000000e+00 0.000000e+00
 0.000000e+00 6.000000e-01 4.000000e-01 0.000000e+00 0.000000e+00
 0.000000e+00 0.000000e+00 6.000000e-01 4.000000e-01 0.000000e+00
 0.000000e+00 0.000000e+00 0.000000e+00 7.000000e-01 3.000000e-01
 0.000000e+00 0.000000e+00 0.000000e+00 0.000000e+00 0.000000e+00
<ENDHMM>
~h "p"
<BEGINHMM>
<NUMSTATES> 5
<STATE> 2
<MEAN> 25
 -3.841586e+00 2.362075e+00 -4.755830e+00 4.967254e+00 -3.132885e+00 3.963570e+00 -3.532989e+00 2.425522e+00 2.883837e+00 1.605596e+00 2.671731e+00 1.635413e+00 1.762971e+00 -6.025190e-01 6.095632e-01 -9.279537e-01 2.624154e-01 -5.016176e-01 6.404818e-01 -2.279193e-01 -7.421384e-01 1.246797e-01 2.183793e-01 -3.725465e-01 2.894706e+00
<VARIANCE> 25
 8.695811e+01 2.532996e+01 3.681012e+01 2.826671e+01 2.479148e+01 2.174043e+01 3.133446e+01 3.377597e+01 3.778215e+01 1.935261e+01 2.944274e+01 2.330321e+01 9.418476e+00 2.529278e+00 2.637988e+00 2.744466e+00 3.502978e+00 3.138068e+00 2.547996e+00 3.109629e+00 3.495362e+00 2.400949e+00 2.962269e+00 2.261097e+00 1.522054e+01
<GCONST> 1.033406e+02
<STATE> 3
<MEAN> 25
 1.874886e+00 -3.625402e+00 -3.311301e+00 -2.526216e+00 7.267101e-01 8.766711e-01 1.472407e+00 1.783324e-01 6.389238e-01 7.702878e-01 2.142732e-01 -1.206007e+00 1.685950e-01 -1.191065e+00 1.494741e-01 -7.445958e-01 7.115790e-01 -1.463256e-01 1.033681e+00 -4.573147e-02 6.397036e-02 -3.395029e-01 3.217778e-02 3.363930e-02 2.004618e+00
<VARIANCE> 25
 2.693366e+01 6.895479e+01 2.872322e+01 7.101682e+01 5.120935e+01 3.927031e+01 4.566836e+01 5.450775e+01 4.341303e+01 4.728001e+01 4.033161e+01 2.199709e+01 4.240070e+00 5.756361e+00 2.583288e+00 6.693394e+00 4.549675e+00 4.958124e+00 4.502889e+00 5.830511e+00 4.086056e+00 5.023536e+00 3.094603e+00 2.753737e+00 1.068300e+01
<GCONST> 1.108974e+02
<STATE> 4
<MEAN> 25
 -3.191077e+00 1.108595e+00 5.076214e-01 3.198547e+00 2.144694e+00 2.871723e+00 3.431844e+00 2.702971e+00 3.478290e+00 2.417771e+00 3.223793e+00 1.391907e-02 -3.095050e-02 3.367061e-02 3.552657e-02 9.074334e-03 -2.918291e-02 -1.468286e-03 1.089388e-02 3.579263e-02 4.135137e-04 7.127020e-02 6.052623e-02 -1.326667e-02 3.590273e-02
<VARIANCE> 25
 1.389435e+01 8.655214e+00 8.774405e+00 1.166558e+01 1.233523e+01 1.195313e+01 1.678789e+01 1.645079e+01 1.501592e+01 2.106941e+01 1.430758e+01 1.387004e+01 2.295805e-01 3.600873e-01 5.962092e-01 8.189960e-01 1.066850e+00 1.037073e+00 1.214931e+00 1.344848e+00 1.374127e+00 1.602519e+00 1.317456e+00 1.194451e+00 2.104712e-01
<GCONST> 7.409370e+01
<TRANSP> 5
 0.000000e+00 1.000000e+00 0.000000e+00 0.000000e+00 0.000000e+00
 0.000000e+00 5.383736e-01 4.616263e-01 0.000000e+00 0.000000e+00
 0.000000e+00 0.000000e+00 6.508692e-01 3.491308e-01 0.000000e+00
 0.000000e+00 0.000000e+00 0.000000e+00 9.297714e-01 7.022859e-02
 0.000000e+00 0.000000e+00 0.000000e+00 0.000000e+00 0.000000e+00
<ENDHMM>
~h "r"
<BEGINHMM>
<NUMSTATES> 5
<STATE> 2
<MEAN> 25
 7.357380e+00 -1.002909e+01 8.047493e-02 -1.534818e+00 -1.072735e+01 -3.151194e+00 2.367625e+00 3.729703e+00 7.706292e-01 -1.882128e+00 -3.414838e+00 -7.281544e-01 -4.129323e-01 -5.859452e-01 1.183782e+00 -2.108811e-01 -7.807733e-01 -7.921975e-03 8.707648e-01 4.637690e-01 -1.299307e+00 2.845959e-01 3.121508e-01 3.325574e-01 1.220615e-01
<VARIANCE> 25
 1.447336e+01 3.333865e+01 2.614908e+01 4.709658e+01 6.588813e+01 2.726830e+01 6.460508e+01 3.435101e+01 3.812602e+01 2.838576e+01 3.145719e+01 2.228395e+01 1.051839e+00 2.500108e+00 2.159511e+00 6.215591e+00 5.328969e+00 2.434419e+00 4.633644e+00 4.660559e+00 4.036704e+00 2.924342e+00 3.545283e+00 3.015340e+00 1.259360e+00
<GCONST> 1.022475e+02
<STATE> 3
<MEAN> 25
 3.459639e+00 -7.430807e+00 7.371035e+00 -7.174197e+00 -1.104924e+01 -3.631079e+00 8.564121e+00 7.253121e-01 -8.752732e+00 4.730661e+00 -3.861214e+00 -3.404607e+00 -2.099880e-01 1.342591e+00 1.355273e-01 4.353477e-01 5.005013e-01 1.452389e-01 4.638391e-02 -1.294503e+00 7.983743e-02 4.900595e-01 -5.554637e-02 -7.558266e-02 -7.425876e-01
<VARIANCE> 25
 1.480206e+01 2.909606e+01 3.909039e+01 3.823651e+01 4.495830e+01 2.060772e+01 6.179169e+01 5.462886e+01 4.673880e+01 6.627537e+01 3.865659e+01 1.748405e+01 9.266040e-01 8.816155e-01 1.654803e+00 2.720645e+00 1.978468e+00 1.630817e+00 4.572956e+00 1.835283e+00 4.317436e+00 4.176120e+00 2.413764e+00 1.577468e+00 6.444891e-01
<GCONST> 9.722294e+01
<STATE> 4
<MEAN> 25
 8.042741e-01 -4.859796e-01 2.596430e+00 2.943770e+00 -2.545749e+00 8.049293e-01 3.220890e+00 6.456463e-01 -3.768252e-01 9.457885e-01 4.576424e-02 -3.924587e-01 -1.854447e-01 3.734898e-01 -1.925740e-01 3.577221e-01 4.754871e-01 1.844477e-01 -2.675872e-01 -8.130967e-02 3.923967e-01 -7.266530e-02 1.159919e-01 2.474308e-01 -4.262308e-01
<VARIANCE> 25
 2.115208e+01 1.477900e+01 1.706322e+01 3.092673e+01 3.326910e+01 2.069164e+01 3.459578e+01 4.004311e+01 2.715561e+01 3.116905e+01 2.716729e+01 1.731225e+01 3.961649e-01 6.289301e-01 9.749252e-01 1.474028e+00 1.446634e+00 1.455481e+00 2.007884e+00 2.223452e+00 2.027064e+00 2.196073e+00 1.915670e+00 1.321547e+00 3.014893e-01
<GCONST> 8.705968e+01
<TRANSP> 5
 0.000000e+00 1.000000e+00 0.000000e+00 0.000000e+00 0.000000e+00
 0.000000e+00 8.020164e-01 1.979836e-01 0.000000e+00 0.000000e+00
 0.000000e+00 0.000000e+00 7.943760e-01 2.056240e-01 0.000000e+00
 0.000000e+00 0.000000e+00 0.000000e+00 7.935580e-01 2.064420e-01
 0.000000e+00 0.000000e+00 0.000000e+00 0.000000e+00 0.000000e+00
<ENDHMM>
~h "s"
<BEGINHMM>
<NUMSTATES> 5
<STATE> 2
<MEAN> 25
 -1.019684e+01 6.420781e+00 -5.138125e+00 6.584703e+00 -1.227960e+00 -1.102904e+00 5.187668e+00 1.991117e+00 -1.535999e+00 1.876109e+00 3.024118e+00 -8.126989e-01 -7.340003e-01 2.199935e-01 -2.463976e-01 1.723301e-01 -7.513771e-02 1.457324e-01 2.720809e-01 1.472365e-01 -2.398991e-02 3.289472e-01 3.547636e-01 6.710822e-02 1.662172e-01
<VARIANCE> 25
 2.786555e+01 4.522805e+01 1.841047e+01 4.045495e+01 2.760862e+01 2.203186e+01 2.578288e+01 2.911400e+01 3.641003e+01 2.984377e+01 2.320716e+01 2.097213e+01 1.820665e+00 1.930593e+00 1.522620e+00 1.413749e+00 1.370611e+00 1.805448e+00 2.021821e+00 2.051968e+00 2.216277e+00 2.261739e+00 1.812748e+00 1.755926e+00 4.865754e-01
<GCONST> 9.231116e+01
<STATE> 3
<MEAN> 25
 -1.133237e+01 -1.401203e+00 4.547679e+00 -3.561737e+00 -2.206974e+00 1.988173e+00 5.240228e+00 -3.319907e+00 2.618567e-01 4.077208e+00 5.266574e+00 -4.985647e-01 6.336982e-01 -5.091583e-01 7.250247e-01 -1.048955e+00 -4.340742e-01 -5.588411e-01 -6.799276e-01 -4.284438e-01 2.081901e-01 -1.286670e-01 -5.421342e-01 1.268770e-01 5.076790e-01
<VARIANCE> 25
 3.923496e+01 8.446616e+01 1.143400e+02 1.456098e+02 4.182275e+01 7.616295e+01 5.544651e+01 7.862019e+01 6.737157e+01 3.788372e+01 2.345424e+01 3.751009e+01 6.695371e+00 2.354987e+00 4.416368e+00 4.513947e+00 2.471012e+00 3.533996e+00 3.709222e+00 4.190402e+00 3.080362e+00 2.599129e+00 3.104455e+00 1.969118e+00 3.046731e+00
<GCONST> 1.105096e+02
<STATE> 4
<MEAN> 25
 -1.420249e+00 1.768493e+00 -2.574105e+00 -3.191666e-01 -4.429944e+00 -4.888981e+00 8.915212e-01 1.768145e+00 -7.156684e-01 -1.050638e-01 -2.131380e-01 9.432275e-01 3.901202e+00 -1.264372e+00 -1.439850e-01 -2.876064e+00 -2.829725e-01 -1.387455e+00 -2.056480e+00 -4.383397e-01 -8.623931e-01 -1.964502e+00 -3.057011e+00 4.000681e-01 1.496575e+00
<VARIANCE> 25
 4.730854e+01 2.974786e+01 3.515725e+01 4.343983e+01 2.962412e+01 3.309851e+01 4.671210e+01 4.811271e+01 2.735633e+01 3.735423e+01 3.342864e+01 1.797961e+01 1.445467e+00 4.362357e+00 3.851271e+00 6.976377e+00 5.267807e+00 3.465249e+00 6.174367e+00 6.311088e+00 4.668300e+00 6.083298e+00 2.946422e+00 3.388196e+00 2.056705e+00
<GCONST> 1.065291e+02
<TRANSP> 5
 0.000000e+00 1.000000e+00 0.000000e+00 0.000000e+00 0.000000e+00
 0.000000e+00 8.841205e-01 1.158795e-01 0.000000e+00 0.000000e+00
 0.000000e+00 0.000000e+00 7.010741e-01 2.989260e-01 0.000000e+00
 0.000000e+00 0.000000e+00 0.000000e+00 5.160686e-01 4.839314e-01
 0.000000e+00 0.000000e+00 0.000000e+00 0.000000e+00 0.000000e+00
<ENDHMM>
~h "t"
<BEGINHMM>
<NUMSTATES> 5
<STATE> 2
<MEAN> 25
 4.632210e+00 3.538625e+00 -3.061582e+00 3.416886e+00 -9.248970e-01 3.091239e+00 -2.777250e+00 -1.065503e+00 -2.565503e+00 -2.665037e+00 -4.539205e-01 8.884752e-01 -1.054496e+00 -9.575395e-02 -5.631182e-02 -4.296081e-01 -3.006459e-02 -2.233901e-01 4.839993e-01 5.066594e-01 -2.781623e-01 4.437533e-01 4.316270e-01 -4.770524e-01 1.336922e-01
<VARIANCE> 25
 3.678561e+01 3.116503e+01 6.080418e+01 2.376331e+01 2.392941e+01 5.582197e+01 3.142042e+01 3.100272e+01 2.544510e+01 3.267523e+01 3.928200e+01 4.587108e+01 2.233493e+00 2.920320e+00 3.482397e+00 2.714947e+00 2.731503e+00 4.545320e+00 3.220929e+00 3.251471e+00 2.058014e+00 4.026995e+00 3.437519e+00 3.787183e+00 4.187948e+00
<GCONST> 1.036685e+02
<STATE> 3
<MEAN> 25
 -2.742307e+00 -6.908677e-01 6.146755e-01 -2.784131e-01 -2.409971e+00 -2.515714e+00 1.589783e+00 9.623909e-01 -2.920876e+00 2.206152e+00 2.496008e+00 -1.205860e+00 -5.177379e-03 -1.204151e+00 -2.384165e-01 -3.837291e+00 -1.480714e-01 -2.416813e+00 1.991515e-01 -5.589068e-01 5.169288e-01 1.093545e+00 -3.102943e-01 -3.581656e-01 3.379820e+00
<VARIANCE> 25
 2.322492e+01 2.322752e+01 4.281228e+01 4.161869e+01 4.749499e+01 5.747448e+01 3.113115e+01 5.312141e+01 3.542315e+01 3.255835e+01 3.694256e+01 3.964960e+01 3.117444e+00 4.435545e+00 8.543240e+00 5.117761e+00 4.536532e+00 7.066101e+00 5.479771e+00 5.508633e+00 5.279699e+00 6.729351e+00 5.532007e+00 3.935444e+00 4.512973e+00
<GCONST> 1.108227e+02
<STATE> 4
<MEAN> 25
 1.424262e+00 -5.398054e-01 -1.641874e+00 -8.982981e+00 -2.013126e+00 -6.087512e+00 -1.236564e+00 -8.661242e-01 1.067271e+00 1.835107e+00 -5.849908e-01 -1.149717e+00 1.666293e+00 -4.107338e-01 -1.345329e+00 -3.076714e+00 5.617921e-01 -3.597131e-01 -6.649577e-01 -1.114637e+00 7.785426e-01 -5.641781e-02 -1.400882e+00 -1.942216e-01 1.668803e+00
<VARIANCE> 25
 2.198009e+01 2.476446e+01 7.423798e+01 4.542581e+01 5.220033e+01 4.290651e+01 3.801322e+01 4.272798e+01 4.104670e+01 4.289931e+01 4.832887e+01 2.353835e+01 2.875845e+00 5.200618e+00 5.763666e+00 7.593769e+00 4.906298e+00 3.336540e+00 4.460890e+00 8.038940e+00 3.932981e+00 4.828011e+00 4.184720e+00 3.468231e+00 4.430314e+00
<GCONST> 1.099535e+02
<TRANSP> 5
 0.000000e+00 1.000000e+00 0.000000e+00 0.000000e+00 0.000000e+00
 0.000000e+00 6.794687e-01 3.205313e-01 0.000000e+00 0.000000e+00
 0.000000e+00 0.000000e+00 4.712136e-01 5.287864e-01 0.000000e+00
 0.000000e+00 0.000000e+00 0.000000e+00 2.308622e-01 7.691377e-01
 0.000000e+00 0.000000e+00 0.000000e+00 0.000000e+00 0.000000e+00
<ENDHMM>
~h "w"
<BEGINHMM>
<NUMSTATES> 5
<STATE> 2
<MEAN> 25
 9.527834e+00 8.812695e+00 1.890292e+00 -7.574157e+00 -2.487163e+00 -6.637749e+00 -5.375790e+00 -1.845845e+00 -7.549057e+00 5.540712e-01 -1.472255e+00 5.524819e-01 1.961174e-01 -2.839015e-02 -5.786232e-01 -6.463395e-01 -1.880992e-01 -3.632128e-01 4.804405e-01 5.171320e-01 1.823668e-02 -1.854690e-01 3.049853e-01 -5.484453e-02 1.474515e-01
<VARIANCE> 25
 3.756378e+00 7.767678e+00 4.671723e+01 1.466567e+01 1.775280e+01 2.957634e+01 2.866634e+01 6.996397e+01 4.082991e+01 5.994861e+01 2.955627e+01 3.181264e+01 2.199705e-01 7.004296e-01 1.100821e+00 2.035650e+00 7.288345e-01 1.421561e+00 1.783461e+00 1.102512e+00 1.623202e+00 3.214513e+00 1.285183e+00 1.157443e+00 4.386159e-01
<GCONST> 8.523946e+01
<STATE> 3
<MEAN> 25
 7.716139e+00 3.176924e-01 -3.079063e+00 -1.657416e+01 3.264051e+00 -4.583957e+00 9.705907e-01 -3.354915e-01 -8.496745e-01 2.528962e+00 1.508074e+00 -3.362908e+00 -6.703677e-01 -2.320227e+00 -2.850044e-01 -3.013647e-01 1.536601e+00 6.739478e-01 9.723297e-01 -7.246847e-01 1.353191e+00 -5.677082e-01 -5.473254e-01 -1.078998e+00 1.480404e+00
<VARIANCE> 25
 1.133452e+01 4.051078e+01 2.895333e+01 1.921237e+01 4.854940e+01 4.770055e+01 3.707916e+01 5.803274e+01 5.355936e+01 1.117813e+02 4.714009e+01 4.522445e+01 3.030350e-01 8.078045e-01 1.239221e+00 3.538306e+00 1.741678e+00 1.685352e+00 2.908674e+00 2.616614e+00 3.892928e+00 5.658639e+00 8.847821e+00 5.123099e+00 6.367270e-01
<GCONST> 9.981332e+01
<STATE> 4
<MEAN> 25
 2.138064e+00 -9.020784e+00 -5.239694e+00 -1.046630e+01 4.360447e+00 -1.757390e+00 7.023384e+00 -6.162692e-01 2.868401e-01 4.933875e-01 3.372830e+00 9.670691e-03 -2.139202e-01 -3.205577e-01 -7.960283e-02 3.670402e-01 -8.479099e-02 1.508798e-01 1.117369e-01 6.038125e-02 -3.599020e-02 1.907391e-01 1.063348e-01 3.770719e-01 -1.259640e-01
<VARIANCE> 25
 1.216708e+01 2.974602e+01 2.400616e+01 2.444667e+01 4.248450e+01 3.826795e+01 3.605921e+01 2.952662e+01 2.447383e+01 3.709389e+01 4.639297e+01 3.538088e+01 1.735868e-01 4.862097e-01 4.894632e-01 4.708943e-01 8.411165e-01 9.601074e-01 8.696920e-01 1.403206e+00 9.577495e-01 2.067892e+00 1.584674e+00 1.210613e+00 2.333339e-01
<GCONST> 8.271696e+01
<TRANSP> 5
 0.000000e+00 1.000000e+00 0.000000e+00 0.000000e+00 0.000000e+00
 0.000000e+00 9.035476e-01 9.645246e-02 0.000000e+00 0.000000e+00
 0.000000e+00 0.000000e+00 8.370798e-01 1.629202e-01 0.000000e+00
 0.000000e+00 0.000000e+00 0.000000e+00 9.259677e-01 7.403231e-02
 0.000000e+00 0.000000e+00 0.000000e+00 0.000000e+00 0.000000e+00
<ENDHMM>
~h "y"
<BEGINHMM>
<NUMSTATES> 5
<STATE> 2
<MEAN> 25
 2.207319e+00 -1.088918e+00 9.163888e+00 -1.047550e+01 -8.246013e+00 -3.142842e+00 1.198256e+00 -5.425191e+00 -3.863616e+00 1.215087e+00 -3.143929e+00 1.341278e+00 -2.701693e-01 1.177927e+00 1.112396e+00 -6.246716e-01 -6.873259e-01 1.461881e-01 -8.472377e-01 -7.498330e-01 2.590037e-01 1.235017e+00 -3.580881e-02 1.618199e-01 -3.458739e-01
<VARIANCE> 25
 2.139562e+01 4.978141e+01 3.997102e+01 3.107550e+01 6.631053e+01 1.606857e+01 9.085305e+01 4.720472e+01 5.445916e+01 4.508244e+01 3.178774e+01 3.112525e+01 1.714807e-01 1.329137e+00 1.298701e+00 1.114740e+00 2.971162e+00 1.250192e+00 3.990168e+00 2.721229e+00 1.860211e+00 3.474952e+00 1.479388e+00 2.360024e+00 2.731270e-01
<GCONST> 9.448749e+01
<STATE> 3
<MEAN> 25
 -2.536261e-02 -1.070612e+00 1.063520e+01 -1.476731e+01 -1.035444e+01 -4.875186e+00 3.922755e+00 -3.657784e+00 -1.910408e+00 5.567992e+00 -2.067290e+00 -4.877443e-01 3.597018e-01 -2.131728e+00 -2.096174e+00 1.675825e-01 2.664946e-01 -4.102620e-02 2.563544e+00 1.667676e+00 -1.617660e-02 -1.419223e+00 5.451432e-02 -6.185263e-01 9.250121e-01
<VARIANCE> 25
 1.846284e+01 3.019691e+01 4.364230e+01 3.192781e+01 6.322985e+01 1.685950e+01 8.805299e+01 4.931295e+01 4.288758e+01 4.458697e+01 3.200270e+01 3.109010e+01 4.177124e-01 1.228955e+00 2.571402e+00 2.627920e+00 8.104356e+00 2.177030e+00 3.534930e+00 2.764694e+00 2.590047e+00 6.194540e+00 2.621127e+00 2.545360e+00 3.162807e-01
<GCONST> 9.923241e+01
<STATE> 4
<MEAN> 25
 5.994817e+00 -8.540603e+00 -8.181790e-01 -8.564077e+00 -6.108958e+00 -3.729353e+00 6.591063e+00 7.598718e-01 -5.604363e+00 -4.577567e+00 -5.385371e+00 4.945708e-01 4.388887e-01 -1.389855e+00 -1.801851e+00 8.059399e-01 2.731692e+00 3.633618e-01 -1.943247e-01 -4.203899e-01 3.780966e-01 -1.465112e+00 -5.646039e-01 4.656176e-01 1.481631e-01
<VARIANCE> 25
 3.066202e+01 2.817200e+01 2.654209e+01 4.929786e+01 1.102710e+02 1.279757e+01 4.572453e+01 3.258512e+01 7.393977e+01 3.942291e+01 4.082182e+01 1.951229e+01 2.707437e-01 8.698955e-01 1.254303e+00 1.501398e+00 2.894224e+00 1.328105e+00 2.372313e+00 2.781087e+00 1.313501e+00 2.527937e+00 1.688429e+00 1.876052e+00 1.201461e-01
<GCONST> 9.175565e+01
<TRANSP> 5
 0.000000e+00 1.000000e+00 0.000000e+00 0.000000e+00 0.000000e+00
 0.000000e+00 8.630951e-01 1.369049e-01 0.000000e+00 0.000000e+00
 0.000000e+00 0.000000e+00 7.587754e-01 2.412247e-01 0.000000e+00
 0.000000e+00 0.000000e+00 0.000000e+00 6.519350e-01 3.480650e-01
 0.000000e+00 0.000000e+00 0.000000e+00 0.000000e+00 0.000000e+00
<ENDHMM>
~h "aa"
<BEGINHMM>
<NUMSTATES> 5
<STATE> 2
<MEAN> 25
 3.238858e+00 -5.506738e+00 -1.844884e+00 -3.574563e+00 2.123871e+00 -2.154447e+00 1.067189e+00 -8.994601e-01 -7.622511e-01 -3.256541e+00 -2.238410e+00 -4.064381e-01 6.205481e-01 -1.650873e+00 -8.313095e-01 -1.251400e+00 9.866797e-01 1.982802e-01 3.499743e-01 -4.011032e-01 -4.212856e-01 -8.137670e-01 -4.467104e-01 1.026250e-01 1.531927e+00
<VARIANCE> 25
 2.859236e+01 5.288013e+01 3.905164e+01 5.893336e+01 5.069958e+01 3.859743e+01 7.163783e+01 5.306015e+01 3.729663e+01 4.105628e+01 4.802860e+01 2.812465e+01 2.207887e+00 3.079512e+00 3.028541e+00 4.247580e+00 4.123464e+00 4.213861e+00 5.030934e+00 5.874151e+00 3.203874e+00 3.619395e+00 3.939436e+00 2.477853e+00 2.298907e+00
<GCONST> 1.076478e+02
<STATE> 3
<MEAN> 25
 3.176961e+00 -1.142882e+01 -4.127621e+00 -6.472974e+00 6.385132e+00 -5.969808e-01 5.590551e+00 -1.170100e+00 -8.565368e-01 -4.671931e+00 -2.778760e+00 2.832285e-01 4.083049e-01 4.786704e-01 5.335285e-02 7.797926e-01 -2.955576e-01 1.382165e-01 -6.564195e-01 8.772521e-02 -3.744420e-01 -2.140171e-01 -8.486477e-02 6.459095e-02 -7.634578e-01
<VARIANCE> 25
 1.562829e+01 2.313158e+01 2.640563e+01 4.063373e+01 3.562400e+01 3.383942e+01 5.342953e+01 4.232191e+01 4.237374e+01 3.103794e+01 4.307607e+01 2.828012e+01 5.203930e-01 1.674145e+00 1.289104e+00 1.875284e+00 2.362465e+00 2.140573e+00 2.732888e+00 2.601113e+00 2.337112e+00 2.149413e+00 1.911050e+00 1.847303e+00 1.085170e+00
<GCONST> 9.520470e+01
<STATE> 4
<MEAN> 25
 8.958747e+00 -8.441128e+00 -6.693153e+00 -2.899359e+00 9.036677e-01 -1.920438e+00 -4.572508e+00 -9.890975e-01 -5.210736e+00 -9.223591e+00 -5.670984e+00 1.904454e+00 -1.451508e-01 6.668506e-01 2.376258e-01 2.300537e-01 -4.223065e-01 -2.308613e-01 -1.303428e-01 -7.623812e-02 -3.930886e-02 -2.312143e-02 1.874411e-01 -1.791178e-01 -4.961125e-01
<VARIANCE> 25
 2.063648e+01 3.096506e+01 2.685796e+01 3.129122e+01 3.452763e+01 2.858593e+01 4.804664e+01 3.220016e+01 2.737898e+01 2.990916e+01 3.469971e+01 2.729228e+01 3.190327e-01 1.202465e+00 9.737373e-01 1.161716e+00 1.772207e+00 1.533635e+00 1.808200e+00 1.693023e+00 1.529813e+00 1.769417e+00 1.672230e+00 1.477898e+00 3.384836e-01
<GCONST> 8.904202e+01
<TRANSP> 5
 0.000000e+00 1.000000e+00 0.000000e+00 0.000000e+00 0.000000e+00
 0.000000e+00 6.954371e-01 3.045629e-01 0.000000e+00 0.000000e+00
 0.000000e+00 0.000000e+00 8.123748e-01 1.876252e-01 0.000000e+00
 0.000000e+00 0.000000e+00 0.000000e+00 7.887469e-01 2.112531e-01
 0.000000e+00 0.000000e+00 0.000000e+00 0.000000e+00 0.000000e+00
<ENDHMM>
~h "ao"
<BEGINHMM>
<NUMSTATES> 5
<STATE> 2
<MEAN> 25
 5.171278e+00 -1.384414e-01 -6.074236e+00 -1.453058e+01 3.351768e+00 -2.152782e+00 2.952378e-01 -4.258844e+00 -2.826431e+00 8.200863e+00 8.470386e-01 -2.704375e+00 2.287075e-01 -7.958459e-01 -3.608684e-01 -2.035853e+00 -4.785629e-01 1.061225e-01 6.540416e-01 -6.357133e-02 4.249185e-01 -9.832087e-02 2.376098e-01 -5.754784e-01 8.365653e-01
<VARIANCE> 25
 1.353241e+01 1.242043e+01 2.020179e+01 6.652990e+01 3.259473e+01 2.166641e+01 3.798077e+01 2.426204e+01 3.043795e+01 4.444002e+01 2.301417e+01 2.136528e+01 5.189694e-01 6.976401e-01 9.305800e-01 7.540532e+00 3.122426e+00 2.481137e+00 2.579193e+00 1.626253e+00 3.236961e+00 5.429367e+00 1.657595e+00 1.606525e+00 9.122511e-01
<GCONST> 9.323593e+01
<STATE> 3
<MEAN> 25
 5.896456e+00 -1.458901e+00 2.909999e-01 -1.548616e+01 -9.717432e-01 -3.846259e+00 4.756037e-01 1.674101e+00 -1.791100e+00 -3.218031e+00 -3.135417e+00 -6.486456e+00 3.613603e-01 -3.834179e-01 4.500331e-01 9.668519e-01 -9.610929e-01 -3.307140e-01 -7.491051e-01 1.241167e+00 1.151119e+00 -5.113036e-01 -4.385794e-01 -7.795173e-01 2.986725e-01
<VARIANCE> 25
 1.085829e+01 2.302197e+01 6.284838e+01 2.685604e+01 3.893546e+01 2.866292e+01 5.345419e+01 6.192754e+01 6.684180e+01 7.946150e+01 4.711308e+01 1.708228e+01 4.340640e-01 2.126528e+00 1.511583e+00 5.028132e+00 5.318383e+00 2.248584e+00 2.241074e+00 2.210386e+00 3.411368e+00 6.229191e+00 3.682451e+00 1.403033e+00 3.639119e-01
<GCONST> 9.900749e+01
<STATE> 4
<MEAN> 25
 1.143288e+01 -8.757675e-01 -5.575896e+00 -1.334404e+01 -4.116321e+00 -1.104758e+00 -4.804411e+00 -1.738346e+00 3.117917e+00 2.188217e+00 -6.672975e-01 -4.995464e+00 4.319938e-02 -4.513459e-01 -1.888204e-02 9.727719e-01 -6.363745e-01 -2.528216e-01 3.276460e-01 4.003183e-01 3.183942e-01 -2.533221e-01 -2.902170e-01 3.391955e-01 -1.479029e-01
<VARIANCE> 25
 1.581072e+01 2.079665e+01 2.748926e+01 3.355882e+01 4.741357e+01 4.417156e+01 8.774497e+01 9.900620e+01 5.855379e+01 3.517912e+01 2.848579e+01 2.995708e+01 1.368577e-01 5.934954e-01 8.235601e-01 3.083337e+00 1.537403e+00 1.550104e+00 1.535195e+00 1.895426e+00 2.269846e+00 2.629109e+00 2.225085e+00 1.242705e+00 1.358425e-01
<GCONST> 9.083073e+01
<TRANSP> 5
 0.000000e+00 1.000000e+00 0.000000e+00 0.000000e+00 0.000000e+00
 0.000000e+00 8.067878e-01 1.932121e-01 0.000000e+00 0.000000e+00
 0.000000e+00 0.000000e+00 6.633686e-01 3.366314e-01 0.000000e+00
 0.000000e+00 0.000000e+00 0.000000e+00 8.391941e-01 1.608058e-01
 0.000000e+00 0.000000e+00 0.000000e+00 0.000000e+00 0.000000e+00
<ENDHMM>
~h "eh"
<BEGINHMM>
<NUMSTATES> 5
<STATE> 2
<MEAN> 25
 3.049980e+00 -1.366436e+00 -2.090393e+00 -1.831665e+00 -2.316168e+00 -2.717862e+00 2.764850e-01 -1.358785e+00 1.701667e+00 2.285045e-01 -1.125049e+00 -2.469256e-01 1.534121e+00 -7.078947e-01 -4.839307e-01 -1.340041e+00 -3.948444e-01 -1.869230e+00 -6.829648e-01 -1.341854e-02 2.023877e-02 -4.876703e-01 -1.421382e+00 -1.256858e-01 1.503875e+00
<VARIANCE> 25
 3.143839e+01 2.524101e+01 3.349007e+01 4.081185e+01 3.793518e+01 5.853391e+01 3.980069e+01 3.975657e+01 3.974285e+01 4.814250e+01 4.504151e+01 2.063281e+01 2.944669e+00 2.802395e+00 2.248656e+00 4.683186e+00 4.251600e+00 5.356886e+00 4.271687e+00 5.245524e+00 4.333344e+00 4.804092e+00 5.755771e+00 2.698425e+00 3.325888e+00
<GCONST> 1.069871e+02
<STATE> 3
<MEAN> 25
 6.112535e+00 -1.488463e+00 7.185207e-01 -3.797951e+00 -5.250113e+00 -6.205781e+00 2.672371e+00 2.331975e-01 -3.236154e+00 -1.337034e+00 -4.801690e+00 -3.243120e-02 -2.506109e-01 -4.701168e-01 3.646567e-01 2.261052e-02 7.107207e-01 -2.798418e-01 1.148379e-01 6.239130e-01 -3.645828e-01 -3.271896e-01 1.578574e-01 1.508927e-01 4.816596e-01
<VARIANCE> 25
 3.378331e+01 5.915034e+01 3.841080e+01 5.589863e+01 7.126659e+01 5.627274e+01 6.471285e+01 4.825128e+01 7.788376e+01 4.873474e+01 5.859942e+01 2.876643e+01 2.447186e+00 5.492337e+00 2.239060e+00 4.348033e+00 4.638997e+00 3.849623e+00 3.583467e+00 5.642875e+00 2.871046e+00 3.118650e+00 3.412862e+00 2.480405e+00 3.783745e+00
<GCONST> 1.096554e+02
<STATE> 4
<MEAN> 25
 4.770336e+00 -4.871830e-02 -3.447857e-01 -1.490320e+00 -4.376675e+00 -8.636264e+00 -9.171270e-01 1.060356e+00 -1.434379e+00 -3.382926e+00 -3.446295e+00 2.838042e-01 -1.439697e+00 1.165768e+00 -2.442447e-01 1.310212e+00 4.208655e-01 7.842232e-01 3.193393e-01 -4.416989e-01 -2.519968e-01 3.345454e-01 7.509176e-01 -6.805466e-01 -3.707448e-01
<VARIANCE> 25
 3.428159e+01 6.429340e+01 1.780976e+01 4.896180e+01 3.372369e+01 5.486155e+01 5.435904e+01 4.287196e+01 5.745396e+01 4.469522e+01 3.538474e+01 3.492788e+01 3.079869e+00 3.783743e+00 1.272678e+00 3.174662e+00 2.427237e+00 4.838709e+00 3.591308e+00 3.173350e+00 2.697533e+00 2.320593e+00 2.137594e+00 2.622002e+00 7.735000e-01
<GCONST> 1.027126e+02
<TRANSP> 5
 0.000000e+00 1.000000e+00 0.000000e+00 0.000000e+00 0.000000e+00
 0.000000e+00 6.035967e-01 3.964033e-01 0.000000e+00 0.000000e+00
 0.000000e+00 0.000000e+00 5.086305e-01 4.913695e-01 0.000000e+00
 0.000000e+00 0.000000e+00 0.000000e+00 6.620085e-01 3.379916e-01
 0.000000e+00 0.000000e+00 0.000000e+00 0.000000e+00 0.000000e+00
<ENDHMM>
~h "hh"
<BEGINHMM>
<NUMSTATES> 5
<STATE> 2
<MEAN> 25
 -1.248394e+00 -1.427095e+00 -3.350461e+00 1.734673e+00 2.749708e+00 6.594291e-02 -2.068615e-01 -2.381804e+00 -4.656854e-02 7.493946e-01 2.746201e+00 4.602697e-01 -1.327472e-01 1.551282e-01 3.471473e-01 2.343954e-01 -1.089598e-02 5.178035e-01 3.575958e-01 3.752575e-01 1.730064e-01 7.239681e-02 4.136860e-03 8.605862e-02 -3.987264e-01
<VARIANCE> 25
 3.322648e+00 4.847320e+00 5.783144e+00 1.950720e+01 1.137278e+01 1.893618e+01 1.505364e+01 1.329388e+01 2.301833e+01 2.724424e+01 2.066878e+01 1.747860e+01 2.975495e-01 4.341793e-01 5.676479e-01 1.021076e+00 1.049280e+00 1.192678e+00 1.202039e+00 1.516715e+00 1.540059e+00 1.851252e+00 1.184683e+00 1.407679e+00 1.376814e-01
<GCONST> 7.426310e+01
<STATE> 3
<MEAN> 25
 1.157664e+00 5.405685e-01 5.183715e-01 4.669499e+00 1.401824e+00 2.256317e+00 -3.064780e-01 7.508935e-01 1.615656e-01 -3.766918e-01 2.420641e+00 4.554339e-01 -1.324484e-02 3.505879e-02 1.011582e-01 4.104248e-02 -5.693993e-02 -1.525830e-02 2.103912e-02 6.272332e-02 3.148194e-02 -2.490749e-02 -2.764052e-02 7.689574e-02 -3.586356e-02
<VARIANCE> 25
 2.463337e+00 2.750198e+00 5.007085e+00 7.691999e+00 9.544013e+00 1.195852e+01 1.162621e+01 1.535563e+01 1.317448e+01 1.744261e+01 1.162311e+01 1.639809e+01 1.554306e-01 2.274147e-01 4.313437e-01 6.933811e-01 8.304254e-01 1.029487e+00 1.057006e+00 1.483414e+00 1.574226e+00 1.729393e+00 1.405437e+00 1.253269e+00 3.767393e-02
<GCONST> 6.615294e+01
<STATE> 4
<MEAN> 25
 -5.923085e+00 8.002767e-01 1.810399e+00 1.730320e+00 2.534982e+00 2.944036e+00 4.119581e+00 2.395684e+00 4.064188e+00 3.696035e+00 3.235362e+00 -2.620386e-01 -4.610174e-02 -3.626341e-03 5.085259e-02 2.796149e-02 -1.408230e-02 -1.163522e-02 4.793761e-02 6.553102e-02 7.405972e-02 7.216951e-02 1.421877e-02 -1.664253e-02 2.063751e-02
<VARIANCE> 25
 2.538005e+00 2.651551e+00 4.583484e+00 6.777527e+00 9.552098e+00 1.424523e+01 1.049521e+01 1.351608e+01 1.535279e+01 1.372297e+01 1.152263e+01 1.155365e+01 1.200649e-01 2.227371e-01 4.513764e-01 5.734172e-01 9.078249e-01 1.123642e+00 1.132632e+00 1.483016e+00 1.850410e+00 1.428820e+00 1.171511e+00 1.276479e+00 3.094454e-02
<GCONST> 6.486369e+01
<TRANSP> 5
 0.000000e+00 1.000000e+00 0.000000e+00 0.000000e+00 0.000000e+00
 0.000000e+00 8.697996e-01 1.302004e-01 0.000000e+00 0.000000e+00
 0.000000e+00 0.000000e+00 9.352633e-01 6.473669e-02 0.000000e+00
 0.000000e+00 0.000000e+00 0.000000e+00 9.587590e-01 4.124107e-02
 0.000000e+00 0.000000e+00 0.000000e+00 0.000000e+00 0.000000e+00
<ENDHMM>
~h "ih"
<BEGINHMM>
<NUMSTATES> 5
<STATE> 2
<MEAN> 25
 9.144827e-01 4.786689e+00 9.596850e+00 -4.465195e+00 -3.252106e+00 -3.251315e+00 -5.193829e+00 -3.911283e+00 -2.798926e-01 -1.422420e+00 -3.378087e+00 -8.979739e-01 -1.860678e-01 1.442660e-01 8.270326e-01 -7.148407e-01 4.027800e-02 -1.872392e-01 -6.656647e-01 3.819803e-02 2.482138e-02 -2.874082e-01 -3.841882e-01 8.925341e-03 2.424012e-01
<VARIANCE> 25
 2.610549e+01 7.935696e+01 7.283243e+01 1.580349e+02 7.226653e+01 4.676155e+01 5.827563e+01 5.393044e+01 4.853981e+01 4.236704e+01 3.175220e+01 3.890529e+01 2.525898e+00 3.360120e+00 4.947478e+00 9.740529e+00 5.564970e+00 4.145165e+00 5.185352e+00 4.737716e+00 5.233725e+00 4.982461e+00 3.606155e+00 2.939135e+00 3.284838e+00
<GCONST> 1.130249e+02
<STATE> 3
<MEAN> 25
 5.800446e-01 5.539326e+00 1.140905e+01 -8.664714e+00 -3.975533e+00 -3.825165e+00 -7.988731e+00 -5.965741e+00 -2.085085e+00 -6.156145e-01 -4.300332e+00 -3.194708e-01 6.810996e-02 -7.583066e-02 -4.990058e-01 5.092203e-01 3.686702e-01 1.049586e-01 1.094308e-01 1.913020e-01 1.743362e-01 -7.324839e-02 3.876145e-01 9.777723e-02 -4.237770e-01
<VARIANCE> 25
 1.710249e+01 3.463564e+01 4.356404e+01 1.016133e+02 7.382314e+01 3.691212e+01 3.764585e+01 4.801810e+01 4.735042e+01 4.200666e+01 2.643029e+01 3.714919e+01 5.027323e-01 6.850043e-01 1.299322e+00 3.231235e+00 2.097656e+00 1.742068e+00 1.898464e+00 2.188587e+00 1.854184e+00 1.759054e+00 1.752093e+00 1.583130e+00 5.191169e-01
<GCONST> 9.525701e+01
<STATE> 4
<MEAN> 25
 -1.232708e+00 1.657579e+00 1.746308e+00 3.487569e+00 6.739639e-01 1.662261e+00 3.271146e-01 1.005217e+00 1.774874e+00 8.201837e-01 1.880669e+00 2.959624e-01 -1.595698e-02 -5.889149e-02 -2.289018e-01 1.352730e-01 7.093866e-02 1.098076e-01 1.641725e-01 1.590851e-02 7.792819e-03 7.165041e-02 9.048507e-02 -3.255950e-02 -6.358617e-02
<VARIANCE> 25
 1.331304e+01 1.334507e+01 1.677796e+01 2.245647e+01 1.923777e+01 2.021791e+01 2.626223e+01 2.402112e+01 2.244008e+01 2.218502e+01 1.792920e+01 1.512428e+01 1.916861e-01 3.991005e-01 7.172038e-01 1.086252e+00 1.120407e+00 1.303151e+00 1.429644e+00 1.459009e+00 1.404531e+00 1.495219e+00 1.312938e+00 1.318968e+00 1.210421e-01
<GCONST> 7.875500e+01
<TRANSP> 5
 0.000000e+00 1.000000e+00 0.000000e+00 0.000000e+00 0.000000e+00
 0.000000e+00 7.673535e-01 2.326464e-01 0.000000e+00 0.000000e+00
 0.000000e+00 0.000000e+00 8.529432e-01 1.470568e-01 0.000000e+00
 0.000000e+00 0.000000e+00 0.000000e+00 8.943210e-01 1.056790e-01
 0.000000e+00 0.000000e+00 0.000000e+00 0.000000e+00 0.000000e+00
<ENDHMM>
~h "ng"
<BEGINHMM>
<NUMSTATES> 5
<STATE> 2
<MEAN> 25
 3.974633e+00 -2.267280e+00 1.259871e+00 -1.857089e+00 3.917655e+00 -8.401488e+00 3.619603e-01 -2.336996e+00 -8.350515e-02 -2.147886e+00 -3.724842e-01 -4.701773e+00 -2.430810e-01 -2.312133e-01 8.328374e-02 4.499170e-01 5.565799e-01 -2.469061e-01 -6.499724e-01 -1.860631e-01 5.361263e-01 2.016841e-01 6.009314e-01 -7.282080e-02 -1.633555e-02
<VARIANCE> 25
 1.008152e+01 5.095296e+01 3.851659e+01 5.621343e+01 3.909521e+01 4.758394e+01 6.397298e+01 5.503873e+01 4.559584e+01 3.842261e+01 5.705494e+01 4.225256e+01 5.576583e-01 9.414049e-01 1.108812e+00 1.434361e+00 1.517832e+00 1.902188e+00 2.348899e+00 2.371795e+00 1.784763e+00 2.592724e+00 1.599108e+00 1.724542e+00 5.265508e-01
<GCONST> 9.532240e+01
<STATE> 3
<MEAN> 25
 2.676822e+00 -6.484775e-01 1.540308e+00 3.167729e+00 8.337328e+00 -4.471506e+00 -2.279547e+00 -3.019686e+00 3.036830e+00 -7.487751e-01 1.694240e+00 -5.051027e+00 -1.810488e-01 3.965464e-01 6.693335e-02 3.028307e-01 -2.276624e-01 8.516748e-01 1.476331e-01 3.909836e-01 8.519048e-02 9.129217e-02 -2.452263e-01 1.511357e-01 -6.780905e-01
<VARIANCE> 25
 8.512122e+00 4.426686e+01 3.293918e+01 2.869686e+01 3.181582e+01 3.977066e+01 3.334845e+01 3.591196e+01 4.708247e+01 3.095000e+01 7.953642e+01 2.609383e+01 5.617412e-01 1.638669e+00 1.186533e+00 1.325672e+00 1.378208e+00 2.013286e+00 2.585693e+00 1.658753e+00 1.943249e+00 1.864159e+00 2.754081e+00 1.245026e+00 7.814453e-01
<GCONST> 9.300300e+01
<STATE> 4
<MEAN> 25
 -7.130644e-01 -1.317685e-01 -2.163147e+00 3.310879e+00 -5.729041e-01 2.491855e+00 1.893554e+00 5.810921e-01 3.027997e-01 2.382080e+00 8.488214e-01 1.614821e+00 -6.894156e-02 -2.647364e-02 -2.151369e-02 -1.771785e-02 -8.189215e-02 2.594159e-02 -3.110284e-02 5.268754e-02 2.206437e-02 5.850305e-02 6.846323e-02 7.658727e-02 -5.839628e-02
<VARIANCE> 25
 7.607376e+00 9.816625e+00 2.123671e+01 1.606879e+01 1.879971e+01 1.163235e+01 1.883682e+01 1.562315e+01 1.586403e+01 2.428980e+01 1.527559e+01 1.841374e+01 1.401873e-01 3.268470e-01 4.547441e-01 8.411673e-01 8.588191e-01 9.096569e-01 1.075438e+00 9.617088e-01 1.231331e+00 1.232315e+00 1.304771e+00 9.957431e-01 1.102768e-01
<GCONST> 7.297516e+01
<TRANSP> 5
 0.000000e+00 1.000000e+00 0.000000e+00 0.000000e+00 0.000000e+00
 0.000000e+00 6.878091e-01 3.121909e-01 0.000000e+00 0.000000e+00
 0.000000e+00 0.000000e+00 7.703689e-01 2.296311e-01 0.000000e+00
 0.000000e+00 0.000000e+00 0.000000e+00 9.415623e-01 5.843769e-02
 0.000000e+00 0.000000e+00 0.000000e+00 0.000000e+00 0.000000e+00
<ENDHMM>
~h "oh"
<BEGINHMM>
<NUMSTATES> 5
<STATE> 2
<MEAN> 25
 4.876313e-08 -1.572510e-08 -3.479018e-08 -3.353887e-08 3.894225e-08 5.448882e-08 6.837960e-09 -3.357679e-08 -9.075150e-09 1.238669e-09 6.825321e-10 3.043588e-08 1.480543e-02 -2.130302e-03 7.752344e-03 -2.168820e-03 1.143337e-02 -2.309903e-03 4.269884e-03 -3.775733e-03 -3.292339e-03 -9.014427e-04 -3.430429e-03 -3.983431e-03 3.762102e-02
<VARIANCE> 25
 4.782532e+01 4.486550e+01 4.720150e+01 6.892854e+01 4.782745e+01 4.025578e+01 4.904441e+01 4.112494e+01 4.163441e+01 4.402450e+01 3.629408e+01 2.461185e+01 1.112554e+00 1.522353e+00 1.617351e+00 2.656559e+00 2.172489e+00 2.083682e+00 2.429415e+00 2.410789e+00 2.262104e+00 2.509146e+00 2.111452e+00 1.695109e+00 1.480569e+00
<GCONST> 9.985252e+01
<STATE> 3
<MEAN> 25
 4.876313e-08 -1.572510e-08 -3.479018e-08 -3.353887e-08 3.894225e-08 5.448882e-08 6.837960e-09 -3.357679e-08 -9.075150e-09 1.238669e-09 6.825321e-10 3.043588e-08 1.480543e-02 -2.130302e-03 7.752344e-03 -2.168820e-03 1.143337e-02 -2.309903e-03 4.269884e-03 -3.775733e-03 -3.292339e-03 -9.014427e-04 -3.430429e-03 -3.983431e-03 3.762102e-02
<VARIANCE> 25
 4.782532e+01 4.486550e+01 4.720150e+01 6.892854e+01 4.782745e+01 4.025578e+01 4.904441e+01 4.112494e+01 4.163441e+01 4.402450e+01 3.629408e+01 2.461185e+01 1.112554e+00 1.522353e+00 1.617351e+00 2.656559e+00 2.172489e+00 2.083682e+00 2.429415e+00 2.410789e+00 2.262104e+00 2.509146e+00 2.111452e+00 1.695109e+00 1.480569e+00
<GCONST> 9.985252e+01
<STATE> 4
<MEAN> 25
 4.876313e-08 -1.572510e-08 -3.479018e-08 -3.353887e-08 3.894225e-08 5.448882e-08 6.837960e-09 -3.357679e-08 -9.075150e-09 1.238669e-09 6.825321e-10 3.043588e-08 1.480543e-02 -2.130302e-03 7.752344e-03 -2.168820e-03 1.143337e-02 -2.309903e-03 4.269884e-03 -3.775733e-03 -3.292339e-03 -9.014427e-04 -3.430429e-03 -3.983431e-03 3.762102e-02
<VARIANCE> 25
 4.782532e+01 4.486550e+01 4.720150e+01 6.892854e+01 4.782745e+01 4.025578e+01 4.904441e+01 4.112494e+01 4.163441e+01 4.402450e+01 3.629408e+01 2.461185e+01 1.112554e+00 1.522353e+00 1.617351e+00 2.656559e+00 2.172489e+00 2.083682e+00 2.429415e+00 2.410789e+00 2.262104e+00 2.509146e+00 2.111452e+00 1.695109e+00 1.480569e+00
<GCONST> 9.985252e+01
<TRANSP> 5
 0.000000e+00 1.000000e+00 0.000000e+00 0.000000e+00 0.000000e+00
 0.000000e+00 6.000000e-01 4.000000e-01 0.000000e+00 0.000000e+00
 0.000000e+00 0.000000e+00 6.000000e-01 4.000000e-01 0.000000e+00
 0.000000e+00 0.000000e+00 0.000000e+00 7.000000e-01 3.000000e-01
 0.000000e+00 0.000000e+00 0.000000e+00 0.000000e+00 0.000000e+00
<ENDHMM>
~h "sp"
<BEGINHMM>
<NUMSTATES> 3
<STATE> 2
~s "silst"
<TRANSP> 3
 0.000000e+00 1.661588e-02 9.833841e-01
 0.000000e+00 9.259538e-01 7.404620e-02
 0.000000e+00 0.000000e+00 0.000000e+00
<ENDHMM>
~h "uw"
<BEGINHMM>
<NUMSTATES> 5
<STATE> 2
<MEAN> 25
 5.068215e+00 1.332470e+00 -4.069021e+00 -1.020139e+01 9.159086e-01 -4.829113e+00 -3.920130e+00 -3.098956e+00 -1.839913e+00 2.874923e+00 6.505545e-01 -1.060278e+00 9.805121e-01 3.867163e-01 -8.135322e-01 -2.180930e+00 1.317247e-01 5.022777e-01 2.383594e-01 -6.322793e-01 -9.991121e-01 2.027161e-01 -2.908734e-01 -2.447553e-03 3.750466e-01
<VARIANCE> 25
 2.072104e+01 1.591046e+01 3.321714e+01 7.027286e+01 7.156387e+01 4.058949e+01 4.221653e+01 3.463056e+01 4.125837e+01 4.526490e+01 4.292933e+01 2.794557e+01 1.710078e+00 1.496025e+00 1.701292e+00 5.190670e+00 3.934880e+00 4.158000e+00 2.663764e+00 2.994308e+00 3.714582e+00 2.992664e+00 3.104644e+00 2.894003e+00 1.939527e+00
<GCONST> 1.026397e+02
<STATE> 3
<MEAN> 25
 6.826427e+00 3.233809e+00 -3.956079e+00 -9.993435e+00 -1.881433e+00 -3.934789e+00 -3.709346e+00 -4.501988e+00 -4.165552e+00 8.823552e-01 -7.802641e-01 -1.479279e+00 -2.890864e-01 3.060330e-02 4.450468e-01 1.352960e+00 -5.675633e-02 4.288959e-02 -6.825671e-02 6.120281e-02 4.267127e-01 -1.125682e-01 1.460857e-01 1.507453e-02 -6.106917e-01
<VARIANCE> 25
 1.525277e+01 2.007273e+01 2.705594e+01 6.273529e+01 4.806025e+01 3.465761e+01 3.866720e+01 3.558696e+01 3.720206e+01 4.072364e+01 3.572485e+01 2.868166e+01 6.343313e-01 9.330400e-01 1.104730e+00 3.192811e+00 2.285824e+00 2.615338e+00 2.196430e+00 2.705533e+00 2.552631e+00 2.727802e+00 2.519916e+00 1.827483e+00 6.908283e-01
<GCONST> 9.541229e+01
<STATE> 4
<MEAN> 25
 -1.316677e+00 1.214045e+00 9.204620e-01 2.674207e+00 1.132196e+00 1.561222e+00 1.084387e+00 1.390304e+00 2.003511e+00 1.707208e+00 2.415678e+00 1.554987e-01 -1.094911e-01 -2.595899e-02 8.088075e-02 2.717677e-01 4.846168e-02 1.037109e-01 6.299210e-02 1.294903e-01 1.542894e-01 -1.756315e-02 -1.915687e-02 -2.156288e-02 -7.336272e-02
<VARIANCE> 25
 1.720506e+01 6.602152e+00 9.864281e+00 1.684906e+01 1.311318e+01 1.782668e+01 2.406284e+01 2.109991e+01 2.156359e+01 2.019753e+01 1.771664e+01 1.288343e+01 1.636340e-01 3.111990e-01 4.908398e-01 8.532431e-01 1.039958e+00 1.222388e+00 1.421916e+00 1.563409e+00 1.653893e+00 1.573381e+00 1.357163e+00 1.192174e+00 8.471084e-02
<GCONST> 7.514409e+01
<TRANSP> 5
 0.000000e+00 1.000000e+00 0.000000e+00 0.000000e+00 0.000000e+00
 0.000000e+00 7.160698e-01 2.839303e-01 0.000000e+00 0.000000e+00
 0.000000e+00 0.000000e+00 8.667544e-01 1.332456e-01 0.000000e+00
 0.000000e+00 0.000000e+00 0.000000e+00 8.989395e-01 1.010606e-01
 0.000000e+00 0.000000e+00 0.000000e+00 0.000000e+00 0.000000e+00
<ENDHMM>
~h "sil"
<BEGINHMM>
<NUMSTATES> 5
<STATE> 2
<MEAN> 25
 -1.467422e+01 6.156022e+00 -1.999373e+00 9.766721e+00 -2.516625e+00 7.549698e+00 -2.381150e+00 8.166920e+00 8.732962e+00 4.126225e+00 5.598698e+00 2.284106e+00 -1.945801e-02 2.666750e-02 -7.460640e-03 -2.666659e-02 5.615169e-02 4.842653e-02 -3.373688e-02 -2.939800e-02 9.438536e-02 6.123496e-02 2.895650e-03 -8.787854e-02 -2.155257e-02
<VARIANCE> 25
 4.618699e+01 1.498720e+01 2.336659e+01 2.507712e+01 3.388873e+01 1.834736e+01 3.204884e+01 3.798302e+01 2.995188e+01 1.889128e+01 1.923536e+01 1.377646e+01 7.022837e-02 1.799031e-01 2.855462e-01 4.382038e-01 5.300652e-01 6.629313e-01 9.435273e-01 1.134136e+00 1.062497e+00 1.423781e+00 1.099831e+00 1.272150e+00 2.362685e-02
<GCONST> 7.389161e+01
<STATE> 3
~s "silst"
<STATE> 4
<MEAN> 25
 -4.070940e+00 1.045025e+00 -2.565104e-02 3.249876e+00 1.633753e+00 3.632110e+00 2.402531e+00 2.311297e+00 2.884984e+00 2.910367e+00 3.047978e+00 6.925939e-01 -6.109588e-04 8.737632e-03 1.917758e-02 1.642232e-02 -7.248767e-03 2.004590e-03 -5.022029e-04 -2.689723e-02 -4.176790e-02 2.682268e-02 2.397055e-02 1.132530e-02 5.299921e-02
<VARIANCE> 25
 1.671312e+01 8.022533e+00 1.111593e+01 1.713294e+01 1.578612e+01 1.473654e+01 2.064479e+01 1.893105e+01 1.826511e+01 1.623177e+01 1.460586e+01 1.539416e+01 2.468132e-01 4.024412e-01 5.905075e-01 8.036635e-01 1.082926e+00 1.197320e+00 1.220606e+00 1.460520e+00 1.552467e+00 1.398293e+00 1.387314e+00 1.297521e+00 1.364298e-01
<GCONST> 7.577403e+01
<TRANSP> 5
 0.000000e+00 1.000000e+00 0.000000e+00 0.000000e+00 0.000000e+00
 0.000000e+00 8.624752e-01 2.532915e-02 1.121957e-01 0.000000e+00
 0.000000e+00 0.000000e+00 9.611270e-01 3.887296e-02 0.000000e+00
 0.000000e+00 4.379489e-02 0.000000e+00 8.629525e-01 9.325263e-02
 0.000000e+00 0.000000e+00 0.000000e+00 0.000000e+00 0.000000e+00
<ENDHMM>
