~o
<STREAMINFO> 1 25
<VECSIZE> 25<NULLD><MFCC_D_N_Z_0><DIAGC>
~h "b"
<BEGINHMM>
<NUMSTATES> 5
<STATE> 2
<MEAN> 25
 6.753909e-01 2.966339e-01 8.274918e-01 -1.169906e+00 -1.773133e+00 -1.315475e+00 -8.765376e-01 -5.196602e-01 2.291760e-01 5.048641e-01 -1.903526e-02 -1.220164e-01 2.697670e-02 -6.973648e-03 -8.722844e-03 2.403453e-02 3.939976e-02 6.109931e-03 -2.962977e-03 -2.500415e-04 -2.066458e-02 -3.184755e-02 -1.837327e-03 3.852808e-03 1.624185e-02
<VARIANCE> 25
 3.793072e+01 3.607405e+01 5.326218e+01 6.465321e+01 5.730227e+01 4.103999e+01 4.325408e+01 4.761129e+01 4.194244e+01 4.600348e+01 3.689870e+01 2.539258e+01 1.053986e+00 1.395733e+00 2.553571e+00 2.968886e+00 2.733816e+00 2.231756e+00 2.493373e+00 2.856669e+00 2.663059e+00 3.089367e+00 2.388602e+00 1.979416e+00 1.442260e+00
<GCONST> 1.013239e+02
<STATE> 3
<MEAN> 25
 7.620427e-01 2.750270e-01 7.820914e-01 -1.064755e+00 -1.621955e+00 -1.305230e+00 -8.981295e-01 -5.363302e-01 1.530535e-01 3.832727e-01 -2.880338e-02 -1.133535e-01 1.586918e-02 -1.834028e-03 -1.097175e-02 3.409507e-02 4.261230e-02 1.060151e-02 -1.738764e-03 1.473391e-03 -1.949355e-02 -3.104517e-02 -1.452489e-03 4.372827e-03 -1.860518e-03
<VARIANCE> 25
 3.659141e+01 3.624490e+01 5.128357e+01 6.538739e+01 5.572221e+01 4.059985e+01 4.322768e+01 4.755459e+01 4.123919e+01 4.614816e+01 3.718329e+01 2.542786e+01 9.762217e-01 1.390226e+00 2.440875e+00 2.934277e+00 2.704398e+00 2.231407e+00 2.457376e+00 2.851402e+00 2.643143e+00 3.056010e+00 2.417630e+00 1.977784e+00 1.265128e+00
<GCONST> 1.009179e+02
<STATE> 4
<MEAN> 25
 6.693553e-01 1.151102e-01 6.807639e-01 -5.744863e-01 -1.334316e+00 -1.220949e+00 -8.643538e-01 -4.461840e-01 5.115349e-02 1.909305e-01 -1.804369e-01 -2.156630e-01 3.553809e-03 2.821179e-03 -1.444594e-02 3.720994e-02 3.543192e-02 7.812791e-03 1.586855e-03 1.457402e-03 -5.878849e-03 -2.358096e-02 -6.700653e-03 8.064030e-03 -1.570087e-02
<VARIANCE> 25
 3.836319e+01 3.534657e+01 4.854477e+01 6.020408e+01 5.447255e+01 3.899051e+01 4.584376e+01 4.639973e+01 3.999223e+01 4.731511e+01 3.751353e+01 2.552695e+01 8.906286e-01 1.379976e+00 2.198524e+00 2.706083e+00 2.604270e+00 2.253817e+00 2.372001e+00 2.736400e+00 2.506979e+00 2.924329e+00 2.350040e+00 1.912210e+00 9.578696e-01
<GCONST> 9.995442e+01
<TRANSP> 5
 0.000000e+00 1.000000e+00 0.000000e+00 0.000000e+00 0.000000e+00
 0.000000e+00 7.562706e-01 2.437294e-01 0.000000e+00 0.000000e+00
 0.000000e+00 0.000000e+00 7.562706e-01 2.437294e-01 0.000000e+00
 0.000000e+00 0.000000e+00 0.000000e+00 8.929415e-01 1.070585e-01
 0.000000e+00 0.000000e+00 0.000000e+00 0.000000e+00 0.000000e+00
<ENDHMM>
~h "c"
<BEGINHMM>
<NUMSTATES> 5
<STATE> 2
<MEAN> 25
 4.876313e-08 -1.572510e-08 -3.479018e-08 -3.353887e-08 3.894225e-08 5.448882e-08 6.837960e-09 -3.357679e-08 -9.075150e-09 1.238669e-09 6.825321e-10 3.043588e-08 1.480543e-02 -2.130302e-03 7.752344e-03 -2.168820e-03 1.143337e-02 -2.309903e-03 4.269884e-03 -3.775733e-03 -3.292339e-03 -9.014427e-04 -3.430429e-03 -3.983431e-03 3.762102e-02
<VARIANCE> 25
 4.782532e+01 4.486550e+01 4.720150e+01 6.892854e+01 4.782745e+01 4.025578e+01 4.904441e+01 4.112494e+01 4.163441e+01 4.402450e+01 3.629408e+01 2.461185e+01 1.112554e+00 1.522353e+00 1.617351e+00 2.656559e+00 2.172489e+00 2.083682e+00 2.429415e+00 2.410789e+00 2.262104e+00 2.509146e+00 2.111452e+00 1.695109e+00 1.480569e+00
<GCONST> 9.985252e+01
<STATE> 3
<MEAN> 25
 4.876313e-08 -1.572510e-08 -3.479018e-08 -3.353887e-08 3.894225e-08 5.448882e-08 6.837960e-09 -3.357679e-08 -9.075150e-09 1.238669e-09 6.825321e-10 3.043588e-08 1.480543e-02 -2.130302e-03 7.752344e-03 -2.168820e-03 1.143337e-02 -2.309903e-03 4.269884e-03 -3.775733e-03 -3.292339e-03 -9.014427e-04 -3.430429e-03 -3.983431e-03 3.762102e-02
<VARIANCE> 25
 4.782532e+01 4.486550e+01 4.720150e+01 6.892854e+01 4.782745e+01 4.025578e+01 4.904441e+01 4.112494e+01 4.163441e+01 4.402450e+01 3.629408e+01 2.461185e+01 1.112554e+00 1.522353e+00 1.617351e+00 2.656559e+00 2.172489e+00 2.083682e+00 2.429415e+00 2.410789e+00 2.262104e+00 2.509146e+00 2.111452e+00 1.695109e+00 1.480569e+00
<GCONST> 9.985252e+01
<STATE> 4
<MEAN> 25
 4.876313e-08 -1.572510e-08 -3.479018e-08 -3.353887e-08 3.894225e-08 5.448882e-08 6.837960e-09 -3.357679e-08 -9.075150e-09 1.238669e-09 6.825321e-10 3.043588e-08 1.480543e-02 -2.130302e-03 7.752344e-03 -2.168820e-03 1.143337e-02 -2.309903e-03 4.269884e-03 -3.775733e-03 -3.292339e-03 -9.014427e-04 -3.430429e-03 -3.983431e-03 3.762102e-02
<VARIANCE> 25
 4.782532e+01 4.486550e+01 4.720150e+01 6.892854e+01 4.782745e+01 4.025578e+01 4.904441e+01 4.112494e+01 4.163441e+01 4.402450e+01 3.629408e+01 2.461185e+01 1.112554e+00 1.522353e+00 1.617351e+00 2.656559e+00 2.172489e+00 2.083682e+00 2.429415e+00 2.410789e+00 2.262104e+00 2.509146e+00 2.111452e+00 1.695109e+00 1.480569e+00
<GCONST> 9.985252e+01
<TRANSP> 5
 0.000000e+00 1.000000e+00 0.000000e+00 0.000000e+00 0.000000e+00
 0.000000e+00 6.000000e-01 4.000000e-01 0.000000e+00 0.000000e+00
 0.000000e+00 0.000000e+00 6.000000e-01 4.000000e-01 0.000000e+00
 0.000000e+00 0.000000e+00 0.000000e+00 7.000000e-01 3.000000e-01
 0.000000e+00 0.000000e+00 0.000000e+00 0.000000e+00 0.000000e+00
<ENDHMM>
~h "d"
<BEGINHMM>
<NUMSTATES> 5
<STATE> 2
<MEAN> 25
 9.644908e-01 -1.419684e-01 8.464438e-01 -9.275396e-01 4.201369e-01 -5.288531e-01 -3.402723e-01 -6.646399e-01 -4.256166e-01 2.750070e-01 -1.435501e-01 -1.644963e-01 5.714861e-02 -3.940827e-02 4.695285e-02 -6.145915e-02 -5.067348e-03 -2.362153e-02 3.224814e-02 -2.852127e-02 -2.020095e-02 -1.425690e-03 -2.441619e-02 1.182775e-02 1.442590e-01
<VARIANCE> 25
 3.058705e+01 3.978368e+01 5.448143e+01 8.048029e+01 4.797935e+01 3.611489e+01 4.969356e+01 3.631867e+01 3.604174e+01 4.275019e+01 3.543817e+01 2.271102e+01 1.077931e+00 1.726042e+00 2.244576e+00 3.122935e+00 2.516857e+00 2.070797e+00 2.877137e+00 2.498980e+00 2.591155e+00 3.039823e+00 2.230964e+00 1.797943e+00 2.285546e+00
<GCONST> 1.008946e+02
<STATE> 3
<MEAN> 25
 1.141630e+00 -3.146262e-01 9.798707e-01 -1.186510e+00 3.738316e-01 -6.244935e-01 -2.022770e-01 -7.624773e-01 -4.803644e-01 2.749371e-01 -2.340555e-01 -1.085981e-01 4.215762e-02 -4.389921e-02 2.587218e-02 -6.610093e-02 -1.041694e-02 -2.418349e-02 3.377343e-02 -2.212106e-02 -1.125204e-02 -3.366610e-03 -2.280587e-02 1.277203e-02 1.191817e-01
<VARIANCE> 25
 2.723804e+01 4.035202e+01 5.433162e+01 8.111600e+01 4.915211e+01 3.597215e+01 5.105182e+01 3.602839e+01 3.616510e+01 4.375552e+01 3.593933e+01 2.285552e+01 9.701328e-01 1.757242e+00 2.294994e+00 3.162093e+00 2.593742e+00 2.080505e+00 2.948422e+00 2.530144e+00 2.623774e+00 3.111075e+00 2.254571e+00 1.809694e+00 1.993506e+00
<GCONST> 1.008190e+02
<STATE> 4
<MEAN> 25
 1.181458e+00 -4.650919e-01 7.892673e-01 -1.426967e+00 3.575753e-01 -6.677450e-01 4.704446e-02 -6.572664e-01 -4.289366e-01 2.111021e-01 -2.858169e-01 -1.239774e-01 2.260327e-02 -4.197765e-02 -5.442845e-03 -4.306603e-02 -1.211746e-02 -1.191803e-02 2.800781e-02 -1.319881e-03 -2.018223e-05 -1.283594e-02 -1.549682e-02 8.574750e-03 6.072917e-02
<VARIANCE> 25
 2.805688e+01 4.016189e+01 5.251059e+01 7.688985e+01 5.004757e+01 3.656182e+01 5.249127e+01 3.588905e+01 3.639447e+01 4.427297e+01 3.673116e+01 2.287530e+01 8.040309e-01 1.710882e+00 2.227154e+00 2.956277e+00 2.546547e+00 2.049981e+00 2.896840e+00 2.489029e+00 2.560815e+00 3.023355e+00 2.208102e+00 1.769675e+00 1.473546e+00
<GCONST> 1.000779e+02
<TRANSP> 5
 0.000000e+00 1.000000e+00 0.000000e+00 0.000000e+00 0.000000e+00
 0.000000e+00 7.564232e-01 2.435768e-01 0.000000e+00 0.000000e+00
 0.000000e+00 0.000000e+00 7.564231e-01 2.435770e-01 0.000000e+00
 0.000000e+00 0.000000e+00 0.000000e+00 8.893939e-01 1.106061e-01
 0.000000e+00 0.000000e+00 0.000000e+00 0.000000e+00 0.000000e+00
<ENDHMM>
~h "g"
<BEGINHMM>
<NUMSTATES> 5
<STATE> 2
<MEAN> 25
 8.363904e-01 5.083228e-01 1.970651e+00 -9.421872e-01 3.924014e-01 -6.748128e-01 -3.671581e-01 -4.677556e-01 -4.223595e-01 -4.118379e-01 -7.710655e-01 -5.593055e-01 1.380445e-02 -4.783012e-03 -7.944681e-03 1.621103e-02 -1.267819e-02 3.802422e-02 2.025578e-02 6.662723e-03 6.837933e-03 3.455995e-02 -3.166758e-04 -3.955909e-03 -3.043690e-02
<VARIANCE> 25
 3.036747e+01 5.567049e+01 6.528558e+01 8.046635e+01 5.165526e+01 4.059687e+01 6.946025e+01 4.931622e+01 4.541428e+01 5.274293e+01 3.939660e+01 3.024239e+01 1.014325e+00 1.911784e+00 1.901617e+00 3.624601e+00 2.517321e+00 2.395443e+00 3.005037e+00 2.698526e+00 2.749044e+00 3.245365e+00 2.365566e+00 1.918255e+00 1.765210e+00
<GCONST> 1.033495e+02
<STATE> 3
<MEAN> 25
 8.711485e-01 4.919544e-01 1.936009e+00 -8.841814e-01 3.369693e-01 -5.258037e-01 -2.570856e-01 -4.369598e-01 -3.960695e-01 -2.652278e-01 -7.611166e-01 -5.690115e-01 8.920666e-03 -1.177080e-02 -1.601327e-02 1.021904e-02 -1.915637e-02 3.784527e-02 3.029123e-02 1.129586e-02 9.486789e-03 3.597202e-02 3.096522e-03 1.032340e-03 -2.860163e-02
<VARIANCE> 25
 2.997318e+01 5.543022e+01 6.341960e+01 7.963752e+01 5.202053e+01 4.046608e+01 6.917455e+01 4.974545e+01 4.517797e+01 5.186556e+01 3.875887e+01 3.014832e+01 9.792455e-01 1.870673e+00 1.866146e+00 3.608818e+00 2.513213e+00 2.372079e+00 2.987330e+00 2.696212e+00 2.736940e+00 3.235694e+00 2.344321e+00 1.909480e+00 1.729908e+00
<GCONST> 1.031201e+02
<STATE> 4
<MEAN> 25
 5.716729e-01 6.908391e-01 2.000216e+00 -7.424154e-01 2.351011e-01 -2.599993e-01 -7.077977e-02 -3.993672e-01 -1.788191e-01 1.171274e-01 -6.504757e-01 -5.603217e-01 -5.667927e-04 -1.464031e-02 -2.088352e-02 7.030034e-03 -1.969596e-02 3.140116e-02 4.246765e-02 1.713986e-02 1.061482e-02 3.621477e-02 9.181006e-03 2.218525e-03 -2.309879e-02
<VARIANCE> 25
 3.109075e+01 5.017563e+01 5.668186e+01 7.500045e+01 5.215341e+01 3.873711e+01 6.665009e+01 4.926012e+01 4.303418e+01 4.758959e+01 3.735195e+01 2.821481e+01 8.766570e-01 1.645986e+00 1.705632e+00 3.308295e+00 2.380511e+00 2.233602e+00 2.782111e+00 2.521731e+00 2.583430e+00 2.988318e+00 2.215441e+00 1.796678e+00 1.485864e+00
<GCONST> 1.014841e+02
<TRANSP> 5
 0.000000e+00 1.000000e+00 0.000000e+00 0.000000e+00 0.000000e+00
 0.000000e+00 7.588851e-01 2.411150e-01 0.000000e+00 0.000000e+00
 0.000000e+00 0.000000e+00 7.588846e-01 2.411154e-01 0.000000e+00
 0.000000e+00 0.000000e+00 0.000000e+00 8.930687e-01 1.069313e-01
 0.000000e+00 0.000000e+00 0.000000e+00 0.000000e+00 0.000000e+00
<ENDHMM>
~h "h"
<BEGINHMM>
<NUMSTATES> 5
<STATE> 2
<MEAN> 25
 -2.342169e+00 -2.428725e+00 -5.825397e-01 2.114662e+00 4.547109e-01 1.926107e-01 5.777637e-01 1.717845e+00 1.490665e+00 -5.827072e-01 5.862357e-01 1.572707e+00 6.874998e-02 -3.154264e-02 6.345314e-03 -1.922066e-02 -2.963950e-02 3.579000e-02 -5.170500e-02 -2.681788e-02 -6.817032e-02 -1.449968e-01 -4.980803e-02 5.202314e-02 5.870271e-02
<VARIANCE> 25
 7.009820e+01 4.852216e+01 2.245313e+01 4.474764e+01 3.864790e+01 3.100858e+01 2.819604e+01 6.028884e+01 7.265840e+01 4.093362e+01 3.949337e+01 1.854010e+01 5.219930e-01 1.269173e+00 1.229048e+00 1.289707e+00 1.805083e+00 1.355126e+00 1.542205e+00 1.748577e+00 1.889749e+00 1.569418e+00 1.603141e+00 1.559618e+00 5.683205e-01
<GCONST> 9.348610e+01
<STATE> 3
<MEAN> 25
 -1.903627e+00 -2.629837e+00 -6.423213e-01 2.015859e+00 2.734394e-01 2.689187e-01 3.289565e-01 1.547960e+00 1.173959e+00 -1.184324e+00 3.481188e-01 1.848470e+00 9.002890e-02 -2.836026e-02 -8.941526e-03 -2.339805e-02 -4.265016e-02 3.123352e-02 -5.129614e-02 -2.902078e-02 -6.186312e-02 -1.183288e-01 -3.115980e-02 5.753880e-02 6.877352e-02
<VARIANCE> 25
 7.358295e+01 5.180490e+01 2.487004e+01 4.299620e+01 3.994298e+01 3.153349e+01 2.958937e+01 6.296349e+01 7.354385e+01 4.307934e+01 4.064847e+01 1.895791e+01 6.219446e-01 1.380157e+00 1.345940e+00 1.335547e+00 1.935162e+00 1.412445e+00 1.621277e+00 1.809963e+00 1.914730e+00 1.587657e+00 1.651258e+00 1.562577e+00 6.495790e-01
<GCONST> 9.468822e+01
<STATE> 4
<MEAN> 25
 8.307722e-01 -2.898017e+00 -1.028061e+00 1.459369e+00 -2.553655e-01 -2.951232e-01 -7.970378e-01 -6.213351e-01 -9.782994e-01 -2.975209e+00 -8.058339e-01 2.120559e+00 8.804198e-02 2.181175e-02 6.019991e-03 -2.251196e-02 -4.191902e-02 -6.073044e-04 -4.804155e-02 -6.208353e-02 -5.223875e-02 -5.846269e-02 -5.305990e-03 2.214451e-02 5.961053e-02
<VARIANCE> 25
 7.215622e+01 5.195399e+01 3.091102e+01 3.624494e+01 3.961436e+01 3.025665e+01 3.661205e+01 6.542267e+01 6.789019e+01 5.046440e+01 3.933740e+01 2.010934e+01 8.576359e-01 1.448091e+00 1.559303e+00 1.425721e+00 1.956052e+00 1.479895e+00 1.846124e+00 2.024569e+00 1.915543e+00 1.651513e+00 1.774048e+00 1.526288e+00 7.536504e-01
<GCONST> 9.614211e+01
<TRANSP> 5
 0.000000e+00 1.000000e+00 0.000000e+00 0.000000e+00 0.000000e+00
 0.000000e+00 7.641171e-01 2.358829e-01 0.000000e+00 0.000000e+00
 0.000000e+00 0.000000e+00 7.641174e-01 2.358827e-01 0.000000e+00
 0.000000e+00 0.000000e+00 0.000000e+00 9.046585e-01 9.534149e-02
 0.000000e+00 0.000000e+00 0.000000e+00 0.000000e+00 0.000000e+00
<ENDHMM>
~h "j"
<BEGINHMM>
<NUMSTATES> 5
<STATE> 2
<MEAN> 25
 -6.611563e-01 1.802244e+00 -8.102982e-02 1.302832e+00 -2.025915e+00 -1.012094e+00 -2.870901e+00 -6.950880e-01 -1.327991e+00 2.396465e+00 3.833770e-01 -1.630755e-01 4.649151e-03 1.494512e-02 1.718862e-02 -3.501789e-02 5.028615e-03 -1.421858e-02 -1.350174e-02 -5.201603e-03 1.289173e-02 6.078484e-03 -5.808386e-04 -8.092774e-03 1.055005e-02
<VARIANCE> 25
 3.738326e+01 3.020639e+01 4.961907e+01 4.108158e+01 3.969764e+01 7.061650e+01 3.874026e+01 2.604308e+01 3.248467e+01 4.703621e+01 3.887662e+01 3.006949e+01 1.700603e+00 1.372085e+00 1.519890e+00 2.243912e+00 3.150019e+00 3.835138e+00 2.449751e+00 2.407345e+00 2.711894e+00 2.907762e+00 2.518989e+00 1.757540e+00 1.678421e+00
<GCONST> 1.002579e+02
<STATE> 3
<MEAN> 25
 -6.192178e-01 1.858268e+00 -1.098200e-02 1.153518e+00 -2.009094e+00 -1.087831e+00 -2.943199e+00 -7.389176e-01 -1.293928e+00 2.379542e+00 3.705515e-01 -1.914174e-01 1.234619e-02 9.787124e-03 2.158841e-02 -3.998264e-02 7.513273e-03 -1.874310e-02 -1.276977e-02 -1.202665e-02 7.236134e-03 -8.551703e-03 -5.569475e-03 -5.180923e-03 2.050512e-02
<VARIANCE> 25
 3.657817e+01 2.979308e+01 4.917797e+01 4.248315e+01 3.960112e+01 7.153522e+01 3.878548e+01 2.620712e+01 3.345811e+01 4.746773e+01 3.920314e+01 3.101191e+01 1.681084e+00 1.461760e+00 1.572114e+00 2.275923e+00 3.207469e+00 3.834875e+00 2.460138e+00 2.408349e+00 2.761624e+00 2.970674e+00 2.537067e+00 1.820678e+00 1.752955e+00
<GCONST> 1.005906e+02
<STATE> 4
<MEAN> 25
 -3.621270e-01 1.802495e+00 3.401887e-01 8.369560e-01 -1.799052e+00 -1.292760e+00 -3.025645e+00 -8.795951e-01 -1.133551e+00 2.058182e+00 2.421731e-01 -4.157526e-01 1.855543e-02 -2.261205e-03 2.912666e-02 -4.560397e-02 1.805474e-02 -1.204680e-02 -4.503619e-03 -1.649106e-02 5.610966e-03 -2.454460e-02 -8.316847e-03 -8.556023e-04 3.355786e-02
<VARIANCE> 25
 3.487078e+01 2.952458e+01 4.541763e+01 4.318763e+01 4.036397e+01 7.069193e+01 3.950029e+01 2.634275e+01 3.601936e+01 4.725670e+01 4.045075e+01 3.153565e+01 1.621759e+00 1.592849e+00 1.659644e+00 2.321153e+00 3.254726e+00 3.715933e+00 2.506803e+00 2.406095e+00 2.883053e+00 3.037618e+00 2.635943e+00 1.916491e+00 1.804086e+00
<GCONST> 1.009270e+02
<TRANSP> 5
 0.000000e+00 1.000000e+00 0.000000e+00 0.000000e+00 0.000000e+00
 0.000000e+00 7.592337e-01 2.407663e-01 0.000000e+00 0.000000e+00
 0.000000e+00 0.000000e+00 7.592338e-01 2.407663e-01 0.000000e+00
 0.000000e+00 0.000000e+00 0.000000e+00 8.861811e-01 1.138190e-01
 0.000000e+00 0.000000e+00 0.000000e+00 0.000000e+00 0.000000e+00
<ENDHMM>
~h "k"
<BEGINHMM>
<NUMSTATES> 5
<STATE> 2
<MEAN> 25
 1.343722e+00 -3.024455e-02 -6.577476e-01 1.962181e-01 1.370381e+00 -1.082225e-01 -6.682668e-01 -5.173029e-01 -1.008982e-01 -2.521163e-01 -2.702367e-01 -2.576381e-01 -6.920452e-03 -6.191762e-03 5.379695e-03 -2.556681e-04 -7.773709e-03 2.914515e-03 3.361708e-02 2.378105e-03 -8.593258e-03 -8.111427e-03 -2.755112e-03 5.907891e-03 3.068959e-02
<VARIANCE> 25
 3.835581e+01 4.003938e+01 4.658033e+01 6.326408e+01 3.783081e+01 3.663169e+01 4.951887e+01 3.391669e+01 3.908994e+01 4.364391e+01 3.533084e+01 2.231587e+01 1.326560e+00 1.604599e+00 1.923793e+00 3.382896e+00 2.268655e+00 2.311728e+00 2.589380e+00 2.772227e+00 2.608023e+00 2.926417e+00 2.336604e+00 1.795399e+00 1.859648e+00
<GCONST> 1.003879e+02
<STATE> 3
<MEAN> 25
 1.283684e+00 -4.443859e-02 -6.205329e-01 1.966583e-01 1.331715e+00 -8.870640e-02 -5.160373e-01 -4.848578e-01 -1.132644e-01 -2.677270e-01 -2.710376e-01 -2.338916e-01 -9.692912e-03 -6.024378e-03 1.112328e-02 -6.482460e-03 -9.725267e-03 5.652075e-03 3.418980e-02 5.980168e-03 -4.133902e-03 -5.481304e-03 -5.115835e-03 3.121562e-03 2.881511e-02
<VARIANCE> 25
 3.794876e+01 4.035180e+01 4.710886e+01 6.324741e+01 3.838037e+01 3.635040e+01 4.953366e+01 3.379082e+01 3.869078e+01 4.378365e+01 3.547696e+01 2.211571e+01 1.315177e+00 1.603728e+00 1.955053e+00 3.365639e+00 2.290108e+00 2.312841e+00 2.634314e+00 2.770749e+00 2.610525e+00 2.953059e+00 2.327921e+00 1.801369e+00 1.788411e+00
<GCONST> 1.003863e+02
<STATE> 4
<MEAN> 25
 9.515262e-01 -8.346276e-02 -5.948863e-01 1.660833e-01 1.313657e+00 -3.542379e-02 -2.381735e-01 -2.478218e-01 2.017497e-02 -3.371871e-01 -2.900404e-01 -2.501979e-01 -2.129675e-02 -1.508655e-03 2.181696e-02 -8.884607e-03 -1.386597e-02 8.326707e-03 3.435068e-02 1.304671e-02 5.815879e-03 3.664490e-03 -1.818005e-03 1.762090e-03 1.580618e-02
<VARIANCE> 25
 3.953658e+01 3.831152e+01 4.341231e+01 5.854431e+01 3.768006e+01 3.485284e+01 4.846416e+01 3.330577e+01 3.704814e+01 4.334543e+01 3.510115e+01 2.140435e+01 1.204192e+00 1.493252e+00 1.822940e+00 3.058469e+00 2.163287e+00 2.192293e+00 2.565576e+00 2.691013e+00 2.464457e+00 2.820554e+00 2.228084e+00 1.741831e+00 1.436770e+00
<GCONST> 9.913168e+01
<TRANSP> 5
 0.000000e+00 1.000000e+00 0.000000e+00 0.000000e+00 0.000000e+00
 0.000000e+00 7.637164e-01 2.362836e-01 0.000000e+00 0.000000e+00
 0.000000e+00 0.000000e+00 7.637162e-01 2.362838e-01 0.000000e+00
 0.000000e+00 0.000000e+00 0.000000e+00 8.993518e-01 1.006482e-01
 0.000000e+00 0.000000e+00 0.000000e+00 0.000000e+00 0.000000e+00
<ENDHMM>
~h "l"
<BEGINHMM>
<NUMSTATES> 5
<STATE> 2
<MEAN> 25
 1.567642e+00 -4.523143e-01 -5.568421e-01 -5.666491e-01 7.217807e-01 -2.014594e-01 -8.971891e-01 -3.514289e-01 3.572899e-01 -8.247551e-01 -3.435389e-01 -1.861231e-01 -1.407088e-02 2.246893e-02 2.660522e-02 2.668694e-02 1.869482e-02 1.075231e-02 6.024670e-03 5.468995e-03 -3.206665e-04 -6.546975e-03 -7.152199e-04 -7.896848e-03 -1.151916e-02
<VARIANCE> 25
 3.583441e+01 4.525394e+01 4.334598e+01 7.543492e+01 4.694177e+01 4.172127e+01 4.814083e+01 4.372223e+01 3.528757e+01 4.171597e+01 3.963808e+01 2.431583e+01 8.890175e-01 1.461391e+00 1.550347e+00 3.070831e+00 2.345738e+00 2.312865e+00 2.430417e+00 2.563576e+00 2.357555e+00 2.485578e+00 2.133745e+00 1.764851e+00 1.247064e+00
<GCONST> 9.948546e+01
<STATE> 3
<MEAN> 25
 1.458963e+00 -3.401462e-01 -4.306128e-01 -4.395729e-01 7.944122e-01 -1.389586e-01 -8.617977e-01 -3.092885e-01 3.757765e-01 -8.206612e-01 -3.238562e-01 -2.114002e-01 -2.180400e-02 2.526065e-02 3.162128e-02 2.850489e-02 1.438339e-02 8.461526e-03 6.257319e-03 5.908632e-03 -9.279232e-05 5.253234e-04 2.889375e-03 -8.333423e-03 -1.454892e-02
<VARIANCE> 25
 3.446813e+01 4.511908e+01 4.369319e+01 7.564078e+01 4.561166e+01 4.048738e+01 4.818901e+01 4.298163e+01 3.432697e+01 4.085508e+01 3.883270e+01 2.416430e+01 8.755724e-01 1.451981e+00 1.527374e+00 3.069267e+00 2.285195e+00 2.278250e+00 2.438325e+00 2.548542e+00 2.369879e+00 2.472747e+00 2.103678e+00 1.774839e+00 1.235635e+00
<GCONST> 9.920550e+01
<STATE> 4
<MEAN> 25
 1.166796e+00 -2.143648e-01 -3.241769e-01 -2.336771e-01 8.863049e-01 -7.975680e-02 -7.660601e-01 -2.359810e-01 4.585978e-01 -6.860750e-01 -2.516570e-01 -2.123919e-01 -3.589592e-02 2.714144e-02 3.331241e-02 2.956055e-02 1.092853e-02 1.350276e-02 7.842447e-03 1.264210e-02 4.848784e-03 1.788568e-02 1.064353e-02 -6.104448e-03 -2.718396e-02
<VARIANCE> 25
 3.493087e+01 4.077951e+01 4.215043e+01 6.950870e+01 4.299729e+01 3.846252e+01 4.908494e+01 4.244191e+01 3.292017e+01 3.943650e+01 3.678004e+01 2.385165e+01 8.036084e-01 1.356522e+00 1.437910e+00 2.817559e+00 2.107208e+00 2.185810e+00 2.364257e+00 2.496363e+00 2.285457e+00 2.349963e+00 1.994867e+00 1.765555e+00 1.059018e+00
<GCONST> 9.797462e+01
<TRANSP> 5
 0.000000e+00 1.000000e+00 0.000000e+00 0.000000e+00 0.000000e+00
 0.000000e+00 7.577580e-01 2.422420e-01 0.000000e+00 0.000000e+00
 0.000000e+00 0.000000e+00 7.577580e-01 2.422420e-01 0.000000e+00
 0.000000e+00 0.000000e+00 0.000000e+00 8.914118e-01 1.085881e-01
 0.000000e+00 0.000000e+00 0.000000e+00 0.000000e+00 0.000000e+00
<ENDHMM>
~h "m"
<BEGINHMM>
<NUMSTATES> 5
<STATE> 2
<MEAN> 25
 7.705600e-01 -3.371585e-01 3.717403e-01 -2.073712e-01 6.278436e-01 8.077484e-02 -6.245693e-01 -4.981715e-01 8.437486e-02 -5.655899e-01 -5.168793e-01 -3.938862e-01 6.867283e-03 -2.560901e-03 5.131728e-03 -3.481045e-03 1.708208e-02 -7.796276e-03 -2.160821e-02 -6.539554e-03 1.176119e-02 -1.632395e-03 2.430608e-03 -7.771922e-03 1.766256e-02
<VARIANCE> 25
 4.002641e+01 4.530492e+01 5.136622e+01 7.199444e+01 5.290273e+01 3.882071e+01 5.035243e+01 3.988367e+01 3.919402e+01 4.323164e+01 3.497182e+01 2.392553e+01 8.956185e-01 1.470257e+00 1.789438e+00 2.593095e+00 2.320068e+00 2.029492e+00 2.453614e+00 2.458832e+00 2.209205e+00 2.498399e+00 1.944413e+00 1.691190e+00 1.175429e+00
<GCONST> 9.927936e+01
<STATE> 3
<MEAN> 25
 8.085063e-01 -3.389930e-01 3.853790e-01 -2.165794e-01 7.033243e-01 4.593202e-02 -7.153826e-01 -5.244688e-01 1.262087e-01 -5.793204e-01 -5.121080e-01 -4.296664e-01 8.167630e-03 -3.540888e-04 1.633702e-03 -4.864937e-03 1.367585e-02 -7.927777e-03 -2.102365e-02 -4.919162e-03 1.043830e-02 -3.952221e-03 3.226976e-03 -6.387829e-03 9.880479e-03
<VARIANCE> 25
 3.945984e+01 4.442262e+01 5.127975e+01 7.207434e+01 5.183634e+01 3.896910e+01 5.048633e+01 4.042952e+01 3.918026e+01 4.328188e+01 3.474892e+01 2.393559e+01 8.744396e-01 1.445534e+00 1.773972e+00 2.595289e+00 2.293432e+00 2.053585e+00 2.448638e+00 2.471436e+00 2.204181e+00 2.491736e+00 1.949747e+00 1.683007e+00 1.097736e+00
<GCONST> 9.911855e+01
<STATE> 4
<MEAN> 25
 1.016629e+00 -3.211868e-01 3.528806e-01 -2.895408e-01 8.211569e-01 -5.164519e-02 -8.845561e-01 -6.373683e-01 6.094563e-02 -7.510855e-01 -5.979415e-01 -5.352498e-01 5.098934e-03 6.945471e-03 1.514086e-03 -3.643489e-03 9.442308e-03 -5.024271e-03 -1.131236e-02 -3.572169e-03 7.079027e-03 -6.782642e-03 2.927416e-03 -4.568015e-03 1.575615e-03
<VARIANCE> 25
 4.095730e+01 4.164496e+01 5.028667e+01 6.723249e+01 4.975978e+01 3.834568e+01 5.203252e+01 4.057660e+01 3.810356e+01 4.358773e+01 3.556321e+01 2.398511e+01 8.358051e-01 1.376447e+00 1.679451e+00 2.439670e+00 2.176394e+00 2.057659e+00 2.376093e+00 2.433578e+00 2.132505e+00 2.405563e+00 1.912862e+00 1.641735e+00 9.845412e-01
<GCONST> 9.845564e+01
<TRANSP> 5
 0.000000e+00 1.000000e+00 0.000000e+00 0.000000e+00 0.000000e+00
 0.000000e+00 7.646003e-01 2.353997e-01 0.000000e+00 0.000000e+00
 0.000000e+00 0.000000e+00 7.646003e-01 2.353997e-01 0.000000e+00
 0.000000e+00 0.000000e+00 0.000000e+00 8.991418e-01 1.008582e-01
 0.000000e+00 0.000000e+00 0.000000e+00 0.000000e+00 0.000000e+00
<ENDHMM>
~h "n"
<BEGINHMM>
<NUMSTATES> 5
<STATE> 2
<MEAN> 25
 5.184851e-01 -6.995226e-02 5.139292e-01 1.569695e-01 4.317865e-01 -4.842825e-01 1.087444e-02 -5.873675e-02 -5.374814e-01 -6.777893e-01 -6.825820e-02 1.310205e-01 -3.529134e-03 6.933648e-04 8.971636e-03 -3.723924e-03 -2.525700e-03 2.123352e-02 4.431000e-05 3.349935e-04 1.141934e-02 1.681712e-02 1.274147e-02 -2.664427e-03 -1.598953e-02
<VARIANCE> 25
 3.764537e+01 4.863595e+01 4.341940e+01 6.671522e+01 4.414840e+01 3.943386e+01 4.777801e+01 3.750594e+01 4.155526e+01 4.536475e+01 3.660028e+01 2.479485e+01 1.056498e+00 1.656956e+00 1.628267e+00 2.884073e+00 2.197582e+00 2.124749e+00 2.465270e+00 2.417604e+00 2.278620e+00 2.506673e+00 2.203781e+00 1.691873e+00 1.440655e+00
<GCONST> 9.959291e+01
<STATE> 3
<MEAN> 25
 4.963355e-01 -5.570646e-02 5.433528e-01 1.374542e-01 4.188203e-01 -4.011807e-01 1.877992e-02 -5.971077e-02 -4.893551e-01 -6.022831e-01 -2.245887e-02 1.097609e-01 -5.427086e-03 4.410075e-04 5.378359e-03 -5.096017e-03 -4.064826e-03 1.925361e-02 1.786025e-03 -1.233441e-03 1.105481e-02 1.888142e-02 1.010657e-02 -4.782992e-03 -1.176587e-02
<VARIANCE> 25
 3.784097e+01 4.812208e+01 4.351731e+01 6.707384e+01 4.395564e+01 3.915843e+01 4.735238e+01 3.748560e+01 4.163427e+01 4.522414e+01 3.643468e+01 2.469883e+01 1.047822e+00 1.638853e+00 1.636909e+00 2.894110e+00 2.205040e+00 2.122558e+00 2.454259e+00 2.393584e+00 2.285245e+00 2.515821e+00 2.191080e+00 1.694136e+00 1.412583e+00
<GCONST> 9.952448e+01
<STATE> 4
<MEAN> 25
 3.580089e-01 1.399263e-01 6.362179e-01 9.716746e-02 3.415661e-01 -2.600330e-01 4.636711e-02 -8.430928e-02 -3.380794e-01 -3.576686e-01 7.108601e-02 3.321993e-02 -5.161596e-03 1.999202e-03 -1.620759e-03 -8.062499e-03 -2.582687e-03 1.292890e-02 3.877655e-03 -3.707504e-03 7.334125e-03 1.675247e-02 3.356828e-03 -7.381724e-03 -2.370141e-03
<VARIANCE> 25
 3.927878e+01 4.387918e+01 4.344554e+01 6.410540e+01 4.425053e+01 3.835280e+01 4.649305e+01 3.777530e+01 4.096140e+01 4.517318e+01 3.542503e+01 2.426525e+01 1.011260e+00 1.535275e+00 1.602670e+00 2.704683e+00 2.121825e+00 2.075011e+00 2.349660e+00 2.307541e+00 2.227594e+00 2.446410e+00 2.112304e+00 1.646177e+00 1.233027e+00
<GCONST> 9.874886e+01
<TRANSP> 5
 0.000000e+00 1.000000e+00 0.000000e+00 0.000000e+00 0.000000e+00
 0.000000e+00 7.609750e-01 2.390250e-01 0.000000e+00 0.000000e+00
 0.000000e+00 0.000000e+00 7.609743e-01 2.390257e-01 0.000000e+00
 0.000000e+00 0.000000e+00 0.000000e+00 8.953551e-01 1.046449e-01
 0.000000e+00 0.000000e+00 0.000000e+00 0.000000e+00 0.000000e+00
<ENDHMM>
~h "o"
<BEGINHMM>
<NUMSTATES> 5
<STATE> 2
<MEAN> 25
 4.876313e-08 -1.572510e-08 -3.479018e-08 -3.353887e-08 3.894225e-08 5.448882e-08 6.837960e-09 -3.357679e-08 -9.075150e-09 1.238669e-09 6.825321e-10 3.043588e-08 1.480543e-02 -2.130302e-03 7.752344e-03 -2.168820e-03 1.143337e-02 -2.309903e-03 4.269884e-03 -3.775733e-03 -3.292339e-03 -9.014427e-04 -3.430429e-03 -3.983431e-03 3.762102e-02
<VARIANCE> 25
 4.782532e+01 4.486550e+01 4.720150e+01 6.892854e+01 4.782745e+01 4.025578e+01 4.904441e+01 4.112494e+01 4.163441e+01 4.402450e+01 3.629408e+01 2.461185e+01 1.112554e+00 1.522353e+00 1.617351e+00 2.656559e+00 2.172489e+00 2.083682e+00 2.429415e+00 2.410789e+00 2.262104e+00 2.509146e+00 2.111452e+00 1.695109e+00 1.480569e+00
<GCONST> 9.985252e+01
<STATE> 3
<MEAN> 25
 4.876313e-08 -1.572510e-08 -3.479018e-08 -3.353887e-08 3.894225e-08 5.448882e-08 6.837960e-09 -3.357679e-08 -9.075150e-09 1.238669e-09 6.825321e-10 3.043588e-08 1.480543e-02 -2.130302e-03 7.752344e-03 -2.168820e-03 1.143337e-02 -2.309903e-03 4.269884e-03 -3.775733e-03 -3.292339e-03 -9.014427e-04 -3.430429e-03 -3.983431e-03 3.762102e-02
<VARIANCE> 25
 4.782532e+01 4.486550e+01 4.720150e+01 6.892854e+01 4.782745e+01 4.025578e+01 4.904441e+01 4.112494e+01 4.163441e+01 4.402450e+01 3.629408e+01 2.461185e+01 1.112554e+00 1.522353e+00 1.617351e+00 2.656559e+00 2.172489e+00 2.083682e+00 2.429415e+00 2.410789e+00 2.262104e+00 2.509146e+00 2.111452e+00 1.695109e+00 1.480569e+00
<GCONST> 9.985252e+01
<STATE> 4
<MEAN> 25
 4.876313e-08 -1.572510e-08 -3.479018e-08 -3.353887e-08 3.894225e-08 5.448882e-08 6.837960e-09 -3.357679e-08 -9.075150e-09 1.238669e-09 6.825321e-10 3.043588e-08 1.480543e-02 -2.130302e-03 7.752344e-03 -2.168820e-03 1.143337e-02 -2.309903e-03 4.269884e-03 -3.775733e-03 -3.292339e-03 -9.014427e-04 -3.430429e-03 -3.983431e-03 3.762102e-02
<VARIANCE> 25
 4.782532e+01 4.486550e+01 4.720150e+01 6.892854e+01 4.782745e+01 4.025578e+01 4.904441e+01 4.112494e+01 4.163441e+01 4.402450e+01 3.629408e+01 2.461185e+01 1.112554e+00 1.522353e+00 1.617351e+00 2.656559e+00 2.172489e+00 2.083682e+00 2.429415e+00 2.410789e+00 2.262104e+00 2.509146e+00 2.111452e+00 1.695109e+00 1.480569e+00
<GCONST> 9.985252e+01
<TRANSP> 5
 0.000000e+00 1.000000e+00 0.000000e+00 0.000000e+00 0.000000e+00
 0.000000e+00 6.000000e-01 4.000000e-01 0.000000e+00 0.000000e+00
 0.000000e+00 0.000000e+00 6.000000e-01 4.000000e-01 0.000000e+00
 0.000000e+00 0.000000e+00 0.000000e+00 7.000000e-01 3.000000e-01
 0.000000e+00 0.000000e+00 0.000000e+00 0.000000e+00 0.000000e+00
<ENDHMM>
~h "p"
<BEGINHMM>
<NUMSTATES> 5
<STATE> 2
<MEAN> 25
 -2.437606e+00 5.473273e-01 -1.201376e+00 8.487525e-01 -6.626768e-01 1.137319e+00 1.797485e-01 4.254674e-01 1.057573e+00 5.640482e-01 1.316383e+00 4.123634e-01 1.584750e-01 -2.459177e-02 2.257596e-02 -1.751418e-02 5.206906e-02 -8.255799e-02 1.292757e-02 -2.422367e-02 -5.746769e-02 -1.499659e-02 -6.835150e-02 -3.267102e-02 2.749344e-01
<VARIANCE> 25
 7.882915e+01 4.462906e+01 4.098513e+01 6.950522e+01 4.052603e+01 4.875388e+01 4.376075e+01 4.174540e+01 3.956177e+01 3.528970e+01 3.622089e+01 2.398863e+01 2.119871e+00 1.548292e+00 1.348959e+00 2.807144e+00 1.830615e+00 2.321368e+00 2.226985e+00 2.412074e+00 2.150093e+00 2.203687e+00 2.123894e+00 1.680312e+00 3.091678e+00
<GCONST> 1.007795e+02
<STATE> 3
<MEAN> 25
 -1.881228e+00 4.571927e-01 -1.161999e+00 7.957507e-01 -5.031730e-01 7.957222e-01 2.362347e-01 3.837786e-01 8.609686e-01 5.137679e-01 1.054256e+00 3.067745e-01 1.293710e-01 -1.599519e-02 8.652392e-03 -9.447264e-03 3.662178e-02 -8.138552e-02 1.555108e-02 -6.684289e-03 -4.857396e-02 -1.148517e-02 -6.252395e-02 -2.621065e-02 2.363090e-01
<VARIANCE> 25
 7.100452e+01 4.394287e+01 4.051147e+01 6.902864e+01 3.812466e+01 4.841940e+01 4.359209e+01 4.144148e+01 3.875855e+01 3.572318e+01 3.578552e+01 2.401294e+01 2.071815e+00 1.631810e+00 1.346563e+00 2.893577e+00 1.853659e+00 2.433976e+00 2.268938e+00 2.490683e+00 2.183232e+00 2.244384e+00 2.228185e+00 1.698093e+00 2.738566e+00
<GCONST> 1.006820e+02
<STATE> 4
<MEAN> 25
 -1.040676e+00 1.805928e-01 -1.216213e+00 5.850812e-01 -2.587522e-01 1.485445e-01 2.934479e-01 4.482844e-01 4.641198e-01 1.904880e-01 5.013959e-01 2.776175e-01 6.734981e-02 -3.308935e-03 -1.738810e-03 -3.968138e-03 6.946419e-03 -6.037727e-02 3.139639e-03 3.408986e-03 -4.308300e-02 -2.580921e-02 -4.799893e-02 -8.316350e-03 1.440827e-01
<VARIANCE> 25
 6.092373e+01 4.323483e+01 3.730273e+01 6.066564e+01 3.410057e+01 4.541629e+01 4.293884e+01 3.971460e+01 3.680467e+01 3.842173e+01 3.605842e+01 2.348126e+01 1.940553e+00 1.696985e+00 1.276880e+00 2.735214e+00 1.793887e+00 2.461111e+00 2.239875e+00 2.551295e+00 2.106070e+00 2.262500e+00 2.343428e+00 1.668403e+00 1.914966e+00
<GCONST> 9.957485e+01
<TRANSP> 5
 0.000000e+00 1.000000e+00 0.000000e+00 0.000000e+00 0.000000e+00
 0.000000e+00 7.666544e-01 2.333456e-01 0.000000e+00 0.000000e+00
 0.000000e+00 0.000000e+00 7.666546e-01 2.333454e-01 0.000000e+00
 0.000000e+00 0.000000e+00 0.000000e+00 9.026651e-01 9.733490e-02
 0.000000e+00 0.000000e+00 0.000000e+00 0.000000e+00 0.000000e+00
<ENDHMM>
~h "r"
<BEGINHMM>
<NUMSTATES> 5
<STATE> 2
<MEAN> 25
 1.753967e+00 -1.361021e+00 1.995569e-01 -1.406153e+00 -3.901513e-01 -5.650166e-01 1.365370e+00 2.103548e-01 -6.291899e-01 3.780233e-01 -5.142273e-01 -8.905072e-01 2.481425e-03 1.913151e-02 4.945181e-02 -4.323205e-03 -3.853646e-02 5.997412e-03 2.030486e-02 8.756319e-03 -1.774700e-03 3.393073e-02 2.679154e-03 -7.205763e-03 -3.165604e-02
<VARIANCE> 25
 3.273767e+01 5.013384e+01 4.507367e+01 7.937302e+01 5.714004e+01 3.249630e+01 5.560825e+01 4.662171e+01 4.252180e+01 4.698182e+01 3.797889e+01 2.599963e+01 9.104257e-01 1.639501e+00 1.615337e+00 3.364550e+00 2.534323e+00 1.898737e+00 2.892987e+00 2.689018e+00 2.702400e+00 2.837181e+00 2.292608e+00 1.750515e+00 1.169136e+00
<GCONST> 1.007133e+02
<STATE> 3
<MEAN> 25
 1.765869e+00 -1.281251e+00 3.764019e-01 -1.396402e+00 -5.319828e-01 -5.270572e-01 1.427017e+00 2.478981e-01 -6.366991e-01 5.148743e-01 -4.954830e-01 -9.233322e-01 -3.138243e-03 2.492963e-02 4.627690e-02 3.284270e-03 -2.795463e-02 8.122904e-03 1.273315e-02 4.818431e-03 1.864900e-03 3.000139e-02 -2.372786e-04 -2.594149e-03 -4.055946e-02
<VARIANCE> 25
 3.243890e+01 5.015022e+01 4.491720e+01 7.899897e+01 5.825423e+01 3.243125e+01 5.553470e+01 4.748314e+01 4.257235e+01 4.612233e+01 3.809755e+01 2.571887e+01 8.895795e-01 1.639230e+00 1.603796e+00 3.301694e+00 2.545650e+00 1.868250e+00 2.891666e+00 2.717570e+00 2.712059e+00 2.816887e+00 2.291760e+00 1.747520e+00 1.154360e+00
<GCONST> 1.006362e+02
<STATE> 4
<MEAN> 25
 1.556360e+00 -8.169960e-01 5.499993e-01 -1.136423e+00 -6.306202e-01 -2.939893e-01 1.270977e+00 2.942330e-01 -3.979734e-01 8.140613e-01 -3.455674e-01 -8.928881e-01 -7.835406e-03 2.676716e-02 3.043585e-02 1.395925e-02 -1.535663e-02 1.383148e-02 1.516510e-04 -9.998796e-05 4.049129e-03 2.445796e-02 2.065103e-03 -1.290607e-03 -4.750833e-02
<VARIANCE> 25
 3.565006e+01 4.606726e+01 4.278672e+01 7.553503e+01 6.014011e+01 3.176910e+01 5.431945e+01 4.657478e+01 4.157056e+01 4.334100e+01 3.714198e+01 2.446283e+01 8.231916e-01 1.525862e+00 1.523711e+00 2.975472e+00 2.457272e+00 1.790592e+00 2.684737e+00 2.586750e+00 2.605480e+00 2.626696e+00 2.181432e+00 1.676040e+00 1.029053e+00
<GCONST> 9.953864e+01
<TRANSP> 5
 0.000000e+00 1.000000e+00 0.000000e+00 0.000000e+00 0.000000e+00
 0.000000e+00 7.592540e-01 2.407461e-01 0.000000e+00 0.000000e+00
 0.000000e+00 0.000000e+00 7.592536e-01 2.407463e-01 0.000000e+00
 0.000000e+00 0.000000e+00 0.000000e+00 8.936090e-01 1.063910e-01
 0.000000e+00 0.000000e+00 0.000000e+00 0.000000e+00 0.000000e+00
<ENDHMM>
~h "s"
<BEGINHMM>
<NUMSTATES> 5
<STATE> 2
<MEAN> 25
 -1.746456e+00 5.903342e-01 -1.152481e+00 6.663836e-01 -5.770363e-01 -3.644273e-01 5.956455e-01 5.618379e-01 -3.411102e-01 2.309731e-02 3.875131e-01 5.350918e-01 4.437966e-02 -2.537307e-02 4.453983e-03 -2.985045e-02 1.948830e-02 -4.302877e-02 1.107636e-02 -2.344799e-02 -4.702746e-02 -2.803889e-02 -2.439537e-02 4.832835e-03 1.220362e-01
<VARIANCE> 25
 6.114453e+01 4.953525e+01 4.523006e+01 7.483920e+01 3.942531e+01 4.433369e+01 4.387833e+01 4.234307e+01 4.671268e+01 4.466489e+01 3.575231e+01 2.405271e+01 1.787148e+00 1.857970e+00 1.488120e+00 2.872311e+00 2.002774e+00 2.333234e+00 2.451977e+00 2.517882e+00 2.258821e+00 2.493336e+00 2.345149e+00 1.724966e+00 1.735242e+00
<GCONST> 1.011754e+02
<STATE> 3
<MEAN> 25
 -1.549053e+00 4.799558e-01 -1.125939e+00 5.339720e-01 -5.286101e-01 -5.352392e-01 6.111845e-01 4.650372e-01 -5.183130e-01 -7.872905e-02 2.952198e-01 5.596285e-01 5.232831e-02 -2.876885e-02 9.402272e-03 -3.395783e-02 1.365430e-02 -3.999744e-02 3.442984e-03 -2.424965e-02 -4.208932e-02 -2.302921e-02 -2.204745e-02 2.834157e-03 9.740728e-02
<VARIANCE> 25
 6.033424e+01 5.046942e+01 4.578325e+01 7.572758e+01 4.029105e+01 4.387444e+01 4.414575e+01 4.244770e+01 4.699140e+01 4.580927e+01 3.581087e+01 2.430182e+01 1.758815e+00 1.875806e+00 1.497458e+00 2.910956e+00 2.039960e+00 2.314082e+00 2.485178e+00 2.505176e+00 2.282100e+00 2.532090e+00 2.346029e+00 1.730497e+00 1.587343e+00
<GCONST> 1.012397e+02
<STATE> 4
<MEAN> 25
 -8.531061e-01 9.592476e-02 -9.163226e-01 1.325533e-01 -6.979701e-01 -7.727597e-01 4.073271e-01 1.871518e-01 -8.600695e-01 -3.351994e-01 1.135244e-01 7.182167e-01 5.180391e-02 -2.211307e-02 2.166901e-02 -3.299432e-02 -1.329060e-03 -2.328422e-02 -1.108746e-02 -2.786725e-02 -2.778790e-02 -1.208706e-02 -1.416541e-02 -8.271872e-04 4.688739e-02
<VARIANCE> 25
 5.828665e+01 4.835267e+01 4.453084e+01 6.763177e+01 4.353682e+01 4.082404e+01 4.304946e+01 4.094292e+01 4.684350e+01 4.891100e+01 3.583243e+01 2.452512e+01 1.595783e+00 1.726282e+00 1.424151e+00 2.590268e+00 2.013678e+00 2.167845e+00 2.364708e+00 2.373421e+00 2.197134e+00 2.517516e+00 2.262350e+00 1.694918e+00 1.204498e+00
<GCONST> 1.001317e+02
<TRANSP> 5
 0.000000e+00 1.000000e+00 0.000000e+00 0.000000e+00 0.000000e+00
 0.000000e+00 7.668452e-01 2.331548e-01 0.000000e+00 0.000000e+00
 0.000000e+00 0.000000e+00 7.668447e-01 2.331553e-01 0.000000e+00
 0.000000e+00 0.000000e+00 0.000000e+00 9.036921e-01 9.630788e-02
 0.000000e+00 0.000000e+00 0.000000e+00 0.000000e+00 0.000000e+00
<ENDHMM>
~h "t"
<BEGINHMM>
<NUMSTATES> 5
<STATE> 2
<MEAN> 25
 1.302858e+00 -4.040931e-01 -3.858051e-01 -3.108584e-01 1.906384e-01 -2.525493e-01 -2.187683e-01 -5.690855e-02 -3.202460e-01 -2.995985e-01 -3.012682e-01 -1.409096e-01 5.684469e-03 7.273947e-03 7.032757e-03 1.451221e-02 7.449957e-04 -5.087356e-03 3.259374e-03 -4.163537e-03 -1.230948e-02 -4.360613e-03 -2.221556e-04 -1.318495e-02 1.761920e-02
<VARIANCE> 25
 3.537978e+01 4.917830e+01 4.288664e+01 6.510864e+01 4.276150e+01 3.953182e+01 5.204450e+01 3.543299e+01 3.756705e+01 4.412415e+01 3.625288e+01 2.609657e+01 1.163413e+00 1.712909e+00 1.834502e+00 3.316364e+00 2.436344e+00 2.465388e+00 2.672914e+00 2.551510e+00 2.491621e+00 2.708684e+00 2.328119e+00 1.800646e+00 2.171150e+00
<GCONST> 1.008868e+02
<STATE> 3
<MEAN> 25
 1.320356e+00 -3.624899e-01 -3.601965e-01 -2.554749e-01 2.078855e-01 -2.621534e-01 -2.128091e-01 -6.309634e-02 -3.539460e-01 -3.140774e-01 -3.052384e-01 -1.864718e-01 2.675611e-03 1.150449e-02 1.085875e-02 1.160201e-02 2.922375e-03 -1.921184e-03 5.329981e-03 -4.089966e-03 -1.114788e-02 -1.575783e-04 1.092553e-03 -1.192440e-02 7.125471e-03
<VARIANCE> 25
 3.438149e+01 4.911817e+01 4.304965e+01 6.467094e+01 4.175204e+01 3.978507e+01 5.241544e+01 3.518496e+01 3.701644e+01 4.374012e+01 3.646784e+01 2.635817e+01 1.156732e+00 1.705359e+00 1.833141e+00 3.330618e+00 2.415229e+00 2.484058e+00 2.683429e+00 2.553674e+00 2.501631e+00 2.717521e+00 2.347465e+00 1.812449e+00 2.070498e+00
<GCONST> 1.008006e+02
<STATE> 4
<MEAN> 25
 1.201217e+00 -5.747914e-02 -2.623310e-01 -2.200643e-01 2.754989e-01 -2.806790e-01 -1.888553e-01 1.155526e-02 -2.807442e-01 -2.503695e-01 -2.865981e-01 -2.315702e-01 -5.123123e-03 1.548458e-02 9.473460e-03 8.695392e-03 9.268710e-03 2.887564e-03 6.075424e-03 -4.601544e-04 -1.665880e-03 5.055948e-03 3.417664e-03 -6.843635e-03 -3.764439e-03
<VARIANCE> 25
 3.588683e+01 4.561589e+01 4.213069e+01 6.247202e+01 4.014217e+01 4.052392e+01 5.266312e+01 3.555931e+01 3.618798e+01 4.418126e+01 3.657905e+01 2.592693e+01 1.102948e+00 1.627444e+00 1.790300e+00 3.127654e+00 2.280869e+00 2.448019e+00 2.637403e+00 2.509670e+00 2.422971e+00 2.660383e+00 2.279261e+00 1.774288e+00 1.758842e+00
<GCONST> 1.001271e+02
<TRANSP> 5
 0.000000e+00 1.000000e+00 0.000000e+00 0.000000e+00 0.000000e+00
 0.000000e+00 7.577152e-01 2.422847e-01 0.000000e+00 0.000000e+00
 0.000000e+00 0.000000e+00 7.577158e-01 2.422842e-01 0.000000e+00
 0.000000e+00 0.000000e+00 0.000000e+00 8.912423e-01 1.087577e-01
 0.000000e+00 0.000000e+00 0.000000e+00 0.000000e+00 0.000000e+00
<ENDHMM>
~h "w"
<BEGINHMM>
<NUMSTATES> 5
<STATE> 2
<MEAN> 25
 2.860404e+00 -5.842487e-01 -1.416351e+00 -4.062192e+00 7.101503e-01 -8.833784e-01 1.269104e-01 -1.553565e+00 -9.679971e-01 1.080567e+00 -1.158589e-01 -1.977180e-01 -1.673799e-02 -4.075847e-02 5.373904e-03 -6.627101e-03 1.545300e-02 1.622209e-02 2.490272e-02 1.630351e-02 1.953416e-02 4.565098e-03 1.737717e-02 1.251143e-04 2.084874e-02
<VARIANCE> 25
 3.172145e+01 5.169445e+01 4.712488e+01 8.193452e+01 4.680993e+01 4.230475e+01 6.468610e+01 3.597466e+01 4.127325e+01 4.984254e+01 4.642648e+01 2.792155e+01 5.753672e-01 1.954481e+00 1.683267e+00 2.578379e+00 2.372795e+00 2.244378e+00 2.719607e+00 1.988262e+00 2.399348e+00 2.963391e+00 3.024241e+00 1.990124e+00 1.532488e+00
<GCONST> 1.008765e+02
<STATE> 3
<MEAN> 25
 2.774053e+00 -7.727551e-01 -1.363432e+00 -4.065216e+00 7.648689e-01 -8.273717e-01 2.458224e-01 -1.486320e+00 -8.788652e-01 1.072191e+00 -2.696252e-02 -2.002546e-01 -2.112705e-02 -4.449656e-02 1.592955e-02 6.534616e-04 2.301314e-02 1.252597e-02 3.175693e-02 1.944086e-02 2.435050e-02 -2.085791e-03 1.798061e-02 -2.947406e-03 2.695876e-02
<VARIANCE> 25
 3.173445e+01 5.266721e+01 4.754580e+01 7.965088e+01 4.682278e+01 4.204225e+01 6.578567e+01 3.619572e+01 4.098547e+01 5.047063e+01 4.661553e+01 2.843082e+01 5.939745e-01 1.957923e+00 1.684638e+00 2.659210e+00 2.338598e+00 2.259248e+00 2.736680e+00 2.014959e+00 2.429724e+00 2.989947e+00 3.065752e+00 2.020233e+00 1.563672e+00
<GCONST> 1.010681e+02
<STATE> 4
<MEAN> 25
 2.239964e+00 -1.053370e+00 -1.073832e+00 -3.663751e+00 6.377755e-01 -7.509742e-01 4.414978e-01 -1.229875e+00 -5.022700e-01 8.272468e-01 3.293888e-01 -1.810881e-01 -2.018571e-02 -3.875689e-02 3.248461e-02 1.177746e-02 1.748985e-02 2.831633e-03 2.176317e-02 1.506620e-02 2.269423e-02 -2.104048e-02 1.521375e-02 -5.442803e-03 3.005587e-02
<VARIANCE> 25
 3.601550e+01 5.007736e+01 4.878984e+01 7.179143e+01 4.298639e+01 4.055678e+01 6.437158e+01 3.793292e+01 3.853175e+01 5.136617e+01 4.531460e+01 2.792088e+01 6.061678e-01 1.692071e+00 1.585425e+00 2.508515e+00 2.061924e+00 2.078790e+00 2.563297e+00 1.995331e+00 2.316425e+00 2.912905e+00 2.878290e+00 1.887809e+00 1.363445e+00
<GCONST> 1.000085e+02
<TRANSP> 5
 0.000000e+00 1.000000e+00 0.000000e+00 0.000000e+00 0.000000e+00
 0.000000e+00 7.663497e-01 2.336503e-01 0.000000e+00 0.000000e+00
 0.000000e+00 0.000000e+00 7.663497e-01 2.336504e-01 0.000000e+00
 0.000000e+00 0.000000e+00 0.000000e+00 9.022142e-01 9.778579e-02
 0.000000e+00 0.000000e+00 0.000000e+00 0.000000e+00 0.000000e+00
<ENDHMM>
~h "y"
<BEGINHMM>
<NUMSTATES> 5
<STATE> 2
<MEAN> 25
 3.430281e-01 -1.193231e+00 7.258305e-01 -1.521799e+00 -3.454728e-01 -3.615777e-01 5.861098e-01 -1.152729e+00 -9.514382e-01 -5.267405e-01 -9.831473e-01 5.789204e-01 2.696411e-02 -1.932197e-02 1.271608e-02 -3.432844e-02 4.550627e-03 -1.346690e-02 -6.845965e-03 -6.011171e-03 9.073061e-03 -2.946217e-02 -2.397939e-02 -1.531947e-02 1.436826e-02
<VARIANCE> 25
 4.298114e+01 5.697980e+01 6.354692e+01 8.817631e+01 6.727801e+01 4.222459e+01 5.354522e+01 4.545345e+01 4.969046e+01 5.073890e+01 3.650360e+01 2.516737e+01 9.737571e-01 1.829824e+00 2.086081e+00 2.299382e+00 2.762019e+00 1.886813e+00 2.929034e+00 2.509154e+00 2.094301e+00 2.892988e+00 2.017902e+00 1.812146e+00 1.156732e+00
<GCONST> 1.018207e+02
<STATE> 3
<MEAN> 25
 4.408173e-01 -1.268648e+00 7.625497e-01 -1.613183e+00 -2.788456e-01 -3.960094e-01 5.385571e-01 -1.155223e+00 -9.003927e-01 -6.514006e-01 -1.067113e+00 5.059667e-01 1.922210e-02 -1.256417e-02 7.536381e-03 -1.261283e-02 1.227271e-02 -4.711127e-03 -1.187883e-02 4.262418e-03 1.548803e-02 -2.801058e-02 -1.448707e-02 -1.725128e-02 -6.683610e-03
<VARIANCE> 25
 4.165965e+01 5.704407e+01 6.318608e+01 8.828934e+01 6.769466e+01 4.164567e+01 5.410996e+01 4.491353e+01 4.912188e+01 5.063315e+01 3.602254e+01 2.514439e+01 9.302042e-01 1.809178e+00 2.089823e+00 2.276193e+00 2.762511e+00 1.880165e+00 2.928588e+00 2.499738e+00 2.087862e+00 2.887941e+00 1.998108e+00 1.813063e+00 1.107799e+00
<GCONST> 1.016192e+02
<STATE> 4
<MEAN> 25
 5.457785e-01 -1.486761e+00 7.279345e-01 -1.346587e+00 -1.989693e-01 -3.931832e-01 2.717512e-01 -9.292766e-01 -8.330477e-01 -9.693978e-01 -1.076973e+00 4.085399e-01 4.776108e-03 8.945181e-04 1.237656e-03 1.815002e-02 3.015072e-02 7.390228e-03 -1.157281e-02 1.641329e-02 2.208539e-02 -1.660137e-02 8.744388e-04 -1.796821e-02 -2.784042e-02
<VARIANCE> 25
 4.129900e+01 5.262147e+01 5.861350e+01 7.628844e+01 6.736000e+01 3.925201e+01 5.246442e+01 4.127643e+01 4.744454e+01 5.063868e+01 3.567058e+01 2.476702e+01 8.543735e-01 1.675661e+00 1.955104e+00 2.034316e+00 2.597583e+00 1.813881e+00 2.755277e+00 2.333461e+00 1.989344e+00 2.721387e+00 1.917601e+00 1.713920e+00 9.203274e-01
<GCONST> 1.001111e+02
<TRANSP> 5
 0.000000e+00 1.000000e+00 0.000000e+00 0.000000e+00 0.000000e+00
 0.000000e+00 7.684346e-01 2.315653e-01 0.000000e+00 0.000000e+00
 0.000000e+00 0.000000e+00 7.684343e-01 2.315657e-01 0.000000e+00
 0.000000e+00 0.000000e+00 0.000000e+00 9.052966e-01 9.470343e-02
 0.000000e+00 0.000000e+00 0.000000e+00 0.000000e+00 0.000000e+00
<ENDHMM>
~h "aa"
<BEGINHMM>
<NUMSTATES> 5
<STATE> 2
<MEAN> 25
 8.005317e-01 -1.161830e+00 -2.132007e-01 -4.037538e-01 6.954290e-01 -2.802663e-01 2.045779e-01 -2.489541e-01 -5.862715e-01 -1.008734e+00 -6.536052e-01 1.129455e-01 1.481652e-02 5.795296e-03 1.558885e-02 1.227976e-02 5.176944e-03 -1.944421e-03 -9.140047e-03 -3.752871e-03 -2.636726e-03 -1.490093e-02 5.663973e-04 -4.052712e-03 -1.542594e-03
<VARIANCE> 25
 4.249570e+01 5.409398e+01 5.036430e+01 6.929443e+01 4.960856e+01 3.962688e+01 5.189607e+01 4.171977e+01 4.295019e+01 4.729494e+01 3.767492e+01 2.524625e+01 1.112616e+00 1.820636e+00 1.734106e+00 2.620449e+00 2.343161e+00 2.112062e+00 2.638664e+00 2.571482e+00 2.250726e+00 2.621320e+00 2.169771e+00 1.743628e+00 1.518800e+00
<GCONST> 1.008398e+02
<STATE> 3
<MEAN> 25
 8.484333e-01 -1.125006e+00 -1.419640e-01 -3.547192e-01 7.063424e-01 -2.785753e-01 1.694763e-01 -2.656146e-01 -5.868018e-01 -1.053987e+00 -6.419979e-01 9.330760e-02 9.943219e-03 9.520094e-03 1.666006e-02 1.344544e-02 1.355741e-03 2.272329e-04 -8.662568e-03 -3.393275e-03 1.265008e-03 -8.909330e-03 4.691564e-03 -4.923631e-03 -9.423878e-03
<VARIANCE> 25
 4.123392e+01 5.393491e+01 5.002864e+01 6.899606e+01 4.937120e+01 3.944740e+01 5.190360e+01 4.138244e+01 4.260554e+01 4.697765e+01 3.745803e+01 2.523227e+01 1.087151e+00 1.797632e+00 1.727207e+00 2.595943e+00 2.333729e+00 2.102472e+00 2.629791e+00 2.555449e+00 2.242815e+00 2.618555e+00 2.161114e+00 1.743048e+00 1.484972e+00
<GCONST> 1.006584e+02
<STATE> 4
<MEAN> 25
 8.325197e-01 -9.987168e-01 -7.388426e-02 -2.784706e-01 6.144835e-01 -2.613676e-01 3.675676e-02 -2.957898e-01 -5.407040e-01 -1.066260e+00 -5.760915e-01 8.388203e-02 -2.668546e-03 1.643020e-02 1.763253e-02 1.224799e-02 -9.317342e-04 4.402351e-03 -5.104742e-03 2.828669e-04 9.097105e-03 3.435323e-03 9.823749e-03 -6.701665e-03 -1.959826e-02
<VARIANCE> 25
 4.154643e+01 4.950010e+01 4.728186e+01 6.208774e+01 4.839856e+01 3.765410e+01 5.055973e+01 3.986852e+01 4.116764e+01 4.665488e+01 3.693680e+01 2.471617e+01 1.010546e+00 1.646161e+00 1.629108e+00 2.332026e+00 2.195758e+00 2.023587e+00 2.486946e+00 2.430350e+00 2.138655e+00 2.515743e+00 2.088848e+00 1.682852e+00 1.229438e+00
<GCONST> 9.933475e+01
<TRANSP> 5
 0.000000e+00 1.000000e+00 0.000000e+00 0.000000e+00 0.000000e+00
 0.000000e+00 7.656367e-01 2.343633e-01 0.000000e+00 0.000000e+00
 0.000000e+00 0.000000e+00 7.656364e-01 2.343636e-01 0.000000e+00
 0.000000e+00 0.000000e+00 0.000000e+00 9.018433e-01 9.815665e-02
 0.000000e+00 0.000000e+00 0.000000e+00 0.000000e+00 0.000000e+00
<ENDHMM>
~h "ao"
<BEGINHMM>
<NUMSTATES> 5
<STATE> 2
<MEAN> 25
 1.394858e+00 -7.888653e-01 1.068968e-01 -2.137186e+00 4.105224e-01 -1.039280e+00 9.936080e-01 -3.041219e-01 -2.794186e-01 1.029487e+00 -3.032483e-01 -1.029304e+00 4.610386e-02 -5.739600e-02 -2.195796e-03 -6.313385e-02 -8.894160e-02 -7.624220e-03 5.697271e-02 1.875219e-02 -1.271731e-02 4.555512e-02 -3.126746e-03 -9.458829e-03 4.261798e-02
<VARIANCE> 25
 3.823524e+01 4.656723e+01 4.942240e+01 8.729820e+01 5.951896e+01 3.687371e+01 5.904851e+01 4.612403e+01 4.605686e+01 5.150043e+01 3.889413e+01 2.715236e+01 1.001678e+00 1.603454e+00 1.665904e+00 3.876168e+00 2.562475e+00 2.138292e+00 2.908719e+00 2.607158e+00 2.893702e+00 3.105761e+00 2.295677e+00 1.806572e+00 1.083559e+00
<GCONST> 1.019031e+02
<STATE> 3
<MEAN> 25
 1.585491e+00 -1.007810e+00 9.012652e-02 -2.374958e+00 5.439580e-02 -1.071127e+00 1.214048e+00 -2.285987e-01 -3.455381e-01 1.210781e+00 -3.160885e-01 -1.067800e+00 4.821638e-02 -5.570472e-02 8.672206e-03 -5.463431e-02 -9.339658e-02 -9.471023e-03 5.256879e-02 2.162248e-02 -1.744769e-02 3.806620e-02 -7.983752e-03 -9.743511e-03 3.554251e-02
<VARIANCE> 25
 3.834767e+01 4.742017e+01 4.889939e+01 8.677607e+01 6.225990e+01 3.660410e+01 5.981315e+01 4.723471e+01 4.618129e+01 5.094393e+01 3.870508e+01 2.712519e+01 9.909896e-01 1.596551e+00 1.665090e+00 3.903727e+00 2.618757e+00 2.109466e+00 2.962423e+00 2.683652e+00 2.937375e+00 3.100253e+00 2.302594e+00 1.804227e+00 1.072388e+00
<GCONST> 1.020193e+02
<STATE> 4
<MEAN> 25
 1.414148e+00 -7.818907e-01 2.930267e-01 -2.404430e+00 -4.365262e-01 -9.113515e-01 1.287345e+00 -8.418268e-02 -1.833623e-01 1.527730e+00 -1.516806e-01 -1.051200e+00 4.622115e-02 -3.952570e-02 1.018463e-02 -2.908091e-02 -8.009233e-02 -6.887694e-03 3.160616e-02 1.833529e-02 -2.205486e-02 2.754768e-02 -8.785280e-03 -1.095757e-02 1.482037e-02
<VARIANCE> 25
 4.194643e+01 4.422375e+01 4.653145e+01 8.394786e+01 6.494142e+01 3.528115e+01 5.893789e+01 4.717990e+01 4.514127e+01 4.666690e+01 3.721688e+01 2.582360e+01 9.318577e-01 1.462720e+00 1.576090e+00 3.580744e+00 2.535495e+00 1.982207e+00 2.804382e+00 2.612324e+00 2.819873e+00 2.856972e+00 2.194774e+00 1.723125e+00 9.516528e-01
<GCONST> 1.009445e+02
<TRANSP> 5
 0.000000e+00 1.000000e+00 0.000000e+00 0.000000e+00 0.000000e+00
 0.000000e+00 7.618636e-01 2.381364e-01 0.000000e+00 0.000000e+00
 0.000000e+00 0.000000e+00 7.618636e-01 2.381364e-01 0.000000e+00
 0.000000e+00 0.000000e+00 0.000000e+00 8.971289e-01 1.028710e-01
 0.000000e+00 0.000000e+00 0.000000e+00 0.000000e+00 0.000000e+00
<ENDHMM>
~h "eh"
<BEGINHMM>
<NUMSTATES> 5
<STATE> 2
<MEAN> 25
 2.336480e-01 -2.480370e-01 -7.769273e-01 -3.763905e-01 -1.519105e+00 -9.570408e-01 1.111499e+00 4.132372e-01 -2.309057e-01 4.761091e-01 1.004336e-01 -3.907313e-01 3.378245e-02 1.281806e-03 -1.091070e-02 4.897655e-04 1.174458e-02 -4.355977e-02 9.720366e-03 -4.111832e-03 -3.494301e-02 -2.660718e-02 -4.218484e-02 3.278345e-03 1.049982e-01
<VARIANCE> 25
 5.721374e+01 5.047491e+01 3.970772e+01 6.764245e+01 5.166448e+01 4.442150e+01 4.835495e+01 4.154527e+01 4.337556e+01 4.383407e+01 3.971468e+01 2.628088e+01 1.800138e+00 1.892144e+00 1.464320e+00 3.092830e+00 2.280914e+00 2.530817e+00 2.588762e+00 2.748517e+00 2.530327e+00 2.561550e+00 2.508075e+00 1.704313e+00 1.818926e+00
<GCONST> 1.020270e+02
<STATE> 3
<MEAN> 25
 3.469032e-01 -2.627472e-01 -8.287438e-01 -3.767036e-01 -1.463665e+00 -1.105565e+00 1.123096e+00 3.923936e-01 -3.838099e-01 3.312522e-01 -5.685619e-02 -3.636514e-01 2.069498e-02 -1.480488e-03 -1.503371e-02 -2.713947e-04 2.122935e-02 -3.269134e-02 1.551089e-03 -6.594186e-03 -3.441449e-02 -3.489804e-02 -3.433881e-02 1.162210e-02 8.131514e-02
<VARIANCE> 25
 5.567217e+01 5.184755e+01 4.008131e+01 6.692716e+01 5.157336e+01 4.383159e+01 4.804090e+01 4.155948e+01 4.310846e+01 4.444930e+01 3.993250e+01 2.631878e+01 1.807357e+00 1.969627e+00 1.453040e+00 3.125291e+00 2.293156e+00 2.541888e+00 2.591292e+00 2.779178e+00 2.511319e+00 2.539497e+00 2.526992e+00 1.698430e+00 1.710780e+00
<GCONST> 1.020138e+02
<STATE> 4
<MEAN> 25
 6.304162e-01 -3.643884e-01 -8.933613e-01 -4.303683e-01 -1.336989e+00 -1.251893e+00 8.297061e-01 2.893233e-01 -6.298429e-01 -6.515892e-02 -2.402025e-01 -1.827764e-01 1.036536e-02 -9.211396e-03 -1.048816e-02 3.904591e-03 3.166678e-02 -1.250351e-02 -7.209259e-03 -1.006641e-02 -2.584261e-02 -4.012564e-02 -2.032384e-02 1.730786e-02 3.145685e-02
<VARIANCE> 25
 5.462841e+01 5.051448e+01 3.874207e+01 6.136815e+01 5.103703e+01 4.190206e+01 4.691830e+01 4.060484e+01 4.209984e+01 4.629868e+01 3.989006e+01 2.668301e+01 1.669656e+00 1.951887e+00 1.377040e+00 2.878738e+00 2.214143e+00 2.405429e+00 2.438470e+00 2.649997e+00 2.385655e+00 2.441046e+00 2.441439e+00 1.652423e+00 1.426879e+00
<GCONST> 1.010185e+02
<TRANSP> 5
 0.000000e+00 1.000000e+00 0.000000e+00 0.000000e+00 0.000000e+00
 0.000000e+00 7.637900e-01 2.362100e-01 0.000000e+00 0.000000e+00
 0.000000e+00 0.000000e+00 7.637907e-01 2.362093e-01 0.000000e+00
 0.000000e+00 0.000000e+00 0.000000e+00 8.989999e-01 1.010002e-01
 0.000000e+00 0.000000e+00 0.000000e+00 0.000000e+00 0.000000e+00
<ENDHMM>
~h "hh"
<BEGINHMM>
<NUMSTATES> 5
<STATE> 2
<MEAN> 25
 1.558502e-02 3.311376e-01 2.340518e-01 -5.413418e-01 -4.285350e-01 -4.683575e-01 -8.343897e-01 -4.481580e-01 -5.309750e-02 1.061163e+00 3.996064e-01 1.408498e-02 3.485982e-03 -1.119481e-02 4.181622e-02 -3.559670e-02 1.483784e-02 7.118571e-03 1.242435e-02 -4.842602e-03 -3.524569e-03 -1.113360e-02 -2.759735e-02 2.648613e-03 3.908321e-02
<VARIANCE> 25
 3.547816e+01 2.785074e+01 3.040301e+01 5.062765e+01 4.148891e+01 4.371811e+01 3.695612e+01 3.192444e+01 3.735833e+01 3.657593e+01 3.585959e+01 2.426906e+01 1.117617e+00 1.406734e+00 1.234922e+00 2.411808e+00 2.313454e+00 2.468824e+00 1.992961e+00 2.438755e+00 2.474673e+00 2.403080e+00 2.178570e+00 1.721204e+00 1.040004e+00
<GCONST> 9.675801e+01
<STATE> 3
<MEAN> 25
 3.251527e-02 2.881063e-01 3.911890e-01 -6.982889e-01 -3.913951e-01 -4.391765e-01 -7.783925e-01 -4.702609e-01 -8.022030e-02 1.023168e+00 2.876335e-01 2.644791e-02 5.428919e-03 -1.547805e-02 3.491430e-02 -3.797751e-02 1.378472e-02 6.999601e-03 1.353947e-02 -2.502312e-03 -3.313421e-03 -1.194798e-02 -2.645683e-02 1.796979e-03 4.256372e-02
<VARIANCE> 25
 3.534343e+01 2.832883e+01 3.009521e+01 5.119512e+01 4.251192e+01 4.344656e+01 3.672149e+01 3.267560e+01 3.767109e+01 3.624928e+01 3.600187e+01 2.438346e+01 1.118293e+00 1.442375e+00 1.243358e+00 2.386015e+00 2.304327e+00 2.433069e+00 2.002146e+00 2.459480e+00 2.478425e+00 2.379531e+00 2.175105e+00 1.730446e+00 1.041259e+00
<GCONST> 9.682807e+01
<STATE> 4
<MEAN> 25
 1.703092e-03 5.330170e-02 4.537681e-01 -9.333583e-01 -6.459694e-01 -4.178857e-01 -5.874183e-01 -3.807130e-01 -9.057742e-02 7.921430e-01 8.453297e-02 3.719188e-02 9.582154e-03 -1.528728e-02 1.702393e-02 -3.340686e-02 3.446298e-03 3.020776e-03 1.009629e-02 -2.741078e-04 -1.083777e-02 -1.356504e-02 -1.986245e-02 2.406376e-03 3.652160e-02
<VARIANCE> 25
 3.953177e+01 2.897771e+01 2.841370e+01 4.687401e+01 4.571846e+01 4.077079e+01 3.745434e+01 3.354819e+01 3.889993e+01 3.713546e+01 3.630963e+01 2.366864e+01 1.108349e+00 1.394218e+00 1.193714e+00 2.155816e+00 2.196967e+00 2.261484e+00 1.974152e+00 2.370852e+00 2.361553e+00 2.311251e+00 2.189388e+00 1.695273e+00 8.972418e-01
<GCONST> 9.631036e+01
<TRANSP> 5
 0.000000e+00 1.000000e+00 0.000000e+00 0.000000e+00 0.000000e+00
 0.000000e+00 7.750478e-01 2.249521e-01 0.000000e+00 0.000000e+00
 0.000000e+00 0.000000e+00 7.750475e-01 2.249525e-01 0.000000e+00
 0.000000e+00 0.000000e+00 0.000000e+00 9.112081e-01 8.879192e-02
 0.000000e+00 0.000000e+00 0.000000e+00 0.000000e+00 0.000000e+00
<ENDHMM>
~h "ih"
<BEGINHMM>
<NUMSTATES> 5
<STATE> 2
<MEAN> 25
 -6.403712e-01 1.020637e+00 1.793742e+00 -2.223362e-02 -7.175941e-01 1.596804e-01 -5.731563e-01 -4.134637e-01 3.427956e-01 4.576280e-01 -2.026381e-01 2.135613e-01 9.273804e-03 -9.815220e-03 -1.611115e-02 -7.205090e-03 1.833148e-02 9.500016e-03 1.275262e-02 -3.266793e-03 6.399417e-03 -1.850616e-03 -4.798655e-03 2.543493e-04 8.747697e-03
<VARIANCE> 25
 3.655590e+01 4.152992e+01 6.135008e+01 8.426871e+01 4.836171e+01 4.075310e+01 5.153515e+01 4.529086e+01 4.167082e+01 4.275731e+01 3.211318e+01 2.513559e+01 8.777190e-01 1.386918e+00 2.064194e+00 3.034351e+00 2.309912e+00 1.987147e+00 2.575089e+00 2.415380e+00 2.349927e+00 2.663622e+00 2.060166e+00 1.766071e+00 1.214718e+00
<GCONST> 1.000465e+02
<STATE> 3
<MEAN> 25
 -6.053141e-01 9.818864e-01 1.727116e+00 -4.544012e-02 -6.362636e-01 1.962999e-01 -5.184731e-01 -4.201491e-01 3.680890e-01 4.505648e-01 -2.155266e-01 2.105066e-01 9.988283e-03 -1.028226e-02 -2.076535e-02 -7.946234e-03 1.955467e-02 8.698000e-03 1.352539e-02 -1.477373e-03 5.186159e-03 -4.838140e-03 -3.809131e-03 -2.145998e-03 1.002615e-02
<VARIANCE> 25
 3.614248e+01 4.096913e+01 6.087825e+01 8.393290e+01 4.862114e+01 4.068206e+01 5.145848e+01 4.518998e+01 4.160627e+01 4.268467e+01 3.204099e+01 2.523300e+01 8.618406e-01 1.373921e+00 2.055610e+00 3.012066e+00 2.312531e+00 1.979447e+00 2.557844e+00 2.401785e+00 2.332895e+00 2.646377e+00 2.046290e+00 1.767209e+00 1.197564e+00
<GCONST> 9.991958e+01
<STATE> 4
<MEAN> 25
 -5.563029e-01 9.358583e-01 1.710677e+00 -1.377151e-02 -4.891573e-01 2.307766e-01 -3.896773e-01 -4.352606e-01 3.352410e-01 4.981309e-01 -2.367154e-01 8.373177e-02 7.309462e-03 -1.109701e-02 -2.389440e-02 -4.094680e-03 2.105213e-02 6.870147e-03 1.609618e-02 3.532833e-03 4.418011e-03 -6.031075e-03 -7.817957e-04 -3.476872e-03 6.980270e-03
<VARIANCE> 25
 3.468320e+01 3.794160e+01 5.966025e+01 7.700887e+01 5.086285e+01 3.981976e+01 5.179934e+01 4.431453e+01 3.975188e+01 4.260744e+01 3.168522e+01 2.516797e+01 8.073328e-01 1.290715e+00 1.953791e+00 2.771603e+00 2.248961e+00 1.949322e+00 2.441600e+00 2.300226e+00 2.222027e+00 2.523175e+00 1.976004e+00 1.712113e+00 1.051770e+00
<GCONST> 9.895731e+01
<TRANSP> 5
 0.000000e+00 1.000000e+00 0.000000e+00 0.000000e+00 0.000000e+00
 0.000000e+00 7.592554e-01 2.407446e-01 0.000000e+00 0.000000e+00
 0.000000e+00 0.000000e+00 7.592561e-01 2.407439e-01 0.000000e+00
 0.000000e+00 0.000000e+00 0.000000e+00 8.933387e-01 1.066613e-01
 0.000000e+00 0.000000e+00 0.000000e+00 0.000000e+00 0.000000e+00
<ENDHMM>
~h "ng"
<BEGINHMM>
<NUMSTATES> 5
<STATE> 2
<MEAN> 25
 1.348133e+00 -5.806480e-01 6.158699e-01 -5.849308e-01 -1.618029e-01 -4.589109e-01 7.072897e-01 -3.717836e-02 -2.479433e-01 2.924565e-01 -7.473320e-01 -8.241379e-01 -2.876675e-02 2.465570e-02 -2.477582e-02 8.638936e-02 2.582236e-02 1.336602e-02 -1.205397e-02 2.706468e-03 -2.937479e-03 -5.983013e-03 2.316737e-02 2.178115e-02 -8.364567e-02
<VARIANCE> 25
 3.647008e+01 4.958809e+01 4.932878e+01 7.808056e+01 5.878417e+01 3.872299e+01 5.376673e+01 4.646202e+01 4.679205e+01 4.328782e+01 3.908112e+01 2.885575e+01 7.907432e-01 1.536033e+00 1.619327e+00 2.868072e+00 2.431700e+00 1.874935e+00 2.664877e+00 2.608554e+00 2.556212e+00 2.573858e+00 2.211606e+00 1.633702e+00 1.210080e+00
<GCONST> 1.004439e+02
<STATE> 3
<MEAN> 25
 1.211425e+00 -4.742195e-01 5.183019e-01 -2.480185e-01 -4.248494e-02 -3.927428e-01 6.742338e-01 -1.581447e-02 -2.510008e-01 2.888870e-01 -6.378384e-01 -7.245190e-01 -3.101733e-02 2.660714e-02 -2.328175e-02 8.000599e-02 2.761686e-02 1.657065e-02 -1.845545e-02 1.784359e-03 -1.969752e-03 -2.191367e-03 3.152075e-02 2.644190e-02 -8.035288e-02
<VARIANCE> 25
 3.562953e+01 4.869993e+01 4.834552e+01 7.503389e+01 5.626092e+01 3.804520e+01 5.291146e+01 4.450420e+01 4.514733e+01 4.283071e+01 3.916521e+01 2.902042e+01 7.970958e-01 1.510750e+00 1.597389e+00 2.774184e+00 2.353809e+00 1.861076e+00 2.612739e+00 2.526981e+00 2.513521e+00 2.511555e+00 2.214558e+00 1.633868e+00 1.238354e+00
<GCONST> 1.000196e+02
<STATE> 4
<MEAN> 25
 9.958177e-01 -1.772922e-01 5.081027e-01 5.429013e-02 -5.636834e-02 -3.045949e-01 5.637853e-01 -1.829926e-02 -2.256808e-01 4.735890e-01 -4.279536e-01 -7.035908e-01 -3.902694e-02 2.711366e-02 -1.318143e-02 6.437775e-02 3.205769e-02 2.116092e-02 -1.438944e-02 1.022412e-02 6.142950e-03 2.796469e-03 3.531273e-02 2.882280e-02 -6.825913e-02
<VARIANCE> 25
 3.552952e+01 4.349954e+01 4.696237e+01 6.922519e+01 5.562320e+01 3.642802e+01 4.990976e+01 4.042496e+01 4.175357e+01 4.188794e+01 3.780507e+01 2.883885e+01 7.466341e-01 1.396139e+00 1.524239e+00 2.563058e+00 2.193567e+00 1.785496e+00 2.455272e+00 2.317644e+00 2.377009e+00 2.358758e+00 2.093217e+00 1.572501e+00 1.145580e+00
<GCONST> 9.862081e+01
<TRANSP> 5
 0.000000e+00 1.000000e+00 0.000000e+00 0.000000e+00 0.000000e+00
 0.000000e+00 7.576867e-01 2.423133e-01 0.000000e+00 0.000000e+00
 0.000000e+00 0.000000e+00 7.576870e-01 2.423130e-01 0.000000e+00
 0.000000e+00 0.000000e+00 0.000000e+00 8.914450e-01 1.085549e-01
 0.000000e+00 0.000000e+00 0.000000e+00 0.000000e+00 0.000000e+00
<ENDHMM>
~h "oh"
<BEGINHMM>
<NUMSTATES> 5
<STATE> 2
<MEAN> 25
 4.876313e-08 -1.572510e-08 -3.479018e-08 -3.353887e-08 3.894225e-08 5.448882e-08 6.837960e-09 -3.357679e-08 -9.075150e-09 1.238669e-09 6.825321e-10 3.043588e-08 1.480543e-02 -2.130302e-03 7.752344e-03 -2.168820e-03 1.143337e-02 -2.309903e-03 4.269884e-03 -3.775733e-03 -3.292339e-03 -9.014427e-04 -3.430429e-03 -3.983431e-03 3.762102e-02
<VARIANCE> 25
 4.782532e+01 4.486550e+01 4.720150e+01 6.892854e+01 4.782745e+01 4.025578e+01 4.904441e+01 4.112494e+01 4.163441e+01 4.402450e+01 3.629408e+01 2.461185e+01 1.112554e+00 1.522353e+00 1.617351e+00 2.656559e+00 2.172489e+00 2.083682e+00 2.429415e+00 2.410789e+00 2.262104e+00 2.509146e+00 2.111452e+00 1.695109e+00 1.480569e+00
<GCONST> 9.985252e+01
<STATE> 3
<MEAN> 25
 4.876313e-08 -1.572510e-08 -3.479018e-08 -3.353887e-08 3.894225e-08 5.448882e-08 6.837960e-09 -3.357679e-08 -9.075150e-09 1.238669e-09 6.825321e-10 3.043588e-08 1.480543e-02 -2.130302e-03 7.752344e-03 -2.168820e-03 1.143337e-02 -2.309903e-03 4.269884e-03 -3.775733e-03 -3.292339e-03 -9.014427e-04 -3.430429e-03 -3.983431e-03 3.762102e-02
<VARIANCE> 25
 4.782532e+01 4.486550e+01 4.720150e+01 6.892854e+01 4.782745e+01 4.025578e+01 4.904441e+01 4.112494e+01 4.163441e+01 4.402450e+01 3.629408e+01 2.461185e+01 1.112554e+00 1.522353e+00 1.617351e+00 2.656559e+00 2.172489e+00 2.083682e+00 2.429415e+00 2.410789e+00 2.262104e+00 2.509146e+00 2.111452e+00 1.695109e+00 1.480569e+00
<GCONST> 9.985252e+01
<STATE> 4
<MEAN> 25
 4.876313e-08 -1.572510e-08 -3.479018e-08 -3.353887e-08 3.894225e-08 5.448882e-08 6.837960e-09 -3.357679e-08 -9.075150e-09 1.238669e-09 6.825321e-10 3.043588e-08 1.480543e-02 -2.130302e-03 7.752344e-03 -2.168820e-03 1.143337e-02 -2.309903e-03 4.269884e-03 -3.775733e-03 -3.292339e-03 -9.014427e-04 -3.430429e-03 -3.983431e-03 3.762102e-02
<VARIANCE> 25
 4.782532e+01 4.486550e+01 4.720150e+01 6.892854e+01 4.782745e+01 4.025578e+01 4.904441e+01 4.112494e+01 4.163441e+01 4.402450e+01 3.629408e+01 2.461185e+01 1.112554e+00 1.522353e+00 1.617351e+00 2.656559e+00 2.172489e+00 2.083682e+00 2.429415e+00 2.410789e+00 2.262104e+00 2.509146e+00 2.111452e+00 1.695109e+00 1.480569e+00
<GCONST> 9.985252e+01
<TRANSP> 5
 0.000000e+00 1.000000e+00 0.000000e+00 0.000000e+00 0.000000e+00
 0.000000e+00 6.000000e-01 4.000000e-01 0.000000e+00 0.000000e+00
 0.000000e+00 0.000000e+00 6.000000e-01 4.000000e-01 0.000000e+00
 0.000000e+00 0.000000e+00 0.000000e+00 7.000000e-01 3.000000e-01
 0.000000e+00 0.000000e+00 0.000000e+00 0.000000e+00 0.000000e+00
<ENDHMM>
~h "uw"
<BEGINHMM>
<NUMSTATES> 5
<STATE> 2
<MEAN> 25
 1.178084e+00 8.550597e-01 -6.783173e-01 -1.006316e+00 3.160734e-01 -6.214467e-01 -1.041263e+00 -8.663858e-01 -2.628071e-01 6.941589e-01 5.408552e-01 -4.982873e-01 1.225166e-02 -4.256523e-03 3.755798e-03 -1.122590e-02 2.098499e-02 -1.943641e-03 3.089451e-03 -2.917450e-03 1.462949e-03 1.583773e-02 2.042743e-03 -3.964209e-03 2.371479e-02
<VARIANCE> 25
 4.226783e+01 3.299183e+01 4.098430e+01 7.396126e+01 4.090675e+01 4.447175e+01 4.804628e+01 3.576745e+01 3.766104e+01 3.900888e+01 3.400319e+01 2.578603e+01 1.209124e+00 1.364754e+00 1.560741e+00 3.314522e+00 2.278239e+00 2.624313e+00 2.380147e+00 2.471853e+00 2.570982e+00 2.580041e+00 2.232469e+00 1.829588e+00 1.587737e+00
<GCONST> 9.969429e+01
<STATE> 3
<MEAN> 25
 1.203666e+00 8.386188e-01 -6.614041e-01 -1.040216e+00 3.921330e-01 -6.196652e-01 -1.016411e+00 -8.650283e-01 -2.431313e-01 7.612875e-01 5.497857e-01 -5.062435e-01 8.336950e-03 -5.961026e-03 5.491488e-03 -7.729908e-03 2.071319e-02 7.343909e-04 6.092586e-03 6.200857e-04 4.316173e-03 1.643033e-02 7.818462e-04 -1.560042e-03 1.971624e-02
<VARIANCE> 25
 4.104678e+01 3.278914e+01 4.077383e+01 7.396182e+01 4.061096e+01 4.459758e+01 4.773418e+01 3.554862e+01 3.754321e+01 3.901933e+01 3.401183e+01 2.573242e+01 1.195180e+00 1.376205e+00 1.571128e+00 3.331556e+00 2.269783e+00 2.620111e+00 2.382547e+00 2.472477e+00 2.583917e+00 2.595602e+00 2.232840e+00 1.834691e+00 1.563344e+00
<GCONST> 9.963486e+01
<STATE> 4
<MEAN> 25
 1.037103e+00 8.532268e-01 -5.795928e-01 -1.107149e+00 4.296461e-01 -6.005773e-01 -9.190276e-01 -7.372017e-01 -5.884679e-02 8.448683e-01 5.739810e-01 -5.304777e-01 -2.187894e-03 -5.486807e-03 7.788022e-03 -1.857355e-04 1.402311e-02 6.447282e-03 9.873655e-03 6.089388e-03 7.532220e-03 1.063129e-02 -1.062440e-03 2.209752e-03 6.546617e-03
<VARIANCE> 25
 4.223738e+01 3.016296e+01 3.883231e+01 6.896732e+01 3.944107e+01 4.334591e+01 4.841557e+01 3.580270e+01 3.699362e+01 3.796444e+01 3.348852e+01 2.441242e+01 1.105201e+00 1.284760e+00 1.497428e+00 3.073283e+00 2.112965e+00 2.463136e+00 2.316040e+00 2.407636e+00 2.476909e+00 2.501994e+00 2.155069e+00 1.759260e+00 1.278348e+00
<GCONST> 9.849281e+01
<TRANSP> 5
 0.000000e+00 1.000000e+00 0.000000e+00 0.000000e+00 0.000000e+00
 0.000000e+00 7.626957e-01 2.373043e-01 0.000000e+00 0.000000e+00
 0.000000e+00 0.000000e+00 7.626968e-01 2.373032e-01 0.000000e+00
 0.000000e+00 0.000000e+00 0.000000e+00 8.973494e-01 1.026506e-01
 0.000000e+00 0.000000e+00 0.000000e+00 0.000000e+00 0.000000e+00
<ENDHMM>
~h "sil"
<BEGINHMM>
<NUMSTATES> 5
<STATE> 2
<MEAN> 25
 -7.610078e+00 3.314563e+00 -1.986566e+00 5.513564e+00 -2.104415e+00 4.857292e+00 -1.835131e-01 3.738945e+00 3.776037e+00 2.942728e+00 3.581756e+00 1.190732e+00 -7.231938e-02 1.509425e-02 -1.543630e-02 -4.458451e-02 7.792582e-02 1.087674e-01 -3.295344e-02 -7.748755e-02 4.560936e-02 1.457605e-01 1.111574e-01 -1.657734e-01 2.055835e-01
<VARIANCE> 25
 8.353197e+01 1.920887e+01 2.989914e+01 2.474676e+01 3.881405e+01 2.383120e+01 2.846403e+01 3.033521e+01 3.487409e+01 2.127306e+01 2.464786e+01 1.637741e+01 5.511380e-01 3.224351e-01 4.619693e-01 5.758516e-01 7.326980e-01 9.407818e-01 1.059528e+00 1.288921e+00 1.251199e+00 1.411463e+00 1.179830e+00 1.368352e+00 2.026715e+00
<GCONST> 8.477647e+01
<STATE> 3
<MEAN> 25
 -7.744915e+00 3.327813e+00 -1.989655e+00 5.415090e+00 -1.781099e+00 4.950338e+00 -7.717557e-02 3.742115e+00 3.893254e+00 2.984544e+00 3.646448e+00 1.095893e+00 -5.137359e-03 7.154725e-03 1.607364e-02 -1.946094e-02 8.187156e-02 9.251937e-03 4.537311e-02 1.620925e-02 2.035380e-02 -1.996955e-02 -1.459549e-02 5.709491e-03 4.004525e-01
<VARIANCE> 25
 7.397919e+01 1.864119e+01 2.946351e+01 2.442643e+01 3.725679e+01 2.232046e+01 2.934952e+01 3.105742e+01 3.701857e+01 2.183995e+01 2.431646e+01 1.472746e+01 1.020172e+00 3.870244e-01 5.800231e-01 6.486487e-01 8.107948e-01 9.496266e-01 1.087709e+00 1.298868e+00 1.325799e+00 1.403296e+00 1.226009e+00 1.175361e+00 3.538378e+00
<GCONST> 8.629652e+01
<STATE> 4
<MEAN> 25
 -5.884558e+00 2.426702e+00 -1.370868e+00 4.605241e+00 -6.456069e-01 4.033893e+00 7.456231e-01 3.088678e+00 3.085941e+00 2.602812e+00 2.849037e+00 1.051933e+00 1.346781e-01 -3.897896e-02 6.726871e-02 -1.514163e-02 9.479686e-02 -4.262171e-02 3.763339e-02 -2.969505e-02 -4.021513e-02 -1.492392e-02 -4.443595e-02 2.944906e-02 3.838731e-01
<VARIANCE> 25
 5.943840e+01 2.007103e+01 2.652954e+01 2.596813e+01 3.527898e+01 2.306022e+01 3.130017e+01 3.123550e+01 3.540059e+01 2.452775e+01 2.409867e+01 1.664148e+01 1.266374e+00 5.913739e-01 8.092607e-01 9.397417e-01 1.090469e+00 1.210960e+00 1.362587e+00 1.482056e+00 1.526743e+00 1.534296e+00 1.438926e+00 1.309163e+00 2.965137e+00
<GCONST> 8.890277e+01
<TRANSP> 5
 0.000000e+00 1.000000e+00 0.000000e+00 0.000000e+00 0.000000e+00
 0.000000e+00 7.651768e-01 2.348232e-01 0.000000e+00 0.000000e+00
 0.000000e+00 0.000000e+00 7.651765e-01 2.348235e-01 0.000000e+00
 0.000000e+00 0.000000e+00 0.000000e+00 9.004021e-01 9.959796e-02
 0.000000e+00 0.000000e+00 0.000000e+00 0.000000e+00 0.000000e+00
<ENDHMM>
