~o
<STREAMINFO> 1 25
<VECSIZE> 25<NULLD><MFCC_D_N_Z_0><DIAGC>
~h "b"
<BEGINHMM>
<NUMSTATES> 5
<STATE> 2
<MEAN> 25
 1.869139e+00 2.678719e+00 1.141964e+01 -5.485960e+00 -1.042698e+01 -6.379930e+00 -2.318775e+00 -5.787979e+00 -4.066721e+00 4.683647e+00 -1.277956e+00 4.996336e-01 -5.318159e-01 -4.156038e-01 5.232667e-01 -1.412247e+00 -9.267417e-01 -6.970558e-01 3.901054e-01 -2.434025e-01 5.729084e-02 7.635763e-01 1.373177e-01 3.380967e-01 8.315421e-01
<VARIANCE> 25
 2.548859e+01 1.591618e+01 7.474140e+01 8.777998e+01 4.786375e+01 3.929779e+01 4.383228e+01 5.010098e+01 4.824583e+01 5.652502e+01 3.179981e+01 3.961080e+01 2.214663e+00 1.570805e+00 9.905808e+00 8.955137e+00 5.338023e+00 3.549504e+00 4.021030e+00 7.218080e+00 5.142353e+00 6.757042e+00 3.582801e+00 3.363751e+00 1.205610e+00
<GCONST> 1.092910e+02
<STATE> 3
<MEAN> 25
 2.027657e+00 7.468206e-01 5.475101e+00 -6.566927e+00 -9.894611e+00 -8.070268e+00 -1.971416e+00 -4.221886e+00 -1.203481e+00 3.074911e+00 -9.079163e-01 9.543319e-01 3.134728e-01 -2.571585e-01 -1.547702e+00 1.049371e-01 9.138462e-01 -2.385553e-02 -1.136285e-01 1.808619e-01 8.905456e-01 -7.664998e-01 -5.388019e-02 -9.939805e-02 -4.693960e-02
<VARIANCE> 25
 2.433748e+01 1.993247e+01 7.238020e+01 4.273997e+01 6.313048e+01 3.911343e+01 4.044983e+01 4.725724e+01 5.356895e+01 5.656588e+01 3.276006e+01 3.940345e+01 8.531721e-01 1.201542e+00 3.713291e+00 3.472305e+00 5.350098e+00 2.744995e+00 3.654793e+00 4.796843e+00 4.058286e+00 5.084996e+00 3.220491e+00 2.948606e+00 6.549764e-01
<GCONST> 1.037024e+02
<STATE> 4
<MEAN> 25
 2.446757e+00 5.713624e-01 -3.648295e-01 -3.050097e+00 -3.522855e+00 -5.072477e+00 -3.307653e+00 -2.971357e+00 1.912531e+00 -7.396208e-01 -1.210234e+00 -7.772084e-02 2.017133e-02 4.442001e-02 -6.493315e-01 3.685842e-02 7.761438e-01 4.605468e-01 -1.098547e-01 -1.307516e-01 3.394766e-01 -1.657425e-01 1.271717e-01 -1.159548e-01 -2.680728e-01
<VARIANCE> 25
 3.732528e+01 1.813400e+01 5.150555e+01 4.143484e+01 5.971514e+01 4.869196e+01 4.531023e+01 5.099698e+01 4.300566e+01 5.824389e+01 3.585213e+01 2.519618e+01 6.739541e-01 1.001900e+00 2.345091e+00 2.198006e+00 3.372258e+00 2.019040e+00 2.728184e+00 3.201381e+00 2.527186e+00 3.016197e+00 2.514721e+00 1.908666e+00 3.735759e-01
<GCONST> 9.843030e+01
<TRANSP> 5
 0.000000e+00 1.000000e+00 0.000000e+00 0.000000e+00 0.000000e+00
 0.000000e+00 8.514916e-01 1.485085e-01 0.000000e+00 0.000000e+00
 0.000000e+00 0.000000e+00 7.391642e-01 2.608358e-01 0.000000e+00
 0.000000e+00 0.000000e+00 0.000000e+00 7.946296e-01 2.053704e-01
 0.000000e+00 0.000000e+00 0.000000e+00 0.000000e+00 0.000000e+00
<ENDHMM>
~h "c"
<BEGINHMM>
<NUMSTATES> 5
<STATE> 2
<MEAN> 25
 4.876313e-08 -1.572510e-08 -3.479018e-08 -3.353887e-08 3.894225e-08 5.448882e-08 6.837960e-09 -3.357679e-08 -9.075150e-09 1.238669e-09 6.825321e-10 3.043588e-08 1.480543e-02 -2.130302e-03 7.752344e-03 -2.168820e-03 1.143337e-02 -2.309903e-03 4.269884e-03 -3.775733e-03 -3.292339e-03 -9.014427e-04 -3.430429e-03 -3.983431e-03 3.762102e-02
<VARIANCE> 25
 4.782532e+01 4.486550e+01 4.720150e+01 6.892854e+01 4.782745e+01 4.025578e+01 4.904441e+01 4.112494e+01 4.163441e+01 4.402450e+01 3.629408e+01 2.461185e+01 1.112554e+00 1.522353e+00 1.617351e+00 2.656559e+00 2.172489e+00 2.083682e+00 2.429415e+00 2.410789e+00 2.262104e+00 2.509146e+00 2.111452e+00 1.695109e+00 1.480569e+00
<GCONST> 9.985252e+01
<STATE> 3
<MEAN> 25
 4.876313e-08 -1.572510e-08 -3.479018e-08 -3.353887e-08 3.894225e-08 5.448882e-08 6.837960e-09 -3.357679e-08 -9.075150e-09 1.238669e-09 6.825321e-10 3.043588e-08 1.480543e-02 -2.130302e-03 7.752344e-03 -2.168820e-03 1.143337e-02 -2.309903e-03 4.269884e-03 -3.775733e-03 -3.292339e-03 -9.014427e-04 -3.430429e-03 -3.983431e-03 3.762102e-02
<VARIANCE> 25
 4.782532e+01 4.486550e+01 4.720150e+01 6.892854e+01 4.782745e+01 4.025578e+01 4.904441e+01 4.112494e+01 4.163441e+01 4.402450e+01 3.629408e+01 2.461185e+01 1.112554e+00 1.522353e+00 1.617351e+00 2.656559e+00 2.172489e+00 2.083682e+00 2.429415e+00 2.410789e+00 2.262104e+00 2.509146e+00 2.111452e+00 1.695109e+00 1.480569e+00
<GCONST> 9.985252e+01
<STATE> 4
<MEAN> 25
 4.876313e-08 -1.572510e-08 -3.479018e-08 -3.353887e-08 3.894225e-08 5.448882e-08 6.837960e-09 -3.357679e-08 -9.075150e-09 1.238669e-09 6.825321e-10 3.043588e-08 1.480543e-02 -2.130302e-03 7.752344e-03 -2.168820e-03 1.143337e-02 -2.309903e-03 4.269884e-03 -3.775733e-03 -3.292339e-03 -9.014427e-04 -3.430429e-03 -3.983431e-03 3.762102e-02
<VARIANCE> 25
 4.782532e+01 4.486550e+01 4.720150e+01 6.892854e+01 4.782745e+01 4.025578e+01 4.904441e+01 4.112494e+01 4.163441e+01 4.402450e+01 3.629408e+01 2.461185e+01 1.112554e+00 1.522353e+00 1.617351e+00 2.656559e+00 2.172489e+00 2.083682e+00 2.429415e+00 2.410789e+00 2.262104e+00 2.509146e+00 2.111452e+00 1.695109e+00 1.480569e+00
<GCONST> 9.985252e+01
<TRANSP> 5
 0.000000e+00 1.000000e+00 0.000000e+00 0.000000e+00 0.000000e+00
 0.000000e+00 6.000000e-01 4.000000e-01 0.000000e+00 0.000000e+00
 0.000000e+00 0.000000e+00 6.000000e-01 4.000000e-01 0.000000e+00
 0.000000e+00 0.000000e+00 0.000000e+00 7.000000e-01 3.000000e-01
 0.000000e+00 0.000000e+00 0.000000e+00 0.000000e+00 0.000000e+00
<ENDHMM>
~h "d"
<BEGINHMM>
<NUMSTATES> 5
<STATE> 2
<MEAN> 25
 1.742024e+00 2.809810e+00 4.034773e+00 2.547554e+00 -2.942693e+00 -5.233448e-01 -2.400162e+00 -1.466126e+00 -2.635105e+00 8.407580e-01 -3.683905e-01 -1.141835e+00 3.323478e-02 -4.956062e-01 1.446208e+00 -1.405225e+00 -9.582912e-01 -5.465310e-01 -1.797012e-01 -7.065537e-01 -1.118835e+00 5.316505e-01 -5.344740e-01 -1.099895e-01 1.669579e+00
<VARIANCE> 25
 2.119081e+01 3.387848e+01 6.286346e+01 4.928925e+01 3.944796e+01 3.290911e+01 3.963100e+01 3.481528e+01 3.651620e+01 4.439063e+01 3.062421e+01 2.362536e+01 2.354710e+00 4.392203e+00 5.420544e+00 5.490262e+00 3.779061e+00 3.936445e+00 4.839254e+00 4.247367e+00 4.429095e+00 6.006555e+00 3.578480e+00 3.112446e+00 3.964869e+00
<GCONST> 1.074563e+02
<STATE> 3
<MEAN> 25
 8.046408e-01 4.227023e-01 9.473291e+00 -4.341307e+00 -6.551394e+00 -2.641043e+00 -2.982608e+00 -3.351081e+00 -5.125333e+00 3.725363e+00 -2.385844e+00 4.628682e-01 -1.868675e-01 -7.804153e-01 7.312918e-01 -1.786413e+00 -6.460125e-01 -6.002021e-01 1.261152e-01 -1.587760e-01 -1.908763e-01 3.913708e-01 -3.180492e-01 2.052019e-01 1.414349e+00
<VARIANCE> 25
 1.586647e+01 3.830178e+01 7.659032e+01 9.339843e+01 6.207705e+01 3.522039e+01 6.185823e+01 4.678082e+01 4.956498e+01 7.503096e+01 3.744184e+01 3.391726e+01 1.387259e+00 3.847215e+00 6.370365e+00 6.211878e+00 5.704189e+00 3.754879e+00 8.590911e+00 4.225898e+00 5.656340e+00 7.848966e+00 4.293344e+00 3.291465e+00 2.599793e+00
<GCONST> 1.116662e+02
<STATE> 4
<MEAN> 25
 1.162909e+00 -3.270489e+00 6.690408e+00 -9.259918e+00 -5.014441e+00 -4.501796e+00 -5.527492e-02 -1.446883e+00 -3.103089e+00 2.185405e+00 -2.370100e+00 3.634333e-02 3.662776e-02 -5.826471e-01 -7.519369e-01 -6.882125e-01 6.279563e-01 -1.689738e-01 7.715532e-01 3.412101e-01 6.052014e-01 -5.387278e-01 3.990824e-02 -7.764103e-02 4.181722e-01
<VARIANCE> 25
 1.695857e+01 4.819226e+01 6.583553e+01 7.738666e+01 9.237098e+01 3.756329e+01 1.101881e+02 4.224494e+01 4.248913e+01 7.916837e+01 5.172338e+01 2.785190e+01 6.144215e-01 2.473407e+00 3.964767e+00 3.095010e+00 5.605133e+00 2.066747e+00 6.603989e+00 3.443055e+00 3.435377e+00 6.106302e+00 3.109877e+00 2.039325e+00 1.115447e+00
<GCONST> 1.066794e+02
<TRANSP> 5
 0.000000e+00 1.000000e+00 0.000000e+00 0.000000e+00 0.000000e+00
 0.000000e+00 6.854270e-01 3.145730e-01 0.000000e+00 0.000000e+00
 0.000000e+00 0.000000e+00 7.090623e-01 2.909378e-01 0.000000e+00
 0.000000e+00 0.000000e+00 0.000000e+00 6.910533e-01 3.089466e-01
 0.000000e+00 0.000000e+00 0.000000e+00 0.000000e+00 0.000000e+00
<ENDHMM>
~h "g"
<BEGINHMM>
<NUMSTATES> 5
<STATE> 2
<MEAN> 25
 6.562590e-01 2.511723e+00 7.990829e+00 -2.218746e+00 2.997141e-01 -2.669711e+00 -2.880201e+00 -2.811994e+00 -6.819122e-01 -2.789392e+00 -2.385892e+00 -1.696522e+00 8.856469e-02 -7.090621e-02 1.005038e-01 -1.436691e-01 1.937804e-01 -2.383268e-01 -1.682021e-01 -1.046765e-01 -3.952652e-02 6.217170e-02 -5.173003e-02 -9.476764e-02 2.504116e-01
<VARIANCE> 25
 3.128976e+01 1.262202e+02 1.187839e+02 1.490607e+02 6.955949e+01 6.248347e+01 1.057254e+02 5.423500e+01 5.559852e+01 7.777167e+01 4.528920e+01 4.859788e+01 2.322741e+00 4.286062e+00 4.397798e+00 7.812953e+00 4.173502e+00 4.239958e+00 4.982715e+00 3.974811e+00 4.492471e+00 5.715483e+00 3.332853e+00 3.105479e+00 4.765910e+00
<GCONST> 1.159481e+02
<STATE> 3
<MEAN> 25
 2.312639e+00 1.311811e+00 5.895355e+00 -3.192213e+00 2.314361e+00 -3.398130e+00 -3.395319e+00 -3.644457e+00 -1.497703e+00 -1.108669e+00 -2.046156e+00 -1.893883e+00 3.286672e-01 4.663280e-02 -2.173937e-01 -4.636916e-01 4.550833e-02 -9.555067e-02 8.190893e-02 -1.377157e-01 -2.160815e-01 1.456625e-01 -9.743235e-02 7.647007e-04 3.601974e-01
<VARIANCE> 25
 2.456498e+01 7.072997e+01 1.144810e+02 1.177899e+02 6.322087e+01 4.885171e+01 9.592731e+01 5.846427e+01 4.661160e+01 9.394174e+01 3.746675e+01 4.273336e+01 1.730530e+00 3.262265e+00 3.393129e+00 7.019270e+00 4.195575e+00 3.498907e+00 5.709697e+00 3.752203e+00 3.703234e+00 6.472069e+00 3.064749e+00 2.747360e+00 3.128538e+00
<GCONST> 1.124469e+02
<STATE> 4
<MEAN> 25
 3.047910e+00 4.358418e+00 6.275093e+00 -2.646456e+00 9.954398e-01 -2.026105e+00 -4.138451e+00 -4.137979e+00 -1.964701e+00 -1.079495e+00 -3.128757e+00 -1.503789e+00 1.165911e-01 1.163163e-01 -2.459679e-01 -2.441866e-01 -1.478236e-02 1.213363e-02 2.490690e-01 2.691511e-02 -1.053052e-01 1.873173e-01 9.615448e-03 -3.078144e-02 -1.112590e-01
<VARIANCE> 25
 1.933508e+01 5.911704e+01 5.789671e+01 8.284336e+01 6.823640e+01 3.272607e+01 9.156271e+01 5.508257e+01 3.101942e+01 4.647181e+01 3.127171e+01 2.620955e+01 7.638829e-01 1.344901e+00 1.818848e+00 4.484949e+00 2.521481e+00 2.208232e+00 3.155985e+00 2.427949e+00 2.417493e+00 3.427378e+00 1.962010e+00 1.856098e+00 1.274281e+00
<GCONST> 1.012119e+02
<TRANSP> 5
 0.000000e+00 1.000000e+00 0.000000e+00 0.000000e+00 0.000000e+00
 0.000000e+00 9.257802e-01 7.421982e-02 0.000000e+00 0.000000e+00
 0.000000e+00 0.000000e+00 7.709537e-01 2.290464e-01 0.000000e+00
 0.000000e+00 0.000000e+00 0.000000e+00 7.653292e-01 2.346708e-01
 0.000000e+00 0.000000e+00 0.000000e+00 0.000000e+00 0.000000e+00
<ENDHMM>
~h "h"
<BEGINHMM>
<NUMSTATES> 5
<STATE> 2
<MEAN> 25
 -3.743185e-01 1.906684e+00 1.151851e+00 4.431113e+00 -8.886647e-02 2.504557e+00 -9.417537e-01 2.524146e-01 1.334427e+00 6.226136e-01 2.774886e+00 -1.072534e-01 -2.690704e-02 -5.353013e-03 -7.563437e-03 6.022172e-02 9.391295e-02 -5.489251e-02 -6.059118e-02 9.846448e-02 1.100481e-01 -1.358383e-01 -5.355207e-02 2.022598e-02 -7.387739e-03
<VARIANCE> 25
 9.861024e+00 4.713474e+00 6.728683e+00 9.030724e+00 1.145107e+01 1.493633e+01 1.444188e+01 1.659586e+01 2.070102e+01 1.737384e+01 1.155327e+01 1.158158e+01 1.476106e-01 3.364758e-01 4.882490e-01 6.250158e-01 1.032509e+00 1.377610e+00 1.343728e+00 1.334348e+00 1.655664e+00 1.799149e+00 1.167678e+00 1.503367e+00 8.986206e-02
<GCONST> 7.128734e+01
<STATE> 3
<MEAN> 25
 -2.555679e+00 -7.179449e-01 2.871143e-01 5.717769e+00 4.001883e+00 5.665769e-01 -4.214200e-02 1.372834e+00 3.182851e+00 -2.551153e+00 1.846883e+00 7.338704e-01 1.482172e-02 -7.752826e-01 -2.560169e-01 -4.028606e-02 9.177829e-01 -1.177157e-01 2.533389e-01 -2.671128e-02 -3.555048e-01 -6.892651e-01 -1.779540e-01 3.613777e-01 6.083151e-01
<VARIANCE> 25
 2.544264e+01 1.727282e+01 1.204945e+01 1.189205e+01 2.442202e+01 2.127877e+01 1.647619e+01 4.325565e+01 4.074862e+01 3.340365e+01 1.658964e+01 2.051526e+01 3.641879e-01 1.375888e+00 2.112461e+00 9.323509e-01 2.075549e+00 1.867268e+00 1.943194e+00 2.598968e+00 2.407179e+00 1.960239e+00 2.496317e+00 2.478644e+00 2.870387e-01
<GCONST> 8.795253e+01
<STATE> 4
<MEAN> 25
 5.131791e+00 -4.797001e+00 -2.698545e+00 3.526515e-01 1.048119e+00 -2.119474e+00 -3.590908e+00 -4.711555e+00 -4.810678e+00 -7.659786e+00 -3.243766e+00 2.342494e+00 1.248426e-01 -8.297588e-02 -1.160271e-01 -2.687743e-01 -2.065907e-01 -1.555005e-01 2.531514e-03 -1.672060e-01 -8.747712e-02 -8.419439e-03 -7.874761e-02 -2.229448e-03 1.824258e-01
<VARIANCE> 25
 4.647253e+01 5.625091e+01 3.157309e+01 2.823239e+01 3.835517e+01 2.325882e+01 3.331242e+01 5.947805e+01 3.684499e+01 3.938572e+01 2.501755e+01 2.024272e+01 1.153846e+00 1.382786e+00 1.848854e+00 1.349938e+00 1.793381e+00 1.327610e+00 2.045925e+00 2.522643e+00 1.697834e+00 1.374991e+00 1.923019e+00 1.520894e+00 6.135186e-01
<GCONST> 9.382389e+01
<TRANSP> 5
 0.000000e+00 1.000000e+00 0.000000e+00 0.000000e+00 0.000000e+00
 0.000000e+00 9.397922e-01 6.020781e-02 0.000000e+00 0.000000e+00
 0.000000e+00 0.000000e+00 6.791657e-01 3.208343e-01 0.000000e+00
 0.000000e+00 0.000000e+00 0.000000e+00 9.468812e-01 5.311880e-02
 0.000000e+00 0.000000e+00 0.000000e+00 0.000000e+00 0.000000e+00
<ENDHMM>
~h "j"
<BEGINHMM>
<NUMSTATES> 5
<STATE> 2
<MEAN> 25
 1.813071e+00 2.453176e+00 4.097247e+00 -3.530334e-01 -3.249918e+00 -1.919519e+00 -4.119564e+00 -4.544149e-01 -3.878766e+00 3.681442e+00 -3.727824e+00 -2.335313e+00 -4.590473e-01 1.617358e-01 2.238219e-01 4.514599e-01 -4.360889e-01 7.215860e-01 1.323906e-01 3.379620e-01 -2.145153e-01 -6.157379e-01 1.234803e-01 -1.338541e-01 -1.202908e-01
<VARIANCE> 25
 2.425372e+01 7.071499e+00 5.737090e+01 5.169397e+01 3.685488e+01 7.141437e+01 3.637896e+01 2.890871e+01 3.715192e+01 8.649348e+01 3.328538e+01 1.679564e+01 2.774326e+00 7.204062e-01 2.529942e+00 2.401174e+00 4.949814e+00 6.787918e+00 2.486911e+00 2.654320e+00 3.703826e+00 4.364541e+00 2.506902e+00 1.920295e+00 1.347700e+00
<GCONST> 1.008726e+02
<STATE> 3
<MEAN> 25
 -5.532615e-01 3.709791e+00 4.185493e+00 7.015830e-01 -4.420998e+00 5.540332e-01 -4.795840e+00 -4.662662e-01 -4.025266e+00 1.007082e+00 -2.346323e+00 -2.375700e+00 -2.694352e-01 1.818535e-01 2.211400e-01 -3.409511e-02 -1.965580e-01 -1.523239e-01 -1.625785e-01 -1.822934e-02 -1.296489e-01 -8.943652e-02 2.040927e-01 2.106143e-01 -7.386097e-02
<VARIANCE> 25
 4.115984e+01 1.219500e+01 6.682294e+01 3.216394e+01 4.847667e+01 7.399160e+01 3.451549e+01 2.288686e+01 3.465704e+01 6.247378e+01 3.130121e+01 1.964516e+01 4.968323e+00 9.951832e-01 2.280190e+00 2.879996e+00 6.485132e+00 7.998000e+00 3.231018e+00 2.746711e+00 3.707004e+00 4.832469e+00 3.100020e+00 2.094095e+00 2.463062e+00
<GCONST> 1.040668e+02
<STATE> 4
<MEAN> 25
 -1.552356e-01 4.686094e+00 5.565659e+00 -1.518197e+00 -4.611548e+00 -6.926237e+00 -6.933007e+00 -6.576053e-01 -1.756288e+00 2.850456e+00 -3.809018e-01 -3.429582e+00 1.301653e-01 -7.902361e-02 -1.119526e-01 -2.534189e-01 2.714601e-01 -3.228950e-01 2.022615e-02 -1.577294e-01 1.448474e-01 2.273857e-01 -1.375295e-02 1.185131e-01 2.064882e-01
<VARIANCE> 25
 5.763096e+01 4.636407e+01 3.405927e+01 4.417788e+01 5.996516e+01 1.038624e+02 4.880700e+01 2.986190e+01 4.652817e+01 5.904302e+01 5.422812e+01 3.065397e+01 3.728831e+00 3.576676e+00 3.626798e+00 4.137249e+00 7.834706e+00 8.022335e+00 3.731069e+00 4.341966e+00 5.088758e+00 3.951134e+00 4.004451e+00 2.553900e+00 4.765948e+00
<GCONST> 1.116217e+02
<TRANSP> 5
 0.000000e+00 1.000000e+00 0.000000e+00 0.000000e+00 0.000000e+00
 0.000000e+00 7.842925e-01 2.157075e-01 0.000000e+00 0.000000e+00
 0.000000e+00 0.000000e+00 7.917714e-01 2.082286e-01 0.000000e+00
 0.000000e+00 0.000000e+00 0.000000e+00 9.476317e-01 5.236840e-02
 0.000000e+00 0.000000e+00 0.000000e+00 0.000000e+00 0.000000e+00
<ENDHMM>
~h "k"
<BEGINHMM>
<NUMSTATES> 5
<STATE> 2
<MEAN> 25
 3.250769e+00 1.045422e-01 -3.964424e+00 1.000316e+00 3.150053e+00 1.717426e+00 -2.757151e+00 -9.989933e-01 2.758980e-01 -1.232291e+00 -2.376468e+00 -1.224175e+00 -2.380790e-01 -8.711866e-02 9.501705e-02 -1.894897e-01 -1.091755e-01 -2.662009e-01 1.745986e-01 1.496525e-01 9.746964e-02 1.067563e-01 5.489843e-02 4.493825e-02 3.277589e-01
<VARIANCE> 25
 3.122589e+01 3.204462e+01 3.782230e+01 6.769299e+01 2.912478e+01 3.882806e+01 5.060694e+01 3.659812e+01 3.990880e+01 4.842683e+01 4.334827e+01 3.063316e+01 2.913940e+00 2.392642e+00 2.784706e+00 4.727420e+00 2.365732e+00 4.345572e+00 4.179111e+00 3.710394e+00 4.389862e+00 4.624858e+00 3.162428e+00 2.820190e+00 4.386019e+00
<GCONST> 1.062842e+02
<STATE> 3
<MEAN> 25
 2.339736e+00 -8.139245e-01 -3.456982e+00 -3.646870e-01 2.389071e+00 1.121120e+00 -8.052299e-01 -3.995376e-01 7.892756e-01 -4.224658e-01 -1.631990e+00 -7.102384e-01 2.308799e-02 -3.215997e-01 7.119237e-02 -1.957631e-01 -1.414916e-01 -9.252325e-02 4.205633e-01 -1.076896e-01 -5.338712e-02 1.514818e-02 1.042498e-01 4.987028e-02 4.897051e-01
<VARIANCE> 25
 2.699205e+01 3.330088e+01 3.501582e+01 6.689210e+01 3.062937e+01 3.829425e+01 4.874494e+01 3.700341e+01 3.288113e+01 4.650981e+01 3.951987e+01 2.619762e+01 2.731480e+00 2.241849e+00 2.761977e+00 4.376088e+00 2.664518e+00 3.851758e+00 4.093052e+00 4.535298e+00 4.112562e+00 4.766647e+00 3.636593e+00 2.714845e+00 4.231455e+00
<GCONST> 1.056088e+02
<STATE> 4
<MEAN> 25
 -6.216283e-01 2.017695e-01 -6.100444e-01 2.809718e+00 2.029949e+00 2.698982e+00 9.254303e-01 8.200320e-01 1.693513e+00 8.691093e-01 1.248365e+00 1.202450e-01 -4.623616e-03 -7.388551e-02 1.210766e-01 -2.868626e-02 -1.034059e-01 -5.989770e-02 7.759367e-02 -2.330145e-02 -7.558949e-02 -9.032325e-02 3.024144e-02 3.147997e-02 1.118845e-01
<VARIANCE> 25
 1.925450e+01 1.580585e+01 1.720601e+01 2.692924e+01 1.858008e+01 1.784920e+01 2.737980e+01 1.943150e+01 1.846675e+01 2.923275e+01 2.390229e+01 1.322240e+01 6.190327e-01 8.083965e-01 1.195105e+00 1.491485e+00 1.410279e+00 1.515556e+00 1.952905e+00 2.394401e+00 1.731241e+00 2.429016e+00 1.912798e+00 1.312794e+00 6.761214e-01
<GCONST> 8.608481e+01
<TRANSP> 5
 0.000000e+00 1.000000e+00 0.000000e+00 0.000000e+00 0.000000e+00
 0.000000e+00 7.127970e-01 2.872030e-01 0.000000e+00 0.000000e+00
 0.000000e+00 0.000000e+00 6.738528e-01 3.261472e-01 0.000000e+00
 0.000000e+00 0.000000e+00 0.000000e+00 8.778321e-01 1.221680e-01
 0.000000e+00 0.000000e+00 0.000000e+00 0.000000e+00 0.000000e+00
<ENDHMM>
~h "l"
<BEGINHMM>
<NUMSTATES> 5
<STATE> 2
<MEAN> 25
 4.664684e+00 -3.177892e+00 -3.605364e+00 -5.699882e+00 1.925849e+00 -1.166750e+00 -2.413263e+00 -2.980448e+00 1.144249e+00 -1.500087e+00 -8.968042e-01 -1.178100e+00 -6.781963e-02 1.881848e-01 1.773150e-02 3.487966e-01 1.159425e-01 1.781512e-01 2.144785e-02 2.132732e-02 -4.528798e-02 2.990468e-03 3.836393e-02 7.675877e-02 -3.219360e-01
<VARIANCE> 25
 1.581375e+01 4.458527e+01 2.872229e+01 6.967422e+01 5.880498e+01 6.209330e+01 5.234358e+01 5.136502e+01 3.840409e+01 3.956209e+01 4.452216e+01 2.541271e+01 4.641421e-01 1.495725e+00 1.232369e+00 3.034598e+00 2.808807e+00 2.863873e+00 2.543911e+00 2.910035e+00 2.552027e+00 2.569646e+00 1.931928e+00 1.453098e+00 7.064215e-01
<GCONST> 9.816985e+01
<STATE> 3
<MEAN> 25
 4.124927e+00 -2.043627e+00 -3.230244e+00 -3.761421e+00 2.180553e+00 -5.799991e-01 -2.195112e+00 -2.551512e+00 6.392041e-01 -1.732630e+00 -5.716852e-01 -6.462749e-01 -1.339725e-01 1.742951e-01 9.124975e-02 5.798662e-01 3.433369e-02 1.150099e-01 1.077237e-01 1.934353e-01 -1.169309e-01 -4.119704e-03 5.769525e-02 1.183115e-01 -3.886487e-01
<VARIANCE> 25
 1.459770e+01 4.562740e+01 2.826972e+01 8.057547e+01 4.920863e+01 5.414756e+01 4.455942e+01 4.457822e+01 3.340590e+01 3.030439e+01 4.040898e+01 2.604850e+01 5.422043e-01 1.361629e+00 1.169564e+00 2.467901e+00 2.310359e+00 2.475776e+00 2.538814e+00 2.770513e+00 2.311862e+00 2.181420e+00 1.861299e+00 1.630004e+00 6.455618e-01
<GCONST> 9.628168e+01
<STATE> 4
<MEAN> 25
 -1.063788e-02 3.347107e-01 -3.044408e-01 3.003247e+00 1.440724e+00 1.480235e+00 7.290852e-02 8.687117e-01 1.296201e+00 -1.852338e-01 1.701747e+00 -2.131336e-01 -8.507811e-02 -5.068909e-04 5.120966e-02 1.053648e-01 -3.637497e-03 5.576590e-02 5.476463e-02 1.289298e-01 2.862472e-02 4.952464e-02 2.131877e-02 -2.727941e-02 -4.780094e-02
<VARIANCE> 25
 1.425875e+01 1.302522e+01 1.508317e+01 3.487235e+01 1.840095e+01 2.263936e+01 2.471196e+01 2.598191e+01 1.971988e+01 2.024518e+01 2.003379e+01 1.630888e+01 2.203885e-01 4.356069e-01 6.814322e-01 1.042938e+00 1.196524e+00 1.482835e+00 1.451981e+00 1.738652e+00 1.574042e+00 1.364650e+00 1.231528e+00 1.232395e+00 1.970743e-01
<GCONST> 8.008402e+01
<TRANSP> 5
 0.000000e+00 1.000000e+00 0.000000e+00 0.000000e+00 0.000000e+00
 0.000000e+00 6.608520e-01 3.391480e-01 0.000000e+00 0.000000e+00
 0.000000e+00 0.000000e+00 6.297570e-01 3.702431e-01 0.000000e+00
 0.000000e+00 0.000000e+00 0.000000e+00 9.288439e-01 7.115610e-02
 0.000000e+00 0.000000e+00 0.000000e+00 0.000000e+00 0.000000e+00
<ENDHMM>
~h "m"
<BEGINHMM>
<NUMSTATES> 5
<STATE> 2
<MEAN> 25
 3.503402e+00 -4.595265e-01 -7.589711e-01 1.679348e+00 3.104394e+00 2.805664e-01 -2.079203e+00 -1.878271e+00 -8.232893e-01 -2.684540e+00 -1.925014e+00 -2.109171e+00 6.744296e-02 3.546017e-01 2.306309e-01 4.695881e-01 -8.087184e-02 -3.881001e-02 -2.421234e-01 -9.211745e-02 -8.172950e-02 8.633681e-03 -1.331200e-02 -1.335598e-01 -2.679656e-01
<VARIANCE> 25
 2.537096e+01 3.869535e+01 3.209169e+01 5.167082e+01 4.151100e+01 4.049677e+01 3.697662e+01 3.422121e+01 3.441908e+01 3.018761e+01 3.139527e+01 2.210000e+01 7.012579e-01 1.380841e+00 1.626378e+00 2.348213e+00 1.843219e+00 2.240550e+00 2.201819e+00 2.513522e+00 2.244309e+00 2.264556e+00 1.984217e+00 1.680895e+00 7.939657e-01
<GCONST> 9.534497e+01
<STATE> 3
<MEAN> 25
 3.467610e+00 1.638061e-01 -1.069442e-01 2.732392e+00 2.814770e+00 -2.927385e-02 -2.544325e+00 -1.775048e+00 -8.203145e-01 -2.544776e+00 -1.535474e+00 -2.344729e+00 1.337234e-02 2.106979e-01 1.813300e-01 3.230273e-01 -1.681194e-01 -5.930159e-02 -1.301540e-01 6.096086e-02 -3.349826e-02 3.080907e-02 7.209375e-02 -2.815782e-02 -2.299419e-01
<VARIANCE> 25
 2.527331e+01 3.338927e+01 3.130156e+01 4.601296e+01 3.946235e+01 4.356968e+01 3.908603e+01 3.637884e+01 3.229600e+01 2.795447e+01 3.220393e+01 2.389330e+01 6.196958e-01 1.113653e+00 1.299027e+00 2.152773e+00 1.661040e+00 2.181204e+00 2.003976e+00 2.320215e+00 2.003611e+00 2.048212e+00 1.837308e+00 1.586999e+00 6.106656e-01
<GCONST> 9.358864e+01
<STATE> 4
<MEAN> 25
 2.395354e+00 7.410163e-01 -1.001745e-01 2.375669e+00 1.689708e+00 -4.827705e-02 -1.496101e+00 -4.043593e-01 -1.482173e-02 -1.532269e+00 -4.862691e-01 -1.857929e+00 -2.110581e-02 6.611895e-02 2.597857e-02 -4.320678e-02 -1.331314e-01 -7.079001e-03 4.188247e-02 6.213382e-02 8.036918e-04 5.951638e-02 4.039812e-02 4.950658e-02 -5.897798e-02
<VARIANCE> 25
 3.303669e+01 2.093083e+01 2.792773e+01 4.017570e+01 2.938055e+01 3.187820e+01 4.321198e+01 3.344026e+01 2.808418e+01 2.851903e+01 3.543734e+01 2.166318e+01 3.585925e-01 6.483386e-01 7.916891e-01 1.443800e+00 1.210072e+00 1.504461e+00 1.592010e+00 1.736508e+00 1.674179e+00 1.653698e+00 1.537505e+00 1.265167e+00 3.235117e-01
<GCONST> 8.780189e+01
<TRANSP> 5
 0.000000e+00 1.000000e+00 0.000000e+00 0.000000e+00 0.000000e+00
 0.000000e+00 5.883896e-01 4.116105e-01 0.000000e+00 0.000000e+00
 0.000000e+00 0.000000e+00 6.139823e-01 3.860177e-01 0.000000e+00
 0.000000e+00 0.000000e+00 0.000000e+00 9.203927e-01 7.960727e-02
 0.000000e+00 0.000000e+00 0.000000e+00 0.000000e+00 0.000000e+00
<ENDHMM>
~h "n"
<BEGINHMM>
<NUMSTATES> 5
<STATE> 2
<MEAN> 25
 3.750311e+00 1.182055e+00 1.074108e+00 2.252121e+00 9.126490e-01 -3.543504e+00 -2.310497e+00 -1.854141e+00 -2.867116e+00 -4.751347e+00 -1.073232e+00 7.480851e-01 -1.808421e-01 4.018686e-01 3.962969e-02 5.609176e-01 -6.563077e-02 4.114030e-01 1.573135e-02 4.838610e-02 2.048768e-01 3.296647e-01 2.185214e-01 2.770673e-02 -6.056074e-01
<VARIANCE> 25
 1.938668e+01 3.814280e+01 1.751082e+01 4.227005e+01 3.664471e+01 4.974548e+01 3.581025e+01 2.915610e+01 4.257893e+01 3.146544e+01 3.933762e+01 2.813449e+01 5.787776e-01 1.503590e+00 1.128693e+00 2.147269e+00 1.495848e+00 2.258721e+00 2.120196e+00 2.275416e+00 2.211938e+00 2.219671e+00 2.538824e+00 1.591500e+00 9.412186e-01
<GCONST> 9.429273e+01
<STATE> 3
<MEAN> 25
 2.936513e+00 1.834999e+00 1.163773e+00 3.601610e+00 9.392061e-01 -1.993233e+00 -2.010153e+00 -1.391042e+00 -1.888143e+00 -3.475093e+00 -5.516931e-01 6.211418e-01 -2.532929e-01 2.051189e-01 5.057826e-03 3.743186e-01 -2.404869e-02 5.016095e-01 7.901853e-02 1.602864e-01 2.769692e-01 3.734948e-01 2.204334e-01 -6.110550e-02 -4.834846e-01
<VARIANCE> 25
 2.233310e+01 3.150757e+01 1.550906e+01 3.307356e+01 3.178664e+01 4.181396e+01 3.205521e+01 2.877674e+01 3.811492e+01 2.814612e+01 3.226214e+01 2.514496e+01 5.262247e-01 1.048924e+00 9.472487e-01 2.011765e+00 1.406476e+00 1.896162e+00 1.919297e+00 1.986899e+00 2.063599e+00 1.989491e+00 2.447780e+00 1.460934e+00 7.568537e-01
<GCONST> 9.121726e+01
<STATE> 4
<MEAN> 25
 -1.535537e+00 1.953600e+00 1.036638e+00 4.017024e+00 1.896945e+00 1.564048e+00 1.453138e+00 1.501589e+00 1.846559e+00 9.330814e-01 2.287407e+00 2.214619e-01 -9.197679e-02 1.119199e-03 1.584162e-02 1.418866e-02 -1.982399e-03 9.330305e-02 5.042591e-02 6.953674e-02 8.555048e-02 1.179512e-01 6.480951e-02 -5.039389e-02 -3.635910e-02
<VARIANCE> 25
 2.026378e+01 1.082700e+01 9.111478e+00 1.308481e+01 1.707054e+01 2.014772e+01 2.490281e+01 2.220289e+01 2.471789e+01 2.481480e+01 1.942280e+01 1.537901e+01 2.860151e-01 4.680903e-01 5.746207e-01 8.686759e-01 1.043615e+00 1.349787e+00 1.321956e+00 1.480940e+00 1.569220e+00 1.602867e+00 1.580505e+00 1.284825e+00 2.140509e-01
<GCONST> 7.879083e+01
<TRANSP> 5
 0.000000e+00 1.000000e+00 0.000000e+00 0.000000e+00 0.000000e+00
 0.000000e+00 6.154864e-01 3.845136e-01 0.000000e+00 0.000000e+00
 0.000000e+00 0.000000e+00 6.046908e-01 3.953092e-01 0.000000e+00
 0.000000e+00 0.000000e+00 0.000000e+00 9.250218e-01 7.497821e-02
 0.000000e+00 0.000000e+00 0.000000e+00 0.000000e+00 0.000000e+00
<ENDHMM>
~h "o"
<BEGINHMM>
<NUMSTATES> 5
<STATE> 2
<MEAN> 25
 4.876313e-08 -1.572510e-08 -3.479018e-08 -3.353887e-08 3.894225e-08 5.448882e-08 6.837960e-09 -3.357679e-08 -9.075150e-09 1.238669e-09 6.825321e-10 3.043588e-08 1.480543e-02 -2.130302e-03 7.752344e-03 -2.168820e-03 1.143337e-02 -2.309903e-03 4.269884e-03 -3.775733e-03 -3.292339e-03 -9.014427e-04 -3.430429e-03 -3.983431e-03 3.762102e-02
<VARIANCE> 25
 4.782532e+01 4.486550e+01 4.720150e+01 6.892854e+01 4.782745e+01 4.025578e+01 4.904441e+01 4.112494e+01 4.163441e+01 4.402450e+01 3.629408e+01 2.461185e+01 1.112554e+00 1.522353e+00 1.617351e+00 2.656559e+00 2.172489e+00 2.083682e+00 2.429415e+00 2.410789e+00 2.262104e+00 2.509146e+00 2.111452e+00 1.695109e+00 1.480569e+00
<GCONST> 9.985252e+01
<STATE> 3
<MEAN> 25
 4.876313e-08 -1.572510e-08 -3.479018e-08 -3.353887e-08 3.894225e-08 5.448882e-08 6.837960e-09 -3.357679e-08 -9.075150e-09 1.238669e-09 6.825321e-10 3.043588e-08 1.480543e-02 -2.130302e-03 7.752344e-03 -2.168820e-03 1.143337e-02 -2.309903e-03 4.269884e-03 -3.775733e-03 -3.292339e-03 -9.014427e-04 -3.430429e-03 -3.983431e-03 3.762102e-02
<VARIANCE> 25
 4.782532e+01 4.486550e+01 4.720150e+01 6.892854e+01 4.782745e+01 4.025578e+01 4.904441e+01 4.112494e+01 4.163441e+01 4.402450e+01 3.629408e+01 2.461185e+01 1.112554e+00 1.522353e+00 1.617351e+00 2.656559e+00 2.172489e+00 2.083682e+00 2.429415e+00 2.410789e+00 2.262104e+00 2.509146e+00 2.111452e+00 1.695109e+00 1.480569e+00
<GCONST> 9.985252e+01
<STATE> 4
<MEAN> 25
 4.876313e-08 -1.572510e-08 -3.479018e-08 -3.353887e-08 3.894225e-08 5.448882e-08 6.837960e-09 -3.357679e-08 -9.075150e-09 1.238669e-09 6.825321e-10 3.043588e-08 1.480543e-02 -2.130302e-03 7.752344e-03 -2.168820e-03 1.143337e-02 -2.309903e-03 4.269884e-03 -3.775733e-03 -3.292339e-03 -9.014427e-04 -3.430429e-03 -3.983431e-03 3.762102e-02
<VARIANCE> 25
 4.782532e+01 4.486550e+01 4.720150e+01 6.892854e+01 4.782745e+01 4.025578e+01 4.904441e+01 4.112494e+01 4.163441e+01 4.402450e+01 3.629408e+01 2.461185e+01 1.112554e+00 1.522353e+00 1.617351e+00 2.656559e+00 2.172489e+00 2.083682e+00 2.429415e+00 2.410789e+00 2.262104e+00 2.509146e+00 2.111452e+00 1.695109e+00 1.480569e+00
<GCONST> 9.985252e+01
<TRANSP> 5
 0.000000e+00 1.000000e+00 0.000000e+00 0.000000e+00 0.000000e+00
 0.000000e+00 6.000000e-01 4.000000e-01 0.000000e+00 0.000000e+00
 0.000000e+00 0.000000e+00 6.000000e-01 4.000000e-01 0.000000e+00
 0.000000e+00 0.000000e+00 0.000000e+00 7.000000e-01 3.000000e-01
 0.000000e+00 0.000000e+00 0.000000e+00 0.000000e+00 0.000000e+00
<ENDHMM>
~h "p"
<BEGINHMM>
<NUMSTATES> 5
<STATE> 2
<MEAN> 25
 -1.887110e+00 1.592557e+00 -3.594577e+00 3.153289e+00 -1.362332e+00 2.706522e+00 -9.454737e-01 2.673279e+00 2.689117e+00 1.927474e+00 2.972028e+00 1.095109e+00 8.331234e-01 -4.932102e-01 1.604427e-01 -8.069166e-01 5.271103e-03 -5.003873e-01 2.720867e-01 -2.406099e-01 -2.659484e-01 -7.214119e-03 -4.079080e-02 -3.089997e-01 1.778332e+00
<VARIANCE> 25
 4.965292e+01 3.416985e+01 3.768701e+01 3.428026e+01 2.696874e+01 3.369043e+01 4.228537e+01 3.331898e+01 2.864342e+01 2.514970e+01 2.337063e+01 2.154489e+01 6.515754e+00 3.259870e+00 2.339132e+00 4.178868e+00 2.505432e+00 3.849959e+00 3.165312e+00 3.527935e+00 3.231001e+00 2.586012e+00 2.922286e+00 2.402152e+00 1.274370e+01
<GCONST> 1.040429e+02
<STATE> 3
<MEAN> 25
 1.038181e-01 1.342019e-01 -2.570782e+00 7.544953e-01 -4.694803e-01 1.061870e+00 8.304877e-01 1.637933e+00 2.243074e+00 1.992003e+00 2.258373e+00 -1.658901e-01 6.721465e-01 -9.021200e-01 -1.142625e-01 -1.071210e+00 1.757062e-01 -5.578895e-01 2.859967e-01 -3.933495e-01 2.354920e-03 -2.993478e-01 -5.570680e-01 -1.547633e-01 1.664792e+00
<VARIANCE> 25
 3.563573e+01 3.952306e+01 3.352132e+01 4.631684e+01 2.954059e+01 4.061070e+01 3.881637e+01 4.017467e+01 3.103713e+01 2.538726e+01 2.359736e+01 1.743797e+01 3.812847e+00 4.304813e+00 2.498869e+00 5.764992e+00 3.585868e+00 4.448039e+00 3.823772e+00 5.033912e+00 2.914950e+00 3.549767e+00 3.408000e+00 1.977146e+00 6.925560e+00
<GCONST> 1.050483e+02
<STATE> 4
<MEAN> 25
 -2.768888e+00 5.874075e-01 3.414026e-01 1.550698e+00 1.630305e+00 1.777022e+00 3.071644e+00 2.162424e+00 3.517919e+00 2.711468e+00 2.534780e+00 -5.946267e-02 3.023933e-01 -2.575008e-01 -1.371555e-01 -3.137884e-01 -3.021523e-02 -2.126045e-01 -8.634363e-02 -1.332503e-01 -8.385290e-02 -1.857101e-01 -2.792461e-01 -1.315969e-03 4.266946e-01
<VARIANCE> 25
 2.817046e+01 2.157320e+01 1.595958e+01 2.779545e+01 1.818628e+01 2.592305e+01 2.473092e+01 2.324428e+01 1.811125e+01 2.334356e+01 2.148822e+01 1.374213e+01 1.404252e+00 1.579084e+00 1.100643e+00 2.132543e+00 1.723246e+00 2.083301e+00 1.846872e+00 2.071698e+00 1.736323e+00 2.268436e+00 2.348346e+00 1.332793e+00 1.392197e+00
<GCONST> 8.980866e+01
<TRANSP> 5
 0.000000e+00 1.000000e+00 0.000000e+00 0.000000e+00 0.000000e+00
 0.000000e+00 6.646520e-01 3.353480e-01 0.000000e+00 0.000000e+00
 0.000000e+00 0.000000e+00 5.855579e-01 4.144420e-01 0.000000e+00
 0.000000e+00 0.000000e+00 0.000000e+00 8.504019e-01 1.495981e-01
 0.000000e+00 0.000000e+00 0.000000e+00 0.000000e+00 0.000000e+00
<ENDHMM>
~h "r"
<BEGINHMM>
<NUMSTATES> 5
<STATE> 2
<MEAN> 25
 5.052311e+00 -8.940467e+00 8.839941e-02 -4.296983e+00 -5.859910e+00 -2.384314e+00 5.847423e+00 2.151091e+00 -2.064350e+00 -2.470019e-01 -3.700387e+00 -1.462368e+00 -1.620991e-01 5.764688e-03 5.527514e-01 3.096781e-01 -3.563108e-01 7.518330e-02 2.960171e-01 1.297926e-01 -4.646254e-01 2.210594e-01 1.203821e-01 6.652251e-02 -2.164443e-01
<VARIANCE> 25
 1.936771e+01 4.412424e+01 4.862793e+01 6.829745e+01 7.305246e+01 2.691828e+01 7.031199e+01 5.330979e+01 5.357940e+01 5.267630e+01 3.867227e+01 2.562695e+01 1.026505e+00 2.318601e+00 1.898621e+00 5.124896e+00 4.503113e+00 2.002389e+00 4.210366e+00 4.240057e+00 4.057650e+00 3.593936e+00 3.161922e+00 2.367123e+00 1.240368e+00
<GCONST> 1.045945e+02
<STATE> 3
<MEAN> 25
 4.269615e+00 -7.531813e+00 3.115225e+00 -4.090920e+00 -7.093663e+00 -2.380572e+00 6.922004e+00 1.456067e+00 -4.371842e+00 1.258460e+00 -3.288476e+00 -1.731041e+00 -8.030523e-02 6.469640e-01 2.269357e-01 3.877967e-01 1.387863e-01 1.098372e-01 -1.361588e-01 -4.251271e-01 -1.190663e-01 3.803360e-02 2.483146e-01 -5.941688e-02 -4.950627e-01
<VARIANCE> 25
 1.698644e+01 4.150774e+01 5.642827e+01 5.455068e+01 5.928136e+01 2.441953e+01 6.801193e+01 6.656807e+01 5.819971e+01 6.511357e+01 4.241315e+01 2.589822e+01 8.489733e-01 1.831374e+00 1.990504e+00 4.021038e+00 3.299806e+00 1.975099e+00 4.121124e+00 3.754829e+00 4.580878e+00 3.922947e+00 2.795537e+00 2.132992e+00 1.101959e+00
<GCONST> 1.033808e+02
<STATE> 4
<MEAN> 25
 2.782068e+00 -2.020149e+00 2.524610e+00 -3.691730e-01 -4.777997e+00 -1.019384e+00 3.432410e+00 8.479760e-01 -1.731873e+00 5.558636e-01 -7.167877e-01 -1.499827e+00 -8.590482e-02 4.729965e-01 -6.310194e-02 3.094046e-01 3.103807e-01 1.234763e-01 -1.974048e-01 -2.436110e-01 2.000277e-01 -2.279652e-02 1.015562e-01 7.389452e-02 -4.049853e-01
<VARIANCE> 25
 2.253697e+01 2.645893e+01 2.780578e+01 5.487967e+01 6.362215e+01 2.768170e+01 4.060110e+01 4.841238e+01 3.868650e+01 4.341089e+01 3.215065e+01 1.922461e+01 4.030040e-01 9.023976e-01 1.209039e+00 2.091891e+00 1.762826e+00 1.666994e+00 2.289769e+00 2.181068e+00 2.281923e+00 2.360862e+00 1.949004e+00 1.480361e+00 4.464452e-01
<GCONST> 9.311799e+01
<TRANSP> 5
 0.000000e+00 1.000000e+00 0.000000e+00 0.000000e+00 0.000000e+00
 0.000000e+00 7.461298e-01 2.538702e-01 0.000000e+00 0.000000e+00
 0.000000e+00 0.000000e+00 7.650775e-01 2.349225e-01 0.000000e+00
 0.000000e+00 0.000000e+00 0.000000e+00 8.287519e-01 1.712481e-01
 0.000000e+00 0.000000e+00 0.000000e+00 0.000000e+00 0.000000e+00
<ENDHMM>
~h "s"
<BEGINHMM>
<NUMSTATES> 5
<STATE> 2
<MEAN> 25
 -9.198843e+00 4.687257e+00 -3.373047e+00 4.716011e+00 -1.400007e+00 -5.989609e-01 4.692342e+00 1.284048e+00 -9.127237e-01 1.784798e+00 3.028113e+00 -1.684835e-01 -6.469685e-01 2.920316e-01 -1.629354e-01 -9.018862e-02 -9.618162e-02 -1.440063e-01 1.926590e-01 5.306572e-02 -2.037556e-01 2.018360e-02 1.354014e-01 1.017476e-01 4.394957e-01
<VARIANCE> 25
 4.271179e+01 6.172482e+01 5.377109e+01 7.087846e+01 2.647329e+01 3.792821e+01 3.052324e+01 3.685786e+01 4.552850e+01 3.321090e+01 2.568615e+01 2.098302e+01 4.145929e+00 2.801403e+00 2.363214e+00 2.947706e+00 1.711758e+00 2.701605e+00 2.770283e+00 2.559688e+00 2.579806e+00 2.855628e+00 2.655332e+00 1.873206e+00 1.691929e+00
<GCONST> 1.016287e+02
<STATE> 3
<MEAN> 25
 -8.707695e+00 3.491584e+00 -3.154650e+00 2.080565e+00 -1.620446e+00 -2.103043e+00 4.748369e+00 1.230844e+00 -2.013376e+00 1.134223e+00 2.736844e+00 2.005345e-01 1.008144e+00 -6.754290e-01 -6.176991e-02 -9.162175e-01 -4.220561e-02 -3.218535e-01 -3.665085e-01 -2.914576e-02 -2.106957e-01 -4.134466e-01 -6.486861e-01 1.166910e-01 5.134324e-01
<VARIANCE> 25
 5.739445e+01 7.040125e+01 6.234163e+01 9.874395e+01 3.284748e+01 4.250172e+01 4.333229e+01 4.924419e+01 4.558786e+01 3.999316e+01 3.481782e+01 2.435039e+01 5.454714e+00 3.414790e+00 2.312074e+00 4.580023e+00 2.576559e+00 2.674959e+00 3.683582e+00 3.509877e+00 2.888104e+00 3.991623e+00 3.922574e+00 1.969709e+00 1.271621e+00
<GCONST> 1.066384e+02
<STATE> 4
<MEAN> 25
 -3.846586e+00 8.327028e-01 -3.125403e+00 3.654299e-01 -8.059840e-01 -1.976041e+00 3.276907e+00 2.016482e+00 -2.164433e+00 2.425373e-01 7.425652e-01 4.234322e-01 9.430277e-01 -6.179504e-01 1.312930e-01 -6.905903e-01 9.921868e-02 -4.378138e-02 -4.250989e-01 -4.105267e-01 -1.967503e-01 -2.244290e-01 -6.116129e-01 -5.430662e-03 3.756773e-01
<VARIANCE> 25
 7.483200e+01 6.169111e+01 3.387674e+01 6.869165e+01 3.963686e+01 3.199583e+01 3.928651e+01 4.278976e+01 4.130955e+01 5.237612e+01 4.209719e+01 2.385040e+01 3.176826e+00 2.261826e+00 1.869708e+00 2.958323e+00 3.033151e+00 2.342734e+00 3.645110e+00 3.198985e+00 2.724372e+00 3.422695e+00 3.501024e+00 2.015508e+00 8.320954e-01
<GCONST> 1.034029e+02
<TRANSP> 5
 0.000000e+00 1.000000e+00 0.000000e+00 0.000000e+00 0.000000e+00
 0.000000e+00 8.134545e-01 1.865455e-01 0.000000e+00 0.000000e+00
 0.000000e+00 0.000000e+00 7.809244e-01 2.190757e-01 0.000000e+00
 0.000000e+00 0.000000e+00 0.000000e+00 7.194416e-01 2.805584e-01
 0.000000e+00 0.000000e+00 0.000000e+00 0.000000e+00 0.000000e+00
<ENDHMM>
~h "t"
<BEGINHMM>
<NUMSTATES> 5
<STATE> 2
<MEAN> 25
 2.725238e+00 2.607905e-01 -1.471331e+00 1.907711e+00 -3.606985e-01 -5.555121e-01 -8.793100e-01 -5.737501e-01 -1.691993e+00 -1.515745e+00 -6.583488e-01 4.534383e-01 -5.102087e-01 -7.346294e-01 -4.923027e-01 -9.334512e-01 -1.237859e-02 -1.868199e-01 3.003097e-01 3.336795e-01 1.130654e-01 3.791524e-01 1.399104e-01 -4.030820e-02 8.196861e-01
<VARIANCE> 25
 3.332954e+01 4.828530e+01 4.442472e+01 4.685569e+01 2.765472e+01 4.903286e+01 4.603603e+01 3.190355e+01 3.097925e+01 3.685284e+01 3.486012e+01 3.637072e+01 2.672413e+00 4.309468e+00 3.809845e+00 6.246781e+00 3.328952e+00 4.968804e+00 4.599205e+00 3.692605e+00 3.505153e+00 4.072684e+00 3.579650e+00 2.768975e+00 6.753865e+00
<GCONST> 1.077751e+02
<STATE> 3
<MEAN> 25
 2.261994e+00 -1.781994e+00 -2.869144e+00 -1.374091e+00 -5.145542e-01 -1.419327e+00 -2.897614e-01 2.748921e-01 -9.537407e-01 -8.927975e-01 -7.888392e-01 1.143748e-01 1.040471e-01 -6.352432e-01 -5.897202e-01 -1.604238e+00 2.405594e-01 -3.484797e-01 -1.387402e-02 6.625528e-02 3.778216e-01 2.611274e-01 -2.280680e-01 -1.824639e-01 1.095357e+00
<VARIANCE> 25
 3.523252e+01 3.579729e+01 4.969817e+01 6.206913e+01 3.392204e+01 5.837410e+01 4.463119e+01 3.439567e+01 3.342403e+01 4.377586e+01 4.006483e+01 3.459798e+01 2.650999e+00 4.649551e+00 4.764120e+00 8.040422e+00 3.641091e+00 5.990310e+00 4.478485e+00 4.331798e+00 4.151583e+00 5.334271e+00 4.154232e+00 3.057841e+00 6.615404e+00
<GCONST> 1.103048e+02
<STATE> 4
<MEAN> 25
 2.355742e+00 -1.199839e+00 -2.740072e+00 -2.500352e+00 3.370937e-01 -1.213956e+00 -1.078085e+00 4.120452e-01 9.422049e-02 -7.725517e-01 -1.195038e+00 -7.191017e-01 2.382515e-01 -5.773386e-02 -2.677754e-01 -8.907225e-01 2.468982e-01 8.529989e-02 -2.684143e-01 -4.048224e-01 3.607901e-02 1.279625e-01 -8.307595e-02 -3.710776e-02 3.088777e-01
<VARIANCE> 25
 2.857694e+01 3.283527e+01 3.567999e+01 7.543772e+01 3.396242e+01 4.208408e+01 4.469666e+01 3.045502e+01 3.282900e+01 4.278361e+01 4.061010e+01 2.542019e+01 1.629376e+00 2.518065e+00 2.975856e+00 5.286194e+00 2.570796e+00 3.472929e+00 3.220552e+00 3.537613e+00 2.909086e+00 3.285259e+00 3.331127e+00 2.342321e+00 2.672466e+00
<GCONST> 1.034413e+02
<TRANSP> 5
 0.000000e+00 1.000000e+00 0.000000e+00 0.000000e+00 0.000000e+00
 0.000000e+00 6.482282e-01 3.517717e-01 0.000000e+00 0.000000e+00
 0.000000e+00 0.000000e+00 6.055475e-01 3.944525e-01 0.000000e+00
 0.000000e+00 0.000000e+00 0.000000e+00 5.936676e-01 4.063325e-01
 0.000000e+00 0.000000e+00 0.000000e+00 0.000000e+00 0.000000e+00
<ENDHMM>
~h "w"
<BEGINHMM>
<NUMSTATES> 5
<STATE> 2
<MEAN> 25
 7.109429e+00 5.185863e+00 -3.051360e+00 -1.322335e+01 2.855163e+00 -5.072973e+00 -3.964094e+00 -5.263436e+00 -5.667182e+00 2.258798e+00 1.434704e+00 -1.780735e+00 5.473530e-02 -2.665061e-01 -1.495331e-01 -3.252731e-01 1.439308e-01 2.129103e-01 3.437591e-01 1.012580e-01 -2.480711e-02 2.945398e-02 -2.095538e-01 -2.811461e-02 9.216057e-02
<VARIANCE> 25
 1.342453e+01 4.066194e+01 3.592633e+01 8.974762e+01 8.431632e+01 4.106277e+01 5.520530e+01 4.404661e+01 5.302412e+01 5.550937e+01 4.135980e+01 3.862892e+01 4.970761e-01 2.957626e+00 2.387779e+00 3.241775e+00 2.938973e+00 2.343233e+00 2.394702e+00 1.804395e+00 3.192926e+00 3.558801e+00 3.225443e+00 2.182468e+00 1.565419e+00
<GCONST> 1.022924e+02
<STATE> 3
<MEAN> 25
 6.923836e+00 -9.096085e-01 -2.907308e+00 -1.205171e+01 4.285065e+00 -3.927527e+00 1.273898e-01 -2.661850e+00 -2.244381e+00 4.121062e+00 -8.838036e-02 -2.608375e+00 -2.912470e-01 -9.829814e-01 -1.929401e-01 2.736596e-01 5.133675e-01 1.950865e-01 5.668348e-01 -1.684690e-01 6.414723e-01 -1.390057e-01 -4.739558e-01 -2.178335e-01 5.076557e-01
<VARIANCE> 25
 1.555694e+01 8.457285e+01 2.620852e+01 4.939442e+01 6.089870e+01 4.670123e+01 6.338275e+01 4.143044e+01 6.723295e+01 7.718800e+01 5.822901e+01 4.586287e+01 6.106590e-01 3.637686e+00 1.892506e+00 3.919994e+00 2.612853e+00 2.461630e+00 3.386381e+00 2.380676e+00 4.118270e+00 4.923364e+00 6.541832e+00 3.952489e+00 2.289177e+00
<GCONST> 1.064063e+02
<STATE> 4
<MEAN> 25
 3.100816e+00 -7.801938e+00 -6.169358e+00 -9.000422e+00 2.714100e+00 -1.405056e+00 5.021246e+00 -1.375356e+00 -1.411459e-01 6.126331e-01 2.498710e+00 4.510373e-01 -1.947740e-01 -2.200818e-01 -3.776134e-02 4.153480e-01 -1.873318e-03 2.121483e-01 -1.998426e-02 9.145310e-03 -4.061297e-02 -4.481256e-02 -7.216484e-02 3.044088e-01 -1.972142e-01
<VARIANCE> 25
 2.006527e+01 3.583294e+01 2.351050e+01 2.860398e+01 4.329085e+01 3.492601e+01 4.907430e+01 3.465247e+01 2.426328e+01 4.409577e+01 5.726903e+01 3.038856e+01 2.104195e-01 6.979688e-01 6.081928e-01 7.977026e-01 1.027405e+00 1.056283e+00 1.110515e+00 1.673763e+00 1.325497e+00 2.364943e+00 1.809723e+00 1.321197e+00 4.264402e-01
<GCONST> 8.745495e+01
<TRANSP> 5
 0.000000e+00 1.000000e+00 0.000000e+00 0.000000e+00 0.000000e+00
 0.000000e+00 9.135876e-01 8.641241e-02 0.000000e+00 0.000000e+00
 0.000000e+00 0.000000e+00 8.823966e-01 1.176034e-01 0.000000e+00
 0.000000e+00 0.000000e+00 0.000000e+00 9.260908e-01 7.390928e-02
 0.000000e+00 0.000000e+00 0.000000e+00 0.000000e+00 0.000000e+00
<ENDHMM>
~h "y"
<BEGINHMM>
<NUMSTATES> 5
<STATE> 2
<MEAN> 25
 1.186434e+00 -4.503027e+00 7.386524e+00 -9.922406e+00 -4.448373e+00 -3.377790e+00 2.568122e+00 -4.494898e+00 -2.292765e+00 -5.728179e-02 -3.066990e+00 1.187708e+00 -7.850163e-02 3.732170e-01 6.196769e-01 -3.993078e-01 -7.223632e-01 -1.238492e-01 2.530835e-02 -2.067883e-01 5.238925e-02 4.957805e-01 6.547980e-04 -1.116168e-01 2.494051e-02
<VARIANCE> 25
 3.695418e+01 5.973543e+01 9.008598e+01 6.975098e+01 7.063905e+01 3.297244e+01 8.858563e+01 5.318785e+01 5.954442e+01 6.799991e+01 3.550269e+01 3.203005e+01 7.939722e-01 3.134706e+00 4.036353e+00 2.588132e+00 4.835240e+00 2.103838e+00 6.246521e+00 3.961621e+00 2.610009e+00 5.375972e+00 2.243436e+00 2.596832e+00 8.358967e-01
<GCONST> 1.069566e+02
<STATE> 3
<MEAN> 25
 1.296836e+00 -3.079263e+00 8.064749e+00 -1.105972e+01 -5.553352e+00 -3.989599e+00 2.933577e+00 -4.215516e+00 -1.988593e+00 6.109187e-01 -3.244465e+00 2.190486e-01 1.183647e-01 -3.117926e-01 -6.041275e-01 1.027358e-01 4.587330e-01 1.098765e-01 2.888084e-01 1.643315e-01 1.018227e-01 -3.807035e-01 -1.866166e-03 -2.083235e-01 1.208223e-01
<VARIANCE> 25
 2.364287e+01 5.573214e+01 7.949855e+01 6.472002e+01 9.694627e+01 2.432687e+01 9.431776e+01 5.247949e+01 5.624567e+01 6.540825e+01 3.640944e+01 3.347454e+01 5.707122e-01 3.175298e+00 4.492256e+00 2.741092e+00 6.495182e+00 2.064385e+00 5.869042e+00 4.211349e+00 2.256932e+00 6.004066e+00 2.233750e+00 2.568628e+00 6.810480e-01
<GCONST> 1.061432e+02
<STATE> 4
<MEAN> 25
 5.966464e+00 -5.449388e+00 9.924899e-01 -6.298269e+00 -5.126460e+00 -2.683034e+00 -1.191769e-01 -3.408118e+00 -4.695547e+00 -4.326589e+00 -4.738256e+00 -2.804170e-01 1.832791e-01 -3.452424e-01 -7.092850e-01 2.554560e-01 8.267962e-01 1.230584e-01 -3.354594e-01 -1.087855e-01 1.380711e-01 -3.682364e-01 -6.196799e-03 -1.599508e-02 -1.380069e-01
<VARIANCE> 25
 2.449206e+01 6.911234e+01 7.214384e+01 4.825237e+01 1.495742e+02 2.721214e+01 8.190684e+01 3.962204e+01 5.934732e+01 5.919211e+01 3.241035e+01 2.933052e+01 3.608934e-01 1.961231e+00 1.790733e+00 1.443469e+00 3.593771e+00 1.480452e+00 3.070323e+00 2.237308e+00 1.430935e+00 2.955578e+00 1.694917e+00 1.819352e+00 4.180356e-01
<GCONST> 9.885247e+01
<TRANSP> 5
 0.000000e+00 1.000000e+00 0.000000e+00 0.000000e+00 0.000000e+00
 0.000000e+00 8.477807e-01 1.522193e-01 0.000000e+00 0.000000e+00
 0.000000e+00 0.000000e+00 8.603016e-01 1.396984e-01 0.000000e+00
 0.000000e+00 0.000000e+00 0.000000e+00 8.843814e-01 1.156186e-01
 0.000000e+00 0.000000e+00 0.000000e+00 0.000000e+00 0.000000e+00
<ENDHMM>
~h "aa"
<BEGINHMM>
<NUMSTATES> 5
<STATE> 2
<MEAN> 25
 4.454934e+00 -8.854105e+00 -3.703390e+00 -4.635972e+00 3.822175e+00 -1.297316e+00 1.734262e+00 -9.574140e-01 -1.982197e+00 -4.537273e+00 -3.546783e+00 2.968404e-01 3.012139e-01 -4.098003e-01 -2.046731e-01 6.858443e-02 4.177686e-01 6.215592e-02 -1.538944e-01 -1.764496e-01 -3.772600e-01 -4.157549e-01 -2.240162e-01 5.622918e-02 1.408395e-01
<VARIANCE> 25
 2.747149e+01 5.431222e+01 3.693749e+01 5.553073e+01 5.165877e+01 4.065752e+01 6.949545e+01 4.466421e+01 4.224352e+01 4.159018e+01 4.354396e+01 3.021735e+01 1.225586e+00 3.593521e+00 2.229768e+00 3.074681e+00 3.809743e+00 2.846759e+00 3.680771e+00 3.949536e+00 2.645603e+00 2.819007e+00 2.689718e+00 2.146021e+00 2.535224e+00
<GCONST> 1.043855e+02
<STATE> 3
<MEAN> 25
 5.135188e+00 -8.531741e+00 -3.714273e+00 -3.704518e+00 4.135663e+00 -1.277108e+00 8.106296e-01 -1.100164e+00 -2.929728e+00 -5.816658e+00 -3.834116e+00 4.097509e-01 1.415609e-01 4.088078e-01 1.118299e-01 4.865758e-01 -9.698069e-02 -2.491149e-02 -3.108871e-01 -1.314214e-01 -1.737266e-01 -1.914748e-01 -1.564276e-02 -3.617066e-04 -4.420791e-01
<VARIANCE> 25
 2.429968e+01 5.230091e+01 3.433044e+01 5.346738e+01 4.721294e+01 4.309258e+01 6.705766e+01 4.214803e+01 4.027621e+01 3.990882e+01 4.187846e+01 2.975930e+01 9.126173e-01 2.749715e+00 1.895183e+00 2.733744e+00 2.770036e+00 2.573756e+00 2.911779e+00 3.342275e+00 2.327366e+00 2.486356e+00 2.326331e+00 1.902237e+00 1.831680e+00
<GCONST> 1.013373e+02
<STATE> 4
<MEAN> 25
 4.678873e+00 -4.974912e+00 -3.367257e+00 -1.422691e+00 2.716894e+00 -1.614114e+00 -1.247343e+00 -1.316441e+00 -2.901105e+00 -6.348748e+00 -3.322247e+00 8.372675e-01 -1.532514e-01 5.995191e-01 2.643721e-01 3.513559e-01 -2.761526e-01 -2.313984e-02 -3.043284e-02 -3.558283e-02 2.526165e-02 1.823283e-01 1.901526e-01 -2.320953e-02 -4.938285e-01
<VARIANCE> 25
 2.845137e+01 4.608785e+01 2.856053e+01 4.076568e+01 3.866584e+01 3.678704e+01 5.335643e+01 3.357665e+01 3.537737e+01 3.950875e+01 3.892704e+01 2.585393e+01 4.716610e-01 1.213847e+00 1.066880e+00 1.414618e+00 1.684153e+00 1.838821e+00 1.975601e+00 2.091194e+00 1.796698e+00 2.050451e+00 1.751759e+00 1.480550e+00 5.536257e-01
<GCONST> 9.316189e+01
<TRANSP> 5
 0.000000e+00 1.000000e+00 0.000000e+00 0.000000e+00 0.000000e+00
 0.000000e+00 7.206880e-01 2.793119e-01 0.000000e+00 0.000000e+00
 0.000000e+00 0.000000e+00 6.970134e-01 3.029866e-01 0.000000e+00
 0.000000e+00 0.000000e+00 0.000000e+00 8.209743e-01 1.790257e-01
 0.000000e+00 0.000000e+00 0.000000e+00 0.000000e+00 0.000000e+00
<ENDHMM>
~h "ao"
<BEGINHMM>
<NUMSTATES> 5
<STATE> 2
<MEAN> 25
 5.884963e+00 -2.561625e-01 -3.836657e+00 -1.207571e+01 2.230591e+00 -2.508269e+00 -1.064159e+00 -2.537472e+00 -2.446735e+00 4.043631e+00 -2.871294e-01 -3.331986e+00 4.258837e-01 -4.551576e-01 -1.102879e-01 -1.466690e+00 -6.327019e-01 1.060615e-02 3.813016e-01 6.745088e-02 2.076685e-01 -1.458939e-01 -1.634352e-02 -3.727038e-01 5.697263e-01
<VARIANCE> 25
 1.735889e+01 2.202644e+01 3.935368e+01 7.309138e+01 4.469449e+01 2.569724e+01 5.098522e+01 4.095225e+01 4.880405e+01 8.181001e+01 2.918429e+01 2.182044e+01 9.385378e-01 1.462720e+00 1.884495e+00 7.547786e+00 3.659635e+00 2.482599e+00 3.805643e+00 2.408687e+00 3.888529e+00 5.150490e+00 2.689647e+00 1.973272e+00 9.428305e-01
<GCONST> 1.012978e+02
<STATE> 3
<MEAN> 25
 6.197545e+00 -3.391297e+00 -1.582293e+00 -1.290508e+01 -1.862133e+00 -2.751308e+00 3.973043e-01 -1.112957e+00 -4.988801e-01 2.271918e+00 -9.672320e-01 -3.904740e+00 8.238804e-02 -4.499562e-01 3.489661e-01 2.010820e-01 -7.942107e-01 -5.436252e-02 1.591827e-01 4.099752e-01 2.723964e-01 -2.062879e-01 -1.219663e-01 -1.275695e-01 1.806870e-01
<VARIANCE> 25
 1.656163e+01 4.469481e+01 6.585866e+01 7.714969e+01 7.017043e+01 3.154796e+01 6.872145e+01 6.599941e+01 5.858538e+01 7.247211e+01 3.161237e+01 3.208392e+01 8.505424e-01 1.720683e+00 1.787991e+00 7.258568e+00 4.188669e+00 2.120160e+00 3.847286e+00 3.118270e+00 4.736943e+00 4.530760e+00 2.676091e+00 2.244886e+00 8.360337e-01
<GCONST> 1.047777e+02
<STATE> 4
<MEAN> 25
 9.047851e+00 -3.230489e+00 -2.628602e+00 -1.105815e+01 -6.367032e+00 -2.548157e+00 -1.833872e+00 -5.457135e-01 1.235466e+00 2.934133e+00 -9.367914e-01 -3.488648e+00 -7.164650e-02 -3.780867e-01 3.470151e-01 5.916710e-01 -5.867257e-01 -1.660673e-01 3.966550e-01 3.027749e-01 -8.543372e-02 -7.640772e-02 -1.758802e-01 1.431229e-01 -4.101984e-02
<VARIANCE> 25
 2.512918e+01 3.597757e+01 5.336676e+01 7.051994e+01 6.960699e+01 4.037740e+01 8.333788e+01 7.412102e+01 5.973332e+01 4.622352e+01 3.596469e+01 2.589026e+01 3.830430e-01 1.137796e+00 1.484058e+00 4.076541e+00 2.781447e+00 1.830250e+00 2.310425e+00 2.640840e+00 3.737370e+00 3.006542e+00 2.279517e+00 1.694632e+00 3.990763e-01
<GCONST> 9.967395e+01
<TRANSP> 5
 0.000000e+00 1.000000e+00 0.000000e+00 0.000000e+00 0.000000e+00
 0.000000e+00 7.616484e-01 2.383516e-01 0.000000e+00 0.000000e+00
 0.000000e+00 0.000000e+00 8.245896e-01 1.754104e-01 0.000000e+00
 0.000000e+00 0.000000e+00 0.000000e+00 8.899901e-01 1.100099e-01
 0.000000e+00 0.000000e+00 0.000000e+00 0.000000e+00 0.000000e+00
<ENDHMM>
~h "eh"
<BEGINHMM>
<NUMSTATES> 5
<STATE> 2
<MEAN> 25
 3.343196e+00 -5.987296e-01 -1.567721e+00 -1.513825e+00 -3.796676e+00 -3.920983e+00 1.090465e+00 -2.069852e-02 6.632991e-02 -2.795463e-01 -1.346229e+00 -3.116394e-01 3.147605e-01 -1.029581e-01 -1.676281e-01 -3.292089e-01 6.300673e-02 -8.099384e-01 -3.843248e-01 1.620875e-01 -1.229034e-01 -2.792260e-01 -5.078368e-01 -4.140865e-02 4.527722e-01
<VARIANCE> 25
 4.605661e+01 4.232439e+01 3.469888e+01 4.339314e+01 5.080465e+01 6.866380e+01 4.795825e+01 4.413209e+01 5.706775e+01 4.717955e+01 5.302597e+01 2.880891e+01 4.405615e+00 4.409494e+00 2.367558e+00 5.949592e+00 4.413580e+00 5.397810e+00 4.676429e+00 4.967461e+00 4.187013e+00 4.028529e+00 5.842802e+00 2.782177e+00 4.279561e+00
<GCONST> 1.108792e+02
<STATE> 3
<MEAN> 25
 3.242439e+00 -3.879842e-02 -1.175936e+00 -1.753316e+00 -3.690397e+00 -5.934003e+00 7.862648e-01 4.291860e-01 -8.083925e-01 -7.330261e-01 -2.394515e+00 -8.085480e-01 -5.874914e-01 1.827468e-01 -7.236788e-02 8.644190e-02 4.735817e-01 1.364658e-01 6.576580e-02 8.300587e-02 -2.628257e-01 -1.448373e-01 -2.464819e-02 -1.833186e-01 4.418410e-01
<VARIANCE> 25
 4.629030e+01 5.842446e+01 3.646556e+01 5.280069e+01 5.876532e+01 6.232849e+01 5.455502e+01 4.865443e+01 6.784201e+01 4.206930e+01 5.821027e+01 3.181541e+01 5.674673e+00 5.973808e+00 2.692322e+00 6.951844e+00 4.083154e+00 5.275512e+00 4.281713e+00 5.802933e+00 4.077478e+00 3.081171e+00 4.988053e+00 2.879240e+00 3.333086e+00
<GCONST> 1.121177e+02
<STATE> 4
<MEAN> 25
 1.974706e+00 -7.267357e-01 -1.327384e+00 -1.242989e+00 -2.926648e+00 -5.725504e+00 6.497301e-01 7.122383e-01 -1.561758e+00 -1.948792e+00 -2.011013e+00 -8.343164e-01 -8.992822e-01 2.829348e-01 -1.851902e-01 4.111627e-01 4.416936e-01 5.518209e-01 2.574748e-01 -9.387155e-02 1.938589e-02 1.916008e-01 4.243633e-01 -2.366927e-01 -1.352529e-01
<VARIANCE> 25
 5.984685e+01 6.194087e+01 2.686717e+01 4.838745e+01 5.018362e+01 4.392093e+01 5.074080e+01 3.865095e+01 4.624649e+01 4.223281e+01 4.974992e+01 3.129886e+01 2.642165e+00 3.284643e+00 1.495925e+00 2.773754e+00 2.597993e+00 3.226124e+00 2.893759e+00 3.044267e+00 2.710541e+00 2.339613e+00 2.567992e+00 2.260585e+00 1.068897e+00
<GCONST> 1.031003e+02
<TRANSP> 5
 0.000000e+00 1.000000e+00 0.000000e+00 0.000000e+00 0.000000e+00
 0.000000e+00 6.179278e-01 3.820722e-01 0.000000e+00 0.000000e+00
 0.000000e+00 0.000000e+00 6.176928e-01 3.823072e-01 0.000000e+00
 0.000000e+00 0.000000e+00 0.000000e+00 6.931555e-01 3.068446e-01
 0.000000e+00 0.000000e+00 0.000000e+00 0.000000e+00 0.000000e+00
<ENDHMM>
~h "hh"
<BEGINHMM>
<NUMSTATES> 5
<STATE> 2
<MEAN> 25
 -8.476235e-01 -6.331443e-01 -2.336421e+00 1.979973e+00 2.686894e+00 5.883213e-01 8.785689e-02 -1.834789e+00 6.733888e-01 1.325609e+00 3.090977e+00 -3.707376e-02 -1.925285e-01 2.112240e-02 2.948803e-01 4.047494e-01 -2.955818e-02 3.765175e-01 2.258778e-01 3.911172e-01 2.220800e-01 2.326942e-01 2.929546e-02 7.573887e-02 -3.715998e-01
<VARIANCE> 25
 6.254918e+00 5.637312e+00 9.613705e+00 2.375497e+01 1.170992e+01 2.517373e+01 1.462325e+01 1.671336e+01 2.005453e+01 2.083554e+01 1.933088e+01 1.595238e+01 3.901586e-01 5.201324e-01 6.177132e-01 1.330341e+00 1.211492e+00 1.271280e+00 1.187983e+00 1.760595e+00 1.805779e+00 2.001931e+00 1.445602e+00 1.667426e+00 1.449422e-01
<GCONST> 7.750428e+01
<STATE> 3
<MEAN> 25
 -9.895446e-01 5.839700e-02 -9.011680e-01 2.648797e+00 2.301711e+00 1.563146e+00 5.027124e-01 -5.891424e-01 9.540589e-01 1.183422e+00 2.734752e+00 2.719989e-01 -5.612306e-02 1.462934e-01 3.201860e-01 2.032221e-01 -1.394684e-01 1.814338e-01 1.176134e-01 3.154776e-01 7.846155e-02 5.059371e-03 -6.544551e-02 6.912681e-02 -2.740304e-01
<VARIANCE> 25
 7.972008e+00 4.907863e+00 9.492369e+00 1.806143e+01 1.018399e+01 2.429357e+01 1.373929e+01 1.630940e+01 1.754019e+01 1.853134e+01 1.979292e+01 1.502369e+01 2.627323e-01 3.741767e-01 5.994469e-01 9.771724e-01 1.108693e+00 1.216444e+00 1.200867e+00 1.857276e+00 1.881032e+00 1.824036e+00 1.574440e+00 1.540929e+00 1.786219e-01
<GCONST> 7.580337e+01
<STATE> 4
<MEAN> 25
 -2.517689e+00 1.366062e-01 9.873369e-01 2.196670e+00 1.036453e+00 2.007043e+00 1.693818e+00 1.277136e+00 1.480503e+00 1.248024e+00 1.873958e+00 1.699428e-01 -1.808605e-02 1.431423e-02 2.317665e-02 6.997723e-03 -1.472114e-02 -3.713536e-02 1.233502e-02 2.182511e-02 -4.753452e-03 1.484178e-02 -3.615688e-02 -4.001140e-03 3.597307e-02
<VARIANCE> 25
 2.431236e+01 9.701731e+00 1.123071e+01 1.191112e+01 2.446829e+01 1.682932e+01 2.074767e+01 1.892179e+01 2.590153e+01 2.662892e+01 2.185099e+01 1.507434e+01 4.162195e-01 4.601969e-01 5.780315e-01 7.896664e-01 1.202532e+00 1.293008e+00 1.421671e+00 1.537787e+00 1.833777e+00 1.786339e+00 1.660106e+00 1.273165e+00 1.432521e-01
<GCONST> 7.941159e+01
<TRANSP> 5
 0.000000e+00 1.000000e+00 0.000000e+00 0.000000e+00 0.000000e+00
 0.000000e+00 7.893564e-01 2.106436e-01 0.000000e+00 0.000000e+00
 0.000000e+00 0.000000e+00 7.511574e-01 2.488426e-01 0.000000e+00
 0.000000e+00 0.000000e+00 0.000000e+00 9.795056e-01 2.049441e-02
 0.000000e+00 0.000000e+00 0.000000e+00 0.000000e+00 0.000000e+00
<ENDHMM>
~h "ih"
<BEGINHMM>
<NUMSTATES> 5
<STATE> 2
<MEAN> 25
 -3.929587e-01 3.727369e+00 8.644248e+00 -6.005367e+00 -3.496191e+00 -1.963035e+00 -4.403384e+00 -4.160990e+00 -9.452515e-01 5.452409e-01 -2.857730e+00 -4.579899e-02 -1.096061e-01 1.045317e-01 5.614709e-01 -8.548753e-01 1.547856e-01 -8.211669e-02 -3.917431e-01 -4.127036e-02 2.036446e-01 -6.513453e-02 -2.207806e-01 2.339782e-01 1.618486e-01
<VARIANCE> 25
 2.596102e+01 4.776402e+01 7.066866e+01 1.286375e+02 7.229803e+01 4.184250e+01 5.897349e+01 5.226695e+01 5.301027e+01 4.625269e+01 3.347216e+01 3.570056e+01 1.384219e+00 1.452959e+00 3.827634e+00 6.784529e+00 3.512612e+00 2.897826e+00 4.365045e+00 3.357025e+00 3.034615e+00 3.378654e+00 2.913992e+00 2.318145e+00 1.760016e+00
<GCONST> 1.068872e+02
<STATE> 3
<MEAN> 25
 -6.713358e-01 3.316375e+00 8.695187e+00 -6.530041e+00 -2.359638e+00 -2.529135e+00 -4.688051e+00 -3.453836e+00 -2.206129e-01 3.642797e-01 -2.432615e+00 7.082081e-01 9.307899e-03 -1.057459e-01 -2.682549e-01 2.508808e-01 2.547025e-01 3.248336e-03 1.571550e-01 3.274426e-01 1.719622e-01 -1.120613e-01 1.377351e-01 5.521080e-03 -2.486879e-01
<VARIANCE> 25
 2.071808e+01 4.751802e+01 6.599849e+01 1.320008e+02 6.842482e+01 3.827535e+01 5.661945e+01 5.340215e+01 4.901147e+01 4.289499e+01 3.044783e+01 3.208306e+01 7.798264e-01 1.312417e+00 2.572012e+00 4.412858e+00 2.771484e+00 2.213672e+00 2.864891e+00 3.010373e+00 2.616582e+00 2.931417e+00 2.171703e+00 2.118256e+00 9.895784e-01
<GCONST> 1.023054e+02
<STATE> 4
<MEAN> 25
 -1.790039e+00 2.289916e+00 3.713529e+00 1.183101e+00 6.901273e-02 6.995938e-01 -3.079530e-01 2.723511e-01 1.570658e+00 1.538515e+00 9.005070e-01 7.455798e-02 2.282118e-03 -7.217994e-02 -1.942900e-01 1.598671e-01 7.696125e-02 6.285957e-02 1.320858e-01 7.975601e-02 4.365719e-02 -4.393386e-03 7.017960e-02 -7.764636e-03 -8.487746e-02
<VARIANCE> 25
 1.904883e+01 1.530438e+01 3.568110e+01 5.396775e+01 4.304355e+01 3.168755e+01 4.594634e+01 4.067656e+01 3.075490e+01 2.695185e+01 2.500762e+01 2.123677e+01 3.401541e-01 5.829651e-01 1.085940e+00 1.677459e+00 1.555262e+00 1.561544e+00 1.734567e+00 1.718366e+00 1.674346e+00 1.781071e+00 1.501124e+00 1.456119e+00 2.843423e-01
<GCONST> 8.850960e+01
<TRANSP> 5
 0.000000e+00 1.000000e+00 0.000000e+00 0.000000e+00 0.000000e+00
 0.000000e+00 7.152843e-01 2.847157e-01 0.000000e+00 0.000000e+00
 0.000000e+00 0.000000e+00 6.723090e-01 3.276910e-01 0.000000e+00
 0.000000e+00 0.000000e+00 0.000000e+00 9.325761e-01 6.742397e-02
 0.000000e+00 0.000000e+00 0.000000e+00 0.000000e+00 0.000000e+00
<ENDHMM>
~h "ng"
<BEGINHMM>
<NUMSTATES> 5
<STATE> 2
<MEAN> 25
 4.060002e+00 -2.301866e+00 6.895056e-01 -3.272326e+00 3.209889e+00 -4.442393e+00 2.828919e+00 -2.600066e+00 -2.113175e+00 -1.118861e+00 -2.255533e+00 -4.248257e+00 -6.668553e-02 1.700019e-01 9.486871e-02 7.337378e-01 2.703190e-01 1.483001e-01 -3.690122e-01 4.695665e-02 1.586698e-01 -1.994191e-01 1.764691e-02 2.254107e-02 -3.928496e-01
<VARIANCE> 25
 1.386127e+01 6.021262e+01 4.388113e+01 5.375124e+01 9.256946e+01 4.419965e+01 5.967891e+01 6.229070e+01 5.759856e+01 3.450512e+01 6.635663e+01 4.194199e+01 6.545314e-01 1.512369e+00 1.497690e+00 2.333779e+00 3.087273e+00 1.875392e+00 2.622822e+00 2.582435e+00 2.370984e+00 2.408662e+00 2.539558e+00 1.725559e+00 1.055688e+00
<GCONST> 1.006876e+02
<STATE> 3
<MEAN> 25
 3.502564e+00 -1.777705e+00 3.919390e-01 -4.019186e-01 4.551534e+00 -3.099021e+00 1.178337e+00 -2.236218e+00 -8.710672e-01 -1.332593e+00 -1.506601e+00 -3.227160e+00 -7.946718e-02 1.847403e-01 4.093101e-02 5.543612e-01 -6.342473e-02 4.110153e-01 -5.080233e-01 3.365071e-01 2.094043e-01 -1.226302e-01 1.202434e-01 1.678113e-01 -5.203759e-01
<VARIANCE> 25
 1.540339e+01 6.609589e+01 3.313375e+01 4.096521e+01 6.626122e+01 3.976049e+01 5.874521e+01 4.495251e+01 5.020124e+01 3.311031e+01 6.398606e+01 4.007400e+01 5.220634e-01 1.396531e+00 1.151702e+00 1.740409e+00 2.370972e+00 1.873486e+00 2.687874e+00 2.229589e+00 1.874197e+00 2.249704e+00 2.398612e+00 1.683834e+00 8.375810e-01
<GCONST> 9.742525e+01
<STATE> 4
<MEAN> 25
 1.651860e-01 -2.335142e-01 -6.383008e-01 2.703661e+00 1.768761e+00 5.430884e-01 6.615782e-01 -1.186833e-01 8.993000e-01 1.169780e+00 1.121765e+00 -5.854107e-01 -1.114399e-01 -3.817997e-02 -2.130755e-02 -2.549745e-03 -9.433456e-02 1.605827e-01 -3.312890e-02 1.699746e-01 8.535744e-02 4.457472e-02 1.347104e-01 1.539235e-01 -1.084137e-01
<VARIANCE> 25
 1.352389e+01 2.548710e+01 2.509809e+01 2.400570e+01 2.924200e+01 1.975135e+01 2.605954e+01 2.521798e+01 2.465256e+01 2.903336e+01 3.094877e+01 2.802506e+01 2.530305e-01 6.717632e-01 7.164509e-01 1.213283e+00 1.148316e+00 1.193921e+00 1.595757e+00 1.464409e+00 1.549228e+00 1.541513e+00 1.662681e+00 1.188396e+00 3.276947e-01
<GCONST> 8.406419e+01
<TRANSP> 5
 0.000000e+00 1.000000e+00 0.000000e+00 0.000000e+00 0.000000e+00
 0.000000e+00 6.354988e-01 3.645013e-01 0.000000e+00 0.000000e+00
 0.000000e+00 0.000000e+00 5.943241e-01 4.056759e-01 0.000000e+00
 0.000000e+00 0.000000e+00 0.000000e+00 9.133242e-01 8.667583e-02
 0.000000e+00 0.000000e+00 0.000000e+00 0.000000e+00 0.000000e+00
<ENDHMM>
~h "oh"
<BEGINHMM>
<NUMSTATES> 5
<STATE> 2
<MEAN> 25
 4.876313e-08 -1.572510e-08 -3.479018e-08 -3.353887e-08 3.894225e-08 5.448882e-08 6.837960e-09 -3.357679e-08 -9.075150e-09 1.238669e-09 6.825321e-10 3.043588e-08 1.480543e-02 -2.130302e-03 7.752344e-03 -2.168820e-03 1.143337e-02 -2.309903e-03 4.269884e-03 -3.775733e-03 -3.292339e-03 -9.014427e-04 -3.430429e-03 -3.983431e-03 3.762102e-02
<VARIANCE> 25
 4.782532e+01 4.486550e+01 4.720150e+01 6.892854e+01 4.782745e+01 4.025578e+01 4.904441e+01 4.112494e+01 4.163441e+01 4.402450e+01 3.629408e+01 2.461185e+01 1.112554e+00 1.522353e+00 1.617351e+00 2.656559e+00 2.172489e+00 2.083682e+00 2.429415e+00 2.410789e+00 2.262104e+00 2.509146e+00 2.111452e+00 1.695109e+00 1.480569e+00
<GCONST> 9.985252e+01
<STATE> 3
<MEAN> 25
 4.876313e-08 -1.572510e-08 -3.479018e-08 -3.353887e-08 3.894225e-08 5.448882e-08 6.837960e-09 -3.357679e-08 -9.075150e-09 1.238669e-09 6.825321e-10 3.043588e-08 1.480543e-02 -2.130302e-03 7.752344e-03 -2.168820e-03 1.143337e-02 -2.309903e-03 4.269884e-03 -3.775733e-03 -3.292339e-03 -9.014427e-04 -3.430429e-03 -3.983431e-03 3.762102e-02
<VARIANCE> 25
 4.782532e+01 4.486550e+01 4.720150e+01 6.892854e+01 4.782745e+01 4.025578e+01 4.904441e+01 4.112494e+01 4.163441e+01 4.402450e+01 3.629408e+01 2.461185e+01 1.112554e+00 1.522353e+00 1.617351e+00 2.656559e+00 2.172489e+00 2.083682e+00 2.429415e+00 2.410789e+00 2.262104e+00 2.509146e+00 2.111452e+00 1.695109e+00 1.480569e+00
<GCONST> 9.985252e+01
<STATE> 4
<MEAN> 25
 4.876313e-08 -1.572510e-08 -3.479018e-08 -3.353887e-08 3.894225e-08 5.448882e-08 6.837960e-09 -3.357679e-08 -9.075150e-09 1.238669e-09 6.825321e-10 3.043588e-08 1.480543e-02 -2.130302e-03 7.752344e-03 -2.168820e-03 1.143337e-02 -2.309903e-03 4.269884e-03 -3.775733e-03 -3.292339e-03 -9.014427e-04 -3.430429e-03 -3.983431e-03 3.762102e-02
<VARIANCE> 25
 4.782532e+01 4.486550e+01 4.720150e+01 6.892854e+01 4.782745e+01 4.025578e+01 4.904441e+01 4.112494e+01 4.163441e+01 4.402450e+01 3.629408e+01 2.461185e+01 1.112554e+00 1.522353e+00 1.617351e+00 2.656559e+00 2.172489e+00 2.083682e+00 2.429415e+00 2.410789e+00 2.262104e+00 2.509146e+00 2.111452e+00 1.695109e+00 1.480569e+00
<GCONST> 9.985252e+01
<TRANSP> 5
 0.000000e+00 1.000000e+00 0.000000e+00 0.000000e+00 0.000000e+00
 0.000000e+00 6.000000e-01 4.000000e-01 0.000000e+00 0.000000e+00
 0.000000e+00 0.000000e+00 6.000000e-01 4.000000e-01 0.000000e+00
 0.000000e+00 0.000000e+00 0.000000e+00 7.000000e-01 3.000000e-01
 0.000000e+00 0.000000e+00 0.000000e+00 0.000000e+00 0.000000e+00
<ENDHMM>
~h "uw"
<BEGINHMM>
<NUMSTATES> 5
<STATE> 2
<MEAN> 25
 4.988154e+00 1.751405e+00 -3.821898e+00 -8.309105e+00 -1.798529e-01 -3.103173e+00 -3.874658e+00 -3.038663e+00 -2.678580e+00 1.800062e+00 4.010326e-01 -5.936786e-01 4.575318e-01 1.964565e-01 -3.214146e-01 -8.585053e-01 -2.455914e-02 9.968659e-02 -4.569844e-02 -4.084415e-01 -3.639647e-01 1.131017e-01 3.297892e-02 1.077450e-01 7.963225e-03
<VARIANCE> 25
 2.781744e+01 2.051044e+01 3.118660e+01 9.205638e+01 4.807092e+01 4.897503e+01 4.162218e+01 3.218344e+01 4.135386e+01 4.287378e+01 3.592780e+01 2.731838e+01 1.839305e+00 1.210243e+00 1.759189e+00 6.655637e+00 3.044859e+00 4.247517e+00 2.968496e+00 3.133576e+00 3.745736e+00 3.088203e+00 2.964333e+00 2.221153e+00 1.785323e+00
<GCONST> 1.025525e+02
<STATE> 3
<MEAN> 25
 5.523388e+00 2.106658e+00 -4.045579e+00 -9.104719e+00 -3.699462e-01 -2.950661e+00 -3.470233e+00 -3.465499e+00 -3.126665e+00 1.964939e+00 5.730187e-01 -3.652576e-01 -2.010034e-03 1.553537e-01 7.495890e-02 3.364343e-01 -6.893805e-02 1.111540e-01 7.963646e-02 1.322688e-02 1.484410e-01 3.130000e-02 6.016774e-02 -5.887947e-02 -3.379159e-01
<VARIANCE> 25
 2.098596e+01 1.770289e+01 2.699527e+01 7.840095e+01 4.418864e+01 4.330811e+01 4.105320e+01 3.068672e+01 4.039499e+01 3.957878e+01 3.710023e+01 2.827361e+01 1.327042e+00 1.119618e+00 1.476136e+00 6.483779e+00 2.679734e+00 3.433704e+00 2.480129e+00 2.743970e+00 3.721976e+00 2.761576e+00 2.782828e+00 2.272633e+00 1.554650e+00
<GCONST> 9.995752e+01
<STATE> 4
<MEAN> 25
 -2.627575e-02 1.526249e+00 -2.603801e-01 -3.258193e-02 9.699906e-01 5.161161e-01 1.398347e-01 -5.619025e-02 9.075677e-01 1.820351e+00 1.772123e+00 -2.840188e-01 -1.251741e-01 -1.147795e-03 1.427882e-01 3.267915e-01 2.923877e-02 6.828380e-02 5.596401e-02 6.474314e-02 1.370082e-01 -2.170685e-02 2.035714e-02 -2.190012e-02 -9.596336e-02
<VARIANCE> 25
 2.828632e+01 9.118258e+00 1.499572e+01 4.587995e+01 2.265326e+01 3.387602e+01 3.183018e+01 2.592199e+01 2.723231e+01 2.354229e+01 2.201555e+01 1.621651e+01 3.831287e-01 4.813632e-01 7.797548e-01 1.865912e+00 1.312704e+00 1.560112e+00 1.545305e+00 1.734197e+00 1.881882e+00 1.813570e+00 1.568528e+00 1.371634e+00 3.221074e-01
<GCONST> 8.498077e+01
<TRANSP> 5
 0.000000e+00 1.000000e+00 0.000000e+00 0.000000e+00 0.000000e+00
 0.000000e+00 7.233871e-01 2.766129e-01 0.000000e+00 0.000000e+00
 0.000000e+00 0.000000e+00 7.238800e-01 2.761199e-01 0.000000e+00
 0.000000e+00 0.000000e+00 0.000000e+00 9.379321e-01 6.206796e-02
 0.000000e+00 0.000000e+00 0.000000e+00 0.000000e+00 0.000000e+00
<ENDHMM>
~h "sil"
<BEGINHMM>
<NUMSTATES> 5
<STATE> 2
<MEAN> 25
 -8.130713e+00 3.710445e+00 -1.994579e+00 6.561077e+00 -1.712072e+00 5.459009e+00 -1.237574e-01 4.792701e+00 4.338766e+00 3.417166e+00 3.290875e+00 1.862587e+00 -4.257204e-02 1.723425e-02 -1.171118e-02 -9.824634e-04 1.582602e-02 4.854343e-02 -5.727638e-03 2.735928e-04 5.344971e-02 7.118452e-02 4.438543e-02 -4.465043e-02 -2.471435e-02
<VARIANCE> 25
 6.533560e+01 1.459897e+01 2.454899e+01 2.672598e+01 2.735959e+01 1.879849e+01 2.630417e+01 3.523168e+01 3.857790e+01 1.789672e+01 2.157014e+01 1.497616e+01 1.181784e-01 2.002676e-01 3.321305e-01 4.735685e-01 6.224076e-01 7.824091e-01 9.607674e-01 1.025084e+00 1.052993e+00 1.202389e+00 1.089027e+00 1.119181e+00 1.844349e-01
<GCONST> 7.709854e+01
<STATE> 3
<MEAN> 25
 -8.062884e+00 4.710764e+00 -6.561085e+00 5.532746e+00 -5.199219e+00 6.539270e+00 -1.749460e+00 3.071076e+00 5.087478e-01 5.398854e+00 1.341717e+00 2.769915e+00 -1.993418e-02 -8.182873e-02 -2.741626e-02 -2.203745e-02 1.169741e-01 -8.027019e-02 1.318611e-02 -2.616649e-02 -2.016336e-02 -3.102204e-02 -6.024459e-02 3.992104e-02 5.719910e-01
<VARIANCE> 25
 4.253175e+01 1.063469e+01 2.852991e+01 1.807323e+01 3.109370e+01 1.450308e+01 2.183752e+01 2.122920e+01 5.086488e+01 1.662259e+01 2.056652e+01 1.175459e+01 8.086818e-01 4.892260e-01 5.354082e-01 5.248381e-01 6.730965e-01 8.505985e-01 9.556333e-01 1.086336e+00 1.039306e+00 1.056368e+00 9.647927e-01 7.682788e-01 3.832985e+00
<GCONST> 8.120557e+01
<STATE> 4
<MEAN> 25
 -2.822677e+00 8.862543e-01 -6.230831e-01 3.221102e+00 6.373835e-01 2.677260e+00 1.609583e+00 1.945619e+00 2.090542e+00 1.895419e+00 2.279292e+00 8.015874e-01 1.657431e-01 -3.898455e-02 4.967005e-02 -2.294293e-02 4.494133e-02 -5.071969e-02 5.214094e-02 -2.323598e-02 -7.244873e-02 -9.865316e-03 -6.876972e-03 4.758690e-03 3.310540e-01
<VARIANCE> 25
 2.542533e+01 1.220807e+01 1.421225e+01 1.754413e+01 1.955844e+01 1.802141e+01 2.476570e+01 2.220588e+01 2.247184e+01 2.755832e+01 1.924772e+01 1.634917e+01 1.255240e+00 5.348126e-01 8.305545e-01 9.168748e-01 1.142208e+00 1.305847e+00 1.378679e+00 1.601405e+00 1.726163e+00 1.591786e+00 1.459881e+00 1.338775e+00 2.630678e+00
<GCONST> 8.472749e+01
<TRANSP> 5
 0.000000e+00 1.000000e+00 0.000000e+00 0.000000e+00 0.000000e+00
 0.000000e+00 9.499499e-01 5.005019e-02 0.000000e+00 0.000000e+00
 0.000000e+00 0.000000e+00 8.537697e-01 1.462303e-01 0.000000e+00
 0.000000e+00 0.000000e+00 0.000000e+00 9.485592e-01 5.144078e-02
 0.000000e+00 0.000000e+00 0.000000e+00 0.000000e+00 0.000000e+00
<ENDHMM>
